tree
version=v4
num_class=1
num_tree_per_iteration=1
label_index=0
max_feature_idx=24
objective=regression
feature_names=tenor ust_10y ust_2y vix move dxy ndf_1m ndf_12m idr_regn ust_3m xau_gold inflation slope_10y_2y slope_2y_3m cds_5y indo_10y tenor_x_ust10y vix_x_move prev_owners_estimate_code prev_way_awarded_code days_since_prev_auction_code auctions_since_prev_code prev_bid_to_cover_ratio_code prev_total_penawaran_code prev_total_penawaran_diterima_code
feature_infos=[-1.4016347788896564:1.1837759607609795] [-1.7383514707470882:1.3304830476883487] [-1.4681818824873312:1.2503799067686985] [-1.0322661229582233:7.0920540771030209] [-1.7655378228094092:2.6515438715356039] [-1.9150314312317844:2.5834805624664394] [-1.9815112719186592:3.8256395387248432] [-1.2453229613423438:3.0873254868149598] [-1.8954137709607177:1.9342614016381814] [-1.3234612530593461:1.1986298309586063] [-0.99710473382237819:3.1425615943265042] [-2.1482010188977099:2.5779480452042978] [-2.036515445348686:2.1821039783559928] [-1.9666673538661883:2.9707608473009386] [-1.0177234889315372:4.2464252050638418] [-1.7918783275562715:3.6025308498145212] [-1.1076432446837325:2.02716735807694] [-1.1406626424704485:6.9752346650947636] [-3.1457051670479261:1.6328766859194062] [-1.9104562116376562:1.7099954155198434] [-0.40694652161140932:8.8524729026830702] [-1.6484270397323209:1.7256299000572661] [-0.14448207328282622:16.312507324432985] [-0.97245851899418434:4.5822340885756825] [-1.1712389634605886:5.390279050605467]
tree_sizes=859 983 908 987 985 903 896 902 821 732 990 905 906 913 990 908 823 990 824 908 999 998 995 915 1000 997 1002 999 918 915 997 997 997 825 910 826 828 746 913 915 1091 1013 1009 1009 1013 1013 1013 924 925 928 924 930 925 1010 932 928 925 1019 937 1018 933 937 935 934 935 853 941 939 938 941 933 934 851 934 932 935 936 1027 935 1115 941 932 1024 936 941 1026 1025 1030 939 944 856 1022 943 933 951 860 953 1032 947 937 1038 1126 1128 1038 945 937 1119 943 1030 1026 1036 953 947 935 1038 1038 938 1039 946 1026 941 942 942 1033 1043 1034 1035 952 952 945 854 944 859 945 1029 1038 1112 948 953 1032 1118 947 1040 954 1038 948 1033 1038 1039 1026 952 951 1035 949 945 943 948 1043 946 953 945 947 946 946 948 948 1036 954 865 953 1043 1042 949 954 951 946 865 944 949 947 1044 953 954 958 953 951 943 947 947 951 864 1044 944 1034 1044 947 948 949 1034 943

Tree=0
num_leaves=9
num_cat=0
split_feature=18 18 18 18 19 18 22 18
split_gain=334.488 69.0716 16.4832 6.73902 4.62478 2.65606 1.28521 0.661685
threshold=-0.063310896001213909 0.87708057652151161 -0.7320337209062634 0.29194810472959348 -0.49307250207073033 1.3507592441625886 -0.10180575245086851 1.1557150868986159
decision_type=2 2 2 2 2 2 2 2
left_child=2 3 4 -2 -1 7 -6 -3
right_child=1 5 -4 -5 6 -7 -8 -9
leaf_value=4.4197776590157156 4.5201252483940264 4.5922818255790672 4.4854443264497919 4.5531606723906277 4.4522947038037728 4.6197151585786145 4.4362318259843789 4.6048477354199111
leaf_weight=24 38 20 24 26 33 24 20 22
leaf_count=24 38 20 24 26 33 24 20 22
internal_value=4.51752 4.57056 4.44926 4.53355 4.43799 4.60645 4.44623 4.59886
internal_weight=231 130 101 64 77 66 53 42
internal_count=231 130 101 64 77 66 53 42
is_linear=0
shrinkage=1


Tree=1
num_leaves=10
num_cat=0
split_feature=18 18 18 18 18 17 18 18 16
split_gain=302.087 70.167 8.96662 7.23103 2.3971 2.15348 1.44763 0.59717 0.49607
threshold=-0.20262815118976599 0.87708057652151161 -0.91314615265138077 0.29194810472959348 1.3507592441625886 -0.23765417192655161 -0.80865821125996706 1.1557150868986159 -0.5164838802133046
decision_type=2 2 2 2 2 2 2 2 2
left_child=2 3 5 8 7 -1 -4 -3 -2
right_child=1 4 6 -5 -6 -7 -8 -9 -10
leaf_value=-0.07120396309885485 -0.0017597286187874092 0.073660908937454236 -0.058054788546128715 0.036495813039632945 0.099722572167714449 -0.091691004193347442 -0.039468279294669631 0.08559852052818645 0.0087422867051579738
leaf_weight=29 23 20 22 26 24 23 20 22 22
leaf_count=29 23 20 22 26 24 23 20 22 22
internal_value=0.00264111 0.0500035 -0.066387 0.0155035 0.0871171 -0.0802655 -0.0492041 0.0799139 0.00337459
internal_weight=231 137 94 71 66 52 42 42 45
internal_count=231 137 94 71 66 52 42 42 45
is_linear=0
shrinkage=0.05


Tree=2
num_leaves=9
num_cat=0
split_feature=18 18 18 18 17 18 19 8
split_gain=272.741 47.9611 22.3192 7.26775 1.94352 1.67803 1.04943 0.310763
threshold=0.18049430057875177 -0.35239420051745951 0.98156851791292576 -0.91314615265138077 -0.23765417192655161 1.3507592441625886 -0.24080650685912822 0.082614035413403356
decision_type=2 2 2 2 2 2 2 2
left_child=1 3 -2 4 -1 -4 -5 -3
right_child=2 7 5 6 -6 -7 -8 -9
leaf_value=-0.067643765745491816 0.034444033322589739 -0.0039540916687110439 0.077848813094590852 -0.056002362370491034 -0.087106453481575724 0.094736445198456448 -0.039804875627160077 0.0046574919844384896
leaf_weight=29 35 20 38 20 23 24 20 22
leaf_count=29 35 20 38 20 23 24 20 22
internal_value=0.00250905 -0.0437155 0.0663657 -0.0639268 -0.0762523 0.084386 -0.0479036 0.000556738
internal_weight=231 134 97 92 52 62 40 42
internal_count=231 134 97 92 52 62 40 42
is_linear=0
shrinkage=0.05


Tree=3
num_leaves=10
num_cat=0
split_feature=18 18 18 18 19 18 22 18 16
split_gain=246.38 50.8529 12.1248 5.0419 3.66317 1.92846 1.19303 0.498482 0.41205
threshold=-0.063310896001213909 0.87708057652151161 -0.67282388745112875 0.43126535991814557 -0.49307250207073033 1.3507592441625886 -0.10180575245086851 1.1557150868986159 -0.49930996838435476
decision_type=2 2 2 2 2 2 2 2 2
left_child=2 3 4 8 -1 7 -6 -3 -2
right_child=1 5 -4 -5 6 -7 -8 -9 -10
leaf_value=-0.081860775128006935 0.0017702497794981236 0.066519469022750854 -0.024297348960586218 0.03622354620269367 -0.052683734050130139 0.089999624093373629 -0.068073695451021196 0.077426157214424834 0.011583215724676847
leaf_weight=24 23 20 23 21 34 24 20 22 20
leaf_count=24 23 20 23 21 34 24 20 22 20
internal_value=0.0023836 0.0478987 -0.0562002 0.0161418 -0.0656074 0.0786933 -0.0583837 0.0722325 0.00633442
internal_weight=231 130 101 64 78 66 54 42 43
internal_count=231 130 101 64 78 66 54 42 43
is_linear=0
shrinkage=0.05


Tree=4
num_leaves=10
num_cat=0
split_feature=18 18 18 18 18 22 9 18 16
split_gain=222.72 51.6863 6.64584 4.70535 2.00723 1.71654 1.02186 0.640189 0.360197
threshold=-0.20262815118976599 0.77259263513009768 -0.91314615265138077 0.29194810472959348 1.3507592441625886 -0.085610915245582578 -1.2846209584357779 1.1557150868986159 -0.5164838802133046
decision_type=2 2 2 2 2 2 2 2 2
left_child=2 3 5 8 7 -1 -4 -3 -2
right_child=1 4 6 -5 -6 -7 -8 -9 -10
leaf_value=-0.058753852092701453 -0.001466414925095666 0.061492616615512155 -0.05039297297596932 0.030323022153849407 0.08549964030583701 -0.077044793141299292 -0.034777162630449644 0.073554847457192166 0.0074825126021592463
leaf_weight=23 23 22 20 24 24 29 22 22 22
leaf_count=23 23 22 20 24 24 29 22 22 22
internal_value=0.00226442 0.0429319 -0.0570063 0.0124441 0.0738682 -0.0689546 -0.0422133 0.0675237 0.00290862
internal_weight=231 137 94 69 68 52 42 44 45
internal_count=231 137 94 69 68 52 42 44 45
is_linear=0
shrinkage=0.05


Tree=5
num_leaves=9
num_cat=0
split_feature=18 18 18 18 18 18 9 22
split_gain=206.284 32.9933 8.31782 4.49477 1.62057 1.59573 1.41342 1.00172
threshold=-0.13296952359549025 0.77259263513009768 -0.91314615265138077 0.29194810472959348 1.305481136226309 -1.20571238854734 -1.2768069346653561 -0.10627909509217157
decision_type=2 2 2 2 2 2 2 2
left_child=2 3 5 -2 -3 -1 -4 -7
right_child=1 4 6 -5 -6 7 -8 -9
leaf_value=-0.077981991171836851 0.0041856495892930333 0.059279549580353953 -0.046291019661085953 0.032113676622509961 0.075862156292971439 -0.052772115599364046 -0.027718427050858738 -0.068597084581851972
leaf_weight=20 34 26 21 25 34 20 20 20
leaf_count=20 34 26 21 25 34 20 20 20
internal_value=-0.00203531 0.0425692 -0.0545891 0.0160196 0.0686764 -0.0664504 -0.0372312 -0.0606846
internal_weight=220 119 101 59 60 60 41 40
internal_count=220 119 101 59 60 60 41 40
is_linear=0
shrinkage=0.05


Tree=6
num_leaves=9
num_cat=0
split_feature=9 19 24 19 19 2 19 2
split_gain=185.701 18.7237 10.1378 4.6317 3.56831 1.54956 1.28356 0.79433
threshold=0.18993129188855043 1.0127333069001232 -1.1431181719717338 -0.37861222353638257 0.58189474889798276 -1.435519946693306 -0.52410039287289611 0.79828427881973318
decision_type=2 2 2 2 2 2 2 2
left_child=3 2 -2 6 -4 -5 -1 -3
right_child=1 7 4 5 -6 -7 -8 -9
leaf_value=-0.073145858807997274 0.052396702626720075 0.059317861497402195 0.0040623780577637566 -0.050206700884378876 0.029621880196712237 -0.031694753207266328 -0.057129926414325322 0.073241016978309273
leaf_weight=22 24 20 36 26 22 20 29 21
leaf_count=22 24 20 36 26 22 20 29 21
internal_value=-0.00193354 0.0388607 0.0250664 -0.0536623 0.0137574 -0.042158 -0.0640388 0.0664492
internal_weight=220 123 82 97 58 46 51 41
internal_count=220 123 82 97 58 46 51 41
is_linear=0
shrinkage=0.05


Tree=7
num_leaves=9
num_cat=0
split_feature=18 18 18 18 18 18 9 22
split_gain=168.568 27.2299 6.87425 3.68711 1.38941 1.27275 1.12379 0.874094
threshold=-0.13296952359549025 0.77259263513009768 -0.91314615265138077 0.29194810472959348 1.2149249203537502 -1.20571238854734 -1.2768069346653561 -0.10627909509217157
decision_type=2 2 2 2 2 2 2 2
left_child=2 3 5 -2 -3 -1 -4 -7
right_child=1 4 6 -5 -6 7 -8 -9
leaf_value=-0.070425599515438073 0.0036466806092956927 0.051832936065537599 -0.041642437662397114 0.028941368445754054 0.067785091430712971 -0.047586360611021519 -0.025081697199493647 -0.062368896901607518
leaf_weight=20 34 21 21 25 39 20 20 20
leaf_count=20 34 21 21 25 39 20 20 20
internal_value=-0.00183687 0.0384843 -0.049344 0.0143648 0.0622018 -0.060127 -0.033564 -0.0549776
internal_weight=220 119 101 59 60 60 41 40
internal_count=220 119 101 59 60 60 41 40
is_linear=0
shrinkage=0.05


Tree=8
num_leaves=8
num_cat=0
split_feature=18 18 18 18 16 9 9
split_gain=152.132 24.6541 6.20401 4.25655 1.45998 1.01422 0.768731
threshold=-0.13296952359549025 0.93629040997664614 -0.91314615265138077 0.35464086956444174 -0.64625710503212253 -1.2768069346653561 0.80218303672396385
decision_type=2 2 2 2 2 2 2
left_child=2 3 4 -2 -1 -4 -3
right_child=1 6 5 -5 -6 -7 -8
leaf_value=-0.063488875412278697 0.0044474017195957338 0.054137486996858025 -0.039560316006342577 0.03055734676136463 -0.047568198355535669 -0.023827612381428484 0.066121427714824682
leaf_weight=36 37 23 21 27 24 20 32
leaf_count=36 37 23 21 27 24 20 32
internal_value=-0.00174502 0.0365601 -0.0468768 0.0154625 -0.0571206 -0.0318858 0.06111
internal_weight=220 119 101 64 60 41 55
internal_count=220 119 101 64 60 41 55
is_linear=0
shrinkage=0.05


Tree=9
num_leaves=7
num_cat=0
split_feature=9 18 18 18 11 18
split_gain=137.58 24.246 5.09684 2.8447 1.68285 1.54341
threshold=0.18993129188855043 0.68900228201696645 -0.91314615265138077 0.29194810472959348 -0.54803962219429814 1.2149249203537502
decision_type=2 2 2 2 2 2
left_child=2 3 4 -2 -1 -3
right_child=1 5 -4 -5 -6 -7
leaf_value=-0.047355402477325934 0.002424034143194532 0.045143281978865468 -0.03190128420430579 0.025016340623948388 -0.064265972375869757 0.061258771174993266
leaf_weight=31 38 24 38 22 28 39
leaf_count=31 38 24 38 22 28 39
internal_value=-0.00165777 0.0334553 -0.0461826 0.0107079 -0.0553808 0.0551195
internal_weight=220 123 97 60 59 63
internal_count=220 123 97 60 59 63
is_linear=0
shrinkage=0.05


Tree=10
num_leaves=10
num_cat=0
split_feature=9 15 21 19 9 19 10 16 0
split_gain=130.946 14.3075 9.14989 5.55668 2.35781 1.48367 1.18611 0.87146 0.387877
threshold=0.33288196204156356 -0.51850981279853581 0.43065734218027685 -0.35821001391471152 -1.2650858990097231 -0.55622040932209049 0.59125202889399231 -0.47000092122236165 0.41587038318870551
decision_type=2 2 2 2 2 2 2 2 2
left_child=3 7 -3 5 -5 -1 8 -2 -4
right_child=1 2 6 4 -6 -7 -8 -9 -10
leaf_value=-0.063765087872743612 0.0014328260725596921 0.017070932252417233 0.054726986467838294 -0.038564197628787072 -0.017132588422724179 -0.046506511803829309 0.044244784265756613 0.016193079873919488 0.064068950563669208
leaf_weight=20 20 22 25 33 21 33 20 20 20
leaf_count=20 20 22 25 33 21 33 20 20 20
internal_value=-0.000768767 0.0335632 0.0449426 -0.0415179 -0.0302297 -0.0530192 0.0543761 0.00881295 0.058879
internal_weight=234 127 87 107 54 53 65 40 45
internal_count=234 127 87 107 54 53 65 40 45
is_linear=0
shrinkage=0.05


Tree=11
num_leaves=9
num_cat=0
split_feature=18 18 18 18 17 18 18 18
split_gain=119.62 23.5834 3.81251 2.1568 1.52512 1.37497 0.504495 0.40098
threshold=-0.20262815118976599 0.66810469373868375 -0.91314615265138077 1.1208857731014776 -0.23765417192655161 0.18049430057875177 1.3507592441625886 -0.80865821125996706
decision_type=2 2 2 2 2 2 2 2
left_child=2 5 4 -3 -1 -2 -5 -4
right_child=1 3 7 6 -6 -7 -8 -9
leaf_value=-0.041491072811186316 0.0005222469713771716 0.038281505687960557 -0.035363641455769541 0.051289852995138913 -0.057589671039773575 0.01606052277299265 0.061852566301822669 -0.025581594336439265
leaf_weight=28 35 28 20 26 31 24 20 22
leaf_count=28 35 28 20 26 31 24 20 22
internal_value=-0.000730329 0.0304226 -0.0417534 0.0492226 -0.0499497 0.0068429 0.0558823 -0.0302397
internal_weight=234 133 101 74 59 59 46 42
internal_count=234 133 101 74 59 59 46 42
is_linear=0
shrinkage=0.05


Tree=12
num_leaves=9
num_cat=0
split_feature=18 18 18 18 9 18 18 18
split_gain=107.957 21.284 3.44079 1.94651 1.5581 1.24091 0.455306 0.361885
threshold=-0.20262815118976599 0.66810469373868375 -0.91314615265138077 1.1208857731014776 -1.272899922780145 0.18049430057875177 1.3507592441625886 -0.80865821125996706
decision_type=2 2 2 2 2 2 2 2
left_child=2 5 4 -3 -1 -2 -5 -4
right_child=1 3 7 6 -6 -7 -8 -9
leaf_value=-0.038902610021510298 0.00049613458969231165 0.036367430657680548 -0.033595460653305056 0.048725359256450947 -0.055174364053433948 0.015257496914515892 0.058759937584400179 -0.024302514600144192
leaf_weight=28 35 28 20 26 31 24 20 22
leaf_count=28 35 28 20 26 31 24 20 22
internal_value=-0.000693812 0.0289014 -0.0396658 0.0467614 -0.0474522 0.00650076 0.0530882 -0.0287277
internal_weight=234 133 101 74 59 59 46 42
internal_count=234 133 101 74 59 59 46 42
is_linear=0
shrinkage=0.05


Tree=13
num_leaves=9
num_cat=0
split_feature=18 18 18 18 18 22 2 16
split_gain=97.4455 15.4438 6.8453 2.14029 1.63481 0.918433 0.673508 0.304906
threshold=-0.0075839939257934088 0.93629040997664614 -0.62057991675542179 0.48350933061385232 -1.2266099768256227 -0.08349164441921976 0.79828427881973318 -0.71401688513002182
decision_type=2 2 2 2 2 2 2 2
left_child=2 3 4 -2 -1 7 -3 -6
right_child=1 6 -4 -5 5 -7 -8 -9
leaf_value=-0.052394118192403222 0.0053728809564889072 0.043384471628814938 -0.011275271091610195 0.024445235651607316 -0.037373280227184301 -0.045736154466867449 0.054002965986728671 -0.029014190907279653
leaf_weight=23 38 32 25 24 20 20 28 24
leaf_count=23 38 32 25 24 20 20 28 24
internal_value=-0.000659122 0.0302561 -0.0343346 0.0127557 -0.0409609 -0.036852 0.0483398 -0.0328138
internal_weight=234 122 112 62 87 64 60 44
internal_count=234 122 112 62 87 64 60 44
is_linear=0
shrinkage=0.05


Tree=14
num_leaves=10
num_cat=0
split_feature=18 18 0 18 5 18 18 18 8
split_gain=88.1407 17.3416 2.9166 1.67865 1.484 1.01301 0.952956 0.380853 0.28253
threshold=-0.20262815118976599 0.68900228201696645 -0.92699967374896697 0.35464086956444174 -0.64247120382117051 1.1208857731014776 -0.86438511333538781 1.3507592441625886 0.29421431364510159
decision_type=2 2 2 2 2 2 2 2 2
left_child=2 3 4 8 -1 -3 -4 -7 -2
right_child=1 5 6 -5 -6 7 -8 -9 -10
leaf_value=-0.037254371365102443 -0.0022913384740240873 0.034942679649049589 -0.034772022896342812 0.019279534600320319 -0.055370425605215136 0.043997347698761874 -0.021606840432754584 0.053174884170293812 0.0057551846484329879
leaf_weight=26 20 22 27 21 20 26 28 20 24
leaf_count=26 20 22 27 21 20 26 28 20 24
internal_value=-0.000626166 0.0261153 -0.0358402 0.00764874 -0.0451309 0.0437672 -0.0280697 0.0479876 0.00209767
internal_weight=234 133 101 65 46 68 55 46 44
internal_count=234 133 101 65 46 68 55 46 44
is_linear=0
shrinkage=0.05


Tree=15
num_leaves=9
num_cat=0
split_feature=9 15 11 19 16 11 19 8
split_gain=89.7372 11.4565 6.13497 2.09462 1.03059 0.761888 0.74323 0.427172
threshold=0.18993129188855043 -0.51850981279853581 0.48873976686781434 -0.45908134374463122 -0.96138102649938517 -0.16853924204703444 -0.28128529230863158 1.4965676754328883
decision_type=2 2 2 2 2 2 2 2
left_child=3 7 5 -1 -5 -3 -6 -2
right_child=1 2 -4 4 6 -7 -8 -9
leaf_value=-0.044823347760195087 0.011057875629714026 0.039079740604287705 0.014282402201839114 -0.039197000524727632 -0.031723834516910403 0.049382427597747136 -0.019649591781198978 0.001194526519342933
leaf_weight=33 21 38 23 20 26 34 25 23
leaf_count=33 21 38 23 20 26 34 25 23
internal_value=0.000712129 0.0269944 0.0367635 -0.0344151 -0.0295775 0.0439449 -0.0258051 0.00590203
internal_weight=243 139 95 104 71 72 51 44
internal_count=243 139 95 104 71 72 51 44
is_linear=0
shrinkage=0.05


Tree=16
num_leaves=8
num_cat=0
split_feature=9 18 18 16 9 2 18
split_gain=80.9878 15.6742 2.47738 1.79036 1.31462 0.609653 0.399146
threshold=0.18993129188855043 0.87708057652151161 -0.91314615265138077 -0.40569592365148061 -1.272899922780145 0.79828427881973318 -0.7320337209062634
decision_type=2 2 2 2 2 2 2
left_child=2 3 4 -2 -1 -3 -4
right_child=1 5 6 -5 -6 -7 -8
leaf_value=-0.032272210770419668 0.0010220458711652706 0.037513001657584137 -0.027927647978067401 0.017145448641597547 -0.046667739665456891 0.046849194665749869 -0.017938332241028549
leaf_weight=35 36 34 20 33 29 36 20
leaf_count=35 36 34 20 33 29 36 20
internal_value=0.000676523 0.0256447 -0.0326943 0.00873324 -0.0387952 0.0423145 -0.022933
internal_weight=243 139 104 69 64 70 40
internal_count=243 139 104 69 64 70 40
is_linear=0
shrinkage=0.05


Tree=17
num_leaves=10
num_cat=0
split_feature=9 15 21 0 17 15 19 13 8
split_gain=73.0915 9.51218 4.98466 1.82903 2.17417 0.77271 0.581309 0.503317 0.363047
threshold=0.18993129188855043 -0.51850981279853581 0.38313541345084606 0.41587038318870551 -0.23765417192655161 0.31236902318421811 -0.28128529230863158 -0.83097961513866136 1.4965676754328883
decision_type=2 2 2 2 2 2 2 2 2
left_child=3 8 -3 4 -1 7 -5 -4 -2
right_child=1 2 5 6 -6 -7 -8 -9 -10
leaf_value=-0.028966540914391065 0.0098962225502223847 0.011764309235981533 0.040942881029585133 -0.028808082445808084 -0.048394867870956662 0.04630744915742141 -0.017302032985857554 0.030693976700305936 0.00080329095894146867
leaf_weight=36 21 21 23 23 24 26 21 25 23
leaf_count=36 21 21 23 23 24 26 21 25 23
internal_value=0.000642697 0.0243624 0.033264 -0.0310596 -0.0367379 0.0393653 -0.0233166 0.0356049 0.0051431
internal_weight=243 139 95 104 60 74 44 48 44
internal_count=243 139 95 104 60 74 44 48 44
is_linear=0
shrinkage=0.05


Tree=18
num_leaves=8
num_cat=0
split_feature=18 18 18 9 1 2 15
split_gain=66.2022 10.1135 5.04676 1.31501 0.874648 0.560483 0.139064
threshold=0.14566498678161391 -0.67282388745112875 0.93629040997664614 -1.272899922780145 0.40834020663462517 0.79828427881973318 -0.62478613385039738
decision_type=2 2 2 2 2 2 2
left_child=1 3 -2 6 -3 -4 -1
right_child=2 4 5 -5 -6 -7 -8
leaf_value=-0.030304406642913818 0.015353713328174005 -0.012301255061867692 0.033875337462214862 -0.0401923622497741 0.0010033362477164095 0.042889017249856679 -0.025173837531890189
leaf_weight=25 36 21 34 34 30 35 28
leaf_count=25 36 21 34 34 30 35 28
internal_value=0.000610562 -0.0221539 0.0305296 -0.0325174 -0.00447502 0.0384475 -0.0275939
internal_weight=243 138 105 87 51 69 53
internal_count=243 138 105 87 51 69 53
is_linear=0
shrinkage=0.05


Tree=19
num_leaves=9
num_cat=0
split_feature=18 18 18 9 8 9 15 19
split_gain=59.7475 9.12743 4.5547 1.1868 0.791555 0.457703 0.210448 0.126311
threshold=0.14566498678161391 -0.67282388745112875 0.93629040997664614 -1.272899922780145 -0.16203066982982026 0.80218303672396385 -0.17589499845205389 -0.37861222353638257
decision_type=2 2 2 2 2 2 2 2
left_child=1 3 -2 7 -3 -4 -7 -1
right_child=2 4 5 -5 -6 6 -8 -9
leaf_value=-0.028609507530927659 0.014586027740410325 -0.011696476737658184 0.031597353571227622 -0.038182743792148199 0.00096036858781493113 0.03639455068679083 0.043561087027192115 -0.023726809425995903
leaf_weight=27 36 21 28 34 30 21 20 26
leaf_count=27 36 21 28 34 30 21 20 26
internal_value=0.000580034 -0.0210462 0.0290031 -0.0308916 -0.00425127 0.0365251 0.0398904 -0.0262142
internal_weight=243 138 105 87 51 69 41 53
internal_count=243 138 105 87 51 69 41 53
is_linear=0
shrinkage=0.05


Tree=20
num_leaves=10
num_cat=0
split_feature=18 18 18 19 9 15 15 9 19
split_gain=50.8865 7.72013 2.9521 1.66403 0.877083 0.561604 0.412974 0.254305 0.0532372
threshold=0.0098306629727755238 0.93629040997664614 -0.53698956364229067 -0.49307250207073033 0.6043043759494553 0.31236902318421811 0.6411144116148545 0.89434255236923421 -0.35821001391471152
decision_type=2 2 2 2 2 2 2 2 2
left_child=2 4 3 -1 -2 7 8 -3 -5
right_child=1 5 -4 6 -6 -7 -8 -9 -10
leaf_value=-0.035590111780347246 0.0019814518497486672 0.026667499187446778 -0.0065291778305950378 -0.026383542092073532 0.014968748720219503 0.040027135550975805 -0.016077238072951635 0.034359881823713127 -0.022998762474610256
leaf_weight=33 26 21 23 21 26 25 21 22 26
leaf_count=33 26 21 23 21 26 25 21 22 26
internal_value=-0.000233486 0.0229777 -0.0226959 -0.0263774 0.0084751 0.0340678 -0.0219065 0.0306031 -0.0245111
internal_weight=244 120 124 101 52 68 68 43 47
internal_count=244 120 124 101 52 68 68 43 47
is_linear=0
shrinkage=0.05


Tree=21
num_leaves=10
num_cat=0
split_feature=18 18 1 19 2 15 19 9 19
split_gain=45.925 6.96742 2.73533 1.64455 0.791568 0.506847 0.347284 0.22951 0.0851257
threshold=0.0098306629727755238 0.93629040997664614 0.19264051317812783 -0.49307250207073033 0.52201873856193681 0.31236902318421811 -0.24080650685912822 0.89434255236923421 -0.3935663292995964
decision_type=2 2 2 2 2 2 2 2 2
left_child=2 4 3 -1 -2 7 8 -3 -5
right_child=1 5 -4 6 -6 -7 -8 -9 -10
leaf_value=-0.034692569772402447 0.0018823792517650873 0.025334124267101289 -0.0046268487034831201 -0.025444017208757854 0.014220311220448751 0.038025778472423555 -0.015372755502661071 0.032641887935725131 -0.021347132395021617
leaf_weight=30 26 21 20 21 26 25 21 22 32
leaf_count=30 26 21 20 21 26 25 21 22 32
internal_value=-0.000221811 0.0218288 -0.0215611 -0.0248177 0.00805135 0.0323645 -0.0208143 0.029073 -0.0229704
internal_weight=244 120 124 104 52 68 74 43 53
internal_count=244 120 124 104 52 68 74 43 53
is_linear=0
shrinkage=0.05


Tree=22
num_leaves=10
num_cat=0
split_feature=9 19 11 5 19 16 19 19 16
split_gain=40.987 5.19049 3.72097 1.16661 0.956263 0.416354 0.359223 0.206477 0.057476
threshold=0.50180277001980267 -0.1623037137905986 0.31268288947990841 0.16529161593848438 -0.55622040932209049 1.2507733359901818 0.29817503407688689 -0.4076086604400615 -0.69643730549252558
decision_type=2 2 2 2 2 2 2 2 2
left_child=1 4 3 -2 -1 -5 -3 -6 -9
right_child=2 6 -4 5 7 -7 -8 8 -10
leaf_value=-0.03479981287604287 0.018387775013053959 -0.008837498511586871 0.0077270014872474055 0.027593754770766411 -0.025995783294950215 0.036141683007108759 0.00041070718448498242 -0.022438866794109346 -0.018773911358869595
leaf_weight=21 22 21 31 28 28 29 21 20 23
leaf_count=21 22 21 31 28 28 29 21 20 23
internal_value=-0.000210721 -0.0187777 0.0224073 0.0281679 -0.0254267 0.0319427 -0.0042134 -0.0226544 -0.0204785
internal_weight=244 134 110 79 92 57 42 71 43
internal_count=244 134 110 79 92 57 42 71 43
is_linear=0
shrinkage=0.05


Tree=23
num_leaves=9
num_cat=0
split_feature=18 18 1 0 10 2 14 18
split_gain=37.6297 5.69597 2.19621 1.0742 0.665297 0.415051 0.230222 0.0773956
threshold=0.0098306629727755238 0.93629040997664614 0.19264051317812783 -0.93471731694433602 1.4011502554457713 0.78930224647637626 0.73396709976217156 -0.95842426058766039
decision_type=2 2 2 2 2 2 2 2
left_child=2 4 3 -1 -2 -3 7 -5
right_child=1 5 -4 6 -6 -7 -8 -9
leaf_value=-0.02927242803412515 0.011957584701538567 0.025142538873478771 -0.0043423907669603067 -0.022927531749010088 0.00043130804801226732 0.032968706472052467 -0.014165090117603541 -0.018823788604802556
leaf_weight=37 31 32 20 20 21 36 20 27
leaf_count=37 31 32 20 20 21 36 20 27
internal_value=-0.000200185 0.0197598 -0.0195163 -0.0224344 0.00730274 0.0292858 -0.0186581 -0.0205701
internal_weight=244 120 124 104 52 68 67 47
internal_count=244 120 124 104 52 68 67 47
is_linear=0
shrinkage=0.05


Tree=24
num_leaves=10
num_cat=0
split_feature=18 18 18 19 15 15 18 9 18
split_gain=34.0449 5.60913 1.67258 1.20502 0.422312 0.342141 0.287204 0.175099 0.0274722
threshold=0.35464086956444174 -0.53698956364229067 0.93629040997664614 -0.45908134374463122 0.31236902318421811 0.6411144116148545 0.0098306629727755238 0.89434255236923421 -0.95842426058766039
decision_type=2 2 2 2 2 2 2 2 2
left_child=1 3 -2 -1 7 8 -3 -4 -5
right_child=2 6 4 5 -6 -7 -8 -9 -10
leaf_value=-0.028884276954664126 0.012468353530857713 -0.0053436645762185049 0.021551317295857839 -0.021280887052416805 0.03298920613527298 -0.012039918322116136 0.0021969636525942145 0.027934324673630974 -0.018794675290584567
leaf_weight=36 24 23 21 20 25 20 28 22 25
leaf_count=36 24 23 21 20 25 20 28 22 25
internal_value=-0.000190175 -0.0147204 0.0238163 -0.0215457 0.0278215 -0.0174813 -0.00120371 0.024817 -0.0198997
internal_weight=244 152 92 101 68 65 51 43 45
internal_count=244 152 92 101 68 65 51 43 45
is_linear=0
shrinkage=0.05


Tree=25
num_leaves=10
num_cat=0
split_feature=21 18 18 5 16 15 19 18 19
split_gain=30.978 4.6844 1.62989 1.06087 0.885721 0.527272 0.394561 0.211107 0.0979083
threshold=-0.11584483820817741 0.98156851791292576 -0.86438511333538781 -0.64247120382117051 -0.4888012781478816 -0.4245781378308861 -0.1623037137905986 1.3403104500234471 -0.40570996493444744
decision_type=2 2 2 2 2 2 2 2 2
left_child=2 4 3 8 -2 -6 -4 -3 -1
right_child=1 7 6 -5 5 -7 -8 -9 -10
leaf_value=-0.022137788009075895 -0.0011914477181909165 0.024274254793470559 -0.017610753253102303 -0.03237898139549153 0.0066911312751471996 0.017320658720564097 -0.0080082940788048767 0.030514401391796443 -0.017249609231948855
leaf_weight=21 21 33 20 28 28 20 23 23 20
leaf_count=21 21 33 20 28 28 20 23 23 20
internal_value=-0.00101805 0.016093 -0.0201152 -0.0248768 0.00737311 0.0111201 -0.0124746 0.0268372 -0.0197533
internal_weight=237 125 112 69 69 48 43 56 41
internal_count=237 125 112 69 69 48 43 56 41
is_linear=0
shrinkage=0.05


Tree=26
num_leaves=10
num_cat=0
split_feature=21 18 18 5 18 19 2 9 19
split_gain=27.9577 4.25475 1.47098 0.957434 0.667313 0.356091 0.320268 0.213705 0.0883623
threshold=-0.11584483820817741 0.59148020338498009 -0.86438511333538781 -0.64247120382117051 0.98156851791292576 -0.1623037137905986 0.84918246209875592 0.80218303672396385 -0.40570996493444744
decision_type=2 2 2 2 2 2 2 2 2
left_child=2 6 3 8 -3 -4 -2 -6 -1
right_child=1 4 5 -5 7 -7 -8 -9 -10
leaf_value=-0.021030898534116292 -0.00016069921507732944 0.014855534695088863 -0.016730216015130282 -0.030760031592633044 0.02165548557584936 -0.0076078793995649277 0.0079255838412791487 0.027979907787898009 -0.016387128569185734
leaf_weight=21 25 20 20 28 22 23 24 34 20
leaf_count=21 25 20 20 28 22 23 24 34 20
internal_value=-0.000967144 0.0152884 -0.0191094 -0.0236329 0.0226954 -0.0118508 0.00379993 0.0254953 -0.0187656
internal_weight=237 125 112 69 76 43 49 56 41
internal_count=237 125 112 69 76 43 49 56 41
is_linear=0
shrinkage=0.05


Tree=27
num_leaves=10
num_cat=0
split_feature=21 18 18 5 18 16 18 9 2
split_gain=25.2318 3.83991 1.32756 0.864084 0.60225 0.34843 0.294309 0.192869 0.0818144
threshold=-0.11584483820817741 0.59148020338498009 -0.86438511333538781 -0.64247120382117051 0.98156851791292576 -0.4888012781478816 -0.62057991675542179 0.80218303672396385 -1.4319815703156198
decision_type=2 2 2 2 2 2 2 2 2
left_child=2 5 3 8 -3 -2 -4 -6 -1
right_child=1 4 6 -5 7 -7 -8 -9 -10
leaf_value=-0.015538668856024743 -0.0012586117848210657 0.014112757928669454 -0.015115631977602354 -0.029222030565142634 0.020572711120952259 0.0072613410435483933 -0.0068223364767618479 0.026580912356867509 -0.020007070969967618
leaf_weight=20 21 20 23 28 22 28 20 34 21
leaf_count=20 21 20 23 28 22 28 20 34 21
internal_value=-0.000918787 0.0145239 -0.018154 -0.0224513 0.0215606 0.00360993 -0.0112583 0.0242205 -0.0178274
internal_weight=237 125 112 69 76 49 43 56 41
internal_count=237 125 112 69 76 49 43 56 41
is_linear=0
shrinkage=0.05


Tree=28
num_leaves=9
num_cat=0
split_feature=18 18 1 4 18 5 18 19
split_gain=22.4146 2.61348 2.19004 0.784212 0.769282 0.797981 0.176083 0.0991121
threshold=0.065557565048196362 0.98156851791292576 0.35254967636663476 -0.28504960079031721 -0.91314615265138077 -0.64247120382117051 1.3403104500234471 -0.23203944317885206
decision_type=2 2 2 2 2 2 2 2
left_child=2 3 4 -2 5 -1 -3 -6
right_child=1 6 -4 -5 7 -7 -8 -9
leaf_value=-0.016996042385245814 0.0011450884453952314 0.02066884544311148 -0.00069981610313767486 0.013047364852841824 -0.015877194761891256 -0.028708516677411706 0.026367880209632544 -0.011182965957762107
leaf_weight=33 25 33 21 31 22 26 23 23
leaf_count=33 25 33 21 31 22 26 23 23
internal_value=-0.000872847 0.0153717 -0.0154279 0.00773385 -0.0184019 -0.0221575 0.0230095 -0.0134779
internal_weight=237 112 125 56 104 59 56 45
internal_count=237 112 125 56 104 59 56 45
is_linear=0
shrinkage=0.05


Tree=29
num_leaves=9
num_cat=0
split_feature=21 18 18 17 18 2 18 18
split_gain=20.5993 3.15495 1.08575 0.561422 0.472765 0.26065 0.241189 0.158915
threshold=-0.11584483820817741 0.59148020338498009 -0.86438511333538781 -0.23765417192655161 0.98156851791292576 0.84918246209875592 -0.62057991675542179 1.3403104500234471
decision_type=2 2 2 2 2 2 2 2
left_child=2 5 3 -1 -3 -2 -4 -6
right_child=1 4 6 -5 7 -7 -8 -9
leaf_value=-0.015712366450358839 -0.00034176927979569883 0.012903530327603222 -0.013657834097672173 -0.024733597593648095 0.019635402828906523 0.0069531581810830792 -0.0061501833854708827 0.025049486561961799
leaf_weight=34 25 20 23 35 33 24 20 23
leaf_count=34 25 20 23 35 33 24 20 23
internal_value=-0.000829205 0.0131241 -0.0164021 -0.0202884 0.0195023 0.00323126 -0.0101659 0.021859
internal_weight=237 125 112 69 76 49 43 56
internal_count=237 125 112 69 76 49 43 56
is_linear=0
shrinkage=0.05


Tree=30
num_leaves=10
num_cat=0
split_feature=18 18 1 19 5 15 16 5 8
split_gain=16.3925 2.39402 1.17149 0.644343 0.442552 0.216759 0.129877 0.0504051 0.0153832
threshold=0.0098306629727755238 0.59148020338498009 0.19264051317812783 -0.45908134374463122 0.57065652043678672 0.6411144116148545 1.2507733359901818 -0.14234808056777512 -0.9823440772211981
decision_type=2 2 2 2 2 2 2 2 2
left_child=2 7 3 -1 -3 8 -6 -2 -5
right_child=1 4 -4 5 6 -7 -8 -9 -10
leaf_value=-0.021971917539261854 0.0019187990156933666 0.014288237871545734 -0.0019519844837486745 -0.015689440545710653 0.018977480913911549 -0.0087648327178929172 0.02431126767396927 0.0054686273209154021 -0.013819635286927224
leaf_weight=26 20 33 20 22 21 23 25 20 22
leaf_count=26 20 33 20 22 21 23 25 20 22
internal_value=0.000708917 0.0136602 -0.0129301 -0.015291 0.0187066 -0.0126984 0.0218763 0.00369371 -0.0147545
internal_weight=232 119 113 93 79 67 46 40 44
internal_count=232 119 113 93 79 67 46 40 44
is_linear=0
shrinkage=0.05


Tree=31
num_leaves=10
num_cat=0
split_feature=18 18 2 19 5 14 16 5 8
split_gain=14.7942 2.1606 1.08243 0.542949 0.399403 0.132585 0.117214 0.0454906 0.017964
threshold=0.0098306629727755238 0.59148020338498009 0.11837164870744209 -0.45908134374463122 0.57065652043678672 0.49288076438446599 1.2507733359901818 -0.14234808056777512 -0.9823440772211981
decision_type=2 2 2 2 2 2 2 2 2
left_child=2 7 3 -1 -3 8 -6 -2 -5
right_child=1 4 -4 5 6 -7 -8 -9 -10
leaf_value=-0.021073277771472932 0.0018228589867067058 0.013573825957648684 -0.0028599346677462261 -0.014927358633798102 0.018028606616315387 -0.0091274798005109743 0.023095704197883607 0.0051951959467260167 -0.012878432646393776
leaf_weight=25 20 33 24 23 21 21 25 20 20
leaf_count=25 20 33 24 23 21 21 25 20 20
internal_value=0.000673471 0.0129772 -0.0122836 -0.0148248 0.0177713 -0.012384 0.0207825 0.00350903 -0.0139744
internal_weight=232 119 113 89 79 64 46 40 43
internal_count=232 119 113 89 79 64 46 40 43
is_linear=0
shrinkage=0.05


Tree=32
num_leaves=10
num_cat=0
split_feature=18 18 2 19 4 15 14 4 0
split_gain=13.3518 1.95699 0.97794 0.506866 0.367665 0.205062 0.171385 0.0483408 0.0178191
threshold=0.0098306629727755238 0.93629040997664614 0.20465359576332523 -0.45908134374463122 -0.28504960079031721 0.31236902318421811 0.73396709976217156 0.41927462907263974 0.42358802638407439
decision_type=2 2 2 2 2 2 2 2 2
left_child=2 4 3 -1 -2 7 8 -3 -5
right_child=1 5 -4 6 -6 -7 -8 -9 -10
leaf_value=-0.020019613690674305 0.001632036827504635 0.014741970952600242 -0.002209298113699664 -0.014241796731948853 0.0095985896264513329 0.02258167105416457 -0.0077957176184281704 0.01821834694594145 -0.012266138337907337
leaf_weight=25 28 20 22 25 30 21 20 20 21
leaf_count=25 28 20 22 25 30 21 20 20 21
internal_value=0.000639798 0.0123284 -0.0116694 -0.0139565 0.00575267 0.0185807 -0.0116598 0.0164802 -0.0133399
internal_weight=232 119 113 91 58 61 66 40 46
internal_count=232 119 113 91 58 61 66 40 46
is_linear=0
shrinkage=0.05


Tree=33
num_leaves=8
num_cat=0
split_feature=9 9 21 0 10 8 9
split_gain=11.9966 0.967509 1.39149 0.503303 0.279607 0.424317 0.246664
threshold=0.18993129188855043 0.6043043759494553 0.38313541345084606 -0.93471731694433602 0.59125202889399231 0.68842853062470366 -1.2816332434647342
decision_type=2 2 2 2 2 2 2
left_child=3 -2 -3 -1 5 -4 -5
right_child=1 2 4 6 -6 -7 -8
leaf_value=-0.017407641441307284 0.0021579461060119449 0.0036972314825591945 0.014863856971984911 -0.012983481653712013 0.011886432865867392 0.024205097779631618 -0.0069580708284463213
leaf_weight=33 27 30 31 33 23 20 35
leaf_count=33 27 30 31 33 23 20 35
internal_value=0.000607808 0.0105912 0.0127806 -0.012341 0.0164631 0.0185271 -0.00988217
internal_weight=232 131 104 101 74 51 68
internal_count=232 131 104 101 74 51 68
is_linear=0
shrinkage=0.05


Tree=34
num_leaves=9
num_cat=0
split_feature=18 18 9 0 10 8 6 8
split_gain=10.9585 1.63231 0.794062 0.407985 0.322621 0.21984 0.116908 0.028033
threshold=0.0098306629727755238 0.59148020338498009 -0.19985059971837935 -0.93471731694433602 0.59125202889399231 0.61480322833586631 0.25408210873774512 1.1632247713692541
decision_type=2 2 2 2 2 2 2 2
left_child=2 7 3 -1 5 -3 -5 -2
right_child=1 4 -4 6 -6 -7 -8 -9
leaf_value=-0.017530158213500319 0.0042607138049788771 0.014863252611548611 -0.0020496562885289841 -0.012190459591026109 0.010496575201007849 0.021315881440585313 -0.0077904783511677615 0.0016134030360262842
leaf_weight=29 20 33 22 36 24 22 26 20
leaf_count=29 20 33 22 36 24 22 26 20
internal_value=0.000577418 0.0111667 -0.0105741 -0.012635 0.0153336 0.0174443 -0.0103453 0.00293706
internal_weight=232 119 113 91 79 55 62 40
internal_count=232 119 113 91 79 55 62 40
is_linear=0
shrinkage=0.05


Tree=35
num_leaves=8
num_cat=0
split_feature=9 18 0 9 5 18 0
split_gain=11.7858 1.61569 0.782198 0.725022 0.256033 0.147707 0.125539
threshold=0.37608891700742603 0.59148020338498009 -0.92699967374896697 -1.272899922780145 0.16529161593848438 -0.86438511333538781 0.41587038318870551
decision_type=2 2 2 2 2 2 2
left_child=2 -2 3 -1 -3 -4 -6
right_child=1 4 5 -5 6 -7 -8
leaf_value=-0.010879077705053183 0.0021129017874885066 0.0095904989400878559 -0.010711164978731957 -0.022687009385285471 0.013647021825558374 -0.0054775449214503171 0.01819886641971993
leaf_weight=26 39 20 28 26 28 26 33
leaf_count=26 39 20 28 26 28 26 33
internal_value=-0.000257322 0.0104741 -0.0124061 -0.016783 0.0144999 -0.00819127 0.0161095
internal_weight=226 120 106 52 81 54 61
internal_count=226 120 106 52 81 54 61
is_linear=0
shrinkage=0.05


Tree=36
num_leaves=8
num_cat=0
split_feature=18 18 8 3 18 15 9
split_gain=10.7324 1.29178 0.765922 0.308124 0.352801 0.246191 0.217658
threshold=0.0098306629727755238 0.59148020338498009 -1.0495923848236006 0.89321733003830095 -0.88528270161367051 0.15277659111085343 0.80218303672396385
decision_type=2 2 2 2 2 2 2
left_child=2 -2 -1 4 -4 6 -3
right_child=1 5 3 -5 -6 -7 -8
leaf_value=-0.01726224170507569 0.0023916862634198173 0.0076245139422826472 -0.0155000585885275 -0.003207006179727614 -0.007050195265134486 0.017466058726583061 0.014273710554698484
leaf_weight=38 36 20 21 20 30 29 32
leaf_count=38 36 20 21 20 30 29 32
internal_value=-0.000244456 0.0102724 -0.0115331 -0.00846686 -0.0105296 0.0137749 0.0117163
internal_weight=226 117 109 71 51 81 52
internal_count=226 117 109 71 51 81 52
is_linear=0
shrinkage=0.05


Tree=37
num_leaves=7
num_cat=0
split_feature=18 18 8 19 18 15
split_gain=9.68597 1.16583 0.691245 0.323012 0.231058 0.102538
threshold=0.0098306629727755238 0.59148020338498009 -1.0495923848236006 -0.35821001391471152 1.1557150868986159 0.15277659111085343
decision_type=2 2 2 2 2 2
left_child=2 -2 -1 -4 -3 -6
right_child=1 4 3 -5 5 -7
leaf_value=-0.01639912950218116 0.00227210200456385 0.010024638398982851 -0.011662487646169735 -0.0049007303234630904 0.013345089583442764 0.018107090592384339
leaf_weight=38 36 35 33 38 26 20
leaf_count=38 36 35 33 38 26 20
internal_value=-0.000232233 0.00975874 -0.0109565 -0.00804352 0.0130861 0.0154155
internal_weight=226 117 109 71 81 46
internal_count=226 117 109 71 81 46
is_linear=0
shrinkage=0.05


Tree=38
num_leaves=9
num_cat=0
split_feature=9 15 0 17 10 10 0 9
split_gain=8.80762 0.872107 0.66079 1.2052 0.441576 0.334551 0.126282 0.125943
threshold=0.37608891700742603 -0.65778970168155515 -0.92699967374896697 -0.23765417192655161 -0.4500606778507778 0.59125202889399231 0.41587038318870551 -1.2846209584357779
decision_type=2 2 2 2 2 2 2 2
left_child=2 -2 3 -1 -3 6 -6 -4
right_child=1 4 7 -5 5 -7 -8 -9
leaf_value=-0.0087280299514532096 0.0011455138265672657 0.004973557538219861 -0.009652287998925084 -0.024374296069145204 0.013162336731329561 0.0085405740588903444 0.018347001788408861 -0.0047690302937201433
leaf_weight=32 27 21 23 20 24 25 23 31
leaf_count=32 27 21 23 20 24 25 23 31
internal_value=-0.000220621 0.00905638 -0.0107229 -0.0147458 0.0113531 0.0132138 0.0156995 -0.00684894
internal_weight=226 120 106 52 93 72 47 54
internal_count=226 120 106 52 93 72 47 54
is_linear=0
shrinkage=0.05


Tree=39
num_leaves=9
num_cat=0
split_feature=8 18 0 17 10 5 16 12
split_gain=7.9674 1.14121 0.864815 1.09222 0.218211 0.21277 0.142792 0.13642
threshold=-0.16203066982982026 0.59148020338498009 -0.92699967374896697 -0.23765417192655161 0.59125202889399231 -0.049815103740394613 1.2507733359901818 0.50127301822270176
decision_type=2 2 2 2 2 2 2 2
left_child=2 5 3 -1 6 -2 -3 -4
right_child=1 4 7 -5 -6 -7 -8 -9
leaf_value=-0.008972963641087215 -0.0012460516770564332 0.011376392598773738 -0.0034670638442211958 -0.023840561313998133 0.0081135454401373864 0.0057367708953097469 0.016532823950052261 -0.0085928296595811846
leaf_weight=30 24 29 27 21 25 20 25 25
leaf_count=30 24 29 27 21 25 20 25 25
internal_value=-0.00020959 0.00838134 -0.0104687 -0.0150949 0.0119756 0.00192796 0.0137636 -0.00593137
internal_weight=226 123 103 51 79 44 54 52
internal_count=226 123 103 51 79 44 54 52
is_linear=0
shrinkage=0.05


Tree=40
num_leaves=11
num_cat=0
split_feature=9 15 0 10 5 15 9 14 1 24
split_gain=6.88688 0.772946 0.758076 0.681894 0.678477 0.226652 0.175889 0.168057 0.0694769 0.0559139
threshold=0.18993129188855043 -0.47125711197402059 -0.92699967374896697 -0.4500606778507778 -0.82253036313857819 0.31236902318421811 -1.1687895472506997 -0.55268743208320747 0.76973491544065087 0.21136661807475876
decision_type=2 2 2 2 2 2 2 2 2 2
left_child=2 8 4 -3 -1 7 9 -5 -2 -4
right_child=1 3 6 5 -6 -7 -8 -9 -10 -11
leaf_value=-0.0088716707658022653 0.0041275944339022753 0.0023454629350453619 -0.0059158783117752708 0.013174698796744148 -0.02134100276976824 0.01625424149632454 -0.002126153662102297 0.0070499375285137268 0.00018954500847030432 -0.0094843523657840226
leaf_weight=24 21 22 21 24 20 25 20 21 24 23
leaf_count=24 21 22 21 24 20 25 20 21 24 23
internal_value=-4.57573e-05 0.00739727 -0.00948738 0.0100239 -0.0145395 0.0124371 -0.00601401 0.0103165 0.0020273 -0.00778122
internal_weight=245 137 108 92 44 70 64 45 45 44
internal_count=245 137 108 92 44 70 64 45 45 44
is_linear=0
shrinkage=0.05


Tree=41
num_leaves=10
num_cat=0
split_feature=9 15 0 10 5 16 9 1 13
split_gain=6.21541 0.697584 0.684163 0.615409 0.612325 0.235779 0.158739 0.0627029 0.0427379
threshold=0.18993129188855043 -0.47125711197402059 -0.92699967374896697 -0.4500606778507778 -0.82253036313857819 -0.40569592365148061 -1.1687895472506997 0.76973491544065087 0.26587441863586564
decision_type=2 2 2 2 2 2 2 2 2
left_child=2 7 4 -3 -1 -5 8 -2 -4
right_child=1 3 6 5 -6 -7 -8 -9 -10
leaf_value=-0.0084280872562279303 0.0039212147040026532 0.0022281898143277925 -0.0056851262855343518 0.0089134118439895774 -0.020273952241986991 0.014717091566749982 -0.0020198460016399625 0.00018006774917012081 -0.0088146810885518789
leaf_weight=24 21 22 20 35 20 35 20 24 24
leaf_count=24 21 22 20 35 20 35 20 24 24
internal_value=-4.34694e-05 0.00702741 -0.00901301 0.00952269 -0.0138126 0.0118153 -0.00571331 0.00192594 -0.00739216
internal_weight=245 137 108 92 44 70 64 45 44
internal_count=245 137 108 92 44 70 64 45 44
is_linear=0
shrinkage=0.05


Tree=42
num_leaves=10
num_cat=0
split_feature=21 15 21 0 5 10 15 13 6
split_gain=5.62042 0.65142 0.599355 0.668715 0.834965 0.395626 0.204387 0.0782182 0.0624516
threshold=-0.11584483820817741 -0.47125711197402059 -1.4464588426322396 -0.92699967374896697 -1.2150074081388775 -0.4159720542172039 0.31236902318421811 -0.83097961513866136 0.20955597239141116
decision_type=2 2 2 2 2 2 2 2 2
left_child=2 -2 -1 4 -4 -3 7 -7 -5
right_child=1 5 3 8 -6 6 -8 -9 -10
leaf_value=-0.00059835312210700738 0.001742520640478828 0.0041335998624563225 -0.0075976512616588963 -0.0075597848246494936 -0.021872495096176864 0.011617812789267018 0.0153236772865057 0.0073023323058372452 -0.0040967622447920888
leaf_weight=22 39 25 21 30 20 21 23 21 23
leaf_count=22 39 25 21 30 20 21 23 21 23
internal_value=-4.12959e-05 0.00714005 -0.00802744 -0.00976617 -0.014561 0.00947897 0.0115349 0.00946007 -0.00605696
internal_weight=245 129 116 94 41 90 65 42 53
internal_count=245 129 116 94 41 90 65 42 53
is_linear=0
shrinkage=0.05


Tree=43
num_leaves=10
num_cat=0
split_feature=18 21 8 0 11 0 21 15 6
split_gain=5.89238 0.60846 0.563769 0.545883 0.7432 0.301301 0.30023 0.118134 0.0402221
threshold=0.0098306629727755238 1.3335739880394624 -0.31913662983198515 -0.92699967374896697 -0.62628712325558966 0.41587038318870551 0.52570119963913853 0.085488688002137839 0.20955597239141116
decision_type=2 2 2 2 2 2 2 2 2
left_child=2 5 3 4 -1 6 -2 -7 -5
right_child=1 -3 -4 8 -6 7 -8 -9 -10
leaf_value=-0.0075087527542010606 0.0024046794644423893 0.0011231224718762356 -0.00070340021047741183 -0.0073929657017992399 -0.020687619633972646 0.0099778127094561422 0.010254749764913116 0.015102748921060045 -0.004726277087600185
leaf_weight=23 21 27 23 31 20 22 29 23 26
leaf_count=23 21 27 23 31 20 22 29 23 26
internal_value=-3.92311e-05 0.0077466 -0.00776176 -0.00938519 -0.0136385 0.00962906 0.00695772 0.0125972 -0.00617658
internal_weight=245 122 123 100 43 95 50 45 57
internal_count=245 122 123 100 43 95 50 45 57
is_linear=0
shrinkage=0.05


Tree=44
num_leaves=10
num_cat=0
split_feature=18 21 16 9 0 21 21 15 23
split_gain=5.31788 0.549136 0.417004 0.876692 0.271924 0.270958 0.113231 0.106616 0.0840639
threshold=0.0098306629727755238 1.3335739880394624 -0.69643730549252558 -1.272899922780145 0.41587038318870551 0.52570119963913853 -0.30593255312590056 0.085488688002137839 -0.48314800292902255
decision_type=2 2 2 2 2 2 2 2 2
left_child=2 4 3 8 5 -2 -4 -6 -1
right_child=1 -3 6 -5 7 -7 -8 -9 -10
leaf_value=-0.0037910274416208273 0.0022844455737088408 0.0010669663704767894 -0.0063682823053871594 -0.01890425081830472 0.0094789221205494618 0.0097420122281744563 -0.0020848719773952059 0.014347611545868541 -0.0083753462601453069
leaf_weight=20 21 27 36 20 22 29 27 23 20
leaf_count=20 21 27 36 20 22 29 27 23 20
internal_value=-3.72696e-05 0.00735927 -0.00737368 -0.0103569 0.00914761 0.00660983 -0.00453254 0.0119674 -0.00608319
internal_weight=245 122 123 60 95 50 63 45 40
internal_count=245 122 123 60 95 50 63 45 40
is_linear=0
shrinkage=0.05


Tree=45
num_leaves=10
num_cat=0
split_feature=1 18 0 9 10 19 8 16 0
split_gain=4.16551 0.646786 0.415232 0.724096 0.192988 0.114585 0.0881262 0.0596874 0.0398585
threshold=0.35254967636663476 0.48350933061385232 -0.92699967374896697 -1.272899922780145 0.59125202889399231 -0.17581250648423555 0.61480322833586631 -0.49930996838435476 1.0834465893551402
decision_type=2 2 2 2 2 2 2 2 2
left_child=2 7 3 -1 6 8 -3 -2 -4
right_child=1 4 5 -5 -6 -7 -8 -9 -10
leaf_value=-0.0054773035175774412 -0.0011201016943563115 0.0082992434071806759 -0.0082135019730776564 -0.018485685735940931 0.0045104674119502306 -0.0019999988836934789 0.012256951443850994 0.0026065990744557764 -0.0050568240974098446
leaf_weight=23 22 39 20 20 25 20 22 21 20
leaf_count=23 22 39 20 20 25 20 22 21 20
internal_value=-0.000279814 0.00570683 -0.00777765 -0.0115277 0.00821029 -0.00509011 0.00972661 0.000699915 -0.00663516
internal_weight=232 129 103 43 86 60 61 43 40
internal_count=232 129 103 43 86 60 61 43 40
is_linear=0
shrinkage=0.05


Tree=46
num_leaves=10
num_cat=0
split_feature=1 0 9 4 16 10 24 19 0
split_gain=3.75937 0.374747 0.653496 0.360645 0.252275 0.280134 0.123274 0.103413 0.0359723
threshold=0.35254967636663476 -0.92699967374896697 -1.272899922780145 -0.28504960079031721 0.84955343672919204 -0.33319944703308418 1.0000000180025095e-35 -0.17581250648423555 1.0834465893551402
decision_type=2 2 2 2 2 2 2 2 2
left_child=1 2 -1 -2 5 -5 -6 8 -3
right_child=3 7 -4 4 6 -7 -8 -9 -10
leaf_value=-0.0052034383599200984 0.00028302545003868916 -0.0078028269857168195 -0.017561401687562466 0.00044453594503769027 0.012228753248398956 0.0075905912050075134 0.0070470974858229361 -0.0018999989074654879 -0.0048039829265326267
leaf_weight=23 27 20 20 24 22 32 24 20 20
leaf_count=23 27 20 20 24 22 32 24 20 20
internal_value=-0.000265823 -0.00738877 -0.0109513 0.00542149 0.00678167 0.004528 0.00952528 -0.0048356 -0.0063034
internal_weight=232 103 43 129 102 56 46 60 40
internal_count=232 103 43 129 102 56 46 60 40
is_linear=0
shrinkage=0.05


Tree=47
num_leaves=9
num_cat=0
split_feature=1 18 0 9 16 23 21 8
split_gain=3.39283 0.547733 0.338209 0.58978 0.170352 0.0964695 0.0891414 0.0557376
threshold=0.35254967636663476 1.1557150868986159 -0.92699967374896697 -1.272899922780145 -0.4888012781478816 -0.28940525641053333 0.47817927090970763 0.99568372915292302
decision_type=2 2 2 2 2 2 2 2
left_child=2 4 3 -1 -2 -4 -6 -3
right_child=1 7 5 -5 6 -7 -8 -9
leaf_value=-0.0049432663429204542 -0.00082165369205176831 0.0077273424643163509 -0.0021383510456265261 -0.016683331392705444 0.0062820291424241781 -0.0062308038093356628 0.0022501701697835636 0.011106369919751002
leaf_weight=23 25 26 24 20 26 36 29 23
leaf_count=23 25 26 24 20 26 36 29 23
internal_value=-0.000252532 0.00515042 -0.00701933 -0.0104038 0.00260058 -0.00459382 0.00415614 0.00931342
internal_weight=232 129 103 43 80 60 55 49
internal_count=232 129 103 43 80 60 55 49
is_linear=0
shrinkage=0.05


Tree=48
num_leaves=9
num_cat=0
split_feature=8 22 5 13 10 5 7 5
split_gain=3.08799 0.392375 0.356933 0.250704 0.224202 0.0798436 0.0626861 0.0590828
threshold=-0.35334051042286246 -0.071668375037986412 -0.049815103740394613 0.21039769727443727 -0.4159720542172039 0.86763359937275741 0.85185505482272605 -0.28949220303776763
decision_type=2 2 2 2 2 2 2 2
left_child=1 3 7 -1 -4 -6 -5 -2
right_child=2 -3 4 6 5 -7 -8 -9
leaf_value=4.3458833824843173e-05 0.002712299079972912 -0.011182556591395821 0.0034984389565431992 -0.0087754081015009432 0.007017297760555239 0.010961148160554116 -0.0049852152510235712 -0.0010426057549193502
leaf_weight=20 22 35 37 20 33 21 24 20
leaf_count=20 22 35 37 20 33 21 24 20
internal_value=-0.000239905 -0.006926 0.00473696 -0.00459819 0.00649667 0.00855102 -0.00670803 0.000924249
internal_weight=232 99 133 64 91 54 44 42
internal_count=232 99 133 64 91 54 44 42
is_linear=0
shrinkage=0.05


Tree=49
num_leaves=9
num_cat=0
split_feature=18 8 18 8 12 0 8 10
split_gain=2.79971 0.398651 0.38446 0.231373 0.176303 0.167319 0.0481629 0.0434627
threshold=0.0098306629727755238 -1.1823498196593785 1.1557150868986159 -0.38232684990665672 0.36328833546572004 -0.92699967374896697 0.99568372915292302 -0.61177674118958725
decision_type=2 2 2 2 2 2 2 2
left_child=1 -1 5 4 -3 -2 -4 -6
right_child=2 3 6 -5 7 -7 -8 -9
leaf_value=-0.012165861934911282 0.00022958416258916258 -0.0095183542767620609 0.0069749417535674117 -5.818567323413762e-05 -0.0024759092146442053 0.0050521053247959231 0.010115984446652558 -0.0055906304895567398
leaf_weight=21 35 23 26 22 21 37 23 24
leaf_count=21 35 23 26 22 21 37 23 24
internal_value=-0.00022791 -0.00596265 0.00503289 -0.00451524 -0.00595723 0.00270782 0.00844931 -0.00413709
internal_weight=232 111 121 90 68 72 49 45
internal_count=232 111 121 90 68 72 49 45
is_linear=0
shrinkage=0.05


Tree=50
num_leaves=9
num_cat=0
split_feature=18 15 18 15 9 18 16 13
split_gain=2.75708 0.514394 0.300695 0.237959 0.163251 0.151716 0.121568 0.037259
threshold=0.0098306629727755238 -0.71189141355308017 -1.1778489375096297 0.4049627960981938 -0.40922047191997901 1.2149249203537502 1.0795955507855484 0.2278332382737433
decision_type=2 2 2 2 2 2 2 2
left_child=2 -2 -1 5 7 6 -3 -4
right_child=1 3 4 -5 -6 -7 -8 -9
leaf_value=-0.0093826243354539797 0.00051420087022989089 0.0020635326003210375 -0.0031890781050046475 0.012466393723817809 0.00041563791622008597 0.0092719920844371844 0.0073936264868825685 -0.0056326403569143552
leaf_weight=28 33 23 26 21 21 28 20 39
leaf_count=28 33 23 26 21 21 28 20 39
internal_value=0.000741165 0.0058697 -0.00488223 0.00779069 -0.00341698 0.00640774 0.00454265 -0.00465522
internal_weight=239 125 114 92 86 71 43 65
internal_count=239 125 114 92 86 71 43 65
is_linear=0
shrinkage=0.05


Tree=51
num_leaves=9
num_cat=0
split_feature=18 10 18 16 9 24 9 5
split_gain=2.48827 0.402926 0.271768 0.162142 0.143117 0.134882 0.0306602 0.0125843
threshold=0.0098306629727755238 1.4011502554457713 -1.2266099768256227 -0.40569592365148061 -1.2816332434647342 1.0000000180025095e-35 -0.40922047191997901 -1.4360481062916575
decision_type=2 2 2 2 2 2 2 2
left_child=2 3 -1 -2 7 -5 -6 -4
right_child=1 -3 4 5 6 -7 -8 -9
leaf_value=-0.0097755803294213763 0.0048743418396229692 0.00093203589922803286 -0.0045689747203141451 0.011685707717417525 -0.0027413111293124251 0.006592687659968551 -0.0002051292114298452 -0.0062516710720956327
leaf_weight=21 39 34 20 26 26 26 22 25
leaf_count=21 39 34 20 26 26 26 22 25
internal_value=0.000704106 0.00557621 -0.00463812 0.0073114 -0.00347805 0.0091392 -0.00157889 -0.00550381
internal_weight=239 125 114 91 93 52 48 45
internal_count=239 125 114 91 93 52 48 45
is_linear=0
shrinkage=0.05


Tree=52
num_leaves=9
num_cat=0
split_feature=18 15 18 15 9 18 0 13
split_gain=2.24566 0.439257 0.247855 0.212229 0.134673 0.130955 0.0611962 0.0323472
threshold=0.0098306629727755238 -0.71189141355308017 -1.1778489375096297 0.4049627960981938 -0.40922047191997901 1.2149249203537502 -0.92699967374896697 0.2278332382737433
decision_type=2 2 2 2 2 2 2 2
left_child=2 -2 -1 5 7 6 -3 -4
right_child=1 3 4 -5 -6 -7 -8 -9
leaf_value=-0.0084920975396276591 0.00034847543504314891 0.0021030917275874392 -0.00283448074277168 0.011488241918518076 0.00040511244553185648 0.0084275906306824511 0.0058766025203195495 -0.0051112884948125645
leaf_weight=28 33 21 26 21 21 28 22 39
leaf_count=28 33 21 26 21 21 28 22 39
internal_value=0.000668901 0.0052974 -0.00440621 0.00707256 -0.00307592 0.00576652 0.00403373 -0.00420057
internal_weight=239 125 114 92 86 71 43 65
internal_count=239 125 114 92 86 71 43 65
is_linear=0
shrinkage=0.05


Tree=53
num_leaves=10
num_cat=0
split_feature=18 15 18 15 9 18 16 22 5
split_gain=2.02671 0.396429 0.225167 0.191536 0.120121 0.118187 0.0970439 0.0306 0.0109604
threshold=0.0098306629727755238 -0.71189141355308017 -1.2266099768256227 0.4049627960981938 -1.2816332434647342 1.2149249203537502 1.0795955507855484 -0.12298079594985466 -1.4360481062916575
decision_type=2 2 2 2 2 2 2 2 2
left_child=2 -2 -1 5 8 6 -3 -6 -4
right_child=1 3 4 -5 7 -7 -8 -9 -10
leaf_value=-0.00886219639685892 0.0003310517362093158 0.0016170528190939323 -0.0041134217055514453 0.010913829948930514 -0.0027624814517118717 0.0080062110908329497 0.0063792727002874019 -0.00022879252747560921 -0.0056837983382865796
leaf_weight=21 33 23 20 21 22 28 20 26 25
leaf_count=21 33 23 20 21 22 28 20 26 25
internal_value=0.000635456 0.00503253 -0.0041859 0.00671893 -0.00312996 0.00547819 0.00383204 -0.00139007 -0.00498585
internal_weight=239 125 114 92 93 71 43 48 45
internal_count=239 125 114 92 93 71 43 48 45
is_linear=0
shrinkage=0.05


Tree=54
num_leaves=9
num_cat=0
split_feature=18 10 18 16 23 8 13 11
split_gain=1.8291 0.3098 0.204592 0.113237 0.186563 0.108889 0.0879128 0.0282012
threshold=0.0098306629727755238 1.8580256727928455 -1.1778489375096297 -0.40569592365148061 0.17458660528005307 -0.38232684990665672 -0.63364099201015167 -0.79451925053736649
decision_type=2 2 2 2 2 2 2 2
left_child=2 3 -1 6 -5 7 -2 -4
right_child=1 -3 5 4 -6 -7 -8 -9
leaf_value=-0.0076888115870782968 0.0064117333281631418 -0.0006050490943545645 -0.0047200692458344365 0.0095279700619898544 0.0036274984501124849 0.00046400442253798248 0.0019819043634925039 -0.0026491619361143923
leaf_weight=28 21 22 35 37 21 20 24 31
leaf_count=28 21 22 35 37 21 20 24 31
internal_value=0.000603683 0.00478091 -0.00397661 0.00593131 0.00739159 -0.00276798 0.00404916 -0.00374737
internal_weight=239 125 114 103 58 86 45 66
internal_count=239 125 114 103 58 86 45 66
is_linear=0
shrinkage=0.05


Tree=55
num_leaves=9
num_cat=0
split_feature=18 21 8 24 21 16 12 16
split_gain=1.79816 0.383788 0.331668 0.148013 0.117344 0.11037 0.0887802 0.0593314
threshold=0.0098306629727755238 1.3335739880394624 -1.1823498196593785 -0.56664194645021626 0.43065734218027685 -0.539783380603161 0.50127301822270176 -0.40569592365148061
decision_type=2 2 2 2 2 2 2 2
left_child=2 4 -1 -4 -2 6 -5 -6
right_child=1 -3 3 5 7 -7 -8 -9
leaf_value=-0.010635720543740762 0.0030440272559644657 -0.0013221664354205133 -0.0001966115481437832 -0.0087320425237218547 0.005102130904345325 -0.0022970284717023157 -0.0040773028321564198 0.0083081320191042557
leaf_weight=21 32 27 23 21 27 26 20 31
leaf_count=21 32 27 23 21 27 26 20 31
internal_value=-0.000418833 0.00390615 -0.0049776 -0.00365738 0.00547465 -0.0048454 -0.00646144 0.00681568
internal_weight=228 117 111 90 90 67 41 58
internal_count=228 117 111 90 90 67 41 58
is_linear=0
shrinkage=0.05


Tree=56
num_leaves=9
num_cat=0
split_feature=9 23 13 15 9 19 19 16
split_gain=1.54587 0.393945 0.181085 0.168388 0.147101 0.131587 0.141408 0.101038
threshold=0.50180277001980267 -0.71927197524843123 0.36176989413204902 -0.47125711197402059 -1.2816332434647342 0.082467694412036135 1.1830648298312023 -0.539783380603161
decision_type=2 2 2 2 2 2 2 2
left_child=1 -1 4 -2 -3 -5 -7 -4
right_child=3 2 7 5 -6 6 -8 -9
leaf_value=-0.010466533367122922 0.00023328102239326615 -0.0036648432208624274 -0.0078571443390544685 0.0081004163455218083 0.0014160144440932623 0.00082249237069239233 0.0058352365805630522 -0.003060195118735504
leaf_weight=21 23 28 21 25 29 24 34 23
leaf_count=21 23 28 21 25 29 24 34 23
internal_value=-0.000397891 -0.00423552 -0.00293996 0.004019 -0.00107985 0.00506805 0.003761 -0.00534965
internal_weight=228 122 101 106 57 83 58 44
internal_count=228 122 101 106 57 83 58 44
is_linear=0
shrinkage=0.05


Tree=57
num_leaves=10
num_cat=0
split_feature=18 21 8 24 1 16 19 5 21
split_gain=1.47622 0.325209 0.294972 0.133123 0.119563 0.0940986 0.0817288 0.072145 0.0514276
threshold=0.0098306629727755238 1.3335739880394624 -1.1823498196593785 -0.56664194645021626 0.97868288867363351 -0.539783380603161 0.082467694412036135 -0.82253036313857819 0.28809155599198444
decision_type=2 2 2 2 2 2 2 2 2
left_child=2 4 -1 -4 6 7 -2 -5 -8
right_child=1 -3 3 5 -6 -7 8 -9 -10
leaf_value=-0.0098445013708745449 0.006534048468297856 -0.0012720527420579284 1.8563815240707737e-05 -0.0038355139926785514 0.0083940161741338677 -0.0020371536867549787 0.00099806880489701315 -0.0080315622384659942 0.0042971834626600695
leaf_weight=21 22 27 23 21 20 26 21 20 27
leaf_count=21 22 27 23 21 20 26 21 20 27
internal_value=-0.000377997 0.00354075 -0.00450856 -0.00326351 0.00498459 -0.00439019 0.00401046 -0.00588237 0.00285382
internal_weight=228 117 111 90 90 67 70 41 48
internal_count=228 117 111 90 90 67 70 41 48
is_linear=0
shrinkage=0.05


Tree=58
num_leaves=9
num_cat=0
split_feature=9 23 21 15 0 16 11 14
split_gain=1.26966 0.359067 0.155527 0.140649 0.112873 0.0855892 0.0607358 0.0130446
threshold=0.50180277001980267 -0.71927197524843123 -1.3038930564439473 -0.47125711197402059 -0.93471731694433602 -0.64625710503212253 -0.16853924204703444 -0.42983590772650571
decision_type=2 2 2 2 2 2 2 2
left_child=1 -1 -3 -2 -5 -4 -6 -7
right_child=3 2 5 4 6 7 -8 -9
leaf_value=-0.0097858138737224407 0.00018391459421052234 0.0013484267445164734 -0.0054383910008307017 0.0022748055882402698 0.0044992655083271006 -0.0011973549867980184 0.0079669110313736156 -0.0028958434964386891
leaf_weight=21 23 20 35 32 28 20 23 26
leaf_count=21 23 20 35 32 28 20 23 26
internal_value=-0.000359097 -0.00383702 -0.00260014 0.00364379 0.00460256 -0.0035751 0.00606311 -0.00215737
internal_weight=228 122 101 106 83 81 51 46
internal_count=228 122 101 106 83 81 51 46
is_linear=0
shrinkage=0.05


Tree=59
num_leaves=10
num_cat=0
split_feature=18 10 24 14 12 18 4 0 8
split_gain=1.22338 0.27606 0.271514 0.483355 0.099938 0.105299 0.0624159 0.0384163 0.0216433
threshold=0.0098306629727755238 0.59125202889399231 -0.56664194645021626 0.82794460342611986 -0.63003999479067996 1.2149249203537502 -0.31090536945164343 0.85577609042664793 -0.99799670054244694
decision_type=2 2 2 2 2 2 2 2 2
left_child=2 4 -1 7 5 -2 -3 8 -4
right_child=1 6 3 -5 -6 -7 -8 -9 -10
leaf_value=0.00048515792889520528 0.0015304613048210741 -0.0017015269775267528 -0.0053847215825780521 -0.012244094299385326 0.0076752782631665465 0.0062182649160208913 0.0020687250686543331 -0.0016652307835598055 -0.0031645600279064283
leaf_weight=25 25 23 21 20 25 23 21 22 23
leaf_count=25 25 23 21 20 25 23 21 22 23
internal_value=-0.000341142 0.00322625 -0.00410137 -0.00543466 0.00511183 0.0037767 9.79115e-05 -0.0033712 -0.00422418
internal_weight=228 117 111 86 73 48 44 66 44
internal_count=228 117 111 86 73 48 44 66 44
is_linear=0
shrinkage=0.05


Tree=60
num_leaves=9
num_cat=0
split_feature=9 7 13 2 0 0 23 18
split_gain=0.724862 0.234697 0.145876 0.101754 0.0965786 0.0890892 0.0782816 0.0615211
threshold=0.50180277001980267 -0.74745944329460667 0.20722759891092707 0.79828427881973318 0.41587038318870551 -0.92699967374896697 -0.28940525641053333 -1.0733609961182156
decision_type=2 2 2 2 2 2 2 2
left_child=2 5 6 -3 7 -2 -1 -4
right_child=1 3 4 -5 -6 -7 -8 -9
leaf_value=0.0019586941850138827 -0.0021781940991058945 0.0035338663368343587 -0.0073923653753643686 0.0079133357168064411 -0.0020307065218124385 0.0023402425853419118 -0.0024651504657231273 -0.003653106226755137
leaf_weight=20 20 36 22 21 36 24 20 22
leaf_count=20 20 36 22 21 36 24 20 22
internal_value=-9.15555e-05 0.00302971 -0.00271862 0.00514736 -0.00395132 0.000286408 -0.000253228 -0.00552274
internal_weight=221 101 120 57 80 44 40 44
internal_count=221 101 120 57 80 44 40 44
is_linear=0
shrinkage=0.05


Tree=61
num_leaves=9
num_cat=0
split_feature=18 16 18 15 10 10 10 2
split_gain=0.6554 0.152387 0.147341 0.0758746 0.0627481 0.0718519 0.0526657 0.0150396
threshold=0.48350933061385232 0.031987877509351025 -1.0733609961182156 0.50190594099092867 0.49825742435562331 1.0000000180025095e-35 -0.45918113860752002 -1.435519946693306
decision_type=2 2 2 2 2 2 2 2
left_child=1 2 -1 6 5 -2 7 -4
right_child=4 -3 3 -5 -6 -7 -8 -9
leaf_value=-0.0061510506309927085 0.0027905374946486619 0.0014706085869111121 -0.0027995817797173833 0.00059817265010560347 0.0015155414313388369 0.0064731701834646709 -0.00087195575051009656 -0.0046281817976547325
leaf_weight=26 27 25 22 23 24 26 25 23
leaf_count=26 27 25 22 23 24 26 25 23
internal_value=-8.69777e-05 -0.00207807 -0.00282359 -0.00189333 0.00363662 0.00459711 -0.00271197 -0.0037342
internal_weight=221 144 119 93 77 53 70 45
internal_count=221 144 119 93 77 53 70 45
is_linear=0
shrinkage=0.05


Tree=62
num_leaves=9
num_cat=0
split_feature=9 7 14 2 0 0 12 14
split_gain=0.599709 0.199109 0.135703 0.0891321 0.0817818 0.0734562 0.0620855 0.0370958
threshold=0.50180277001980267 -0.74745944329460667 -0.56951104847600409 0.79828427881973318 0.41587038318870551 -0.92699967374896697 0.48352060289724202 0.18528245722128492
decision_type=2 2 2 2 2 2 2 2
left_child=2 5 -1 -3 6 -2 -4 -6
right_child=1 3 4 -5 7 -7 -8 -9
leaf_value=0.00050632101001924488 -0.0020082808379083875 0.0031968066788977015 -0.0069831074355170136 0.0072956726664588564 -0.0033915411700799532 0.0020946093446885545 -0.003307602124685353 -0.00048494273644831523
leaf_weight=29 20 36 20 21 21 24 27 23
leaf_count=29 20 36 20 21 21 24 27 23
internal_value=-8.26288e-05 0.00275643 -0.00247217 0.00470692 -0.00342136 0.000229659 -0.00487165 -0.00187218
internal_weight=221 101 120 57 91 44 47 44
internal_count=221 101 120 57 91 44 47 44
is_linear=0
shrinkage=0.05


Tree=63
num_leaves=9
num_cat=0
split_feature=9 7 14 2 16 19 15 5
split_gain=0.541237 0.179696 0.122472 0.0804418 0.061643 0.0578655 0.0370838 0.00891646
threshold=0.50180277001980267 -0.74745944329460667 -0.56951104847600409 0.79828427881973318 0.84955343672919204 -0.45908134374463122 0.6411144116148545 -1.26665156454454
decision_type=2 2 2 2 2 2 2 2
left_child=2 4 -1 -3 -2 -4 7 -7
right_child=1 3 5 -5 -6 6 -8 -9
leaf_value=0.00048100495518281548 -0.0016533051575110718 0.0030369663313548601 -0.0052438475267151188 0.0069308891271551449 0.0020896578249944885 -0.0026420295635365288 -0.00083900403494582224 -0.0041007249383255839
leaf_weight=29 22 36 26 21 22 22 23 20
leaf_count=29 22 36 26 21 22 22 23 20
internal_value=-7.84974e-05 0.00261861 -0.00234856 0.00447157 0.000218176 -0.00325029 -0.00245287 -0.00333665
internal_weight=221 101 120 57 44 91 65 42
internal_count=221 101 120 57 44 91 65 42
is_linear=0
shrinkage=0.05


Tree=64
num_leaves=9
num_cat=0
split_feature=9 7 14 2 0 0 13 23
split_gain=0.488467 0.162175 0.110531 0.0725987 0.0699588 0.060587 0.0577265 0.0391547
threshold=0.50180277001980267 -0.74745944329460667 -0.56951104847600409 0.79828427881973318 0.41587038318870551 -0.92699967374896697 0.38475310726749795 -0.21289888775692539
decision_type=2 2 2 2 2 2 2 2
left_child=2 5 -1 -3 6 -2 -4 -6
right_child=1 3 4 -5 7 -7 -8 -9
leaf_value=0.00045695468815493172 -0.0018252014834433793 0.0028851180596070158 -0.0027853375353734011 0.0065843446268921803 -2.1047269692644478e-05 0.0019009917353590329 -0.0062971016921272334 -0.003016535247055193
leaf_weight=29 20 36 25 21 20 24 22 24
leaf_count=29 20 36 25 21 20 24 22 24
internal_value=-7.45725e-05 0.00248768 -0.00223113 0.00424799 -0.00308777 0.000207268 -0.00442914 -0.00165495
internal_weight=221 101 120 57 91 44 47 44
internal_count=221 101 120 57 91 44 47 44
is_linear=0
shrinkage=0.05


Tree=65
num_leaves=8
num_cat=0
split_feature=8 16 15 19 16 14 0
split_gain=0.783959 0.37647 0.153811 0.0995895 0.0740355 0.0673428 0.0806746
threshold=-0.31913662983198515 -0.98019742234004104 0.46769778518973659 -0.17581250648423555 -0.68370121393164951 -0.60511451572587616 0.33869394277840759
decision_type=2 2 2 2 2 2 2
left_child=1 -1 5 4 -3 -2 -7
right_child=2 3 -4 -5 -6 6 -8
leaf_value=-0.0093747683113906532 0.0034970517233504279 -0.0049952910524671493 0.0061546680442988878 0.0011592806316912175 -0.0013434989856822149 -0.00072048077787700534 0.0026799149543159841
leaf_weight=20 38 23 25 22 35 37 33
leaf_count=20 38 23 25 22 35 37 33
internal_value=0.000105703 -0.00323905 0.00262056 -0.00170512 -0.00279162 0.00180248 0.000882563
internal_weight=233 100 133 80 58 108 70
internal_count=233 100 133 80 58 108 70
is_linear=0
shrinkage=0.05


Tree=66
num_leaves=9
num_cat=0
split_feature=18 19 15 18 10 11 3 16
split_gain=0.735429 0.323365 0.21869 0.108245 0.0997744 0.0665937 0.0450587 0.0360124
threshold=-0.0075839939257934088 -0.17581250648423555 0.41949284091064915 0.48350933061385232 -0.69450345101547761 0.097502261561356759 -0.66339735626044305 -0.53299079873599819
decision_type=2 2 2 2 2 2 2 2
left_child=1 4 3 -2 -1 6 -5 -6
right_child=2 -3 -4 5 7 -7 -8 -9
leaf_value=0.0013529798148998193 -0.00075855036641681386 -0.0085709145980044487 0.0074286900251172494 -0.00017916278913617136 -0.0036251681573638648 0.0047420360044472748 0.0028648640975476275 -0.0011686439183540643
leaf_weight=21 31 21 20 20 37 27 31 25
leaf_count=21 31 21 20 20 37 27 31 25
internal_value=0.000100418 -0.00302811 0.00262265 0.0017408 -0.00162572 0.00273413 0.00167113 -0.00263463
internal_weight=233 104 129 109 83 78 51 62
internal_count=233 104 129 109 83 78 51 62
is_linear=0
shrinkage=0.05


Tree=67
num_leaves=9
num_cat=0
split_feature=18 19 19 10 13 7 6 16
split_gain=0.663725 0.291837 0.123104 0.0900464 0.0858815 0.0719067 0.056536 0.0325012
threshold=-0.0075839939257934088 -0.17581250648423555 0.082467694412036135 -0.69450345101547761 -0.54963338537713169 -0.74745944329460667 -0.16861999963523513 -0.53299079873599819
decision_type=2 2 2 2 2 2 2 2
left_child=1 3 -2 -1 5 -4 -6 -5
right_child=2 -3 4 7 6 -7 -8 -9
leaf_value=0.0012853308514292753 0.0051807068884954788 -0.0081423688976515456 0.0011723008550082645 -0.0034439097762711951 0.0016026916714119062 0.0050427742690468827 -0.0018292671657123027 -0.0011102117733098567
leaf_weight=21 32 21 24 37 28 24 21 25
leaf_count=21 32 21 24 37 28 24 21 25
internal_value=9.53967e-05 -0.00287671 0.00249151 -0.00154443 0.00160436 0.00310754 0.000131852 -0.0025029
internal_weight=233 104 129 83 97 48 49 62
internal_count=233 104 129 83 97 48 49 62
is_linear=0
shrinkage=0.05


Tree=68
num_leaves=9
num_cat=0
split_feature=8 23 15 18 11 11 7 4
split_gain=0.601671 0.322565 0.134625 0.0841713 0.0781768 0.0744912 0.0392958 0.0180042
threshold=-0.31913662983198515 -0.69945737617267667 0.46769778518973659 0.48350933061385232 0.034904260712323665 0.097502261561356759 -0.46796750645643398 -0.93766229333062201
decision_type=2 2 2 2 2 2 2 2
left_child=1 -1 3 -2 7 6 -5 -3
right_child=2 4 -4 5 -6 -7 -8 -9
leaf_value=-0.0083474310735861465 -0.00048746618309191293 -0.001594806315066914 0.0056001346926204867 -2.6167494070250541e-05 0.0011562936674718832 0.0049267909531904895 0.002754446640783162 -0.0033946352158333564
leaf_weight=21 35 33 25 24 22 22 27 24
leaf_count=21 35 33 25 24 22 22 27 24
internal_value=9.06268e-05 -0.00283957 0.00229379 0.00152843 -0.00137546 0.00249495 0.00144592 -0.00235263
internal_weight=233 100 133 108 79 73 51 57
internal_count=233 100 133 108 79 73 51 57
is_linear=0
shrinkage=0.05


Tree=69
num_leaves=9
num_cat=0
split_feature=18 19 15 18 10 11 7 16
split_gain=0.549814 0.256991 0.183075 0.0820469 0.0781277 0.0563743 0.0396865 0.028679
threshold=-0.0075839939257934088 -0.17581250648423555 0.4049627960981938 0.48350933061385232 -0.69450345101547761 0.097502261561356759 -0.46796750645643398 -0.53299079873599819
decision_type=2 2 2 2 2 2 2 2
left_child=1 4 3 -2 -1 6 -5 -6
right_child=2 -3 -4 5 7 -7 -8 -9
leaf_value=0.0012670834958996803 -0.00073563715127567138 -0.0075602795241311903 0.006538536504931039 -0.00020965612493455412 -0.0031454905219426427 0.0041518237528011754 0.002616724279128162 -0.00095330809801816947
leaf_weight=21 31 21 21 23 37 27 27 25
leaf_count=21 31 21 21 23 37 27 27 25
internal_value=8.60955e-05 -0.00261897 0.00226692 0.00143633 -0.00136876 0.00231076 0.00131659 -0.00226155
internal_weight=233 104 129 108 83 77 50 62
internal_count=233 104 129 108 83 77 50 62
is_linear=0
shrinkage=0.05


Tree=70
num_leaves=9
num_cat=0
split_feature=2 13 15 18 16 2 10 22
split_gain=0.524541 0.27963 0.231765 0.14925 0.110627 0.108851 0.0927835 0.0564948
threshold=-1.4466794414229314 0.3055006481797431 0.46769778518973659 0.59148020338498009 -0.68370121393164951 0.42076673760045857 0.49825742435562331 -0.095752606925271891
decision_type=2 2 2 2 2 2 2 2
left_child=-1 2 3 5 -3 -2 7 -5
right_child=1 4 -4 6 -6 -7 -8 -9
leaf_value=-0.0076116743076237899 0.0017903914896860011 -0.0043086203090691323 0.0056186665409768471 0.005780203344766051 -0.00017088675156368743 -0.0027630118719701256 -0.00015138517112725161 0.0021084570939737288
leaf_weight=21 21 30 32 20 35 35 22 22
leaf_count=21 21 30 32 20 35 35 22 22
internal_value=-6.61135e-05 0.000664102 0.00183783 0.000829604 -0.00208061 -0.00105549 0.00247906 0.00385691
internal_weight=238 217 152 120 65 56 64 42
internal_count=238 217 152 120 65 56 64 42
is_linear=0
shrinkage=0.05


Tree=71
num_leaves=9
num_cat=0
split_feature=2 13 15 18 16 2 10 11
split_gain=0.473398 0.252366 0.209168 0.134698 0.0998408 0.0982378 0.0837371 0.018606
threshold=-1.4466794414229314 0.3055006481797431 0.46769778518973659 0.59148020338498009 -0.68370121393164951 0.42076673760045857 0.49825742435562331 0.097502261561356759
decision_type=2 2 2 2 2 2 2 2
left_child=-1 2 3 5 -3 -2 7 -5
right_child=1 4 -4 6 -6 -7 -8 -9
leaf_value=-0.0072310904179522326 0.0017008719300585136 -0.0040931892129204553 0.0053377330499642999 0.0026606589088756169 -0.00016234241941544627 -0.0026248612663974723 -0.0001438158675393259 0.0047678060724865648
leaf_weight=21 21 30 32 22 35 35 22 20
leaf_count=21 21 30 32 22 35 35 22 20
internal_value=-6.28078e-05 0.000630897 0.00174594 0.000788124 -0.00197658 -0.00100271 0.0023551 0.00366406
internal_weight=238 217 152 120 65 56 64 42
internal_count=238 217 152 120 65 56 64 42
is_linear=0
shrinkage=0.05


Tree=72
num_leaves=8
num_cat=0
split_feature=2 8 5 16 22 16 12
split_gain=0.427242 0.210849 0.113404 0.106483 0.103021 0.0892894 0.0749042
threshold=-1.4466794414229314 -0.2779760277649973 -0.14234808056777512 -0.86372350806441089 -0.12623830415098361 -0.1043864159980563 -0.77205931739435718
decision_type=2 2 2 2 2 2 2
left_child=-1 3 -3 -2 -4 -5 -6
right_child=1 2 4 5 6 -7 -8
leaf_value=-0.0068695360877817236 0.0011556200547299038 -0.00057562357294099298 -0.00029214345850050452 -0.0041137111837789625 0.0021864023371539914 -0.00015406474412884565 0.0053971991086762183
leaf_weight=21 30 34 21 35 39 24 34
leaf_count=21 30 34 21 35 39 24 34
internal_value=-5.96675e-05 0.000599352 0.00189897 -0.00126976 0.00279404 -0.00250301 0.00368184
internal_weight=238 217 128 89 94 59 73
internal_count=238 217 128 89 94 59 73
is_linear=0
shrinkage=0.05


Tree=73
num_leaves=9
num_cat=0
split_feature=8 14 13 15 18 12 10 13
split_gain=0.401362 0.37803 0.132752 0.169094 0.127847 0.0785533 0.061953 0.0394821
threshold=-0.99799670054244694 -0.39172846036235703 0.3055006481797431 0.59474967781172949 0.59148020338498009 0.54484712856701178 0.49825742435562331 -0.97284151690574239
decision_type=2 2 2 2 2 2 2 2
left_child=1 -1 3 4 5 -2 7 -6
right_child=2 -3 -4 -5 6 -7 -8 -9
leaf_value=-0.00022853752339465749 -0.0020759260986539488 -0.0091731679049276184 -0.0016252275016039421 0.0059292170091066508 0.0018556301889475436 0.0016262872205318316 0.00039204925512118893 0.0048105599391559603
leaf_weight=27 38 21 39 20 20 23 24 26
leaf_count=27 38 21 39 20 20 23 24 26
internal_value=-5.66841e-05 -0.00414181 0.000975349 0.00164702 0.00099325 -0.00068001 0.00245138 0.00352581
internal_weight=238 48 190 151 131 61 70 46
internal_count=238 48 190 151 131 61 70 46
is_linear=0
shrinkage=0.05


Tree=74
num_leaves=9
num_cat=0
split_feature=15 13 15 18 2 8 10 5
split_gain=0.385908 0.177014 0.157313 0.0665376 0.149684 0.071885 0.0139648 0.0100316
threshold=1.295738935677865 0.20722759891092707 0.46769778518973659 0.59148020338498009 0.42076673760045857 0.50639431866647566 -0.61942848648298621 -1.2150074081388775
decision_type=2 2 2 2 2 2 2 2
left_child=1 2 3 4 -1 -5 -3 -8
right_child=-2 6 -4 5 -6 -7 7 -9
leaf_value=0.00294530252438216 -0.0062095689971971776 -0.00061349911848083147 0.0054187833048079323 0.0037266351056807197 -0.0024236597531639478 0.00037357418402803673 -0.0012058227049419658 -0.002770492035640581
leaf_weight=21 23 32 23 31 34 33 20 21
leaf_count=21 23 32 23 31 34 33 20 21
internal_value=-5.38499e-05 0.000604669 0.00163333 0.000901685 -0.000373692 0.00199771 -0.00139628 -0.00200724
internal_weight=238 215 142 119 55 64 73 41
internal_count=238 215 142 119 55 64 73 41
is_linear=0
shrinkage=0.05


Tree=75
num_leaves=9
num_cat=0
split_feature=2 13 15 18 6 11 18 13
split_gain=0.391542 0.239596 0.257367 0.0691739 0.0860066 0.0762557 0.0576322 0.0179205
threshold=-1.4466794414229314 0.3055006481797431 0.46769778518973659 0.48350933061385232 -0.40656214567995735 0.097502261561356759 -1.0733609961182156 -0.63364099201015167
decision_type=2 2 2 2 2 2 2 2
left_child=-1 2 3 4 -2 7 -3 -5
right_child=1 6 -4 5 -6 -7 -8 -9
leaf_value=-0.0064316950389184061 0.0019311828422360123 -0.0030164507849674144 0.0060238726962838444 0.0017533403957107415 -0.002270394045827461 0.0040864332406692063 -0.00012607894878944055 -0.00012442826345149014
leaf_weight=20 21 35 31 24 29 26 34 27
leaf_count=20 21 35 31 24 29 26 34 27
internal_value=0.000275 0.000865898 0.00193938 0.000942372 -0.000505732 0.0018827 -0.00159221 0.000759228
internal_weight=247 227 158 127 50 77 69 51
internal_count=247 227 158 127 50 77 69 51
is_linear=0
shrinkage=0.05


Tree=76
num_leaves=9
num_cat=0
split_feature=2 13 15 19 18 6 11 19
split_gain=0.353367 0.216235 0.232273 0.0682094 0.0624295 0.077621 0.0688207 0.0353465
threshold=-1.4466794414229314 0.3055006481797431 0.46769778518973659 -0.49307250207073033 0.48350933061385232 -0.40656214567995735 0.097502261561356759 1.1830648298312023
decision_type=2 2 2 2 2 2 2 2
left_child=-1 2 4 -3 5 -2 7 -6
right_child=1 3 -4 -5 6 -7 -8 -9
leaf_value=-0.0061101105756824836 0.0018346237173924845 -0.0033050162430542217 0.0057226789694639945 -0.00013381663757639056 -0.00062111189309507612 -0.0021568743214974632 0.0038821115834602655 0.0020120144069481357
leaf_weight=20 21 30 31 39 25 29 26 26
leaf_count=20 21 30 31 39 25 29 26 26
internal_value=0.00026125 0.000822603 0.00184241 -0.0015126 0.000895254 -0.000480445 0.00178856 0.000721266
internal_weight=247 227 158 69 127 50 77 51
internal_count=247 227 158 69 127 50 77 51
is_linear=0
shrinkage=0.05


Tree=77
num_leaves=10
num_cat=0
split_feature=15 9 22 22 14 16 11 6 23
split_gain=0.332962 0.117376 0.111914 0.13511 0.0609799 0.0401102 0.0346673 0.0339257 0.024139
threshold=1.1881925599184686 1.1278439685677253 -0.098073057703028141 -0.10462260345972292 -0.56951104847600409 -0.1043864159980563 -0.39154462007171514 -0.32522941699995028 -0.62240060198918667
decision_type=2 2 2 2 2 2 2 2 2
left_child=1 2 3 4 -1 6 -4 -6 -9
right_child=-2 -3 5 -5 7 -7 -8 8 -10
leaf_value=0.0024075896801570291 -0.0048858850190299568 0.0034309026774089466 -0.00081202920409850776 0.0043887449833736932 -0.0021709567320067438 0.00033643439148917147 -0.003755976472166367 -0.00088005339282310824 0.0014365982142803462
leaf_weight=26 28 38 20 27 20 23 20 22 23
leaf_count=26 28 38 20 27 20 23 20 22 23
internal_value=0.000248187 0.000904599 0.000374214 0.00128267 0.000361086 -0.00132734 -0.002284 -0.000457516 0.000304013
internal_weight=247 219 181 118 91 63 40 65 45
internal_count=247 219 181 118 91 63 40 65 45
is_linear=0
shrinkage=0.05


Tree=78
num_leaves=9
num_cat=0
split_feature=2 13 15 16 16 13 6 13
split_gain=0.318732 0.177878 0.218479 0.102345 0.0729974 0.0438576 0.0832703 0.0252006
threshold=-1.4466794414229314 0.3055006481797431 0.6411144116148545 -0.48578235295016076 1.6851382071227934 -0.63364099201015167 -0.40656214567995735 -1.0227705661310278
decision_type=2 2 2 2 2 2 2 2
left_child=-1 2 4 -3 5 7 -7 -2
right_child=1 3 -4 -5 -6 6 -8 -9
leaf_value=-0.0058152899390552203 0.00058710994802553345 -0.0030883431569428037 0.0064427945064380772 0.00078294459700344087 0.0035354318264264454 0.0016172142791690243 -0.0019611713551991694 0.002896536866735135
leaf_weight=20 27 38 21 31 23 29 37 21
leaf_count=20 27 38 21 31 23 29 37 21
internal_value=0.000235778 0.000768912 0.00169385 -0.00134907 0.000965913 0.000447501 -0.00038885 0.00159748
internal_weight=247 227 158 69 137 114 66 48
internal_count=247 227 158 69 137 114 66 48
is_linear=0
shrinkage=0.05


Tree=79
num_leaves=11
num_cat=0
split_feature=15 13 24 15 22 14 9 6 22 13
split_gain=0.300313 0.107983 0.123874 0.121802 0.0968924 0.0810733 0.0346021 0.0253697 0.0176056 0.0143113
threshold=1.1881925599184686 0.21039769727443727 1.0000000180025095e-35 0.4049627960981938 -0.098073057703028141 -0.34282259875538962 0.80218303672396385 -0.32522941699995028 -0.11191879059573527 0.42120923844786512
decision_type=2 2 2 2 2 2 2 2 2 2
left_child=1 2 3 5 8 6 -1 -3 -4 -9
right_child=-2 7 4 -5 -6 -7 -8 9 -10 -11
leaf_value=0.0014114975442432545 -0.0046518778846283181 -0.0022780543049087838 0.00035685762297362091 0.0060110075991939415 -0.0026127138093822097 -0.00094315915135666738 0.0041303696483373639 -0.0010074646121211118 0.0024548111537296795 0.00077984657116411703
leaf_weight=22 28 21 20 22 24 20 25 24 20 21
leaf_count=22 28 21 20 22 24 20 25 24 20 21
internal_value=0.000223989 0.000847388 0.0015766 0.00278305 -0.000101121 0.00172312 0.00285771 -0.000843053 0.00140583 -0.000173386
internal_weight=247 219 153 89 64 67 47 66 40 45
internal_count=247 219 153 89 64 67 47 66 40 45
is_linear=0
shrinkage=0.05


Tree=80
num_leaves=9
num_cat=0
split_feature=8 8 13 13 12 16 18 19
split_gain=0.139372 0.10621 0.100281 0.0631171 0.0623608 0.0455945 0.0162582 0.0149527
threshold=0.12029627674233592 0.40436240368351978 0.20722759891092707 -0.27383482775174484 0.36328833546572004 -0.40569592365148061 -0.94100960368909126 0.45164123136245188
decision_type=2 2 2 2 2 2 2 2
left_child=2 -2 3 -1 -4 7 -6 -3
right_child=1 5 4 -5 6 -7 -8 -9
leaf_value=-0.00051755249649951501 0.0048350857295603915 -0.0011111748108470982 -0.0039099985305219888 0.0031086582856784976 -0.00011464592767879367 0.0021606143778906419 -0.0019285774077746152 0.00075410143195074944
leaf_weight=28 22 22 25 21 30 39 21 21
leaf_count=28 22 22 25 21 30 39 21 21
internal_value=0.000397935 0.00175025 -0.000727193 0.00103654 -0.00186434 0.000922613 -0.000861559 -0.000200226
internal_weight=229 104 125 49 76 82 51 43
internal_count=229 104 125 49 76 82 51 43
is_linear=0
shrinkage=0.05


Tree=81
num_leaves=9
num_cat=0
split_feature=23 21 8 4 16 16 17 13
split_gain=0.127482 0.136225 0.11781 0.0940451 0.0651394 0.0451917 0.0428361 0.00562007
threshold=0.68811496466002597 -1.2088491989850856 0.32493983349792349 0.45331260300653747 0.48244739406319037 1.5768078423292431 0.049040672533517612 0.26587441863586564
decision_type=2 2 2 2 2 2 2 2
left_child=1 -1 4 5 6 -4 7 -3
right_child=-2 2 3 -5 -6 -7 -8 -9
leaf_value=0.0047105251832233212 -0.0022258468073768876 -8.3161329067396852e-05 -0.00046087808150332423 0.0047064795735336489 0.001549574312626977 0.002316714098884 -0.003278408529392133 -0.0012267083750062047
leaf_weight=21 39 22 32 21 22 27 24 21
leaf_count=21 39 22 32 21 22 27 24 21
internal_value=0.000378038 0.000912519 0.000440578 0.00183299 -0.000811029 0.000810223 -0.00158615 -0.000641638
internal_weight=229 190 169 80 89 59 67 43
internal_count=229 190 169 80 89 59 67 43
is_linear=0
shrinkage=0.05


Tree=82
num_leaves=10
num_cat=0
split_feature=13 15 18 6 12 4 15 5 13
split_gain=0.100448 0.140627 0.0878042 0.0448777 0.0381041 0.0312731 0.027703 0.0184272 0.0149771
threshold=1.4689267475879844 0.86387391324727536 0.48350933061385232 -0.56969768576192392 0.54484712856701178 -0.93766229333062201 -0.34155441163536254 0.75266276644094299 -0.2865152212057856
decision_type=2 2 2 2 2 2 2 2 2
left_child=1 2 4 -4 8 -6 -5 -8 -1
right_child=-2 -3 3 6 5 -7 7 -9 -10
leaf_value=-0.0029521302506327631 -0.0028530169130218299 0.0043865947154067128 -0.00036305050329806714 0.00058016572846099736 -0.00095052050786431543 0.0014512355408995696 0.0039395365782547744 0.0018425386494279586 -0.0010171197378076615
leaf_weight=20 22 23 26 20 33 23 20 22 20
leaf_count=20 22 23 26 20 33 23 20 22 20
internal_value=0.000359136 0.000700524 0.000239765 0.00138057 -0.000805977 3.5915e-05 0.00211177 0.00284111 -0.00198462
internal_weight=229 207 184 88 96 56 62 42 40
internal_count=229 207 184 88 96 56 62 42 40
is_linear=0
shrinkage=0.05


Tree=83
num_leaves=9
num_cat=0
split_feature=23 21 8 11 6 18 2 6
split_gain=0.112681 0.117509 0.0982482 0.114032 0.0550634 0.0513958 0.033952 0.0095284
threshold=0.68811496466002597 -1.2088491989850856 0.32493983349792349 -0.039430865295903422 -0.27338585128949699 0.48350933061385232 -1.4319815703156198 0.065675618825007845
decision_type=2 2 2 2 2 2 2 2
left_child=1 -1 5 4 -4 6 -3 -8
right_child=-2 2 3 -5 -6 -7 7 -9
leaf_value=0.0043711467374426627 -0.0021068857805146717 0.00015740619678779143 -0.0014445706959813835 0.0041139542722764119 0.0018739638407714665 0.0014245092037266918 -0.0028548459159210325 -0.0013906427589245143
leaf_weight=21 39 23 25 30 25 21 25 20
leaf_count=21 39 23 25 30 25 21 25 20
internal_value=0.000341179 0.000843677 0.000405352 0.00167692 0.000214697 -0.000737629 -0.00140535 -0.00220409
internal_weight=229 190 169 80 50 89 68 45
internal_count=229 190 169 80 50 89 68 45
is_linear=0
shrinkage=0.05


Tree=84
num_leaves=9
num_cat=0
split_feature=8 8 16 17 11 7 2 16
split_gain=0.0947172 0.0924553 0.078923 0.126186 0.0417295 0.0423925 0.0409044 0.0124567
threshold=0.12029627674233592 0.40436240368351978 0.031987877509351025 0.049040672533517612 -0.039430865295903422 -0.46796750645643398 -1.4434132478435286 -0.64625710503212253
decision_type=2 2 2 2 2 2 2 2
left_child=2 -2 3 6 5 -3 -1 -8
right_child=1 4 -4 -5 -6 -7 7 -9
leaf_value=0.0014658787816118164 0.0043171000836247746 -0.0018881391056559305 0.0017901688773202262 -0.0040303717576095771 0.0020411907029373459 0.0010686446928755485 -0.00017530679608517816 -0.0018777956164822999
leaf_weight=26 22 22 27 29 33 27 21 22
leaf_count=26 22 22 27 29 33 27 21 22
internal_value=0.00032412 0.00143894 -0.000603411 -0.00126287 0.000666752 -0.000258891 -9.97116e-05 -0.00104635
internal_weight=229 104 125 98 82 49 69 43
internal_count=229 104 125 98 82 49 69 43
is_linear=0
shrinkage=0.05


Tree=85
num_leaves=10
num_cat=0
split_feature=15 23 15 18 2 6 15 11 6
split_gain=0.354322 0.100464 0.0940199 0.0830482 0.0521057 0.0355673 0.0336498 0.0307747 0.0111561
threshold=1.295738935677865 0.55442146145167082 0.6411144116148545 0.48350933061385232 0.42076673760045857 -0.24238334238781953 -0.51850981279853581 0.097502261561356759 -0.18987448468218687
decision_type=2 2 2 2 2 2 2 2 2
left_child=1 2 3 4 6 -3 -1 8 -5
right_child=-2 5 -4 7 -6 -7 -8 -9 -10
leaf_value=0.0014504252859236051 -0.0061861200451279403 -0.0031685022892253031 0.0040766247167167346 0.0018147497563622895 -0.0024218883365392688 -0.00022229836264159531 -0.0010915696036333787 0.0033924492404118858 0.00023041571585054045
leaf_weight=30 22 21 22 25 25 20 23 22 20
leaf_count=30 22 21 22 25 25 20 23 22 20
internal_value=-0.000151839 0.000486402 0.00103088 0.000568761 -0.000540263 -0.00173133 0.000347295 0.00185986 0.0011106
internal_weight=230 208 167 145 78 41 53 67 45
internal_count=230 208 167 145 78 41 53 67 45
is_linear=0
shrinkage=0.05


Tree=86
num_leaves=10
num_cat=0
split_feature=15 23 15 18 2 6 15 12 12
split_gain=0.319776 0.0906684 0.0848529 0.074951 0.0470254 0.0320995 0.030369 0.0155628 0.0202215
threshold=1.295738935677865 0.55442146145167082 0.6411144116148545 0.48350933061385232 0.42076673760045857 -0.24238334238781953 -0.51850981279853581 -0.96894974191309124 -0.11602687832169002
decision_type=2 2 2 2 2 2 2 2 2
left_child=1 2 3 4 6 -3 -1 -5 -9
right_child=-2 5 -4 7 -6 -7 -8 8 -10
leaf_value=0.001377904050362607 -0.0058768139210190968 -0.0030100772047825606 0.0038727933403358544 0.002754585208371282 -0.0023007939574308692 -0.00021118336066138001 -0.0010369911207817495 2.8284421277930962e-05 0.0022250034782866188
leaf_weight=30 22 21 22 25 25 20 23 20 22
leaf_count=30 22 21 22 25 25 20 23 20 22
internal_value=-0.000144247 0.000462082 0.000979331 0.000540323 -0.00051325 -0.00164476 0.000329931 0.00176687 0.00117895
internal_weight=230 208 167 145 78 41 53 67 42
internal_count=230 208 167 145 78 41 53 67 42
is_linear=0
shrinkage=0.05


Tree=87
num_leaves=10
num_cat=0
split_feature=15 23 15 18 2 13 6 11 12
split_gain=0.288598 0.0818282 0.0765798 0.0676433 0.0424404 0.0305015 0.0289698 0.0266116 0.0220616
threshold=1.295738935677865 0.55442146145167082 0.6411144116148545 0.48350933061385232 0.42076673760045857 0.21356779563794745 -0.24238334238781953 0.097502261561356759 -0.11602687832169002
decision_type=2 2 2 2 2 2 2 2 2
left_child=1 2 3 4 5 -1 -3 8 -5
right_child=-2 6 -4 7 -6 -7 -8 -9 -10
leaf_value=0.0017941042947183764 -0.005582973357377341 -0.0028595733423052092 0.0036791538339457476 -0.0001009690408270968 -0.0021857541711069644 -0.00065825567289721229 -0.00020062421215698127 0.0031036859285946284 0.0021137533095580609
leaf_weight=21 22 21 22 23 25 32 20 22 22
leaf_count=21 22 21 22 23 25 32 20 22 22
internal_value=-0.000137035 0.000438978 0.000930365 0.000513307 -0.000487588 0.000313434 -0.00156252 0.00167853 0.000981784
internal_weight=230 208 167 145 78 53 41 67 45
internal_count=230 208 167 145 78 53 41 67 45
is_linear=0
shrinkage=0.05


Tree=88
num_leaves=9
num_cat=0
split_feature=2 23 3 0 16 10 5 6
split_gain=0.269025 0.139923 0.136151 0.0825591 0.0630644 0.0612615 0.0312273 0.0229636
threshold=-1.4466794414229314 0.55442146145167082 0.74590000667694112 1.0834465893551402 -0.1043864159980563 -0.4159720542172039 0.57065652043678672 -0.14296437145308385
decision_type=2 2 2 2 2 2 2 2
left_child=-1 2 3 5 -3 7 -7 -2
right_child=1 4 -4 -5 -6 6 -8 -9
leaf_value=-0.0053882123182781719 -0.0024939972199499606 -0.0038728279522215222 0.0049713592014450116 0.0027603521089379986 -0.00012833397697911345 5.480705652959072e-05 0.0023470988046028654 -0.00027908071880863812
leaf_weight=22 25 23 20 33 22 39 24 22
leaf_count=22 25 23 20 33 22 39 24 22
internal_value=-0.000130183 0.000425955 0.00110734 0.000566921 -0.00204219 -9.11078e-05 0.000928061 -0.00145723
internal_weight=230 208 163 143 45 110 63 47
internal_count=230 208 163 143 45 110 63 47
is_linear=0
shrinkage=0.05


Tree=89
num_leaves=9
num_cat=0
split_feature=15 23 15 0 13 6 17 0
split_gain=0.268592 0.0677634 0.0653337 0.051909 0.0448655 0.0265017 0.0190965 0.0371747
threshold=1.295738935677865 0.55442146145167082 0.6411144116148545 1.0834465893551402 -0.70813830355264129 -0.24238334238781953 -0.14921694535876545 -0.93471731694433602
decision_type=2 2 2 2 2 2 2 2
left_child=1 2 3 4 -1 -3 7 -6
right_child=-2 5 -4 -5 6 -7 -8 -9
leaf_value=0.0017307905669979478 -0.005377463899243263 -0.0026299388285094343 0.0034181249211542308 0.0021711039712785612 0.00093684253378716476 -8.6775470990687622e-05 -0.0019187537240906664 -0.0015233622872204121
leaf_weight=27 22 21 22 35 34 20 21 28
leaf_count=27 22 21 22 35 34 20 21 28
internal_value=-0.000123674 0.000432015 0.000879182 0.000493963 -3.96726e-05 -0.00138937 -0.000615606 -0.000174218
internal_weight=230 208 167 145 110 41 83 62
internal_count=230 208 167 145 110 41 83 62
is_linear=0
shrinkage=0.05


Tree=90
num_leaves=8
num_cat=0
split_feature=2 23 15 13 11 6 11
split_gain=0.263012 0.122684 0.202125 0.0486819 0.0548785 0.0481747 0.0251561
threshold=-1.4466794414229314 0.80865377570419972 0.86387391324727536 -0.63364099201015167 -0.0081318648713867969 -0.27338585128949699 -0.7514831249536561
decision_type=2 2 2 2 2 2 2
left_child=-1 2 3 5 6 -2 -5
right_child=1 -3 -4 4 -6 -7 -8
leaf_value=-0.0053325291402870796 0.00015742608370130945 -0.0019254221893405838 0.0051053917866998484 -0.00038907255983684921 0.0013116878444432386 0.0030153195544456446 -0.0025557526254228187
leaf_weight=20 29 38 28 37 36 30 21
leaf_count=20 29 38 28 37 36 30 21
internal_value=0.000156124 0.000657371 0.00119961 0.000484831 -0.000221763 0.00161059 -0.00117356
internal_weight=239 219 181 153 94 59 58
internal_count=239 219 181 153 94 59 58
is_linear=0
shrinkage=0.05


Tree=91
num_leaves=10
num_cat=0
split_feature=2 24 21 1 16 16 1 1 14
split_gain=0.237368 0.0917428 0.108078 0.149229 0.0688428 0.059952 0.0579467 0.0331176 0.023287
threshold=-1.4466794414229314 0.11763064644524367 -0.82867376914963931 0.5483495628485624 0.15998842626666013 -0.40569592365148061 0.86852324292155092 0.76973491544065087 0.045450817714644452
decision_type=2 2 2 2 2 2 2 2 2
left_child=-1 2 -2 8 -3 6 -5 -6 -4
right_child=1 4 3 5 7 -7 -8 -9 -10
leaf_value=-0.0050659028167137875 0.004755761392325873 -0.0022996248991047552 -0.0003849628660827875 0.0030052846408745448 0.0018564843595959245 0.0042651888827094806 -0.00058406086476600692 -0.00064724924699735965 -0.0027977910987101499
leaf_weight=20 21 36 20 22 25 24 23 28 20
leaf_count=20 21 36 20 22 25 24 23 28 20
internal_value=0.000148318 0.000624502 0.00147126 0.000838462 -0.00061233 0.00224706 0.00117073 0.000533757 -0.00159138
internal_weight=239 219 130 109 89 69 45 53 40
internal_count=239 219 130 109 89 69 45 53 40
is_linear=0
shrinkage=0.05


Tree=92
num_leaves=9
num_cat=0
split_feature=14 13 23 3 12 4 3 10
split_gain=0.189355 0.0650849 0.0663889 0.0479194 0.0478899 0.0605971 0.0295988 0.0228086
threshold=1.0572152826395822 0.26587441863586564 -0.75218622593537909 -0.81877109574312723 0.54484712856701178 0.13911592053979077 0.15490433834836043 0.079588279351852656
decision_type=2 2 2 2 2 2 2 2
left_child=1 2 -1 -4 5 -5 -3 -7
right_child=-2 6 3 4 -6 7 -8 -9
leaf_value=0.0032042128616012635 -0.0043935811945370268 -3.2763410293098011e-05 0.0024381821484504539 -0.0020470744338152666 0.0020203797660651615 -0.00047650922899178811 -0.0024439990831160684 0.0017798629315317765
leaf_weight=30 21 35 28 35 25 21 20 24
leaf_count=30 21 35 28 35 25 21 20 24
internal_value=0.000140902 0.00057771 0.00107955 0.000600308 0.000110209 -0.00048672 -0.000909576 0.000726889
internal_weight=239 218 163 133 105 80 55 45
internal_count=239 218 163 133 105 80 55 45
is_linear=0
shrinkage=0.05


Tree=93
num_leaves=9
num_cat=0
split_feature=2 23 15 1 1 11 13 0
split_gain=0.216314 0.0991923 0.188535 0.0517002 0.0507975 0.0512631 0.0190277 0.00994723
threshold=-1.4466794414229314 0.80865377570419972 0.86387391324727536 0.5483495628485624 0.76973491544065087 0.1327136370389379 -0.63364099201015167 0.4505997810914526
decision_type=2 2 2 2 2 2 2 2
left_child=-1 2 3 7 -5 6 -6 -2
right_child=1 -3 -4 4 5 -7 -8 -9
leaf_value=-0.0048437448166077958 -0.0013792949215070728 -0.0017339539711094022 0.0048481938595484409 0.0031232933832064233 0.00083630808163434275 0.0024758910098832778 -0.0011072881670449587 2.5987250846810643e-05
leaf_weight=20 34 38 28 23 20 22 34 20
leaf_count=20 34 38 28 23 20 22 34 20
internal_value=0.000133857 0.000588432 0.001076 0.000385669 0.00106448 0.000441421 -0.000387438 -0.00085882
internal_weight=239 219 181 153 99 76 54 54
internal_count=239 219 181 153 99 76 54 54
is_linear=0
shrinkage=0.05


Tree=94
num_leaves=9
num_cat=0
split_feature=2 13 15 13 13 11 11 22
split_gain=0.195223 0.0964635 0.316316 0.0389255 0.0444824 0.0357373 0.0230206 0.00554518
threshold=-1.4466794414229314 0.94903061597231253 0.86387391324727536 -0.63364099201015167 -0.97284151690574239 0.034904260712323665 -0.68888512410462288 -0.10935025266843588
decision_type=2 2 2 2 2 2 2 2
left_child=-1 2 3 4 -2 6 7 -5
right_child=1 -3 -4 5 -6 -7 -8 -9
leaf_value=-0.0046015570446616043 -2.6086848193892476e-05 -0.0019777258166868705 0.0067747898355481175 -0.00099233026732690652 0.0026341295234548548 0.00093345149523682081 -0.0023453288203613325 0.00012465923046693205
leaf_weight=20 33 32 21 20 30 36 22 25
leaf_count=20 33 32 21 20 30 36 22 25
internal_value=0.000127164 0.00055901 0.000993104 0.000261686 0.00124068 -0.000337118 -0.00101981 -0.000371781
internal_weight=239 219 187 166 63 103 67 45
internal_count=239 219 187 166 63 103 67 45
is_linear=0
shrinkage=0.05


Tree=95
num_leaves=8
num_cat=0
split_feature=15 2 16 15 13 4 3
split_gain=0.178502 0.0446922 0.0488373 0.0849973 0.0364907 0.0605889 0.0328339
threshold=1.1881925599184686 -1.4434132478435286 -0.1043864159980563 -0.28121431483206977 -0.51238472960588688 0.24892111529770058 -0.36128175171077931
decision_type=2 2 2 2 2 2 2
left_child=1 -1 4 -4 -3 6 -6
right_child=-2 2 3 -5 5 -7 -8
leaf_value=0.0020726590829256634 -0.0041222536454110278 0.00052497875530046741 -0.00096813607749275188 0.0025221720298538239 0.00052964384970740264 -0.0037228776918103302 -0.0020481375378689597
leaf_weight=26 28 34 33 37 30 21 21
leaf_count=26 28 34 33 37 30 21 21
internal_value=-0.000380934 0.000137665 -0.000148187 0.000876741 -0.000825026 -0.00146253 -0.000531796
internal_weight=230 202 176 70 106 72 51
internal_count=230 202 176 70 106 72 51
is_linear=0
shrinkage=0.05


Tree=96
num_leaves=9
num_cat=0
split_feature=23 23 10 20 16 12 22 22
split_gain=0.233945 0.0734901 0.0904621 0.0408249 0.0407816 0.0454374 0.0346923 0.0243281
threshold=-0.86017579089824159 0.55442146145167082 -0.64536705064809852 -0.1632775893931335 0.15998842626666013 -0.30807573502438956 -0.11191879059573527 -0.029786769979637143
decision_type=2 2 2 2 2 2 2 2
left_child=-1 2 -2 4 6 -6 -4 -3
right_child=1 7 3 -5 5 -7 -8 -9
leaf_value=-0.0051458147823565097 0.0032071222768442161 -0.0028903107980295319 0.00021288615834871025 0.0022003156311984642 0.0027082483982667329 -0.00066211470053531237 -0.0020030994335875699 -0.00058952305310716233
leaf_weight=23 29 20 33 20 20 20 38 27
leaf_count=23 29 20 33 20 20 20 38 27
internal_value=-0.000361887 0.00016966 0.000680269 0.000120889 -0.000253783 0.00102307 -0.000973134 -0.00156858
internal_weight=230 207 160 131 111 40 71 47
internal_count=230 207 160 131 111 40 71 47
is_linear=0
shrinkage=0.05


Tree=97
num_leaves=10
num_cat=0
split_feature=15 15 20 0 22 1 22 3 19
split_gain=0.161622 0.0442048 0.0362961 0.0340722 0.0382704 0.0436431 0.0333673 0.0227124 0.0112263
threshold=1.1881925599184686 0.6411144116148545 -0.1632775893931335 1.0718701224479348 -0.11319118849801006 0.8507555581228281 -0.124432856368017 -0.52010824095974528 -0.1623037137905986
decision_type=2 2 2 2 2 2 2 2 2
left_child=1 2 3 4 6 8 -1 -5 -6
right_child=-2 -3 -4 7 5 -7 -8 -9 -10
leaf_value=-0.00095366183041523285 -0.0039038140451469064 0.0023809324717149142 0.0016340593086519783 0.0019645383304339788 -0.0015254280423624036 -0.0035992134013213221 0.0017628272433648819 -0.00024628695996048357 9.4307814724743362e-05
leaf_weight=26 28 20 26 21 23 20 20 26 20
leaf_count=26 28 20 26 21 23 20 20 26 20
internal_value=-0.000343793 0.000149675 -9.55178e-05 -0.000383781 -0.000869006 -0.00166957 0.00022742 0.000741529 -0.000772063
internal_weight=230 202 182 156 109 63 46 47 43
internal_count=230 202 182 156 109 63 46 47 43
is_linear=0
shrinkage=0.05


Tree=98
num_leaves=9
num_cat=0
split_feature=23 23 10 16 22 6 12 18
split_gain=0.209354 0.065288 0.0850181 0.0261675 0.0523684 0.0234857 0.0180859 0.0262589
threshold=-0.86017579089824159 0.55442146145167082 -0.64536705064809852 1.4560885647742907 -0.12298079594985466 -0.082827322487540975 0.54484712856701178 1.0512271455072018
decision_type=2 2 2 2 2 2 2 2
left_child=-1 2 -2 4 -4 -3 7 -6
right_child=1 5 3 -5 6 -7 -8 -9
leaf_value=-0.0048521133878713721 0.0031071440968060355 -0.002653606001033702 0.0013406243918271847 0.0014405225359449356 -0.0027647138786657407 -0.00041365290898829699 0.0001572108034798432 -0.00040049333449291148
leaf_weight=23 29 22 34 29 24 25 21 23
leaf_count=23 29 22 34 29 24 25 21 23
internal_value=-0.000326603 0.000176231 0.000657503 0.000115216 -0.000261587 -0.00146214 -0.00106269 -0.00160775
internal_weight=230 207 160 131 102 47 68 47
internal_count=230 207 160 131 102 47 68 47
is_linear=0
shrinkage=0.05


Tree=99
num_leaves=9
num_cat=0
split_feature=23 23 10 0 4 12 8 8
split_gain=0.188942 0.0593975 0.0729889 0.0518897 0.0186168 0.016499 0.030796 0.0149492
threshold=-0.86017579089824159 0.47125518588648968 -0.64536705064809852 1.0718701224479348 0.59388288958931623 0.54484712856701178 1.1632247713692541 0.61480322833586631
decision_type=2 2 2 2 2 2 2 2
left_child=-1 2 -2 -3 5 6 7 -4
right_child=1 3 4 -5 -6 -7 -8 -9
leaf_value=-0.004609507806447294 0.0029687563637188371 -0.0026474382932065057 -0.00067821288481354717 0.00054954455858519807 0.001286839388610263 0.00080550328614966337 -0.0020928775193169713 0.0011313692467021092
leaf_weight=23 28 30 25 22 28 30 23 21
leaf_count=23 28 30 25 22 28 30 23 21
internal_value=-0.000310273 0.00016742 0.000657994 -0.00129487 0.000148534 -0.000173411 -0.000599025 0.000147901
internal_weight=230 207 155 52 127 99 69 46
internal_count=230 207 155 52 127 99 69 46
is_linear=0
shrinkage=0.05


Tree=100
num_leaves=10
num_cat=0
split_feature=23 23 21 11 14 16 12 2 22
split_gain=0.21206 0.0621259 0.0518444 0.0455502 0.0376291 0.0506052 0.0267183 0.0224655 0.0149345
threshold=-0.87558714573493968 -0.048547796534138814 -1.161327270255655 0.18357451272877737 -0.56951104847600409 0.48244739406319037 0.54484712856701178 0.52201873856193681 -0.11491541816798946
decision_type=2 2 2 2 2 2 2 2 2
left_child=-1 2 -2 6 -4 8 7 -3 -6
right_child=1 3 4 -5 5 -7 -8 -9 -10
leaf_value=-0.0050750121985038282 0.0033337342263257599 -0.0018503579407242008 0.0019063343323068695 -0.0025772773757732166 -7.0021599305853736e-05 0.0021119933808222413 0.0012978043458133472 0.0004409477859735489 -0.0016949562689450642
leaf_weight=20 20 23 36 24 31 20 24 20 26
leaf_count=20 20 23 36 24 31 20 24 20 26
internal_value=-0.000141983 0.000298466 0.000987241 -0.000708205 0.000571932 -5.19437e-05 -3.86862e-05 -0.000784634 -0.00081122
internal_weight=244 224 133 91 113 77 67 43 57
internal_count=244 224 133 91 113 77 67 43 57
is_linear=0
shrinkage=0.05


Tree=101
num_leaves=11
num_cat=0
split_feature=23 23 6 21 11 8 12 17 6 0
split_gain=0.191384 0.0560686 0.0514629 0.0500578 0.041109 0.0355877 0.0241133 0.0232978 0.0214191 0.00939753
threshold=-0.87558714573493968 -0.048547796534138814 -0.66504534840605511 -1.0662834127967933 0.18357451272877737 0.24203890257427188 0.54484712856701178 -0.37421831322358845 -0.27338585128949699 0.33869394277840759
decision_type=2 2 2 2 2 2 2 2 2 2
left_child=-1 2 -2 -4 6 9 8 -7 -3 -5
right_child=1 4 3 5 -6 7 -8 -9 -10 -11
leaf_value=-0.0048212615912780164 -0.0011063676169142127 -0.0019421031931415201 0.0034249391736617934 -0.00095699689307020036 -0.0024484133978451912 0.00075534648140487468 0.0012329141377146395 0.0030887103429995478 0.00029520657642380052 0.00055741556454449895
leaf_weight=20 25 20 24 21 24 23 24 20 23 20
leaf_count=20 25 20 24 21 24 23 24 20 23 20
internal_value=-0.000134884 0.000283543 0.000937879 0.00141108 -0.000672794 0.000835697 -3.67518e-05 0.00184063 -0.000745403 -0.000218259
internal_weight=244 224 133 108 91 84 67 43 43 41
internal_count=244 224 133 108 91 84 67 43 43 41
is_linear=0
shrinkage=0.05


Tree=102
num_leaves=11
num_cat=0
split_feature=23 24 6 15 22 14 12 18 18 12
split_gain=0.172724 0.0529985 0.0702566 0.0871085 0.0466239 0.0302976 0.0245022 0.0108558 0.00807232 0.00551821
threshold=-0.87558714573493968 1.0000000180025095e-35 -0.66504534840605511 0.50190594099092867 -0.098073057703028141 -0.5393067883475412 0.54484712856701178 0.59148020338498009 1.1208857731014776 0.47141668335715592
decision_type=2 2 2 2 2 2 2 2 2 2
left_child=-1 2 -2 5 6 8 7 -3 -4 -7
right_child=1 4 3 -5 -6 9 -8 -9 -10 -11
leaf_value=-0.0045801985496655108 -0.0016110597696917302 -0.0013191549251565622 0.0024115784564942479 0.0043749364364581806 -0.0020621141871171342 -0.00076137436110348933 0.0015137831346415309 0.00030852350959321485 0.0010080007906071841 0.00039910212304675955
leaf_weight=20 22 21 21 21 35 21 23 20 20 20
leaf_count=20 22 21 21 21 35 21 23 20 20 20
internal_value=-0.00012814 0.000269366 0.000953814 0.00150165 -0.000594836 0.000765809 0.000207582 -0.000525165 0.00172691 -0.000195288
internal_weight=244 224 125 103 99 82 64 41 41 41
internal_count=244 224 125 103 99 82 64 41 41 41
is_linear=0
shrinkage=0.05


Tree=103
num_leaves=10
num_cat=0
