tree
version=v4
num_class=1
num_tree_per_iteration=1
label_index=0
max_feature_idx=24
objective=quantile
feature_names=tenor ust_10y ust_2y vix move dxy ndf_1m ndf_12m idr_regn ust_3m xau_gold inflation slope_10y_2y slope_2y_3m cds_5y indo_10y tenor_x_ust10y vix_x_move prev_owners_estimate_code prev_way_awarded_code days_since_prev_auction_code auctions_since_prev_code prev_bid_to_cover_ratio_code prev_total_penawaran_code prev_total_penawaran_diterima_code
feature_infos=[-1.3092663736294075:2.4848325291805096] [-1.7532913174764038:1.3123881426229993] [-1.485372003438332:1.2412151155228224] [-1.0302736721069992:7.1231392392735957] [-1.7932643754312494:2.6665389487131508] [-1.9213288321808943:2.5637492463211751] [-1.9790063006158658:3.8167510545317795] [-1.2512470713098498:3.1146322519119769] [-1.9176106174785361:1.9334981540311493] [-1.3405988752474727:1.1884891189885949] [-1.0298668968580529:3.2581324014601654] [-2.1084568753711919:2.5872944371080169] [-2.0528117875397771:2.1995213204092963] [-1.9672203019998769:2.9942623726750193] [-1.0183965152286725:4.277317589086338] [-1.8469545851474301:3.6556790502665883] [-1.1789552764539104:3.1342981087979869] [-1.1481023817742466:7.0082828633096357] [-3.3521728510029405:2.9195969218571602] [-7.850490202947265:1.9568012377615578] [-0.40793873229161765:8.8383818230386417] [-1.6384994226957268:1.7443578012975143] [-0.3343234773140184:23.817751237171013] [-1.0170808924395482:7.9319855325771345] [-1.2250487240448071:3.5752650037940024]
tree_sizes=1112 1261 1257 1187 1188 1271 1528 1357 1601 1506 1694 1611 1616 1677 1698 1694 1783 1863 1776 1703 1780 1794 1770 1773 1948 1863 2032 2040 1844 2037 2130 2045 2033 2035 2135 1948 2116 2120 2026 2048 2211 2118 2133 2117 2049 1952 2217 2133 2125 2060 2124 2205 2133 2212 2211 2044 2035 2298 2239 2223 2070 2067 2127 2043 2217 2239 2233 2231 2227 2229 2134 2066 2151 2064 2049 2057 2319 2218 1903 1968 2067 2057 1973 2073 1983 2240 2234 2150 2146 2141 2154 2144 2058 2061 2143 2046 2042 2242 2149 2140 2074 2149 2231 2254 2063 2154 2228 2153 2147 2234 2227 2154 2225 2134 2073 2236 2228 2068 2145 2079 2085 2142 2151 2158 2229 1987 2230 2246 2244 2255 2153 2163 2332 2236 2138 2318 2240 2154 2152 2240 2145 2235 2166 1990 2061 2138 2166 2350 2220 2067 2332 2080 2244 2336 2080 2329 2069 2158 2241 2236 2148 2236 2160 2051 2151 2229 2329 2395 2143 2168 2149 2251 2248 2164 2157 2066 2150 1991 2168 2160 2239 1994 2176 2147 2083 2162 2232 2086 2172 2165 2154 2246 2165 1989 2166 2166 2174 2251 2053 2164

Tree=0
num_leaves=12
num_cat=0
split_feature=18 18 15 0 19 15 24 1 11 0 14
split_gain=95.2178 7.60283 3.90523 2.73834 2.00511 1.03054 0.520921 0.165183 0.108928 0.0451691 0.0442197
threshold=0.087472964596973055 0.3554973138644979 -0.54803932136348654 0.31370385164486331 0.079754076183428543 0.47059963905868812 0.86382499711371918 0.87930234580488131 2.120829074941208 0.35419282802859559 -0.66266722847005044
decision_type=2 2 2 2 2 2 2 2 2 2 2
left_child=4 2 -2 -4 5 7 8 9 10 -1 -3
right_child=1 6 3 -5 -6 -7 -8 -9 -10 -11 -12
leaf_value=6.8639998674392704 6.8884998798370365 6.8987498760223387 6.8914998650550841 6.8937498688697811 6.886999869346619 6.8754998803138729 6.8984998703002933 6.8767498731613159 6.9069998741149901 6.8829998731613156 6.9054998636245726
leaf_weight=187 21 20 34 24 29 20 23 20 27 20 153
leaf_count=187 21 20 34 24 29 20 23 20 27 20 153
internal_value=6.88931 6.90871 6.89538 6.90207 6.86808 6.86662 6.91343 6.86566 6.91425 6.86524 6.91471
internal_weight=578 302 79 58 276 247 223 227 200 207 173
internal_count=578 302 79 58 276 247 223 227 200 207 173
is_linear=0
shrinkage=1


Tree=1
num_leaves=13
num_cat=0
split_feature=18 18 19 22 0 1 15 12 24 19 12 1
split_gain=92.6875 5.59102 2.5184 2.06804 1.99275 0.997403 0.934444 0.718864 0.306062 0.140952 0.0774011 0.1
threshold=0.087472964596973055 0.3554973138644979 0.034631378234245232 -0.13028208433733876 0.31370385164486331 0.89137194997850089 -0.44537272787871279 -1.1580974763798724 0.86382499711371918 -0.035615134757887544 -0.66437785194890708 0.8466434168644984
decision_type=2 2 2 2 2 2 2 2 2 2 2 2
left_child=2 3 5 4 -2 9 -4 -3 10 -1 11 -9
right_child=1 7 6 -5 -6 -7 -8 8 -10 -11 -12 -13
leaf_value=-0.026199985742568987 0.0016750043630600064 0.012149999141693124 -0.0043499839305877865 -0.00042498826980592598 0.0028124970197677792 -0.0098375022411346449 -0.0013499867916107356 0.01372501015663148 0.0080750036239623842 -0.0066499936580657788 0.017225006818771371 0.0077250039577484225
leaf_weight=185 24 24 25 33 22 21 20 20 22 25 137 20
leaf_count=185 24 24 25 33 22 21 20 20 22 25 137 20
internal_value=-0.000432526 0.0187086 -0.0213768 0.00727848 0.0141304 -0.0234848 -0.0105556 0.0227578 0.0237437 -0.0245238 0.024435 0.0225
internal_weight=578 302 276 79 46 231 45 223 199 210 177 40
internal_count=578 302 276 79 46 231 45 223 199 210 177 40
is_linear=0
shrinkage=0.05


Tree=2
num_leaves=13
num_cat=0
split_feature=18 15 19 0 15 5 7 13 0 6 12 0
split_gain=87.9396 5.93707 2.78954 2.0908 2.48449 1.492 0.719543 0.568124 0.294983 0.222052 0.175 0.225
threshold=0.087472964596973055 -0.46544805614255275 0.034631378234245232 -0.23786576079076557 0.31667624246166109 0.75411388491393516 -0.43514969954669297 -0.82599964825844363 -0.7458318597727277 0.63146113670880344 -0.77825058246016765 0.40832644164241411
decision_type=2 2 2 2 2 2 2 2 2 2 2 2
left_child=2 -2 5 4 -3 9 -4 -5 -6 -1 11 -9
right_child=1 3 6 7 8 -7 -8 10 -10 -11 -12 -13
leaf_value=-0.022390000760555306 -0.00023468218743802894 -0.00015875014662740662 -0.005382488906383532 0.0038337454795837724 0.0065062549859285397 -0.0088678086996078608 -0.0009324877858161607 0.0081425092518329755 0.010690000697970416 -0.025389985978603404 0.016613762199878711 0.014040621787309672
leaf_weight=177 34 21 22 21 20 20 23 20 26 34 140 20
leaf_count=177 34 21 22 21 20 20 23 20 26 34 140 20
internal_value=-0.000432526 0.0182119 -0.0208333 0.020709 0.0130597 -0.0230519 -0.00944444 0.0232587 0.0195652 -0.0242891 0.0241667 0.02125
internal_weight=578 302 276 268 67 231 45 201 46 211 180 40
internal_count=578 302 276 268 67 231 45 201 46 211 180 40
is_linear=0
shrinkage=0.05


Tree=3
num_leaves=12
num_cat=0
split_feature=18 18 5 18 15 16 15 7 24 5 22
split_gain=85.3984 6.24582 4.22873 1.92335 1.44012 1.94317 1.08224 0.694623 0.192393 0.180488 0.0433775
threshold=0.12320954449930906 0.3554973138644979 0.73562557921913385 -0.091209934914711757 0.10002806915542954 0.79785186377198414 1.0000000180025095e-35 -0.23258248804961562 0.33955865141118707 -1.6269950055196418 0.09609888819757624
decision_type=2 2 2 2 2 2 2 2 2 2 2
left_child=2 4 3 9 5 -2 -3 -5 10 -1 -8
right_child=1 6 -4 7 -6 -7 8 -9 -10 -11 -12
leaf_value=-0.028695505860447914 -0.00085042502284049526 0.0043705667942762544 -0.0071744134962558716 -0.0048633593350648763 0.0066761352397501699 0.0020648626796901048 0.016336736665666152 -0.00052540319152176722 0.0093292507208884157 -0.021270500722527522 0.015571694065257935
leaf_weight=20 29 39 32 25 22 20 131 22 33 185 20
leaf_count=20 29 39 32 25 22 20 131 22 33 185 20
internal_value=-0.000692042 0.0181973 -0.0202465 -0.0224206 0.00528169 0.000510204 0.0223094 -0.0132979 0.023913 -0.0245122 0.0246689
internal_weight=578 294 284 252 71 49 223 47 184 205 151
internal_count=578 294 284 252 71 49 223 47 184 205 151
is_linear=0
shrinkage=0.05


Tree=4
num_leaves=12
num_cat=0
split_feature=18 18 5 18 15 16 15 7 24 5 22
split_gain=84.6444 6.08241 4.22873 1.92335 1.44012 1.94317 1.01905 0.694623 0.355601 0.180488 0.0433775
threshold=0.12320954449930906 0.3554973138644979 0.73562557921913385 -0.091209934914711757 0.10002806915542954 0.79785186377198414 1.0000000180025095e-35 -0.23258248804961562 0.33955865141118707 -1.6269950055196418 0.09609888819757624
decision_type=2 2 2 2 2 2 2 2 2 2 2
left_child=2 4 3 9 5 -2 -3 -5 10 -1 -8
right_child=1 6 -4 7 -6 -7 8 -9 -10 -11 -12
leaf_value=-0.027260730567425531 -0.00080790377169845948 0.0041520384545624461 -0.0068156928214430758 -0.0046201913683116217 0.0063423284777626822 0.0019616195457055952 0.015519899832382845 -0.00049913303194568657 0.0088627881848439838 -0.020206975686401132 0.014793109361995028
leaf_weight=20 29 39 32 25 22 20 131 22 33 185 20
leaf_count=20 29 39 32 25 22 20 131 22 33 185 20
internal_value=-0.000778547 0.0180272 -0.0202465 -0.0224206 0.00528169 0.000510204 0.0220852 -0.0132979 0.0236413 -0.0245122 0.0246689
internal_weight=578 294 284 252 71 49 223 47 184 205 151
internal_count=578 294 284 252 71 49 223 47 184 205 151
is_linear=0
shrinkage=0.05


Tree=5
num_leaves=13
num_cat=0
split_feature=18 15 5 0 18 18 5 0 15 16 6 7
split_gain=90.0808 5.40851 4.83866 2.50205 2.00238 1.55778 0.857143 0.644305 0.611905 0.320461 0.0446524 0.0445946
threshold=0.12320954449930906 -0.4522231574217504 0.75411388491393516 -0.23786576079076557 0.56991679327851874 0.033868094743467442 0.89351570985274476 0.26579931119584038 -0.22324493944881516 0.10915393998725728 1.0095276233004313 -1.003067980439063
decision_type=2 2 2 2 2 2 2 2 2 2 2 2
left_child=2 -2 5 4 6 7 -3 9 -5 10 -1 -10
right_child=1 3 -4 8 -6 -7 -8 -9 11 -11 -12 -13
leaf_value=-0.020696613550640654 2.9025030538409882e-05 -0.00013498703547374369 0.00061951929645238663 0.0027655307460464629 0.011520130256171358 -0.0011096297709369152 0.0056982698968742534 -0.0046466300492062906 0.0076807396704880798 -0.0061741160158887533 -0.021296619534947017 0.01294023749661073
leaf_weight=167 37 21 28 22 28 22 21 37 20 23 20 165
leaf_count=167 37 21 28 22 28 22 21 37 20 23 20 165
internal_value=-4.09165e-05 0.0186306 -0.0197811 0.0210289 0.0128571 -0.0218401 0.00595238 -0.0229757 0.0237923 -0.0240476 -0.0247326 0.0247297
internal_weight=611 314 297 277 70 269 42 247 207 210 187 185
internal_count=611 314 297 277 70 269 42 247 207 210 187 185
is_linear=0
shrinkage=0.05


Tree=6
num_leaves=16
num_cat=0
split_feature=19 22 19 19 17 12 23 12 10 19 10 19 6 4 13
split_gain=78.1317 9.02019 4.04068 3.31063 2.24256 1.75152 1.22604 0.774223 0.750944 0.465145 0.511325 0.253488 0.419048 0.114894 0.0430556
threshold=0.17342968234148343 -0.22602237984217274 0.25578967129312868 -0.046482320402334389 0.047536029702507206 0.12785100175086292 0.39448575764273314 -1.1580974763798724 0.24840050125280008 -0.30977570892615575 -0.51219610704131968 0.34803844975402914 -0.21619424700735004 0.27735859649293643 -0.64681287429345946
decision_type=2 2 2 2 2 2 2 2 2 2 2 2 2 2 2
left_child=1 -1 5 9 8 -2 7 -4 -5 -3 -11 12 -9 -12 -13
right_child=2 3 6 4 -6 -7 -8 11 -10 10 13 14 -14 -15 -16
leaf_value=0.0072253867086090606 0.0040801070990770681 -0.031161783826782943 0.0091309526454778963 -0.002841401389042009 0.00095915244774560373 -0.0002141741314412915 0.0055471170016998979 0.0029700784939646011 -0.0044142985467459537 -0.010682430231038676 -0.011063029122784363 0.0055837911106080057 0.004264368708102784 -0.011964278233483051 0.016711977219184694
leaf_weight=20 33 131 30 38 22 27 30 20 25 22 20 20 22 27 124
leaf_count=20 33 131 30 38 22 27 30 20 25 22 20 20 22 27 124
internal_value=0.000450082 -0.017459 0.0183007 -0.0197368 -0.0114706 0.00666667 0.0211382 0.0224537 -0.0162698 -0.02325 -0.0199275 0.0236559 0.0202381 -0.0228723 0.0246528
internal_weight=611 305 306 285 85 60 246 216 63 200 69 186 42 47 144
internal_count=611 305 306 285 85 60 246 216 63 200 69 186 42 47 144
is_linear=0
shrinkage=0.05


Tree=7
num_leaves=14
num_cat=0
split_feature=18 15 5 0 15 0 18 15 0 4 15 0 0
split_gain=79.526 5.08162 4.88879 2.65158 3.00845 2.14378 1.82741 1.20071 1.39811 0.844828 0.554813 0.315018 0.262472
threshold=0.12320954449930906 0.075068076224514904 0.75411388491393516 1.0000000180025095e-35 -0.54803932136348654 -0.76288765582279916 -0.19841967462172136 -0.920963981031793 -0.15466313853286018 0.24067823423893309 0.19128618408891293 -0.21428426917579879 -0.66114612437674014
decision_type=2 2 2 2 2 2 2 2 2 2 2 2 2
left_child=2 3 6 -2 -5 -3 10 -8 -9 -6 11 -1 -7
right_child=1 5 -4 4 9 12 7 8 -10 -11 -12 -13 -14
leaf_value=-0.024229773586057581 -0.0013397847107669003 0.0037709241495539336 0.00067492198410477053 -0.00016502093317383171 0.0041330722438785552 0.0077412862458152267 -0.0042722284772938489 -0.0034990865163294195 7.563655459641439e-06 0.0021487608940810254 -0.023862664132576608 -0.012403729082655392 0.011957614363054869
leaf_weight=129 20 24 28 24 29 29 25 34 22 29 20 39 159
leaf_count=129 20 24 28 24 29 29 25 34 22 29 20 39 159
internal_value=0.000450082 0.0179936 -0.0180976 0.00882353 0.0128049 0.0224057 -0.0201673 -0.0138889 -0.00982143 0.0189655 -0.0228723 -0.0238095 0.0242021
internal_weight=611 314 297 102 82 212 269 81 56 58 188 168 188
internal_count=611 314 297 102 82 212 269 81 56 58 188 168 188
is_linear=0
shrinkage=0.05


Tree=8
num_leaves=17
num_cat=0
split_feature=18 18 5 19 5 11 21 0 22 14 16 6 7 1 18 0
split_gain=75.9775 4.74849 4.72462 2.20694 2.05855 1.65326 3.00357 1.00719 0.987179 0.936643 0.794484 0.767806 0.487791 0.172222 0.167675 0.225
threshold=0.12320954449930906 0.4091021837180035 0.75411388491393516 -0.078862573447954179 0.57061745089302318 -0.55357233481516255 0.1601324111880035 -0.23786576079076557 -0.18243437994241049 0.74379773424654572 0.18090112122883448 0.021921562655685189 0.96042351362518907 0.83812369627135541 0.55204850332735078 1.1896302109985839
decision_type=2 2 2 2 2 2 2 2 2 2 2 2 2 2 2 2
left_child=2 4 3 12 5 -2 -7 9 -5 -3 -6 -10 13 -1 15 -9
right_child=1 7 -4 8 10 6 -8 14 11 -11 -12 -13 -14 -15 -16 -17
leaf_value=-0.019050917122908961 0.0013396119498524596 0.0030451792316351423 0.00064117588489951425 -0.00095745177260844196 0.0035823779420762537 0.0021137407215906733 -0.0020430757416812994 0.0031669174137781034 -0.003766116480977777 0.019220978398129376 0.00408219768860616 -0.0027466331263180433 -0.022173905642136019 -0.013171185327628976 0.016359752718388434 0.0051475557266286165
leaf_weight=124 24 20 28 25 20 24 21 20 39 21 27 27 34 20 117 20
leaf_count=124 24 20 28 25 20 24 21 20 39 21 27 27 34 20 117 20
internal_value=0.000368249 0.0175159 -0.0177609 -0.0197955 0.00948276 0.00398551 -0.00166667 0.0222222 -0.0134615 0.0152439 0.0175532 -0.0166667 -0.0230337 -0.0243056 0.0240446 0.02125
internal_weight=611 314 297 269 116 69 45 198 91 41 47 66 178 144 157 40
internal_count=611 314 297 269 116 69 45 198 91 41 47 66 178 144 157 40
is_linear=0
shrinkage=0.05


Tree=9
num_leaves=16
num_cat=0
split_feature=18 18 5 11 19 0 14 11 15 22 0 15 18 16 0
split_gain=73.9337 5.36625 4.72462 2.62636 2.20694 1.60587 2.47305 1.54286 0.996402 1.24371 1.14966 0.581681 0.39661 1.2 0.207744
threshold=0.12320954449930906 0.3554973138644979 0.75411388491393516 0.060607058704469009 -0.078862573447954179 -0.23786576079076557 0.2011905260971362 -0.55357233481516255 -1.0790192478406182 -0.17679565921341442 -0.20049132071857759 0.19128618408891293 0.55204850332735078 0.66938727484314964 -0.21428426917579879
decision_type=2 2 2 2 2 2 2 2 2 2 2 2 2 2 2
left_child=2 3 4 7 11 6 -3 -2 -6 -10 -11 14 13 -7 -1
right_child=1 5 -4 -5 8 12 -8 -9 9 10 -12 -13 -14 -15 -16
leaf_value=-0.02281447087067319 0.0011914988685100881 0.00081011808147954953 0.00060911709065454296 0.0044913164866782207 -0.0038004833485440373 0.003042085728646904 0.011471779428696106 -0.00041659050565279188 -4.3541347384756793e-05 -0.0041463090652334557 -0.00032328153989666933 -0.021638910356821639 0.015541765082469006 0.0037596509428377447 -0.011547754185924797
leaf_weight=124 21 23 28 30 22 20 28 35 20 28 21 20 117 40 34
leaf_count=124 21 23 28 30 22 20 28 35 20 28 21 20 117 40 34
internal_value=0.00012275 0.0170382 -0.0177609 0.00639535 -0.0197955 0.0210526 0.0132353 0 -0.0134615 -0.0105072 -0.0147959 -0.0230337 0.0233051 0.02 -0.0240506
internal_weight=611 314 297 86 269 228 51 56 91 69 49 178 177 60 158
internal_count=611 314 297 86 269 228 51 56 91 69 49 178 177 60 158
is_linear=0
shrinkage=0.05


Tree=10
num_leaves=18
num_cat=0
split_feature=19 15 16 15 0 19 0 15 22 15 0 11 0 4 0 22 3
split_gain=60.8777 9.18816 8.23327 3.29399 4.37236 2.55027 2.41199 2.26357 1.97378 1.44379 1.06294 1.04274 0.764351 0.436364 0.132715 0.232919 0.118367
threshold=0.20925761700634832 -0.11746517663608229 -0.61685504631030008 0.17016544287992011 1.0000000180025095e-35 -0.31775429645718073 -0.33486133096418519 -1.0790192478406182 -0.11877362673357607 -0.4998386209027435 -1.2116775581140817 -0.2503698494067369 -0.71201689045187921 0.41763619808594915 -0.16193039082930874 -0.13329523434775117 -0.32743307760705692
decision_type=2 2 2 2 2 2 2 2 2 2 2 2 2 2 2 2 2
left_child=1 6 5 4 -2 -3 -1 16 11 -6 -7 -9 -5 -11 15 -14 -8
right_child=3 2 -4 12 9 10 7 8 -10 13 -12 -13 14 -15 -16 -17 -18
leaf_value=-0.021910208962004931 -0.00092649184560378295 -0.03208549041850408 0.0063833221519655316 0.0044152964845074914 0.00043441667827774926 -0.010748302798020616 -0.0051037280401491809 -0.00057734213859939043 -0.00300940595519692 0.0030169251148290501 0.00022778394453992767 0.0014791577183531858 0.011447910522658679 0.0018854574807388503 0.0112646682452767 0.0097431741919725041 -0.006405351883856914
leaf_weight=106 25 22 31 23 21 20 29 20 31 33 23 21 25 22 97 21 20
leaf_count=106 25 22 31 23 21 20 29 20 31 33 23 21 25 22 97 21 20
internal_value=0.00059322 -0.0140093 -0.00104167 0.0182584 0.0111386 -0.0111538 -0.0194934 -0.0146694 -0.00902778 0.0171053 -0.00406977 -0.00182927 0.0225904 0.0213636 0.023951 0.0217391 -0.0229592
internal_weight=590 323 96 267 101 65 227 121 72 76 43 41 166 55 143 46 49
internal_count=590 323 96 267 101 65 227 121 72 76 43 41 166 55 143 46 49
is_linear=0
shrinkage=0.05


Tree=11
num_leaves=17
num_cat=0
split_feature=18 19 5 6 3 13 23 3 14 18 3 18 6 11 1 8
split_gain=60.6637 9.21818 5.99225 4.27049 2.48626 2.43684 1.92509 1.87888 1.81551 1.03707 0.93487 0.434031 0.376361 0.120562 0.040991 0.0277778
threshold=0.28402415405982512 -0.15860185846605043 0.75411388491393516 0.46056405678993578 -0.82467691644390995 -0.9685526817683644 -0.066418906576891049 -0.13280918249902032 0.086418828798160693 -0.62725863344976285 -0.15071227077305349 0.4091021837180035 -0.029155221876535593 1.7048974603424705 0.77919562883544702 1.1021810017191889
decision_type=2 2 2 2 2 2 2 2 2 2 2 2 2 2 2 2
left_child=1 9 3 4 -3 -2 11 12 -8 14 -11 -7 15 -13 -1 -6
right_child=5 2 -4 -5 7 6 8 -9 -10 10 -12 13 -14 -15 -16 -17
leaf_value=-0.029203422293664263 0.0008026476539935379 -0.00037673324300171453 0.0045112088122154503 0.00046627848982259138 -0.002310806228161866 0.0027488999240579126 0.00076144946776726121 -0.00036689387344019942 0.0096104684965543155 -0.0083473225737035871 -0.006723530151009194 0.011201446277104666 -0.001637872761553294 0.010505104084514461 -0.021078236402202102 -0.0018833781708807119
leaf_weight=91 20 33 23 26 25 37 24 29 26 29 20 118 22 27 20 20
leaf_count=91 20 33 23 26 25 37 24 29 26 29 20 118 22 27 20 20
internal_value=0.000677966 -0.0131657 -0.00533708 -0.00887097 -0.0125969 0.019246 0.0206897 -0.0166667 0.012 -0.021875 -0.0158163 0.0230769 -0.0212687 0.0243103 -0.0245495 -0.0238889
internal_weight=590 338 178 155 129 252 232 96 50 160 49 182 67 145 111 45
internal_count=590 338 178 155 129 252 232 96 50 160 49 182 67 145 111 45
is_linear=0
shrinkage=0.05


Tree=12
num_leaves=17
num_cat=0
split_feature=18 15 18 15 16 13 6 5 15 7 0 6 16 24 4 0
split_gain=56.7248 6.3135 5.60394 4.6775 4.38439 4.27065 2.79125 2.92107 1.8087 1.39626 1.37198 0.593407 0.45614 0.260682 0.164286 0.0419355
threshold=0.13661076196268507 0.20795693871952367 -0.62725863344976285 0.2662584409116609 0.77162081837853702 -0.44453091612854406 0.46056405678993578 0.37048154174678855 -0.3307719139085587 -0.85138020928545866 -0.71201689045187921 -0.22996357909469572 -0.46196450856729693 -1.1398554428681453 0.86705324912598936 -0.30994503830500236
decision_type=2 2 2 2 2 2 2 2 2 2 2 2 2 2 2 2
left_child=2 4 14 6 5 -2 7 12 -7 -9 -3 -6 -4 -12 -1 -15
right_child=1 10 3 -5 11 8 -8 9 -10 -11 13 -13 -14 15 -16 -17
leaf_value=-0.028064803349112058 -0.0012080075735853236 0.0032443232611678585 -0.0078528743419012947 0.0029542118008903497 0.00092814070630655723 -3.1540628087767254e-05 0.00010167183358715804 -0.00035789658085163547 0.007612007678713173 -0.002791500705402572 0.0099798488802887338 0.0019181670220095094 -0.0029788169779529695 0.0077868454060444183 -0.015993256424189806 0.012401731440555831
leaf_weight=92 28 25 24 28 24 26 21 33 20 20 25 28 52 20 20 104
leaf_count=92 28 25 24 28 24 26 21 33 20 20 25 28 52 20 20 104
internal_value=0.000423729 0.0156667 -0.0153448 -0.00983146 0.00714286 -0.000675676 -0.0133333 -0.0160853 0.00869565 -0.00707547 0.0218391 0.0182692 -0.0223684 0.0236577 -0.0241071 0.0245968
internal_weight=590 300 290 178 126 74 150 129 46 53 174 52 76 149 112 124
internal_count=590 300 290 178 126 74 150 129 46 53 174 52 76 149 112 124
is_linear=0
shrinkage=0.05


Tree=13
num_leaves=18
num_cat=0
split_feature=18 15 18 16 13 15 15 6 5 0 17 6 7 1 3 1 23
split_gain=54.2504 6.06901 5.76481 4.38439 4.27065 4.06424 1.8087 1.75808 2.96056 1.3002 1.10469 0.593407 0.405333 0.27 0.255265 0.225 0.150072
threshold=0.13661076196268507 0.20795693871952367 -0.35923428418223652 0.77162081837853702 -0.44453091612854406 0.2662584409116609 -0.3307719139085587 0.28465103256608709 0.37048154174678855 -0.71201689045187921 0.21872653647048054 -0.22996357909469572 0.96042351362518907 0.58679193877362723 -0.76172734799650355 0.78381047749006627 -0.90880964164627265
decision_type=2 2 2 2 2 2 2 2 2 2 2 2 2 2 2 2 2
left_child=2 3 10 4 -2 7 -6 8 13 -3 12 -5 -1 -4 -11 -10 -16
right_child=1 9 5 11 6 -7 -8 -9 15 14 -12 -13 -14 -15 16 -17 -18
leaf_value=-0.017045952016544554 -0.001147607194906053 0.0030821070981094769 -0.0025922047285777518 0.00088173367099124715 -2.99635966833689e-05 0.0028855059569645736 0.007231407294777537 8.5387781870571733e-05 -0.001312132911742392 0.0040338899398480793 -0.0098826291674426262 0.0018222586709090384 -0.018146313867622287 -0.0025347298118389319 0.011008484179914447 -8.4601492308356013e-05 0.011454510595117285
leaf_weight=95 28 25 20 24 26 21 20 20 20 23 34 28 30 30 22 20 104
leaf_count=95 28 25 20 24 26 21 20 20 20 23 34 28 30 30 22 20 104
internal_value=0.00059322 0.0155 -0.0148276 0.00714286 -0.000675676 -0.00706107 0.00869565 -0.0109091 -0.0138889 0.0215517 -0.0212264 0.0182692 -0.0234 -0.022 0.0233221 -0.00375 0.0242063
internal_weight=590 300 290 126 74 131 46 110 90 174 159 52 125 50 149 40 126
internal_count=590 300 290 126 74 131 46 110 90 174 159 52 125 50 149 40 126
is_linear=0
shrinkage=0.05


Tree=14
num_leaves=18
num_cat=0
split_feature=18 18 15 0 15 15 0 7 3 15 0 24 21 15 0 22 0
split_gain=51.2551 7.91811 5.36651 5.15629 2.29794 2.16251 3.058 1.98062 1.78686 1.38582 0.869592 0.853743 0.860119 0.706179 1.25048 0.165812 0.0256098
threshold=0.28402415405982512 -0.5736537635962573 -0.35927975425612613 -0.66707857562897266 0.2662584409116609 0.35531402497115044 1.0000000180025095e-35 -0.23258248804961562 -0.20095642173566219 -0.69011349039750325 -0.71201689045187921 -0.61067410017465218 0.51747648414503611 -0.65644779384666974 -1.2199829892713294 0.037679023024311822 1.221813755954215
decision_type=2 2 2 2 2 2 2 2 2 2 2 2 2 2 2 2 2
left_child=1 13 7 4 -4 6 -2 9 -9 16 -7 12 -8 -1 -15 -12 -3
right_child=5 2 3 -5 -6 10 11 8 -10 -11 15 -13 -14 14 -16 -17 -18
leaf_value=-0.020930164685605424 -0.0001635336317606928 -0.0076731993416720105 -0.0063826466948273541 0.0030328388064747138 0.0010061043417341155 0.0059316881455168339 0.0030164401329063843 9.2318852814266003e-05 -0.0032578922673168532 -0.0014470906034953048 0.011591955402890619 0.0022324284628294946 0.00051645443802113007 -0.028182827832858016 -0.0071524632482159239 0.0089684405227769444 -0.0013155496133022027
leaf_weight=70 29 21 31 36 27 21 27 23 20 38 97 37 21 32 20 20 20
leaf_count=70 29 21 31 36 27 21 27 23 20 38 97 37 21 32 20 20 20
internal_value=0.00118644 -0.0115385 -0.00578704 0.00319149 -0.00603448 0.018254 0.0131579 -0.0127049 -0.00406977 -0.0174051 0.0224638 0.0179412 0.0135417 -0.0217213 -0.0173077 0.0241453 -0.0237805
internal_weight=590 338 216 94 58 252 114 122 43 79 138 85 48 122 52 117 41
internal_count=590 338 216 94 58 252 114 122 43 79 138 85 48 122 52 117 41
is_linear=0
shrinkage=0.05


Tree=15
num_leaves=18
num_cat=0
split_feature=19 15 16 19 15 0 13 6 0 6 15 6 16 9 0 10 14
split_gain=45.6009 7.5301 7.77496 6.53659 3.91813 4.41508 2.65947 1.88166 1.78661 3.42857 1.40806 1.41919 2.39127 0.451678 0.437774 0.133386 0.0396907
threshold=0.12602406007685363 -0.30598312100698882 -0.68038193208627085 0.50071483713603515 -0.54012648029082067 -0.30994503830500236 -0.30675619659102288 0.48421555669902044 0.19846599457504796 -0.019709618274289027 0.2814818874927682 -0.34578113521990456 0.86155629912901199 1.1297213553171719 -0.13745903130982434 -0.65135141611040892 -0.70116061665880169
decision_type=2 2 2 2 2 2 2 2 2 2 2 2 2 2 2 2 2
left_child=1 8 7 4 -2 6 -6 -3 13 -10 11 -7 -13 15 -5 -1 -17
right_child=3 2 -4 14 5 10 -8 -9 9 -11 -12 12 -14 -15 -16 16 -18
leaf_value=-0.011849883878379198 -0.0008812394666612767 -0.0087090796217923708 0.0015030585069932823 0.012088431381737008 -0.0016025899155952318 0.001879399477187671 0.003308059685031184 -0.0059899025128905331 -0.003605373304452231 0.00020081813931072112 0.0051176924900470325 -1.090353544666023e-05 0.0012176086562676325 -0.0061207835243791255 0.013308656913999184 -0.013874792590359021 -0.014856120423213782
leaf_weight=20 30 36 37 39 21 38 20 22 21 21 39 29 24 22 84 20 77
leaf_count=20 30 36 37 39 21 38 20 22 21 21 39 29 24 22 84 20 77
internal_value=0.00116667 -0.0137681 -0.00236842 0.0138889 0.00833333 0.0112573 -0.00304878 -0.0137931 -0.0197514 -0.0107143 0.0157692 0.0123626 0.00707547 -0.022482 0.0229675 -0.0237179 -0.0244845
internal_weight=600 276 95 324 201 171 41 58 181 42 130 91 53 139 123 117 97
internal_count=600 276 95 324 201 171 41 58 181 42 130 91 53 139 123 117 97
is_linear=0
shrinkage=0.05


Tree=16
num_leaves=19
num_cat=0
split_feature=18 18 15 16 15 13 6 23 19 10 4 14 13 9 24 1 15 6
split_gain=44.7547 7.73034 5.9494 5.46669 3.43903 3.0676 2.25186 1.88607 1.86408 2.85121 1.03975 4.57197 0.624026 0.468649 0.325269 0.231724 0.121165 0.0392473
threshold=0.033868094743467442 0.65925824303436109 -0.30598312100698882 -0.70371349315555387 -0.84461605305125287 -1.1533141553678148 0.48421555669902044 0.18096082675319794 -0.30290364083374016 -0.49680609628674149 0.35997202499294384 -0.042522213846367445 -1.0187249784785599 0.6372244495688143 -0.15194104768493677 0.89314689176873907 -0.65644779384666974 -0.79120473589078166
decision_type=2 2 2 2 2 2 2 2 2 2 2 2 2 2 2 2 2 2
left_child=2 4 8 6 -2 -6 -4 10 16 -10 13 -12 -11 -7 17 -15 -1 -3
right_child=1 14 3 -5 5 7 -8 -9 9 12 11 -13 -14 15 -16 -17 -18 -19
leaf_value=-0.016219630940927932 -0.00083717749332821176 0.012010038564904325 -0.0085526357564604145 0.0010219658776659645 -0.00048982850547303342 0.001325531373788902 -0.0056904073872459998 0.00014265316470976063 0.00029668506643594218 -0.0019408049827661868 -0.00041838464318342264 0.0042567981582171789 -0.0037242069037310534 0.0018649224151856547 0.007703519801529524 0.0015986274872755058 -0.016890156213791797 0.014703513125809309
leaf_weight=78 20 20 30 38 25 24 22 28 20 20 25 36 35 21 31 29 25 73
leaf_count=78 20 20 30 38 25 24 22 28 20 20 25 36 35 21 31 29 25 73
internal_value=0.000833333 0.0131024 -0.0143657 -0.00388889 0.00721154 0.00930851 -0.0144231 0.0118098 -0.0196629 -0.0136667 0.0142593 0.00942623 -0.0195455 0.0182432 0.0229839 0.021 -0.0240291 0.0244624
internal_weight=600 332 268 90 208 188 52 163 178 75 135 61 55 74 124 50 103 93
internal_count=600 332 268 90 208 188 52 163 178 75 135 61 55 74 124 50 103 93
is_linear=0
shrinkage=0.05


Tree=17
num_leaves=20
num_cat=0
split_feature=19 15 19 0 23 19 5 13 7 16 9 23 15 19 8 0 19 10 3
split_gain=39.8433 7.27037 6.92707 6.30013 4.17832 2.52522 1.91976 1.89277 1.83894 1.78759 1.31047 1.15256 0.91746 0.871111 0.75 0.536608 0.196581 0.466667 0.0380952
threshold=0.12602406007685363 -0.30598312100698882 0.50071483713603515 -0.75903156277970163 -0.47025942611466182 -0.22342642620899814 0.82279794057012612 -0.68344661474852297 -0.23258248804961562 -0.22077730500498718 1.0739495952838998 -0.066418906576891049 0.16338786441319925 0.32795803383652988 -0.42695286259657023 -0.13745903130982434 -0.46863695759133589 -0.49680609628674149 -0.15071227077305349
decision_type=2 2 2 2 2 2 2 2 2 2 2 2 2 2 2 2 2 2 2
left_child=1 5 4 14 7 16 11 -2 10 -5 -7 -6 13 -9 -3 -4 -1 -18 -17
right_child=2 3 15 9 6 8 -8 12 -10 -11 -12 -13 -14 -15 -16 18 17 -19 -20
leaf_value=-0.029491013074269025 0.00045078261483499915 -0.02467236292528481 0.010883507884404953 0.00038645662545317984 0.001054637998597685 -0.0031782943271436714 0.002282396923280694 0.00096190545635352906 4.0426829811757159e-05 0.005642709823812298 -0.0013250618866349042 -0.0015285353711921525 0.0028922822780917735 0.00055505464064096175 -0.0033452556579677052 0.0086600371898164722 -0.0061605087646604776 -0.0069972136379298673 0.013687515158175324
leaf_weight=69 38 24 39 27 24 23 24 25 21 20 20 35 35 20 24 20 20 28 64
leaf_count=69 38 24 39 27 24 23 24 25 21 20 20 35 35 20 24 20 20 28 64
internal_value=0.000916667 -0.0130435 0.0128086 -0.00184211 0.00708955 -0.0189227 -0.00150602 0.0131356 -0.0109375 0.0111702 -0.0168605 -0.00635593 0.0175 0.0127778 -0.0145833 0.0221545 -0.0232906 -0.0208333 0.0244048
internal_weight=600 276 324 95 201 181 83 118 64 47 43 59 80 45 48 123 117 48 84
internal_count=600 276 324 95 201 181 83 118 64 47 43 59 80 45 48 123 117 48 84
is_linear=0
shrinkage=0.05


Tree=18
num_leaves=19
num_cat=0
split_feature=18 18 15 18 10 22 0 15 0 11 13 0 13 0 15 23 0 7
split_gain=41.2421 9.99765 5.98714 5.06256 3.57649 3.2384 2.25957 2.4035 1.98413 1.37143 1.33043 0.782609 0.635294 0.637286 0.571895 0.548139 0.418248 0.0905707
threshold=0.17681441435281467 -0.62725863344976285 -0.35927975425612613 0.65925824303436109 -0.50928925593674801 -0.031366031990573334 -0.1478408199178172 -0.4998386209027435 -0.6989654981303336 0.060607058704469009 -0.67468637246579044 -0.18788486316185107 -0.320294752846155 1.1896302109985839 -0.65644779384666974 -0.061584687079141762 -1.2170167638618958 -0.39597748660170301
decision_type=2 2 2 2 2 2 2 2 2 2 2 2 2 2 2 2 2 2
left_child=1 14 4 6 -3 8 9 -8 -4 -2 11 -6 13 -9 -1 17 -16 -5
right_child=3 2 5 15 10 -7 7 12 -10 -11 -12 -13 -14 -15 16 -17 -18 -19
leaf_value=-0.015215588817351567 -0.0005441698731242895 0.00034107882636462698 0.00018182808816624707 0.0062658501972348464 -0.0029920087702683066 -0.0040948844286609947 -5.4467887674136689e-05 0.0011116874905843456 0.0030979352405065223 0.0033389248865145493 -0.0027543491325167091 -0.0010866886497506556 0.0028209705611721425 0.0017441894125890924 -0.027527153647761884 0.0054321730346766021 -0.0054014988608813933 0.015783971248353224
leaf_weight=75 28 26 35 31 23 28 20 22 28 20 34 23 34 29 31 20 20 73
leaf_count=75 28 26 35 31 23 28 20 22 28 20 34 23 34 29 31 20 20 73
internal_value=0.000916667 -0.0112229 -0.00418782 0.0150722 -0.0122642 0.00521978 0.00898693 0.0130952 0.0115079 0 -0.0175 -0.0119565 0.0167647 0.0132353 -0.0222222 0.0225806 -0.0181373 0.0240385
internal_weight=600 323 197 277 106 91 153 105 63 48 80 46 85 51 126 124 51 104
internal_count=600 323 197 277 106 91 153 105 63 48 80 46 85 51 126 124 51 104
is_linear=0
shrinkage=0.05


Tree=19
num_leaves=18
num_cat=0
split_feature=18 15 15 16 23 0 11 7 19 6 9 19 13 19 22 6 18
split_gain=39.4296 7.75287 6.81202 5.2038 4.35376 2.70074 2.58619 2.57781 2.39693 2.53502 1.93452 1.85046 0.826531 0.554147 0.261905 0.196581 0.466667
threshold=0.033868094743467442 0.20795693871952367 -0.30598312100698882 -0.70371349315555387 0.099466063325350476 -0.6989654981303336 -0.55357233481516255 -0.85138020928545866 -0.22342642620899814 -0.019709618274289027 -0.91977559499641925 0.25578967129312868 -0.36807789257015078 0.36092648932056831 -0.031366031990573334 0.0127295879411997 -0.98462443247313092
decision_type=2 2 2 2 2 2 2 2 2 2 2 2 2 2 2 2 2
left_child=2 4 8 10 6 -3 13 -8 15 -10 -4 -9 -7 -2 -14 -1 -17
right_child=1 5 3 -5 -6 12 7 11 9 -11 -12 -13 14 -15 -16 16 -18
leaf_value=-0.011152108494464841 0.00072514133120544784 0.0019885282610480727 -0.0052346078868799051 0.00080830406024570147 -0.0014622577138996729 0.0037237310967496388 0.0020436708105455283 -0.00068315105614416007 -0.00165428394547118 -0.00028945577045791371 -0.008707284579871466 0.00030124579292774013 0.010551615635748003 0.0043001171022806432 0.0086824161713396908 -0.022403136598783083 -0.0066254790360035683
leaf_weight=69 27 32 28 38 25 21 33 22 33 28 24 24 99 22 27 28 20
leaf_count=69 27 32 28 38 25 21 33 22 33 28 24 24 99 22 27 28 20
internal_value=0.000833333 0.0123494 -0.0134328 -0.00222222 0.00408497 0.0194134 0.0078125 0.00221519 -0.0191011 -0.0110656 -0.0125 -0.00543478 0.0222789 0.0168367 0.0238095 -0.0232906 -0.0208333
internal_weight=600 332 268 90 153 179 128 79 178 61 52 46 147 49 126 117 48
internal_count=600 332 268 90 153 179 128 79 178 61 52 46 147 49 126 117 48
is_linear=0
shrinkage=0.05


Tree=20
num_leaves=19
num_cat=0
split_feature=18 18 18 15 5 16 15 16 11 19 1 13 6 23 6 4 23 5
split_gain=40.1743 8.88398 7.66415 4.94967 4.26199 3.89595 3.22417 2.98408 3.2852 1.70491 1.40789 0.997253 0.819883 0.677583 0.560897 0.314447 0.040991 0.038764
threshold=0.17681441435281467 -0.53791718369392127 0.6949948229366979 0.2662584409116609 0.57061745089302318 1.612388007267471 -1.1275234944526817 -0.63864364523180572 -0.59633165968045343 -0.0023729613074568679 0.88533714789169093 -0.50585261210767196 0.28465103256608709 -0.53258523707090755 -0.15732611486990014 0.68695597499597305 -0.15087017687651988 -1.4030091820271127
decision_type=2 2 2 2 2 2 2 2 2 2 2 2 2 2 2 2 2 2
left_child=1 12 4 6 5 11 -3 -8 -9 -10 14 -2 15 -11 -6 17 -4 -1
right_child=2 3 16 -5 10 -7 7 8 9 13 -12 -13 -14 -15 -16 -17 -18 -19
leaf_value=-0.019002199682692147 -0.00054603691309400575 -0.0029096994557248125 0.01165924429160361 0.0056341995292485073 0.0026197177368751713 0.0016222717353576055 -0.0055231900689454386 0.00063241726707556904 0.00052631597010197593 -0.0002825853145103974 0.00067614187929407885 -7.69297565022864e-05 -0.014270182421745804 -0.0015232239818414595 0.0023641263648213288 -0.0066166624951705007 0.012093999993791528 -0.015676068135047006
leaf_weight=20 26 28 91 29 28 20 26 23 23 23 37 28 32 21 24 20 20 69
leaf_count=20 26 28 91 29 28 20 26 23 23 23 37 28 32 21 24 20 20 69
internal_value=0.00042517 -0.0117834 0.0144161 -0.00419075 0.00751534 -0.00135135 -0.00798611 -0.00431034 0 -0.00559701 0.0148876 -0.00833333 -0.0210993 -0.0113636 0.0201923 -0.0231651 0.0245495 -0.0244382
internal_weight=588 314 274 173 163 74 144 116 90 67 89 54 141 44 52 109 111 89
internal_count=588 314 274 173 163 74 144 116 90 67 89 54 141 44 52 109 111 89
is_linear=0
shrinkage=0.05


Tree=21
num_leaves=19
num_cat=0
split_feature=18 18 18 15 5 16 15 16 11 15 1 4 15 18 16 18 11 5
split_gain=38.7227 8.44791 6.99793 4.10491 3.9147 3.62167 2.62241 3.15899 3.06514 1.67644 1.40789 0.907407 0.661443 0.573062 0.412088 0.145946 0.0509205 0.113043
threshold=0.17681441435281467 -0.53791718369392127 0.6949948229366979 -1.1275234944526817 0.57061745089302318 1.612388007267471 0.2662584409116609 -0.63864364523180572 -0.59633165968045343 -0.44537272787871279 0.88533714789169093 0.35997202499294384 -0.67803478194409383 -1.0382293023266349 0.54118015326718361 -0.80594153296144611 1.0000000180025095e-35 -0.70470587593443301
decision_type=2 2 2 2 2 2 2 2 2 2 2 2 2 2 2 2 2 2
left_child=1 12 4 -3 5 11 7 -5 -9 -10 14 -2 15 -14 -6 -1 17 -4
right_child=2 3 16 6 10 -7 -8 8 9 -11 -12 -13 13 -15 -16 -17 -18 -19
leaf_value=-0.023004094023101329 -5.0261859307143554e-05 -0.0027642144829385542 0.009547555422674027 -0.0052470305654981567 0.0023364326585111339 0.0015411581485897054 0.0053524895527860663 0.00060079640372179277 -0.0015978855467027487 9.4542321665791473e-05 0.00064233478532935715 -0.00050585634962523334 -0.038324253565737681 -0.0050095630664557913 0.0024355294331114721 -0.0066584836348887455 0.012154093599030524 0.021272871907377078
leaf_weight=54 27 28 26 26 28 20 29 23 33 34 37 27 31 36 24 20 65 20
leaf_count=54 27 28 26 26 28 20 29 23 33 34 37 27 31 36 24 20 65 20
internal_value=0.000680272 -0.0113057 0.0144161 -0.00390173 0.00782209 -0.000675676 -0.000517241 -0.00387931 0.000555556 -0.00485075 0.0148876 -0.00740741 -0.0203901 -0.016791 0.0201923 -0.0236486 0.0240991 0.0228261
internal_weight=588 314 274 173 163 74 145 116 90 67 89 54 141 67 52 74 111 46
internal_count=588 314 274 173 163 74 145 116 90 67 89 54 141 67 52 74 111 46
is_linear=0
shrinkage=0.05


Tree=22
num_leaves=19
num_cat=0
split_feature=19 19 16 15 15 16 6 15 0 9 15 6 15 0 19 7 13 6
split_gain=35.2172 6.77258 6.42417 5.20492 2.8984 3.74122 2.24939 3.99806 2.61845 2.13926 2.60572 1.13517 1.08804 0.963333 0.37208 0.225 0.13834 0.0359155
threshold=0.17342968234148343 0.59349940395668366 -0.70692296720341707 0.051242131714938639 0.37404767924614674 0.83870492877877756 -0.16967186656569905 -0.44537272787871279 -0.13745903130982434 0.86238564606677637 -0.3307719139085587 -0.24329048785499083 0.2814818874927682 1.4558489400867951 -0.41957155616879238 -0.55874998803396003 0.18063182859373414 0.28077481172653912
decision_type=2 2 2 2 2 2 2 2 2 2 2 2 2 2 2 2 2 2
left_child=2 4 12 6 5 9 7 -4 -8 10 -2 15 14 -7 17 -6 -3 -1
right_child=1 16 3 -5 11 13 8 -9 -10 -11 -12 -13 -14 -15 -16 -17 -18 -19
leaf_value=-0.034931645237875709 -0.0005025778186417807 0.020028501508671262 -0.0053667957189149412 0.0018098950206142383 0.0052109380794081563 0.0002708339152397876 -0.0044821717366191564 -5.3530348641839259e-05 0.00023777226847310207 -0.00092125861554253068 0.0013506413120454753 0.0032360575606150688 -0.0076475944153039828 0.0016767029638711239 -0.0048618834722507836 0.0010527674093874894 0.010505052952287187 -0.02956892807995657
leaf_weight=51 21 22 42 26 20 30 29 29 32 31 31 34 24 20 36 20 70 20
leaf_count=51 21 22 42 26 20 30 29 29 32 31 31 34 24 20 36 20 70 20
internal_value=0.000595238 0.0126254 -0.0118512 -0.00506329 0.0076087 0.00319549 -0.00909091 -0.0151408 -0.00204918 -0.00331325 0.00288462 0.0155405 -0.0200382 0.014 -0.0221963 0.02125 0.023913 -0.0242958
internal_weight=588 299 289 158 207 133 132 71 61 83 52 74 131 50 107 40 92 71
internal_count=588 299 289 158 207 133 132 71 61 83 52 74 131 50 107 40 92 71
is_linear=0
shrinkage=0.05


Tree=23
num_leaves=19
num_cat=0
split_feature=18 18 18 5 16 10 16 13 8 2 1 11 6 18 6 8 6 13
split_gain=34.7165 8.31402 6.01336 2.71605 2.70481 2.19291 2.92065 3.23907 2.16569 1.88894 1.83793 1.47659 1.00478 0.909086 1.37246 0.857143 0.144444 0.139265
threshold=0.17681441435281467 -0.53791718369392127 0.78433627269253958 0.57061745089302318 1.612388007267471 1.144810898187389 -0.73307462014342406 -0.62769961840386113 0.31516967239159649 0.49869239189703735 0.88533714789169093 -0.29701638562341787 -0.14406657395557662 -1.0382293023266349 -0.18169161856837415 1.0567092360247059 0.28077481172653912 0.18063182859373414
decision_type=2 2 2 2 2 2 2 2 2 2 2 2 2 2 2 2 2 2
left_child=1 13 3 4 9 6 -3 8 -8 -2 12 -9 -5 16 -15 -12 -1 -4
right_child=2 5 17 10 -6 -7 7 11 -10 -11 15 -13 -14 14 -16 -17 -18 -19
leaf_value=-0.03398081304747063 0.0014187980017814628 -0.0050563988176083987 0.019027076433237713 0.0019842477606415443 0.001415411819182455 -0.0016755014129623991 -0.0030432928938277427 0.00025284362600064281 0.0004001807780383837 -0.00054809559774624537 -0.00013497134224174089 0.0059705244466282227 0.0024396371508229155 -0.0063558821563502125 -0.0038976812370497883 0.0014291287735147763 -0.031181117867333488 0.010678325442732861
leaf_weight=52 32 29 22 35 20 34 34 36 20 29 21 20 22 31 38 21 20 72
leaf_count=52 32 29 22 35 20 34 34 36 20 29 21 20 22 31 38 21 20 72
internal_value=0.000680272 -0.0106688 0.0136861 0.00833333 0.00154321 -0.0033237 -0.000539568 0.00318182 -0.00555556 -0.00368852 0.0138889 0.0116071 0.0197368 -0.0196809 -0.0155797 0.00595238 -0.0236111 0.0239362
internal_weight=588 314 274 180 81 173 139 110 54 61 99 56 57 141 69 42 72 94
internal_count=588 314 274 180 81 173 139 110 54 61 99 56 57 141 69 42 72 94
is_linear=0
shrinkage=0.05


Tree=24
num_leaves=21
num_cat=0
split_feature=18 18 18 15 15 0 15 4 13 23 18 7 24 18 18 6 18 3 3 13
split_gain=35.2807 7.33589 6.55518 2.85432 2.72338 2.60762 2.44275 2.25445 1.7024 2.08332 1.20669 1.47217 1.16803 1.26999 0.909086 1.37246 0.88205 0.230488 0.144444 0.139265
threshold=0.13661076196268507 -0.53791718369392127 0.78433627269253958 -0.54803932136348654 -1.1275234944526817 -0.157184430477571 0.53509226855319081 0.35997202499294384 -1.4814250481392524 0.94803951069974846 -0.12694651481704775 -0.33488698286068569 -0.51237416035542749 0.55204850332735078 -1.0382293023266349 -0.18169161856837415 0.4091021837180035 -0.37594467163992062 0.35634939066568877 0.18063182859373414
decision_type=2 2 2 2 2 2 2 2 2 2 2 2 2 2 2 2 2 2 2 2
left_child=1 14 3 -2 -3 6 7 -5 -6 10 -10 -12 13 16 18 -16 -7 -14 -1 -4
right_child=2 4 19 5 8 12 -8 -9 9 -11 11 -13 17 -15 15 -17 -18 -19 -20 -21
leaf_value=-0.031626565563310803 -0.00092266197916341948 -0.0022756100112254264 0.018075722611575817 0.00078676193180726717 -0.0014519023245634921 0.00097882106778874873 0.003462169902162793 -0.0012125349756868964 0.0011032730759335863 -0.0037180907412433851 -0.0011309341082879065 0.0004139682702292813 0.0014276994739997218 8.5296455893502106e-06 -0.00603808804853272 -0.003702797175197281 0.003247893700240501 0.0015273637760177207 -0.032391409848317031 0.010144409170596225
leaf_weight=52 20 25 22 24 22 25 22 22 33 25 22 27 21 23 31 38 22 20 20 72
leaf_count=52 20 25 22 24 22 25 22 22 33 25 22 27 21 23 31 38 22 20 20 72
internal_value=0.000765306 -0.0114407 0.0130546 0.00791457 -0.0038961 0.0099162 0.00220588 -0.00434783 -0.000968992 0.00163551 0.0054878 0.000510204 0.0146396 0.0107143 -0.0196809 -0.0155797 0.0154255 0.0213415 -0.0236111 0.0239362
internal_weight=588 295 293 199 154 179 68 46 129 107 82 49 111 70 141 69 47 41 72 94
internal_count=588 295 293 199 154 179 68 46 129 107 82 49 111 70 141 69 47 41 72 94
is_linear=0
shrinkage=0.05


Tree=25
num_leaves=20
num_cat=0
split_feature=18 15 18 4 15 0 22 15 3 23 17 23 6 0 6 3 15 13 0
split_gain=29.9885 8.03904 5.48307 4.14558 4.66734 3.21459 2.92043 3.58458 2.97563 1.83181 1.51943 1.27842 1.15201 1.05689 0.59657 0.391724 0.201429 0.104762 0.0327586
threshold=0.033868094743467442 0.63061095726663174 -0.73446837315677249 0.35997202499294384 -0.52488239257142388 -0.16193039082930874 -0.13088721053638111 -0.38252896107819168 -0.12241384092054976 0.099466063325350476 0.23006734700353901 -0.7588928620429124 -0.21619424700735004 -0.18788486316185107 0.28465103256608709 0.38407030154161093 -0.65644779384666974 -0.67468637246579044 1.0000000180025095e-35
decision_type=2 2 2 2 2 2 2 2 2 2 2 2 2 2 2 2 2 2 2
left_child=2 3 14 4 -2 -5 7 12 13 11 -7 -6 -4 17 16 -3 -1 -8 -13
right_child=1 15 6 5 9 10 8 -9 -10 -11 -12 18 -14 -15 -16 -17 -18 -19 -20
leaf_value=-0.014985684200371052 -0.00027755465454402109 0.0041422361554968928 -0.0020140270504197979 -0.0015877719138174486 0.00054429675619580562 -0.00053740697528605887 -0.0022246415595051474 0.001968643453327834 -5.3380891275356396e-05 0.00080544853510411407 0.0013052598706296604 0.0023737291645933079 0.00022804293282236988 -0.0026528049455597281 -0.011238618750291996 0.016797727465047974 -0.013263363412841667 -0.005711623227189478 0.0030809828815478116
leaf_weight=47 36 29 26 26 24 22 20 25 36 21 39 20 20 22 22 71 28 22 38
leaf_count=47 36 29 26 26 24 22 20 25 36 21 39 20 20 22 22 71 28 22 38
internal_value=0.0010101 0.0111963 -0.0113806 0.00597345 0.0113309 -0.00258621 -0.00599415 0.00176056 -0.0115 0.0167476 0.00368852 0.020122 -0.00652174 -0.0179688 -0.0208763 0.023 -0.023 -0.022619 0.0241379
internal_weight=594 326 268 226 139 87 171 71 100 103 61 82 46 64 97 100 75 42 58
internal_count=594 326 268 226 139 87 171 71 100 103 61 82 46 64 97 100 75 42 58
is_linear=0
shrinkage=0.05


Tree=26
num_leaves=22
num_cat=0
split_feature=18 15 4 23 13 5 15 15 21 0 0 19 18 0 15 8 17 23 0 1 0
split_gain=26.2276 12.1443 4.3835 6.86085 3.93831 3.0385 2.88265 2.43598 2.11748 2.00835 1.9517 1.51499 0.777967 0.776077 0.762764 0.73003 0.458089 0.406349 0.0346154 0.034127 0.0295918
threshold=-0.37710257413340537 0.49284835776599412 0.24067823423893309 0.4235724930628752 -0.62769961840386113 0.37048154174678855 -0.920963981031793 -0.35927975425612613 1.0654040626791528 -1.2116775581140817 1.2342719028255134 -0.0352831789263044 0.76646798274137151 -0.68146476899473429 -1.1023352348159723 -0.45202063086404171 -0.74961165023888798 -0.59380681052082529 -0.18269396804529431 -0.92155359457078745 1.4012703927915713
decision_type=2 2 2 2 2 2 2 2 2 2 2 2 2 2 2 2 2 2 2 2 2
left_child=7 2 3 6 10 -6 -2 13 16 -9 11 -4 15 19 -15 -3 -8 -13 -14 -1 -18
right_child=1 12 4 -5 5 -7 8 9 -10 -11 -12 17 18 14 -16 -17 20 -19 -20 -21 -22
leaf_value=-0.02887033073992893 -9.2290018454166403e-05 0.0037822972651385457 -0.0011821033494896938 -0.0035295171596174679 -0.00037665354672329344 0.0012399968770981928 0.0033672803549998466 -0.013348378262575579 0.00016902292922460482 0.00063273635986682564 0.00016909862850793546 -0.00052054431910013581 0.012672967901862299 -0.0056429124421728096 -0.0035451276369408815 0.0049366774076681002 0.0041102401572639113 -0.0033312103608495792 0.015497007022711663 -0.012817820092152 0.00096806251626544446
leaf_weight=20 36 22 22 29 20 37 20 31 31 20 20 21 20 22 27 35 29 24 45 43 20
leaf_count=20 36 22 22 29 20 37 20 31 31 20 20 21 20 22 27 35 29 24 45 43 20
internal_value=0.000673401 0.00713457 0.00186084 0.00742424 -0.00451389 0.00570175 0.0121324 -0.016411 0.0165 -0.00735294 -0.0112069 -0.0152985 0.0204918 -0.0205357 -0.0158163 0.0162281 0.0213768 -0.0205556 0.0242308 -0.0242063 0.0239796
internal_weight=594 431 309 165 144 57 136 163 100 51 87 67 122 112 49 57 69 45 65 63 49
internal_count=594 431 309 165 144 57 136 163 100 51 87 67 122 112 49 57 69 45 65 63 49
is_linear=0
shrinkage=0.05


Tree=27
num_leaves=22
num_cat=0
split_feature=18 15 15 0 4 2 23 15 0 6 21 21 22 6 3 22 3 2 0 22 0
split_gain=23.9698 10.8984 3.807 4.06338 3.76568 2.84209 2.12967 1.96616 2.00835 1.90787 1.78135 1.58181 1.82339 1.02395 1.00287 1.09394 0.937279 0.681818 0.334615 0.126984 0.0277778
threshold=-0.37710257413340537 0.49284835776599412 -0.4522231574217504 0.22723838130657131 0.21985965025693113 0.48668099489720845 -0.01398543530867128 -0.35927975425612613 -1.2116775581140817 0.071530802836976382 0.61276823693357818 0.49365354594790051 -0.13072664995102765 0.0127295879411997 0.38407030154161093 -0.16814208897701369 -0.44293687292339912 0.34936888828552831 -0.68487592776054895 -0.11877362673357607 1.3263732019617669
decision_type=2 2 2 2 2 2 2 2 2 2 2 2 2 2 2 2 2 2 2 2 2
left_child=7 2 5 9 20 6 17 13 -9 11 -6 -4 -13 19 15 -3 -15 -2 -16 -1 -5
right_child=1 14 3 4 10 -7 -8 8 -10 -11 -12 12 -14 16 18 -17 -18 -19 -20 -21 -22
leaf_value=-0.0034495168202907768 -1.5753009772123682e-05 0.004037238270840438 0.0017868072088791599 0.0056172417798141085 0.0016989661199156014 -0.001911498738299633 -0.0024761936134667819 -0.012680959349446796 0.00060109954187348436 -0.0012707031839779949 -0.00015682433240293836 0.00020797654990194482 -0.0035269417293033456 -0.0034965270663335438 0.012828400811287799 0.0021225430258773994 -0.0088670666832205043 0.00024770924040204981 0.01583310785088925 -0.0079628248766070442 0.0012292324940048394
leaf_weight=21 20 24 20 25 36 37 23 31 20 25 20 38 21 25 20 20 24 24 58 42 20
leaf_count=21 20 24 20 25 36 37 23 31 20 25 20 38 21 25 20 20 24 24 58 42 20
internal_value=0.000841751 0.00701856 0.00202265 0.00597561 0.0131188 -0.00576923 0.000373134 -0.0154908 -0.00735294 -0.000961538 0.00446429 0.0028481 -0.00127119 -0.0191964 0.0196721 0.0136364 -0.0137755 0.00681818 0.0230769 -0.0234127 0.0238889
internal_weight=594 431 309 205 101 104 67 163 51 104 56 79 59 112 122 44 49 44 78 63 45
internal_count=594 431 309 205 101 104 67 163 51 104 56 79 59 112 122 44 49 44 78 63 45
is_linear=0
shrinkage=0.05


Tree=28
num_leaves=20
num_cat=0
split_feature=18 19 18 6 4 5 22 15 15 3 1 12 6 3 18 8 23 17 3
split_gain=22.4694 6.22563 5.74518 2.98578 2.48255 3.10037 2.21591 1.8431 1.73026 1.51794 1.65882 1.2 1.16009 1.43146 1.07344 0.9 0.803136 0.625 0.447938
threshold=0.17681441435281467 -0.15860185846605043 0.78433627269253958 -0.94189840507939382 0.21985965025693113 1.1385782018373478 -0.12755499362592224 0.2662584409116609 -0.38252896107819168 -0.68953747592378967 0.69044853932353778 0.96562894765513729 -0.24111768143806125 -0.44293687292339912 -0.73446837315677249 -0.17452626585668327 -0.6828989315382934 -0.59062651726148041 0.48109348960733839
decision_type=2 2 2 2 2 2 2 2 2 2 2 2 2 2 2 2 2 2 2
left_child=1 8 3 -2 6 16 17 9 12 -3 11 15 -1 -14 -10 -11 -6 -5 -4
right_child=2 7 18 4 5 -7 -8 -9 14 10 -12 -13 13 -15 -16 -17 -18 -19 -20
leaf_value=-0.0071547964896372385 0.0033595875740440651 -0.0015077911608874619 0.0039550346965303799 0.00031368132948954579 -3.0688200051898205e-05 0.0024258126087489899 2.6990385185121647e-05 0.0044858764395358632 -0.015312522373115157 -0.0015142217245491365 0.00031184371409966884 0.00021041577462890262 -0.0033217007130168508 -0.0052942143401343957 -0.00026727921806308786 -0.00045705820690933319 -0.00055728771280247889 0.0031348732510370959 0.015260868239043291
leaf_weight=41 24 38 34 20 33 21 26 28 25 20 34 20 33 38 29 20 37 20 53
leaf_count=41 24 38 34 20 33 21 26 28 25 20 34 20 33 38 29 20 37 20 53
internal_value=0.000841751 -0.00797546 0.0115672 0.00649171 0.00398089 -0.00137363 0.0113636 -0.0009375 -0.014759 -0.00340909 0 -0.005 -0.0183036 -0.0144366 -0.00740741 -0.01 -0.00642857 0.01875 0.0221264
internal_weight=594 326 268 181 157 91 66 160 166 132 94 60 112 71 54 40 70 40 87
internal_count=594 326 268 181 157 91 66 160 166 132 94 60 112 71 54 40 70 40 87
is_linear=0
shrinkage=0.05


Tree=29
num_leaves=22
num_cat=0
split_feature=18 0 15 18 0 7 22 6 4 22 21 0 15 11 18 2 18 17 6 1 0
split_gain=20.3304 6.35551 6.42398 5.25017 2.57937 2.77417 2.20701 2.1202 1.98513 2.44464 1.7175 1.90646 1.66154 1.47176 1.06522 0.746482 0.544282 0.49 0.3848 0.102439 0.0324561
threshold=0.17681441435281467 -0.77356606721008647 -0.38252896107819168 0.8558094324972132 -0.13745903130982434 -0.67817138570695912 -0.13430806547831545 -0.94189840507939382 0.24067823423893309 -0.12968795661836921 -0.030451094389080519 -0.14368810447462008 0.51631247526319346 0.060607058704469009 -0.10907822486587974 0.81016975500623611 -0.84167811286378369 -0.59062651726148041 1.0000000180025095e-35 0.53105876656014817 -1.2284367316015417
decision_type=2 2 2 2 2 2 2 2 2 2 2 2 2 2 2 2 2 2 2 2 2
left_child=1 12 4 7 6 -6 -3 -2 9 17 -10 -12 15 14 -4 20 -8 -9 -5 -18 -1
right_child=3 2 13 18 5 -7 16 8 10 -11 11 -13 -14 -15 -16 -17 19 -19 -20 -21 -22
leaf_value=-0.025250751088531278 0.0031916081953418554 -0.00024595674153755632 0.00069988495433372935 0.0062413728205502842 -0.0016058513594081614 0.00025817668872740729 -0.003585217725765988 0.00029799726301504847 0.0022493939040703292 8.9393468422693811e-05 -0.0012081545496795522 0.00014375044427690221 -0.0067607400270971235 0.0027403412054340937 -0.00022430850623251787 -0.0031556156773659971 -0.0045246524566409539 0.0019983754932386246 0.014208777035638543 -0.004135493187282813 -0.019932508234590654
leaf_weight=37 24 23 23 27 34 38 20 20 27 35 23 37 20 26 23 21 21 25 50 20 20
leaf_count=37 24 23 23 27 34 38 20 20 27 35 23 37 20 26 23 21 21 25 50 20 20
internal_value=0.00117845 -0.00720859 -0.00263158 0.0113806 -0.00833333 -0.00138889 -0.0142857 0.00693717 0.00494012 0.010625 -0.000287356 -0.005 -0.0178571 0.00972222 0.00434783 -0.0211538 -0.0192623 0.0183333 0.0224026 -0.022561 -0.0241228
internal_weight=594 326 228 268 156 72 84 191 167 80 87 60 98 72 46 78 61 45 77 41 57
internal_count=594 326 228 268 156 72 84 191 167 80 87 60 98 72 46 78 61 45 77 41 57
is_linear=0
shrinkage=0.05


Tree=30
num_leaves=23
num_cat=0
split_feature=18 18 21 15 16 16 22 8 16 11 23 3 18 22 6 10 6 3 0 6 3 3
split_gain=18.6721 8.34872 5.48131 5.06448 3.82404 2.39967 1.98453 1.95072 2.25372 1.88368 1.7639 1.61762 1.54405 1.50852 1.11212 0.881667 0.734288 1.33741 0.730366 0.664866 0.129825 0.0363014
threshold=0.26615586410865627 -0.90421712769287244 -0.030451094389080519 -0.4522231574217504 -0.30517433463772498 1.4932783646990611 -0.061479837132377806 0.60665534992033454 0.64857382103473626 -0.82567712941246774 0.2398416202357844 -0.53418487122330927 0.069604674645804249 -0.16380358904781075 -0.11785450886230371 -0.4632210992958366 -0.16967186656569905 -0.21597191512678676 -0.97660419555406774 -0.79120473589078166 -0.055421639637071085 0.48109348960733839
decision_type=2 2 2 2 2 2 2 2 2 2 2 2 2 2 2 2 2 2 2 2 2 2
left_child=1 18 10 5 6 11 15 8 -4 -9 14 -3 -6 -11 19 -5 -13 -18 20 -2 -1 -16
right_child=2 3 7 4 12 -7 -8 9 -10 13 -12 16 -14 -15 21 -17 17 -19 -20 -21 -22 -23
leaf_value=-0.031566094643017184 0.0091813685094546578 -0.0024054099956853483 -0.0013268372467865053 -0.00064214641053395027 0.0016848663862058634 8.4923795001579094e-05 -0.003299817487184198 -6.7340658213255197e-05 0.00041073439748533507 0.0014190763841351206 0.0011950534560209115 -0.003694458943693624 0.0014961211257142892 8.0994126888533918e-05 0.0039135028417161431 0.00050879715115388364 0.00041140043409890751 -0.0021958714862529319 -0.0032045862540201146 0.001501856777414168 -0.03088548355195633 0.014408467705556439
leaf_weight=37 21 37 20 25 27 21 29 20 21 31 23 21 30 23 20 24 22 21 31 20 20 53
leaf_count=37 21 37 20 25 27 21 29 20 21 31 23 21 30 23 20 24 22 21 31 20 20 53
internal_value=0.000963149 -0.0065942 0.0113095 -0.0020428 0.00462963 -0.00942623 -0.0025641 0.00326087 -0.0054878 0.00810811 0.0180657 -0.0126238 0.0144737 0.012963 0.020614 0.00357143 -0.0078125 -0.00406977 -0.0198864 0.0140244 -0.0232456 0.0243151
internal_weight=597 345 252 257 135 122 78 115 41 74 137 101 57 54 114 49 64 43 88 41 57 73
internal_count=597 345 252 257 135 122 78 115 41 74 137 101 57 54 114 49 64 43 88 41 57 73
is_linear=0
shrinkage=0.05


Tree=31
num_leaves=22
num_cat=0
split_feature=18 18 22 14 8 8 0 17 19 0 6 0 13 22 5 17 23 24 8 3 7
split_gain=17.6635 9.93674 5.29398 3.05269 2.63119 2.63614 2.26837 2.7046 1.82647 3.39702 1.43301 1.21484 1.07302 0.985481 1.46667 0.768897 0.702671 0.527514 0.326241 0.132203 0.0324561
threshold=-0.82380982291261484 0.78433627269253958 -0.13072664995102765 -0.6555038372120211 0.51163101904596586 1.3190463458005699 1.4125420493040817 0.99737766865468458 -0.0023729613074568679 0.28137199492039006 0.049121353622782478 -0.97660419555406774 -0.57912009301779876 -0.035421147590247455 0.57061745089302318 -0.42167573235519157 -0.72033105640718165 -0.56152413026503989 1.1225849991462005 -0.055421639637071085 1.1502404403829467
decision_type=2 2 2 2 2 2 2 2 2 2 2 2 2 2 2 2 2 2 2 2 2
left_child=11 2 4 -4 8 17 7 13 12 -10 -3 19 -2 14 -5 -15 -11 -6 -19 -1 -12
right_child=1 10 3 6 5 -7 -8 -9 9 16 20 -13 -14 15 -16 -17 -18 18 -20 -21 -22
leaf_value=-0.029951661852090795 3.7086070866587667e-05 0.0035283751089758121 -0.0019597853054684755 -0.0020639564244525842 0.0013351651428758161 -7.5904690650219215e-06 0.00050818099422675898 0.001440860371146502 -0.0017107677529516253 -1.6760931702819448e-05 0.0051887250778650529 -0.0027280963055580812 0.0018634672829177747 -0.0016095352488124217 0.00058698386807689575 -0.0022212622701065056 0.0013274589104341761 0.0013513524773734798 0.00047708235640051558 -0.029341209374358513 0.017426528864779911
leaf_weight=39 21 37 33 33 22 30 21 22 37 20 20 38 24 20 22 33 21 23 24 20 37
leaf_count=39 21 37 33 33 22 30 21 22 37 20 20 38 24 20 22 33 21 23 24 20 37
internal_value=0.000711893 0.0045 0.00110837 -0.00516304 0.00630631 0.0123737 -0.00215232 -0.00461538 0.00142276 -0.00320513 0.0191489 -0.0188144 0.00944444 -0.00787037 -0.00318182 -0.0127358 0.00670732 0.0177536 0.0207447 -0.0233051 0.0241228
internal_weight=597 500 406 184 222 99 151 130 123 78 94 97 45 108 55 53 41 69 47 59 57
internal_count=597 500 406 184 222 99 151 130 123 78 94 97 45 108 55 53 41 69 47 59 57
is_linear=0
shrinkage=0.05


Tree=32
num_leaves=22
num_cat=0
split_feature=15 0 15 0 5 10 16 10 0 1 1 23 18 13 7 2 16 16 15 6 0
split_gain=16.5402 9.95483 4.83247 4.2988 3.84751 1.61763 1.57499 2.31172 1.56277 1.35 2.025 1.32991 1.62781 1.39553 1.07241 2.4677 0.913562 0.870509 0.564553 0.176267 0.0324561
threshold=-0.4522231574217504 -0.70252496866499026 0.37404767924614674 -0.13745903130982434 0.38896984744159102 -0.66794355921430759 1.4932783646990611 -0.49680609628674149 1.4374583425049714 0.59176177578629419 0.87433250879221425 -0.34480888582201602 0.12320954449930906 -0.27888269841869201 -0.18281179356536839 0.78778487877928238 -0.22598991997384751 0.79785186377198414 -0.67803478194409383 0.12392747620160495 -0.17320204734181915
decision_type=2 2 2 2 2 2 2 2 2 2 2 2 2 2 2 2 2 2 2 2 2
left_child=3 4 8 16 5 -2 7 -5 11 -6 -11 12 -3 17 15 -4 18 -14 19 -1 -16
right_child=1 2 14 6 9 -7 -8 -9 -10 10 -12 -13 13 -15 20 -17 -18 -19 -20 -21 -22
leaf_value=-0.012019724566269341 -0.006942859884136743 0.00071759003869424913 0.00030215067680261498 9.030572361066192e-05 -0.0013088459380526053 -0.0061646317868663042 0.00014626649371380919 -0.0016209957318401803 0.001288594952084954 0.0010143019752497651 -0.00064107300156415194 0.0015074497027497192 -0.00086092327778768411 0.0016269184453078902 0.011650015786959079 0.0050022311135932366 -0.0037677209608311113 -4.001149515433511e-05 -0.0043095667385790295 -0.0090171072508029582 0.015292424052426501
leaf_weight=28 21 21 32 31 24 37 24 27 22 20 20 35 26 21 20 37 30 29 21 34 37
leaf_count=28 21 21 32 31 24 37 24 27 22 20 20 35 26 21 20 37 30 29 21 34 37
internal_value=0.000795645 0.00659204 0.0117857 -0.0111538 -0.00532787 -0.0146552 -0.00243902 -0.00689655 0.00584416 0.003125 0.00875 0.00378788 0.000773196 -0.00263158 0.0190476 0.0148551 -0.0174779 -0.00681818 -0.0201807 -0.0225806 0.0241228
internal_weight=597 402 280 195 122 58 82 58 154 64 40 132 97 76 126 69 113 55 83 62 57
internal_count=597 402 280 195 122 58 82 58 154 64 40 132 97 76 126 69 113 55 83 62 57
is_linear=0
shrinkage=0.05


Tree=33
num_leaves=22
num_cat=0
split_feature=14 0 2 22 21 10 4 4 0 4 16 12 17 4 4 1 11 17 14 23 2
split_gain=11.714 10.8235 4.5989 4.00445 3.76436 3.0614 2.33445 2.20446 2.13246 2.04676 1.85889 2.14353 1.30643 1.25238 1.24838 1.21753 1.10738 0.9 0.811128 0.528814 0.456522
threshold=1.1794263850370337 -0.97660419555406774 0.63163671778150687 -0.13072664995102765 -1.1263062514573134 -0.70650687830720083 0.22861667367793195 0.57047104081096267 -0.13745903130982434 -0.24690622076811072 0.79785186377198414 -0.9645138345107297 -0.572482297117061 -0.78521532087415891 1.0892833717910093 0.81256453449192512 -0.36309897859704904 0.077346470280906146 -0.56907083060415065 -0.21968910791605836 0.78778487877928238
decision_type=2 2 2 2 2 2 2 2 2 2 2 2 2 2 2 2 2 2 2 2 2
left_child=1 2 -1 6 -5 -6 9 8 18 13 11 -8 -10 -3 -9 -4 -13 -12 -7 -2 -11
right_child=19 3 15 4 5 7 10 14 12 20 17 16 -14 -15 -16 -17 -18 -19 -20 -21 -22
leaf_value=-0.027062903409606556 0.01801433851600014 0.0011963537484444677 -0.0031392042413696422 0.0027473395069255394 0.0011555937717478316 -0.0034891281989961609 -0.0014420158733768674 0.00019287217700092452 0.00035461201357676056 0.00076573948163765064 0.00034532317112223598 -9.7022181365580276e-05 -0.00023674904587902559 -5.9931412665115152e-05 -0.00092082839784568549 0.00033190000378779949 0.001571610197499096 0.0022328476696007907 -0.0038787001724777783 0.014858708554171707 0.0015775371994088073
leaf_weight=62 39 37 20 32 22 27 28 20 27 25 20 24 22 25 27 22 22 20 35 20 21
leaf_count=62 39 37 20 32 22 27 28 20 27 25 20 24 22 25 27 22 22 20 35 20 21
internal_value=0.000460637 -0.00185874 -0.0163462 0.0016129 -0.00330189 -0.00611111 0.00630631 -0.0085443 -0.0123874 0.0115741 0.00131579 -0.00337838 -0.00459184 0.00564516 0.000531915 -0.00357143 0.00326087 0.01 -0.0185484 0.0216102 0.0195652
internal_weight=597 538 104 434 212 180 222 158 111 108 114 74 49 62 47 42 46 40 62 59 46
internal_count=597 538 104 434 212 180 222 158 111 108 114 74 49 62 47 42 46 40 62 59 46
is_linear=0
shrinkage=0.05


Tree=34
num_leaves=23
num_cat=0
split_feature=18 18 22 17 1 0 10 7 8 17 4 13 8 11 18 22 0 18 12 4 10 0
split_gain=14.8083 10.2555 3.55425 2.90528 2.55236 2.16858 1.92824 1.90861 1.83378 1.45099 1.83345 1.58505 1.35601 1.76007 1.29551 0.751111 0.739519 0.560803 0.625532 0.557184 0.514847 0.0277778
threshold=-0.85954640281495165 0.94515088225305477 -0.13072664995102765 0.23349102759741014 0.58856688056386541 1.4310809581130404 -0.52607835857810625 -0.3879395990792997 1.3190463458005699 -0.74715969904283008 -0.68789670210115017 -0.82599964825844363 0.51163101904596586 0.087817538164199474 -1.5117389860325972 0.017182190098967692 0.22723838130657131 0.31976073396216192 0.18397399035998421 -0.55108886450513783 -0.72464753087802125 -1.2487553755694873
decision_type=2 2 2 2 2 2 2 2 2 2 2 2 2 2 2 2 2 2 2 2 2 2
left_child=14 2 4 5 6 9 16 -5 12 -4 -11 -12 13 -6 21 -13 -2 -14 -19 -16 -3 -1
right_child=1 20 3 7 8 -7 -8 -9 -10 10 11 15 17 -15 19 -17 -18 18 -20 -21 -22 -23
leaf_value=-0.026857142655257561 -0.00062227072362328615 0.015229766204484374 -0.0032495768080353484 -0.0004284143417512265 -0.00029819052993074191 0.00035271392637201696 -0.0015409655104782873 0.0018298725894048574 -5.5407548793251497e-05 0.00087735876755463689 -0.00021971670677221056 -0.0021869025121317612 0.0025387485348456365 0.0012948534196562278 -0.0036769491722778548 -0.0015643025496385301 0.0016014497549175833 0.00019040687145688295 0.0012879153324567795 -0.004153158751219444 0.004056880536576957 -0.039068208217215843
leaf_weight=20 20 43 25 30 24 20 35 29 32 26 23 25 23 28 25 20 27 27 20 21 29 25
leaf_count=20 20 43 25 30 24 20 35 29 32 26 23 25 23 28 25 20 27 27 20 21 29 25
internal_value=0.000711893 0.00405138 0.00115207 -0.00378788 0.00529661 -0.00773381 -0.00182927 0.00550847 0.00909091 -0.0102941 -0.00744681 -0.0117647 0.0118852 0.00576923 -0.0178571 -0.0172222 0.00478723 0.0164286 0.0132979 -0.0119565 0.0215278 -0.0238889
internal_weight=597 506 434 198 236 139 82 59 154 119 94 68 122 52 91 45 47 70 47 46 72 45
internal_count=597 506 434 198 236 139 82 59 154 119 94 68 122 52 91 45 47 70 47 46 72 45
is_linear=0
shrinkage=0.05


Tree=35
num_leaves=21
num_cat=0
split_feature=18 19 5 8 18 5 1 13 3 18 21 4 4 13 2 0 5 22 6 0
split_gain=16.0677 6.29421 4.52557 4.66588 4.48364 2.4641 2.5108 2.2486 1.99341 1.82173 1.72857 1.41253 1.77214 1.62734 1.41324 1.27895 1.1812 1.11522 0.654248 0.0277778
threshold=0.26615586410865627 -0.88178219703544936 -0.28955097155764931 -0.22990854458714347 0.94515088225305477 -0.50678856347157608 -1.1877948631065158 -0.62769961840386113 -0.16861535904708666 -0.055473355012374166 1.1845187536648303 0.091974062938919729 1.1216678357630123 -0.30675619659102288 -1.4490648261433947 -0.1478408199178172 0.89351570985274476 -0.18243437994241049 0.049121353622782478 -1.2454925276516129
decision_type=2 2 2 2 2 2 2 2 2 2 2 2 2 2 2 2 2 2 2 2
left_child=1 19 5 8 11 6 -3 9 -4 -5 -9 13 17 -2 -15 -8 -14 -13 -6 -1
right_child=4 2 3 7 18 -7 15 10 -10 -11 -12 12 16 14 -16 -17 -18 -19 -20 -21
leaf_value=-0.025749172435678137 0.000733120514215635 -0.0025431202472821382 -0.004743917160890088 0.00017479668127591276 0.0050662218290821849 -0.0028018750960666864 -0.00099634800318826322 0.0031406166008720151 -0.00015683961794707991 -0.00048105328396277349 0.00018952072976552437 0.00010399431016780981 0.0007845434362962145 0.001618813100079608 -4.8861784671627721e-05 0.00021282748463598012 0.0039427420107492677 -0.00017407078591336056 0.012955473312720178 -0.029300145948769885
leaf_weight=20 27 39 22 35 31 39 30 36 21 26 20 38 22 20 21 27 23 36 40 25
leaf_count=20 27 39 22 35 31 39 30 36 21 26 20 38 22 20 21 27 23 36 40 25
internal_value=0.000668896 -0.00647059 -0.00381356 0.001875 0.0100775 -0.0105556 -0.00625 0.00705128 -0.0122093 0.000409836 0.0142857 0.00601604 0.00273109 0.0117647 0.0054878 0.000438596 0.0105556 -0.00202703 0.0207746 -0.0238889
internal_weight=598 340 295 160 258 135 96 117 43 61 56 187 119 68 41 57 45 74 71 45
internal_count=598 340 295 160 258 135 96 117 43 61 56 187 119 68 41 57 45 74 71 45
is_linear=0
shrinkage=0.05


Tree=36
num_leaves=23
num_cat=0
split_feature=18 18 18 5 8 13 15 3 3 21 18 8 6 10 5 18 2 1 14 6 6 1
split_gain=14.5976 5.76258 4.54333 3.93059 4.55801 2.68078 2.39459 2.05538 2.02023 1.72857 1.67846 1.55968 1.16445 2.33256 2.05977 1.75026 1.1257 1.12317 0.9 0.751036 0.28058 0.0261905
threshold=0.26615586410865627 -1.5117389860325972 0.94515088225305477 -0.28955097155764931 -0.22990854458714347 -0.62769961840386113 -1.2037645741879566 -0.16861535904708666 -0.8443125616476882 1.1845187536648303 0.12320954449930906 -1.0693872958699087 0.11927060344189483 -0.62745818670413944 -0.36276466210906622 0.65925824303436109 0.69087474389429926 0.87433250879221425 -0.71714048946517484 0.20776213556083875 0.0127295879411997 -1.0046208703539345
decision_type=2 2 2 2 2 2 2 2 2 2 2 2 2 2 2 2 2 2 2 2 2 2
left_child=1 21 12 6 7 8 -3 -5 -6 -7 11 -8 14 -14 -2 16 -16 -18 -10 -4 -13 -1
right_child=2 3 19 4 5 9 10 -9 18 -11 -12 20 13 -15 15 -17 17 -19 -20 -21 -22 -23
leaf_value=-0.034403744945424357 0.0015306410864014408 -0.0046193955053529306 0.0045570496811591756 -0.0049258459894383046 0.00054340065566196307 0.0029835857708284232 -0.00088851664439864035 -0.00014899763704971926 1.0678454425661067e-05 0.00018004469327723705 0.00011641376627991029 -0.0022162849671584438 0.0037744985103539633 -0.00021846404987120317 2.6148729006036931e-05 -0.00049217816758981845 0.0014005496714439404 0.00030895505983568054 -0.0018754640132966349 0.013037416854969397 -0.0015785254978355923 -0.024397273158299249
leaf_weight=22 24 23 34 23 22 36 39 21 20 20 26 23 23 24 35 23 23 35 20 37 25 20
leaf_count=22 24 23 34 23 22 36 39 21 20 20 26 23 23 24 35 23 23 35 20 37 25 20
internal_value=0.000334448 -0.00647059 0.00930233 -0.00402685 0.00123457 0.00635593 -0.0102941 -0.0125 -0.000806452 0.0142857 -0.00730088 -0.0106322 0.0052139 -0.00159574 0.0075 0.00474138 0.0077957 0.012069 -0.0075 0.0200704 -0.0166667 -0.0238095
internal_weight=598 340 258 298 162 118 136 44 62 56 113 87 187 47 140 116 93 58 40 71 48 42
internal_count=598 340 258 298 162 118 136 44 62 56 113 87 187 47 140 116 93 58 40 71 48 42
is_linear=0
shrinkage=0.05


Tree=37
num_leaves=23
num_cat=0
split_feature=18 18 19 22 14 17 14 5 0 8 8 15 9 0 7 24 22 4 1 7 0 0
split_gain=14.3392 5.56792 5.01611 3.79126 2.96149 1.98167 2.16074 2.58352 1.90099 1.97623 1.54789 1.66275 1.44887 1.20319 1.39538 2.38095 1.12201 1.0741 1.03608 0.431925 0.28058 0.0277778
threshold=0.033868094743467442 0.94515088225305477 -0.88178219703544936 -0.16380358904781075 -0.67644298088933763 0.21872653647048054 -0.36739381518578612 -0.16004039016556018 1.4310809581130404 1.3190463458005699 1.0567092360247059 0.86207825368040902 -1.3136348425041136 0.2109241419880532 -0.74561438288451043 -0.4140742205362028 -0.18382584479039973 0.68695597499597305 0.63152047188762961 2.0823577534798408 0.35018842381253351 -1.2454925276516129
decision_type=2 2 2 2 2 2 2 2 2 2 2 2 2 2 2 2 2 2 2 2 2 2
left_child=2 4 21 18 -2 6 7 12 9 10 11 13 -5 17 -15 -16 -12 -6 -4 20 -3 -1
right_child=1 19 3 5 8 -7 -8 -9 -10 -11 16 -13 -14 14 15 -17 -18 -19 -20 -21 -22 -23
leaf_value=-0.023177409500384296 -0.00035764910291267163 0.0022142881721953778 -0.0004737499427270642 -0.0014347404956392307 2.7276806116116605e-05 5.215922484465008e-05 -0.0046795536899663761 5.7048657809199987e-05 0.00062459829335463905 -0.00026054513147899527 0.0024415883665384499 0.0044509954748590324 -0.0040007898874310222 0.0012385557532912372 -0.00040233119922516991 0.0015407864600427868 0.00036570189131648336 -0.0010378901917064587 0.00086797457390770389 0.015824568286358254 0.0052673242058927988 -0.026114951404060172
leaf_weight=20 36 25 20 26 21 34 37 34 35 21 20 30 31 23 21 21 21 20 31 23 23 25
leaf_count=20 36 25 20 26 21 34 37 34 35 21 20 30 31 23 21 21 21 20 31 23 23 25
internal_value=0.000167224 0.00691176 -0.00872093 -0.00551643 0.00362454 -0.00925926 -0.0121094 -0.00796703 0.0056867 0.00378788 0.00550847 0.00294118 -0.0144737 0 0.00423077 -0.00119048 0.0140244 -0.00670732 0.00637255 0.0193662 0.0166667 -0.0238889
internal_weight=598 340 258 213 269 162 128 91 233 198 177 136 57 106 65 42 41 41 51 71 48 45
internal_count=598 340 258 213 269 162 128 91 233 198 177 136 57 106 65 42 41 41 51 71 48 45
is_linear=0
shrinkage=0.05


Tree=38
num_leaves=22
num_cat=0
split_feature=15 0 8 14 0 0 4 0 11 15 1 8 23 24 22 11 8 0 24 6 0
split_gain=12.4656 8.48485 4.40482 3.80175 2.49088 2.18931 2.7544 2.452 2.09814 1.77778 1.89804 1.68639 1.53094 1.67619 1.50397 1.41597 0.782974 0.59859 0.448179 0.421159 0.225
threshold=-0.67803478194409383 -0.97660419555406774 -0.46601194338542112 0.98971459457713562 -0.33486133096418519 0.22115761936891101 -0.29267406015711478 0.36457461663658841 0.02950936789334822 -1.0445946859114781 0.73446709572144486 0.49763970652458639 -0.34806562316786821 -0.64344074678106045 -0.16380358904781075 0.12280244032671007 -0.97377999364048262 1.4125420493040817 0.9129749670233317 0.74315883901205659 1.1630824932157939
decision_type=2 2 2 2 2 2 2 2 2 2 2 2 2 2 2 2 2 2 2 2 2
left_child=4 2 -2 5 18 11 20 -8 -4 10 -6 12 13 -3 -13 17 -14 -9 -1 -5 -7
right_child=1 3 8 19 9 6 7 15 -10 -11 -12 14 16 -15 -16 -17 -18 -19 -20 -21 -22
leaf_value=-0.011401329640654323 -0.018015801733111927 5.5191063378146058e-06 -0.0019054312244289663 0.0095577733953278853 -0.0029822476362262543 0.0027463155368825602 0.00050135636359911479 -0.00012143119523599921 0.00080858542932829016 6.9833050629286578e-05 -5.0970154865459528e-05 0.0012155766197121665 0.0023024380201429385 -0.00091390271077513858 -1.8308392552413012e-05 0.0011039536031298926 -4.1603662789535536e-05 0.00080388383661822438 -0.0096270429114934334 0.020720817782850176 0.0024016580982149319
leaf_weight=30 34 22 25 28 34 20 23 39 28 36 30 29 21 20 21 32 38 22 21 25 20
leaf_count=30 34 22 25 28 34 20 23 39 28 36 30 29 21 20 21 32 38 22 21 25 20
internal_value=0.000334448 0.0045302 -0.00948276 0.00791667 -0.0120861 0.00578176 0.0099359 0.00603448 -0.000471698 -0.0075 -0.0125 0.00149007 -0.00222772 -0.00952381 0.009 0.00241935 0.0029661 -0.00204918 -0.0210784 0.020283 0.02125
internal_weight=598 447 87 360 151 307 156 116 53 100 64 151 101 42 50 93 59 61 51 53 40
internal_count=598 447 87 360 151 307 156 116 53 100 64 151 101 42 50 93 59 61 51 53 40
is_linear=0
shrinkage=0.05


Tree=39
num_leaves=22
num_cat=0
split_feature=18 18 15 22 2 3 6 16 5 24 10 8 1 19 17 18 18 22 12 6 3
split_gain=12.4015 7.15259 3.7343 2.35332 1.87582 1.60067 1.55925 1.55823 3.72395 2.7761 2.33075 1.89608 1.55489 1.49014 1.36574 1.21195 1.12442 1.3638 1.00881 0.980945 0.109091
threshold=0.94515088225305477 -0.90421712769287244 -1.0445946859114781 -0.19359095794929945 0.78778487877928238 1.2665192977584652 -0.6010026450717133 -0.5859187082105739 -0.34510833017052989 0.35594197471439121 0.79013431318050875 -0.35874521405484561 0.73446709572144486 -0.88178219703544936 0.23349102759741014 -0.37710257413340537 0.49844363347384513 -0.2205133598493676 -0.92953863871084252 0.20776213556083875 -0.11952624603764116
decision_type=2 2 2 2 2 2 2 2 2 2 2 2 2 2 2 2 2 2 2 2 2
left_child=1 13 12 4 16 7 -6 9 -9 -5 11 -10 -3 20 18 -11 17 -4 -13 -2 -1
right_child=19 2 3 5 6 -7 -8 8 10 15 -12 14 -14 -15 -16 -17 -18 -19 -20 -21 -22
leaf_value=-0.023640441422617366 0.0037582287635012923 -0.0028331352544149315 -0.0001237444511254182 -0.003172835458184631 0.0011547977887265582 0.0031021460880583888 0.0030738913354067866 0.00060747627675263873 -0.0010176295792794666 0.00025458919321974527 -0.00068765431986139713 -0.00013148552834603145 -5.5050762820707537e-05 -0.0027063612729834267 0.0017245695574728437 -0.00259597840814656 0.0014376061541145015 0.0003840184484863896 0.00025609949844067613 0.011341364082415241 -0.024774132587206489
leaf_weight=24 34 30 24 30 21 20 22 35 27 25 22 31 31 38 25 22 25 22 33 37 20
leaf_count=24 34 30 24 30 21 20 22 35 27 25 22 31 31 38 25 22 25 22 33 37 20
internal_value=-0.000250836 -0.00289374 -0.000393258 0.00143229 0.00745614 -0.00111111 0.0156977 -0.0022 0.000433526 -0.00811688 -0.00326087 -0.000431034 -0.0118852 -0.0164634 0.00308989 -0.000531915 0.00246479 -0.00217391 -0.00078125 0.0193662 -0.0227273
internal_weight=598 527 445 384 114 270 43 250 173 77 138 116 61 82 89 47 71 46 64 71 44
internal_count=598 527 445 384 114 270 43 250 173 77 138 116 61 82 89 47 71 46 64 71 44
is_linear=0
shrinkage=0.05


Tree=40
num_leaves=24
num_cat=0
split_feature=15 0 15 0 5 15 6 14 4 19 3 14 3 19 0 2 2 21 12 0 23 1 22
split_gain=11.7328 6.45163 3.80613 3.64354 2.92827 2.20161 1.90803 1.85239 1.80451 3.03123 1.65131 1.55196 1.45219 1.78947 1.42857 1.06294 1.05495 1.04394 0.981818 0.611729 0.478139 0.266327 0.107375
threshold=-0.44702644731111613 -0.70252496866499026 1.079923613007453 -1.1894308676516725 0.62746899090453945 -1.0445946859114781 0.0127295879411997 -0.3504693193563761 0.40706167923794795 0.45393818381545736 -0.11606113217815077 -0.67644298088933763 -0.3921152029842086 0.38342377664345056 0.22115761936891101 -1.4452430180070854 0.37421064117153807 0.61276823693357818 -0.97671448420836471 -0.13745903130982434 -0.77168064477748499 -0.12708964926017305 -0.16814208897701369
decision_type=2 2 2 2 2 2 2 2 2 2 2 2 2 2 2 2 2 2 2 2 2 2 2
left_child=3 4 8 -1 10 7 14 16 11 17 -2 -3 22 -14 -7 -12 -5 20 -6 -8 -10 -4 -13
right_child=1 2 21 5 18 6 19 -9 9 -11 15 12 13 -15 -16 -17 -18 -19 -20 -21 -22 -23 -24
leaf_value=-0.029175900816012158 -0.0033430511466236105 -0.00011483134467524803 0.020768012106892633 -0.0017910608049318323 -0.00019925966648193238 -0.0027234881024453374 7.5123880298000326e-05 -0.004141846680578487 0.0011172905699100566 -0.00057343866596089039 -0.0071074987070485207 0.0020242573958025646 6.8080234745027116e-06 0.0013417312806967008 4.0417465444830826e-05 0.0012492451500520031 1.5559497982509109e-05 -3.8555737967804764e-05 0.0016685784026158057 0.00040082216366355006 0.0028927043922833077 0.0059041521497759548 0.0010147612113301286
leaf_weight=38 33 20 29 28 20 21 20 22 22 28 20 21 34 38 24 23 24 25 24 23 20 20 20
leaf_count=38 33 20 29 28 20 21 20 22 22 28 20 21 34 38 24 23 24 25 24 23 20 20 20
internal_value=0.000125628 0.00510076 0.00929603 -0.00975 -0.00458333 -0.00648148 -0.00113636 -0.0128378 0.00657895 0.00131579 -0.0105263 0.0103383 0.0126106 0.00833333 -0.00833333 -0.00406977 -0.00769231 0.00708955 0.00568182 0.00639535 0.0119048 0.0219388 0.020122
internal_weight=597 397 277 200 120 162 88 74 228 95 76 133 113 72 45 43 52 67 44 43 42 49 41
internal_count=597 397 277 200 120 162 88 74 228 95 76 133 113 72 45 43 52 67 44 43 42 49 41
is_linear=0
shrinkage=0.05


Tree=41
num_leaves=23
num_cat=0
split_feature=15 0 0 21 13 15 19 6 14 13 14 19 0 21 22 22 2 22 16 0 1 22
split_gain=11.1463 6.28491 3.77545 3.7433 2.69532 2.42061 2.28167 1.96364 1.93806 2.01484 1.85239 1.7241 1.30537 1.39566 1.17405 1.15238 1.05495 1.05 0.891799 0.625 0.258511 0.257703
threshold=-0.44702644731111613 -0.70252496866499026 -1.1894308676516725 1.1845187536648303 -1.1572960836781478 -1.0445946859114781 -0.7533618805050627 -0.029155221876535593 0.96239924549432043 0.62023671405449543 -0.3504693193563761 0.011510945753830144 0.19846599457504796 0.041017720202325983 -0.08576116486588177 -0.14292506594116619 0.37421064117153807 -0.082354210292963012 1.1603314672881029 0.22723838130657131 -0.079521209281789587 -0.10604632059511764
decision_type=2 2 2 2 2 2 2 2 2 2 2 2 2 2 2 2 2 2 2 2 2 2
left_child=2 6 -1 4 -3 10 -2 19 9 12 16 14 13 -6 -8 -13 -4 -9 21 -7 -10 -14
right_child=1 3 5 -5 8 7 11 17 20 -11 -12 15 18 -15 -16 -17 -18 -19 -20 -21 -22 -23
leaf_value=-0.02771710577521154 -0.014766879043663694 -0.0001456140087722435 -0.0017015077646852506 -5.8715630373651352e-05 -6.3635010683493759e-05 -0.0022812788019927368 0.001551093924726521 0.0016848474415262383 0.025464007669741884 -6.4818557683965497e-05 -0.0039347543465495516 -0.00017176652592316711 0.002589140312198146 0.00091500363735446126 -0.00061598047251667511 -0.002435200742152244 1.4781523083384763e-05 6.1494470957912389e-05 0.0011972525777511401 -4.5993981565328751e-05 0.008539953127700662 0.0031421503745326707
leaf_weight=38 20 21 28 31 24 20 27 20 27 33 22 28 28 35 25 20 24 28 35 20 20 23
leaf_count=38 20 21 28 31 24 20 27 20 27 33 22 28 28 35 25 20 24 28 35 20 20 23
internal_value=0.000125628 0.00497481 -0.0095 0.00911552 0.0111789 -0.00617284 -0.00458333 -0.000568182 0.0127778 0.0103933 -0.0128378 -0.0015 0.012931 0.00720339 0.00480769 -0.00833333 -0.00769231 0.00625 0.0168605 -0.00875 0.0218085 0.0210784
internal_weight=597 397 200 277 246 162 120 88 225 178 74 100 145 59 52 48 52 48 86 40 47 51
internal_count=597 397 200 277 246 162 120 88 225 178 74 100 145 59 52 48 52 48 86 40 47 51
is_linear=0
shrinkage=0.05


Tree=42
num_leaves=23
num_cat=0
split_feature=15 16 15 10 13 21 10 14 0 22 13 7 22 8 17 22 15 0 10 1 9 15
split_gain=10.0191 5.32663 5.30139 3.0471 3.20473 2.43946 2.11926 1.92652 1.90656 1.83314 2.27269 1.63119 1.58113 1.54286 1.40167 1.1236 1.00401 0.895853 0.942857 0.823129 0.81542 0.655594
threshold=0.37404767924614674 -1.0271816323457947 -1.0445946859114781 -0.75026585416410663 0.20930171242813159 -0.88807686948595854 -0.50928925593674801 -0.3504693193563761 0.29486832038163402 -0.18243437994241049 -0.48992489886634005 -0.33488698286068569 -0.0030874878689435945 -0.91198503000439002 -0.54456450815317037 -0.013556375029679124 -0.066096668540140915 -0.67019311248222391 0.14341427607880533 0.80333483718268661 0.88335767153383327 1.674433320587094
decision_type=2 2 2 2 2 2 2 2 2 2 2 2 2 2 2 2 2 2 2 2 2 2
left_child=1 -1 7 21 17 14 13 12 -6 10 19 15 -3 -7 -4 16 20 -5 -19 -8 -11 -2
right_child=3 2 5 4 8 6 9 -9 -10 11 -12 -13 -14 -15 -16 -17 -18 18 -20 -21 -22 -23
leaf_value=-0.01988174134650951 0.0046919442542524342 -9.1912408018668409e-05 0.00019757984415256225 0.00049555368547176131 -0.0010333688116635155 5.7133614508630975e-05 0.0002249562442699915 -0.0040348198339346109 0.00098892373713637132 -6.2465659788046862e-05 -0.0003749591218131343 0.00033623375760321044 -0.0075931775052962671 0.002889305076418225 0.001455305753063474 -0.00034641247007556332 -0.0011683860882501396 0.00525179059041141 0.00050636091551732327 0.00061174009903439694 -0.001590681904745983 0.020097327140692525
leaf_weight=33 22 38 24 20 34 35 21 26 26 20 26 31 20 21 25 29 23 22 20 28 23 30
leaf_count=33 22 38 24 20 34 35 21 26 26 20 26 31 20 21 25 29 23 22 20 28 23 30
internal_value=-4.1876e-05 -0.00419622 -0.0025641 0.0100575 0.0057377 0.000490196 -0.00145914 -0.0136905 -0.0025 -0.00385572 0.00233333 -0.00753968 -0.00862069 0.00714286 0.0107143 -0.0107895 -0.0143939 0.0137097 0.0178571 0.00867347 -0.00988372 0.0201923
internal_weight=597 423 390 174 122 306 257 84 60 201 75 126 58 56 49 95 66 62 42 49 43 52
internal_count=597 423 390 174 122 306 257 84 60 201 75 126 58 56 49 95 66 62 42 49 43 52
is_linear=0
shrinkage=0.05


Tree=43
num_leaves=23
num_cat=0
split_feature=18 18 15 0 13 4 4 19 14 7 3 7 1 4 8 4 18 4 10 1 0 7
split_gain=10.7815 8.00029 2.83468 2.43139 2.28877 2.32692 2.02772 1.86434 1.79339 1.87679 1.92814 2.39402 1.79259 1.78449 1.3225 1.31808 1.23703 0.842977 0.784615 0.654762 0.573707 1.07466
threshold=-0.85954640281495165 1.0523606219600661 -1.0086924613177022 1.4737946034455065 -1.1190695718989512 0.56650559624296237 1.2401354922320229 -1.2337835018166221 -0.67644298088933763 -1.0638335264683618 -0.36035165927221446 0.68299761420511362 0.73446709572144486 -0.29845700015211518 -1.0693872958699087 -0.35446890467512021 0.3554973138644979 -0.91078773219417031 -0.72631829109233126 0.89137194997850089 0.40016932198315497 -0.47030644511294045
decision_type=2 2 2 2 2 2 2 2 2 2 2 2 2 2 2 2 2 2 2 2 2 2
left_child=7 2 12 4 5 -4 8 -1 -6 -10 13 14 -2 -11 -12 -9 19 -13 -3 -15 21 -16
right_child=1 18 3 -5 6 -7 -8 15 9 10 11 17 -14 16 20 -17 -18 -19 -20 -21 -22 -23
leaf_value=-0.028115589649301543 -0.0029702250245484674 0.013272372329553651 0.00010609739282438913 0.001014772881117798 -0.0012055717278673052 -0.0018185568791737163 0.0026746903848001492 -0.0043909726064657265 -0.00084486016752736157 -3.1845091880389199e-05 0.00040599979446185322 0.00040861606386770615 1.8638067330134513e-05 0.00046443482469693542 -1.5188903850216207e-05 0.00030757371240188738 0.00035768937676996517 0.0070367349201944322 0.0040783551978364812 0.0037395086089168752 -1.1332125209273514e-05 -0.0004789584329520036
leaf_weight=35 30 34 26 22 28 26 33 34 22 24 20 26 24 20 23 20 25 20 26 22 22 35
leaf_count=35 30 34 26 22 28 26 33 34 22 24 20 26 24 20 23 20 25 20 26 22 22 35
internal_value=4.1876e-05 0.00285433 0.000558036 0.00203046 0.00107527 -0.00865385 0.00265625 -0.0160112 0.00130662 0.00260618 0.00390295 0.000342466 -0.0101852 0.00961538 -0.004 -0.0101852 0.013806 0.00978261 0.02 0.0190476 -0.006875 -0.00948276
internal_weight=597 508 448 394 372 52 320 89 287 259 237 146 54 91 100 54 67 46 60 42 80 58
internal_count=597 508 448 394 372 52 320 89 287 259 237 146 54 91 100 54 67 46 60 42 80 58
is_linear=0
shrinkage=0.05


Tree=44
num_leaves=22
num_cat=0
split_feature=18 18 15 0 9 14 19 14 6 9 7 7 22 24 7 4 24 6 10 2 2
split_gain=10.2584 6.43787 3.24 2.41108 2.22136 2.16569 2.10466 1.5005 1.83071 1.9255 1.76501 2.03306 1.19118 1.18991 1.63552 1.08932 0.879867 0.84736 0.781417 0.764378 0.41957
threshold=-0.85954640281495165 1.0523606219600661 -0.67803478194409383 1.4737946034455065 1.1603727771536396 -0.36188351421807136 -1.2337835018166221 1.1794263850370337 -0.38633674371639798 -1.2898972752172251 -0.98445090953565528 -0.59719977386311895 -0.11877362673357607 -0.82365730311630581 -0.3879395990792997 -0.35446890467512021 -0.52875748365863162 0.20776213556083875 0.36822660881812475 0.83883331602855515 0.62672296446339504
decision_type=2 2 2 2 2 2 2 2 2 2 2 2 2 2 2 2 2 2 2 2 2
left_child=6 2 5 4 7 12 -1 8 10 -10 -4 -12 -2 -11 19 -8 -13 -3 -18 20 -15
right_child=1 17 3 -5 -6 -7 15 -9 9 13 11 16 -14 14 -16 -17 18 -19 -20 -21 -22
leaf_value=-0.026709810166836469 0.00028856662505056808 0.0055122602379281023 -0.00023974258283883111 0.0010449868820973096 0.0032334224297911884 -0.0032570851609030615 -0.0041714239761424521 0.0075772285310262257 0.00051551667832794301 2.9285973788839571e-05 0.0020558930762035743 -0.00033876074957346348 -0.00049667581742622873 -0.00034343308959030596 -3.8022154973571535e-05 0.00029219502678177193 2.1567186365478719e-05 0.009751976856797585 0.00028815554836003621 -9.5415056877401491e-05 -0.0034082846317294636
leaf_weight=35 34 26 23 20 21 30 34 22 34 33 27 28 34 20 39 20 21 34 20 21 21
leaf_count=35 34 26 23 20 21 30 34 22 34 33 27 28 34 20 39 20 21 34 20 21 21
internal_value=0.00020938 0.00295276 0.000892857 0.00314286 0.00212121 -0.00714286 -0.0154494 0.00105178 8.7108e-05 -0.00327381 0.00483193 0.0078125 -0.00220588 -0.00597015 -0.00866337 -0.00925926 0.00326087 0.0183333 0.00792683 -0.0137097 -0.0176829
internal_weight=597 508 448 350 330 98 89 309 287 168 119 96 68 134 101 54 69 60 41 62 41
internal_count=597 508 448 350 330 98 89 309 287 168 119 96 68 134 101 54 69 60 41 62 41
is_linear=0
shrinkage=0.05


Tree=45
num_leaves=21
num_cat=0
split_feature=18 18 15 0 16 19 7 16 12 8 10 15 5 11 2 7 18 9 9 17
split_gain=8.62555 7.16523 3.46812 3.0795 2.00132 1.64091 3.34284 1.62959 2.06471 2.01789 2.59314 1.59531 1.57937 1.46914 1.4359 1.24559 1.225 0.8855 0.875049 0.625
threshold=-1.6814877405686972 1.3561215511299285 0.03584869928909093 -0.70252496866499026 -0.72304205286665757 0.45393818381545736 -0.14110170750209591 0.72690608338532314 1.6073831217507417 -0.17452626585668327 -0.29139767384125687 0.54469161204260186 -0.71302561349709437 0.12280244032671007 0.79133370062014086 -0.53689364541204354 0.15894612440164665 0.64805615502982161 -1.3150176134140295 -0.62302194141497469
decision_type=2 2 2 2 2 2 2 2 2 2 2 2 2 2 2 2 2 2 2 2
left_child=-1 2 7 4 -4 11 14 8 9 12 -11 17 18 -9 -7 19 -6 -5 -2 -12
right_child=1 -3 3 5 16 6 -8 13 -10 10 15 -13 -14 -15 -16 -17 -18 -19 -20 -21
leaf_value=-0.023757301011652344 -0.0015396734771238264 0.013101336879282277 -0.0031241732388336274 2.7378053069271326e-05 0.0021819110614748282 -0.0004004019804332515 0.0026519145622479813 -5.7950774252568674e-05 0.0012954760710359059 0.00055482714444625718 -0.001765363312306212 0.0042815737335631715 -0.0018142231586836255 0.00034436895496261501 0.00026044778454383801 -3.0353577517172606e-05 -0.0001828539680067909 0.00090063258120327567 -2.2907340769240394e-05 -0.0015320078919654812
leaf_weight=36 30 31 36 30 20 28 29 36 26 34 20 31 36 25 24 28 20 38 27 20
leaf_count=36 30 31 36 30 20 28 29 36 26 34 20 31 36 25 24 28 20 38 27 20
internal_value=0.000123967 0.00162566 0.00027881 0.00449219 -0.00394737 0.00805556 0.00277778 -0.0035461 -0.00554299 -0.00730769 -0.00245098 0.0123737 -0.0126344 0.00368852 -0.00480769 -0.00808824 0.00375 0.00808824 -0.00745614 -0.01375
internal_weight=605 569 538 256 76 180 81 282 221 195 102 99 93 61 52 68 40 68 57 40
internal_count=605 569 538 256 76 180 81 282 221 195 102 99 93 61 52 68 40 68 57 40
is_linear=0
shrinkage=0.05


Tree=46
num_leaves=24
num_cat=0
split_feature=15 16 15 6 7 1 15 1 7 6 16 19 16 24 15 24 4 19 19 15 23 5 12
split_gain=7.08751 7.30471 3.68473 2.96934 2.90935 1.96761 3.13914 2.67961 2.09028 1.81071 1.68752 1.63845 1.45685 1.40386 1.38496 1.24988 0.769231 0.710145 0.890729 0.664615 0.625 0.625 0.380952
threshold=1.674433320587094 -1.0009062655394192 -0.70822183960077478 -0.24111768143806125 0.97047568422361019 0.61306107726915249 0.63061095726663174 0.92048099533840722 -0.14110170750209591 -0.18169161856837415 0.18618722349268538 -0.038655151320803854 -0.21496334417296506 0.44605025288201389 0.10002806915542954 -0.85642394972271407 -0.86915056423016646 -0.070237545613320337 0.22030534003288393 0.18242263647030713 -0.53722099913664401 -1.3689906995486771 -0.27070355503854915
decision_type=2 2 2 2 2 2 2 2 2 2 2 2 2 2 2 2 2 2 2 2 2 2 2
left_child=1 19 3 11 5 8 7 17 12 20 16 -3 13 -4 -10 -14 -5 -7 -19 -1 -9 -6 -20
right_child=-2 2 4 10 21 6 -8 9 14 -11 -12 -13 15 -15 -16 -17 -18 18 22 -21 -22 -23 -24
leaf_value=-0.026636048718026807 0.018379361905658056 -0.0047297049853400443 -0.004414705648821249 0.00010032650172073777 0.001973923212673645 0.00081794331144049439 0.004368949477260387 -0.00015412205971365722 -0.00020704502482518097 0.00047264694281636823 0.00035806457915437133 -0.00011941850649339615 0.00029418879541749378 -0.00041138078920353042 0.0040606975694840401 -0.00026688967171712986 -0.0035268066460700355 -5.2458577572878086e-05 0.0012365513002220664 -0.0037232436379134315 -0.0025366923566289227 0.0038480673272417 7.5676549485903527e-05
leaf_weight=24 32 33 21 32 20 23 23 20 29 30 25 25 31 22 32 28 20 27 21 26 20 20 21
leaf_count=24 32 33 21 32 20 23 23 20 29 30 25 25 31 22 32 28 20 27 21 26 20 20 21
internal_value=0.00053719 -0.00074171 0.00100382 -0.00611111 0.00347938 0.00201149 0.00554054 0.00308642 -0.00199387 -0.00428571 0.000324675 -0.0146552 -0.00637255 -0.0133721 0.00532787 -0.00127119 -0.00480769 0.00869565 0.00615942 -0.019 -0.01125 0.01625 0.0107143
internal_weight=605 573 523 135 388 348 185 162 163 70 77 58 102 43 61 59 52 92 69 50 40 40 42
internal_count=605 573 523 135 388 348 185 162 163 70 77 58 102 43 61 59 52 92 69 50 40 40 42
is_linear=0
shrinkage=0.05


Tree=47
num_leaves=23
num_cat=0
split_feature=18 15 22 5 16 15 16 23 13 5 18 6 15 0 18 21 14 2 15 23 19 3
split_gain=9.11279 6.04334 3.86542 2.17626 3.34227 2.61147 2.38114 2.40109 1.95869 1.6542 2.94589 1.82035 1.55796 1.39286 1.33333 1.20192 1.04219 0.952405 0.918604 0.999355 1.17845 0.794558
threshold=-1.6814877405686972 1.674433320587094 -0.19359095794929945 -0.49273745114352635 -0.74885363225977342 -1.0445946859114781 -0.97963417440293366 -0.57682088980136503 -0.48992489886634005 0.4537713589018722 0.6949948229366979 -0.1908846509512824 0.10002806915542954 -0.13330631586662722 -0.14481480476821576 -1.1739521278515843 -0.46933438308851155 0.48668099489720845 0.49284835776599412 -0.67824281486414539 -0.083684668685682612 -0.15071227077305349
decision_type=2 2 2 2 2 2 2 2 2 2 2 2 2 2 2 2 2 2 2 2 2 2
left_child=-1 2 8 5 -5 -4 -7 -8 16 11 18 17 -10 -14 -13 -9 -2 -6 19 -11 -21 -17
right_child=1 -3 3 4 9 6 7 15 12 10 -12 14 13 -15 -16 21 -18 -19 -20 20 -22 -23
leaf_value=-0.02181536457696729 0.00034374607821796577 0.017460393810375164 -0.0013195516804538343 -0.0044401262299621049 -0.0013065155021578347 -0.0029580738935608866 -9.3253009595462022e-05 0.0044406044749138122 -0.00018452315296260127 0.00054955161665071195 -0.0010020897056771227 0.00037337628031437476 3.4408140843855682e-05 0.0021600064666160933 -0.00017424627741107203 0.0019509382040209912 0.0012648871473240231 -0.0019748682476111059 0.001662830161547846 0.0002309916641764609 -0.00033422807789200708 0.00077638606351650987
leaf_weight=36 32 32 25 26 27 21 20 20 29 28 26 20 26 28 30 25 25 28 20 21 33 27
leaf_count=36 32 32 25 26 27 21 20 20 29 28 26 20 26 28 30 25 25 28 20 21 33 27
internal_value=0.000785124 0.00232865 0.00107076 -0.00144836 -0.00415058 0.00362319 0.00685841 0.0103261 0.00821429 -0.00225322 0.0015625 -0.00690476 0.00331325 0.00833333 0 0.0145833 0.0153509 -0.0131818 0.00539216 0.00304878 -0.000925926 0.0105769
internal_weight=605 569 537 397 259 138 113 92 140 233 128 105 83 54 50 72 57 55 102 82 54 52
internal_count=605 569 537 397 259 138 113 92 140 233 128 105 83 54 50 72 57 55 102 82 54 52
is_linear=0
shrinkage=0.05


Tree=48
num_leaves=23
num_cat=0
split_feature=10 19 22 3 13 11 14 23 19 17 14 17 13 15 19 6 23 17 11 12 15 23
split_gain=6.811 5.9987 2.76474 2.7627 2.45042 1.84425 2.10795 1.54044 1.43143 2.22 2.19896 1.81251 1.28507 1.27877 1.66996 1.22049 1.17993 1.01185 0.891641 0.790323 0.771429 1.03052
threshold=-0.73359221056194868 -1.0222228089410443 -0.18382584479039973 -0.11606113217815077 -0.48992489886634005 0.51152357546571758 -0.6555038372120211 -0.69458756541864097 0.25578967129312868 -0.059481474363302547 -0.56324565529542336 -0.18664806339931775 0.21726556904879754 0.16338786441319925 0.16299345689944203 -0.052910233103039959 -0.15391827948615339 -0.73156946504595288 -0.36309897859704904 -0.1169753688483474 1.674433320587094 -0.12632251913215922
decision_type=2 2 2 2 2 2 2 2 2 2 2 2 2 2 2 2 2 2 2 2 2 2
left_child=3 -2 4 -1 13 6 19 -7 9 10 -8 16 -12 14 -3 -9 -10 -14 -6 -4 21 -5
right_child=1 2 5 20 18 7 8 15 11 -11 12 -13 17 -15 -16 -17 -18 -19 -20 -21 -22 -23
leaf_value=-0.00046697846377186103 -0.020408405924612752 0.00048011401723335734 -3.3124244799642712e-05 0.0013823443397783298 0.00029723735865434532 5.807873436824984e-05 0.00030519494040532892 -0.0023056982342959833 0.0012106396846454093 0.0011525371019437626 -0.0022252381185593919 -2.0108770111404441e-05 -0.00074850939418014129 0.0020645205383809984 -9.1912494127566199e-05 -0.00063760219024910914 0.0010457933330320079 0.00013077086780386438 -0.00020439373698912802 -0.0016621933442801939 0.020319181632211539 0.0054968540045355237
leaf_weight=20 39 22 31 22 34 25 33 27 26 22 30 30 21 23 23 20 20 20 38 31 28 20
leaf_count=20 39 22 31 22 34 25 33 27 26 22 30 30 21 23 23 20 20 20 38 31 28 20
internal_value=0.00119835 -0.00101942 0.00052521 0.0138889 0.00642857 -0.00193452 0 -0.00902778 0.00247525 -0.000793651 -0.00384615 0.00789474 -0.00880282 0.0132353 0.00833333 -0.0143617 0.0141304 -0.00304878 0 -0.00806452 0.0185714 0.0142857
internal_weight=605 515 476 90 140 336 264 72 202 126 104 76 71 68 45 47 46 41 72 62 70 42
internal_count=605 515 476 90 140 336 264 72 202 126 104 76 71 68 45 47 46 41 72 62 70 42
is_linear=0
shrinkage=0.05


Tree=49
num_leaves=22
num_cat=0
split_feature=18 15 22 7 18 18 19 19 17 4 5 18 13 15 5 0 10 11 17 3 19
split_gain=8.16306 6.04334 2.79286 2.26083 3.00522 2.3567 2.29465 1.61069 1.49765 1.2939 1.50331 1.21165 1.19591 1.55796 1.43543 1.24675 1.15562 1.02691 0.727177 0.613946 0.495501
threshold=-1.6814877405686972 1.674433320587094 -0.19359095794929945 -0.33488698286068569 -0.69873179325443646 0.6949948229366979 0.24435757835633884 -0.41957155616879238 -0.74715969904283008 0.6365617836109686 -0.28955097155764931 0.4627070535715091 -0.48992489886634005 0.10002806915542954 0.7383988250733543 -0.19070277701912525 -0.6449536269970757 -0.21927215859561633 -0.40681273922645794 -0.44871206268921632 0.18548492043580553
decision_type=2 2 2 2 2 2 2 2 2 2 2 2 2 2 2 2 2 2 2 2 2
left_child=-1 2 12 5 -5 6 7 -4 11 10 -9 -6 14 -14 -2 -15 -10 -8 -18 -12 -20
right_child=1 -3 3 4 8 -7 17 9 16 -11 19 -13 13 15 -16 -17 18 -19 20 -21 -22
leaf_value=-0.019704176051888303 0.00013777653614508445 0.01557141503824584 0.00025487270833250973 -0.0018895787055063897 -0.0005298932005036505 -0.00096571158020730685 -1.5228245071208236e-05 -0.0015375512978497152 0.0041646332640835398 -0.0028347288223306679 -0.00011459548771390882 0.00086436089117687416 -0.00019015886324718069 -4.0130021764683836e-05 0.0024089128144272778 0.0013382330389005493 0.00047938690807542984 0.00059653555301442118 0.00045193986178919681 5.5174797649826246e-05 -0.00014294541685222484
leaf_weight=36 35 32 25 32 29 25 26 26 36 29 28 23 29 21 22 33 21 33 20 21 23
leaf_count=36 35 32 25 32 29 25 26 26 36 29 28 23 29 21 22 33 21 33 20 21 23
internal_value=0.000867769 0.00232865 0.00107076 -0.00107053 0.00298913 -0.00457746 -0.00265957 -0.00639535 0.00592105 -0.00913462 -0.00566667 -0.000961538 0.00714286 0.00331325 0.0127193 0.00833333 0.0095 0.00550847 0.00546875 -0.000510204 0.00174419
internal_weight=605 569 537 397 184 213 188 129 152 104 75 52 140 83 57 54 100 59 64 49 43
internal_count=605 569 537 397 184 213 188 129 152 104 75 52 140 83 57 54 100 59 64 49 43
is_linear=0
shrinkage=0.05


Tree=50
num_leaves=23
num_cat=0
split_feature=18 15 4 15 0 16 1 9 14 15 18 17 15 0 16 0 10 10 7 18 7 0
split_gain=9.24409 4.77035 2.42023 1.67954 1.99374 2.0432 1.96754 2.25058 1.87098 1.59701 1.61957 1.48046 1.34336 1.24858 1.11183 2.28494 1.27247 0.769318 0.764091 0.701754 0.595684 0.568182
threshold=-0.90421712769287244 1.674433320587094 -0.30556175500311594 -1.0086924613177022 0.19846599457504796 -0.17477398993004492 0.60134646145358051 -0.79117790037424618 -0.40591869080863846 0.49284835776599412 0.3554973138644979 -0.46780221779516923 1.0000000180025095e-35 -0.68146476899473429 2.0131538502833011 1.3512894946209499 0.79013431318050875 -0.63073179005087654 -0.39597748660170301 -1.717224320471034 -0.85138020928545866 0.39141895633194163
decision_type=2 2 2 2 2 2 2 2 2 2 2 2 2 2 2 2 2 2 2 2 2 2
left_child=2 3 19 8 6 21 7 12 -2 10 11 -8 -5 -13 15 16 18 -9 20 -1 -7 -6
right_child=1 -3 -4 4 5 14 9 17 -10 -11 -12 13 -14 -15 -16 -17 -18 -19 -20 -21 -22 -23
leaf_value=-0.021403344021915172 4.4703926560618617e-05 0.014114783835096191 -0.0015009418161147981 -0.00035810345712157244 0.0028517781336527604 0.0011715416059874251 -2.3782651092396635e-05 -0.0015458947082761078 -0.0019579854528145812 0.0020280230141201728 -0.00017339441272565815 0.00023276829080323138 0.0010794283970251507 0.000561808585619028 0.00091739036858724538 -0.00015532083976204093 -3.1829581612807804e-05 -0.0010178332488226971 0.0023262071599071013 -0.0049548642475850894 9.8657495602783033e-06 0.00382213849348807
leaf_weight=30 33 30 28 22 22 27 22 26 23 21 20 26 37 21 21 37 21 31 22 27 23 22
leaf_count=30 33 30 28 22 22 27 22 26 23 21 20 26 37 21 21 37 21 31 22 27 23 22
internal_value=0.00143581 0.00399408 -0.0138235 0.00277778 0.00385986 0.0075641 0.000663717 -0.00387931 -0.00535714 0.00545455 0.00252809 0.00615942 0.0029661 0.0111702 0.00480132 0.00307692 0.00725806 -0.0109649 0.0104167 -0.0197368 0.007 0.0170455
internal_weight=592 507 85 477 421 195 226 116 56 110 89 69 59 47 151 130 93 57 72 57 50 44
internal_count=592 507 85 477 421 195 226 116 56 110 89 69 59 47 151 130 93 57 72 57 50 44
is_linear=0
shrinkage=0.05


Tree=51
num_leaves=24
num_cat=0
split_feature=18 14 4 0 11 8 0 8 8 5 9 3 18 0 14 14 14 18 22 18 23 0 23
split_gain=8.8393 5.40939 2.42023 1.93943 2.76718 2.65143 2.0983 2.11124 2.01741 1.4665 1.60475 1.15433 1.03913 1.27279 0.991511 1.46667 0.976449 0.786268 0.764685 0.701754 0.70075 0.44971 0.444444
threshold=-0.90421712769287244 0.98971459457713562 -0.30556175500311594 0.40016932198315497 0.65146318411576032 -1.2005558507578404 1.2952278350543749 1.0887726605528669 -1.0693872958699087 0.55693610467886989 -1.3016508279515098 -0.44640198678288928 -0.091209934914711757 -0.68650735180074218 -0.53711108499140436 -0.6555038372120211 -0.55301223921252451 1.1595703616670756 -0.024714539570183016 -1.717224320471034 -0.11392656260950944 1.4923335127961723 -0.11392656260950944
decision_type=2 2 2 2 2 2 2 2 2 2 2 2 2 2 2 2 2 2 2 2 2 2 2
left_child=2 3 19 4 5 -2 11 18 -7 10 -10 -5 -11 -14 15 -12 -15 -3 -8 -1 -6 -9 -16
right_child=1 17 -4 6 20 8 7 21 9 12 14 -13 13 16 22 -17 -18 -19 -20 -21 -22 -23 -24
leaf_value=-0.02033317682081941 -0.0018774612373419154 0.0038553434719306168 -0.0014258947253090516 0.00022449227729028911 -0.0012052974513402149 0.0023641862150455052 -0.00024828464138846321 0.00020981205350489862 0.0002687064923222238 0.0016577003649504098 -0.00071561134534838813 0.00202107642399203 -2.7156909933179209e-05 -3.8675045702540878e-05 -4.4488049956337154e-05 0.00029828218175129709 0.00079884782033605721 0.010225171345211238 0.00019403273900073792 -0.0047071210352058303 -0.0011876778978951786 0.00068863370030514126 -0.0021271369001412579
leaf_weight=30 21 35 28 20 29 21 30 20 25 25 24 32 20 22 20 20 24 29 22 27 22 21 25
leaf_count=30 21 35 28 20 29 21 30 20 25 25 24 32 20 22 20 20 24 29 22 27 22 21 25
internal_value=0.00109797 0.00359961 -0.0138235 0.00163657 -0.000671141 0.00151822 0.00637931 0.00188172 0.00309735 0.00158537 -0.00219298 0.0144231 0.00631868 0.0030303 -0.00533708 0 0.0076087 0.0171875 -0.00480769 -0.0197368 -0.0112745 0.0103659 -0.0105556
internal_weight=592 507 85 443 298 247 145 93 226 205 114 52 91 66 89 44 46 64 52 57 51 41 45
internal_count=592 507 85 443 298 247 145 93 226 205 114 52 91 66 89 44 46 64 52 57 51 41 45
is_linear=0
shrinkage=0.05


Tree=52
num_leaves=23
num_cat=0
split_feature=18 15 15 0 1 4 15 19 7 0 18 19 22 21 7 7 1 18 7 24 23 22
split_gain=8.87157 5.57664 2.12224 2.18116 2.14142 2.5 2.11766 2.48989 3.03949 2.42507 1.86749 1.37161 1.76819 1.72756 1.16647 0.844389 1.10316 1.56926 1.23605 1.21019 1.09113 0.278484
threshold=-1.8601706400803812 1.674433320587094 -1.4318892203833744 -0.97660419555406774 0.60134646145358051 0.37120745126894489 0.37404767924614674 0.51387659466896707 -0.35237366436353718 1.4862527503168048 0.76646798274137151 0.31442355396638283 -0.20790135523578096 0.49365354594790051 -0.40009645224098694 -0.94939999672526632 -1.0305350204914123 -0.68086350330326761 -0.46082179322068645 0.44605025288201389 -0.18920299316762038 -0.11225432061594913
decision_type=2 2 2 2 2 2 2 2 2 2 2 2 2 2 2 2 2 2 2 2 2 2
left_child=-1 2 -2 4 -4 -6 9 14 -9 10 11 12 -5 -13 -8 -14 19 -18 20 -17 -19 -20
right_child=1 -3 3 6 5 -7 7 8 -10 -11 -12 13 15 -15 -16 16 17 18 21 -21 -22 -23
leaf_value=-0.017869107705771724 -0.0027564590640968057 0.016105968253043914 -0.0044030677007280694 0.0003456957161972252 -0.0016146502508740614 0.00099974137134335446 0.0020945636818504808 -0.00057219186919192926 0.0031724168706131375 0.00065420201528989532 0.0011444383264716639 0.0017514677976250505 -0.0012722448969166855 -0.00017658243265596953 0.0013652439370761106 -0.00049321950473704137 0.00081275654306454123 0.00010032313099108681 0.00040765590399538532 0.00024993763042622244 -0.0017430082337429155 9.5499628757056431e-05
leaf_weight=34 22 31 37 31 20 20 25 27 35 21 20 23 23 37 31 23 21 20 23 22 22 24
leaf_count=34 22 31 37 31 20 20 25 27 35 21 20 23 23 37 31 23 21 20 23 22 22 24
internal_value=0.00126689 0.00277778 0.00156546 0.00222772 -0.00551948 0.0025 0.0036215 0.00932203 0.00241935 0.00145161 0.000259516 -0.000836431 0.00107656 -0.0075 0.0169643 -0.000842697 0.000483871 0.00318182 0.000280899 -0.00611111 -0.00595238 0.00585106
internal_weight=592 558 527 505 77 40 428 118 62 310 289 269 209 60 56 178 155 110 89 45 42 47
internal_count=592 558 527 505 77 40 428 118 62 310 289 269 209 60 56 178 155 110 89 45 42 47
is_linear=0
shrinkage=0.05


Tree=53
