tree
version=v4
num_class=1
num_tree_per_iteration=1
label_index=0
max_feature_idx=24
objective=quantile
feature_names=tenor ust_10y ust_2y vix move dxy ndf_1m ndf_12m idr_regn ust_3m xau_gold inflation slope_10y_2y slope_2y_3m cds_5y indo_10y tenor_x_ust10y vix_x_move prev_owners_estimate_code prev_way_awarded_code days_since_prev_auction_code auctions_since_prev_code prev_bid_to_cover_ratio_code prev_total_penawaran_code prev_total_penawaran_diterima_code
feature_infos=[-1.3092663736294075:2.4848325291805096] [-1.7532913174764038:1.3123881426229993] [-1.485372003438332:1.2412151155228224] [-1.0302736721069992:7.1231392392735957] [-1.7932643754312494:2.6665389487131508] [-1.9213288321808943:2.5637492463211751] [-1.9790063006158658:3.8167510545317795] [-1.2512470713098498:3.1146322519119769] [-1.9176106174785361:1.9334981540311493] [-1.3405988752474727:1.1884891189885949] [-1.0298668968580529:3.2581324014601654] [-2.1084568753711919:2.5872944371080169] [-2.0528117875397771:2.1995213204092963] [-1.9672203019998769:2.9942623726750193] [-1.0183965152286725:4.277317589086338] [-1.8469545851474301:3.6556790502665883] [-1.1789552764539104:3.1342981087979869] [-1.1481023817742466:7.0082828633096357] [-3.3521728510029405:2.9195969218571602] [-7.850490202947265:1.9568012377615578] [-0.40793873229161765:8.8383818230386417] [-1.6384994226957268:1.7443578012975143] [-0.3343234773140184:23.817751237171013] [-1.0170808924395482:7.9319855325771345] [-1.2250487240448071:3.5752650037940024]
tree_sizes=940 1003 1092 1100 1096 1253 1092 1182 1271 1276 1248 1429 1180 1180 1182 1537 1359 1523 1522 1355 1365 1458 1450 1631 1365 1538 1624 1545 1545 1533 1716 1549 1779 1616 1706 1705 1717 1805 1792 1635 1709 1876 1965 1962 1728 2155 1887 1876 1892 1897 1707 1805 1809 1892 2071 1963 1901 2044 1898 1974 1900 1983 1900 2068 2075 2081 1907 1894 2065 1987 1981 1985 2166 2142 2057 1887 2306 1980 1898 1981 1903 1972 1968 1902 2068 2064 2148 1985 2055 2058 1997 2083 2078 2155 2059 2163 2068 2067 2083 2158 1889 2082 2077 2086 2239 2165 1993 2149 2092 2078 1893 1982 2157 2176 2082 2148 2240 2070 1975 2081 2066 2070 2171 2052 2066 2061 2191 2235 2338 2263 2249 2077 2239 1969 2085 1982 2240 2253 2162 2249 2241 2069 2078 2075 2118 2158 2146 2247 2185 2154 2240 2074 2148 2087 2060 2136 2153 2232 1990 2065 2160 2057 2239 2062 2226 2173 2073 2173 2176 2159 2152 2238 2075 2258 2078 2063 1986 2253 1969 2156 2074 2059 2069 2145 2219 2083 2162 2170 2311 2336 2078 2171 2262 2076 2153 2182 1992 2075 2159 2093

Tree=0
num_leaves=10
num_cat=0
split_feature=18 15 0 3 15 0 17 0 2
split_gain=62.8451 10.8981 4.0526 1.648 0.631418 0.292403 0.0649449 0.114894 0.0470845
threshold=0.6949948229366979 0.53509226855319081 -0.66114612437674014 -0.11606113217815077 0.37404767924614674 -0.19619029404824531 0.44248729242411106 0.19846599457504796 -1.4689928257112925
decision_type=2 2 2 2 2 2 2 2 2
left_child=1 4 -3 -2 6 -5 8 -8 -1
right_child=3 2 -4 5 -6 -7 7 -9 -10
leaf_value=7.1140001177787777 7.1382501065731052 7.131250107288361 7.1365001082420347 7.1475000977516174 7.130000114440918 7.1560001134872433 7.1120001077651978 7.1265001058578488 7.1192501068115233
leaf_weight=20 20 35 20 23 22 68 27 20 323
leaf_count=20 20 35 20 23 22 68 27 20 323
internal_value=7.12918 7.12114 7.14205 7.163 7.11835 7.16585 7.11788 7.11963 7.11765
internal_weight=578 467 55 111 412 91 390 47 343
internal_count=578 467 55 111 412 91 390 47 343
is_linear=0
shrinkage=1


Tree=1
num_leaves=10
num_cat=0
split_feature=18 15 16 24 19 14 3 0 0
split_gain=59.8689 9.8467 4.19075 2.43065 1.07029 0.550175 0.116496 0.309375 0.0366667
threshold=0.65925824303436109 0.53509226855319081 -0.5859187082105739 0.065350969285459554 0.38895055004997775 0.054065490259148939 -0.019615463089005161 0.24815026974969215 -0.1291536004234301
decision_type=2 2 2 2 2 2 2 2 2
left_child=1 4 -3 5 6 -2 -1 -8 -7
right_child=3 2 -4 -5 -6 8 7 -9 -10
leaf_value=-0.011462512016296379 0.015671871080994614 -0.002693759202957158 0.0077999955415725799 0.014699984788894671 -0.00011562466621398704 0.021499994397163394 -0.018900008499622346 -0.003234383165836319 0.023700000047683734
leaf_weight=309 20 23 28 21 38 20 44 20 55
leaf_count=309 20 23 28 21 38 20 44 20 55
internal_value=-0.000648789 -0.00871212 0.0120098 0.0314655 -0.0112835 0.0348684 -0.0120979 -0.0101563 0.0368333
internal_weight=578 462 51 116 411 95 373 64 75
internal_count=578 462 51 116 411 95 373 64 75
is_linear=0
shrinkage=0.05


Tree=2
num_leaves=11
num_cat=0
split_feature=18 15 0 18 0 0 14 0 0 7
split_gain=56.4376 10.4658 5.64453 2.16558 1.48446 0.661944 0.186716 0.477273 0.149367 0.0467949
threshold=0.71286311288786597 0.40398340068953459 -0.23371304534756845 0.8558094324972132 -0.75903156277970163 2.3540219894695595 1.0000000180025095e-35 0.30940282443282402 -0.18269396804529431 1.1502404403829467
decision_type=2 2 2 2 2 2 2 2 2 2
left_child=1 5 4 -2 -3 6 9 -8 -5 -1
right_child=3 2 -4 8 -6 -7 7 -9 -10 -11
leaf_value=-0.010389374971389743 0.0070150029063225094 -0.0059278178811073452 0.0046599864661693857 0.023278750799596327 0.0035721730589866499 -0.00045671743154525047 -0.016854996755719154 -0.0018893711566924766 0.023715702315792477 -0.010801610302180032
leaf_weight=292 29 27 26 20 21 20 42 22 59 20
leaf_count=292 29 27 26 20 21 20 42 22 59 20
internal_value=-0.000648789 -0.0081383 0.00912162 0.0319444 -0.00104167 -0.0113636 -0.0118351 -0.009375 0.0362342 -0.0123397
internal_weight=578 470 74 108 48 396 376 64 79 312
internal_count=578 470 74 108 48 396 376 64 79 312
is_linear=0
shrinkage=0.05


Tree=3
num_leaves=11
num_cat=0
split_feature=18 15 16 23 15 19 3 3 18 5
split_gain=54.1533 9.01043 4.32502 2.51928 1.62841 0.916431 0.641835 0.111865 0.297458 0.0467213
threshold=0.71286311288786597 0.40398340068953459 -0.70371349315555387 -0.096060305076248617 0.76851440218148293 0.38342377664345056 0.31592306230496908 -0.019615463089005161 -0.019736775110038161 0.99261302837688359
decision_type=2 2 2 2 2 2 2 2 2 2
left_child=1 5 -3 6 -4 7 -2 9 -9 -1
right_child=3 2 4 -5 -6 -7 -8 8 -10 -11
leaf_value=-0.01086990526914593 0.0090792087306268872 -0.012766071629524213 0.00077278095632791208 0.012053412428940681 0.0088688947886228497 -0.00043388155996799683 0.023961048482731021 -0.019889674416184413 -0.0037657236516475457 -0.0014216299019753631
leaf_weight=285 27 26 23 20 25 32 61 39 20 20
leaf_count=285 27 26 23 20 25 32 61 39 20 20
internal_value=-0.000908304 -0.00824468 0.00777027 0.0310185 0.0166667 -0.0112374 0.0346591 -0.0119505 -0.00995763 -0.0123361
internal_weight=578 470 74 108 48 396 88 364 59 305
internal_count=578 470 74 108 48 396 88 364 59 305
is_linear=0
shrinkage=0.05


Tree=4
num_leaves=11
num_cat=0
split_feature=18 15 0 24 11 19 18 3 0 16
split_gain=52.5942 8.89112 4.29747 2.37576 1.24654 1.06334 0.513986 0.113926 0.294828 0.0466777
threshold=0.71286311288786597 0.40398340068953459 -0.32240318463459366 0.044658831953512737 0.27051647167953291 0.37129865311090055 1.0523606219600661 -0.019615463089005161 -0.14472628306456595 1.810117035702568
decision_type=2 2 2 2 2 2 2 2 2 2
left_child=1 5 4 6 -3 7 -2 9 -9 -1
right_child=3 2 -4 -5 -6 -7 -8 8 -10 -11
leaf_value=-0.011326409052014298 0.0073821054081060437 -0.0041864354149252049 0.0037335486023128087 0.013276050530984386 0.0025800040378421655 -0.00041218748196958366 0.027131155829653197 -0.017989214280880971 -0.0040222087886929497 -0.0028264052373170312
leaf_weight=281 39 22 28 20 24 37 49 38 20 20
leaf_count=281 39 22 28 20 24 37 49 38 20 20
internal_value=-0.000908304 -0.0081383 0.00777027 0.0305556 -0.00163043 -0.0111111 0.0340909 -0.0119429 -0.00991379 -0.0123339
internal_weight=578 470 74 108 46 396 88 359 58 301
internal_count=578 470 74 108 46 396 88 359 58 301
is_linear=0
shrinkage=0.05


Tree=5
num_leaves=13
num_cat=0
split_feature=18 15 16 18 0 22 18 21 15 3 18 3
split_gain=47.0177 11.2537 5.71697 2.62903 2.59286 1.47217 1.23229 0.912777 0.25876 0.124286 0.3 0.034375
threshold=0.71286311288786597 0.63061095726663174 -0.16863747439157081 0.3554973138644979 -0.23371304534756845 -0.2269431391606786 0.89154601239954989 0.11248653479373251 0.31667624246166109 -0.019615463089005161 -0.037605065061206165 0.40832609855804264
decision_type=2 2 2 2 2 2 2 2 2 2 2 2
left_child=1 3 -3 9 -2 -5 -6 -7 -9 -1 -11 -8
right_child=4 2 -4 5 6 7 11 8 -10 10 -12 -13
leaf_value=-0.011260100043505396 0.01736421196537772 0.0010667922977022682 0.0051313944864692321 0.00026749858590218166 0.0076795928941732821 0.00017018236257879683 0.013282848210419342 -0.0026798179899323316 -0.00045253456792977432 -0.022530803251979849 -0.005734884976456878 0.024097690025058863
leaf_weight=290 21 38 20 21 20 24 20 32 21 40 20 44
leaf_count=290 21 38 20 21 20 24 20 32 21 40 20 44
internal_value=-0.00104337 -0.00736166 0.0133621 -0.0100446 0.0294048 -0.00280612 0.0333333 -0.00600649 -0.00966981 -0.0120714 -0.01 0.0367188
internal_weight=611 506 58 448 105 98 84 77 53 350 60 64
internal_count=611 506 58 448 105 98 84 77 53 350 60 64
is_linear=0
shrinkage=0.05


Tree=6
num_leaves=11
num_cat=0
split_feature=19 14 22 19 10 10 21 6 5 8
split_gain=41.6973 9.53323 3.47888 1.75158 1.2836 1.42157 1.11842 0.942157 1.6533 0.643137
threshold=0.59952119921732594 0.74379773424654572 -0.23066811277526275 0.13970413460997574 -0.72631829109233126 -0.61214288473963174 -1.1977750660487199 -0.36979576086126725 0.74671856263601433 -0.91198503000439002
decision_type=2 2 2 2 2 2 2 2 2 2
left_child=1 2 -1 -4 -2 -6 -5 8 -8 -9
right_child=4 -3 3 6 5 -7 7 9 -10 -11
leaf_value=0.00025412365660706373 0.02671908389037583 0.0094736504664894149 -0.0177744771932297 0.0026640933697208661 0.010713974888749601 0.0065697068611973997 -0.0029667187540895036 -0.0028495718494638833 0.00012978996306990399 -0.0022409004297810455
leaf_weight=38 38 36 260 20 20 29 38 20 30 82
leaf_count=38 38 36 260 20 20 29 38 20 30 82
internal_value=-0.00145254 -0.00677481 -0.00860656 -0.00983333 0.0306034 0.0252551 -0.00618421 -0.0075 -0.00294118 -0.0105392
internal_weight=611 524 488 450 87 49 190 170 68 102
internal_count=611 524 488 450 87 49 190 170 68 102
is_linear=0
shrinkage=0.05


Tree=7
num_leaves=12
num_cat=0
split_feature=18 15 0 18 10 23 22 21 15 17 2
split_gain=43.5594 10.4446 4.57749 2.62315 1.6617 1.59386 1.46882 0.991519 0.264935 0.200724 0.0468051
threshold=0.78433627269253958 0.63061095726663174 -0.29748689089199704 0.3554973138644979 -0.72991110472391629 -0.37957964564109076 -0.2269431391606786 0.11248653479373251 0.33698833672353196 0.44248729242411106 -1.4689928257112925
decision_type=2 2 2 2 2 2 2 2 2 2 2
left_child=1 3 -3 9 -2 -6 -5 -8 -9 10 -1
right_child=4 2 -4 6 5 -7 7 8 -10 -11 -12
leaf_value=-0.013719902653737327 0.027233755527701575 0.00053790385771251836 0.010453576649949593 0.00024141747377672831 0.0069244460857631812 0.0047760582190790046 0.00014484292566128155 -0.0023795357020779842 -0.00043639733768681134 -0.00575020955754475 -0.010585050019841093
leaf_weight=20 41 38 26 21 28 24 28 34 21 37 293
leaf_count=20 41 38 26 21 28 24 28 34 21 37 293
internal_value=-0.00153437 -0.00719112 0.0117188 -0.00985683 0.0299731 0.0240385 -0.00288462 -0.00587349 -0.00977273 -0.0119286 -0.0123403
internal_weight=611 518 64 454 93 52 104 83 55 350 313
internal_count=611 518 64 454 93 52 104 83 55 350 313
is_linear=0
shrinkage=0.05


Tree=8
num_leaves=13
num_cat=0
split_feature=18 18 22 14 10 1 1 12 10 14 3 17
split_gain=42.7554 5.18413 3.67476 2.35034 1.90757 1.48823 1.45038 1.2344 0.885092 0.267161 0.55102 0.229279
threshold=0.78433627269253958 0.31976073396216192 -0.23066811277526275 -0.22804617557080217 -0.72991110472391629 -1.5864467891940137 0.99573852724450673 -0.63509629267458301 -0.7387539087850199 -0.58953766276994879 -0.34244857099818149 0.5148487051302082
decision_type=2 2 2 2 2 2 2 2 2 2 2 2
left_child=1 6 -3 9 -2 -6 8 -5 -1 -4 -11 -10
right_child=4 2 3 7 5 -7 -8 -9 11 10 -12 -13
leaf_value=-0.004627019968489088 0.025872067751316497 0.001824223987767515 -0.0022408535678021479 -0.00015105685400074176 0.0093095693384959381 0.0026139352200446608 0.00010886933246287978 0.0039721426690698669 -0.011963797624277628 -0.00024237814474608045 -0.001940795554895125 -0.0062097637313316637
leaf_weight=24 41 27 28 27 22 30 20 20 288 28 21 35
leaf_count=24 41 27 28 27 22 30 20 20 288 28 21 35
internal_value=-0.00177987 -0.00738417 0.000413907 -0.00322581 0.0294355 0.0230769 -0.0105926 0.00558511 -0.0113473 -0.0086039 -0.00637755 -0.0120356
internal_weight=611 518 151 124 93 52 367 47 347 77 49 323
internal_count=611 518 151 124 93 52 367 47 347 77 49 323
is_linear=0
shrinkage=0.05


Tree=9
num_leaves=13
num_cat=0
split_feature=18 15 22 0 15 3 6 0 7 6 18 2
split_gain=40.1852 7.36082 5.08134 2.68966 3.99557 1.90507 0.739538 0.713683 1.17361 0.814881 0.135188 0.0465986
threshold=0.80220456264370765 0.03584869928909093 -0.22820941527215835 -0.75903156277970163 0.86207825368040902 0.38407030154161093 1.0000000180025095e-35 -0.63445009645022921 -0.33488698286068569 -0.34578113521990456 0.4091021837180035 -1.4638060860977302
decision_type=2 2 2 2 2 2 2 2 2 2 2 2
left_child=1 10 -3 -4 7 -2 -7 -5 9 -9 11 -1
right_child=5 2 3 4 -6 6 -8 8 -10 -11 -12 -13
leaf_value=-0.013952204441981654 0.0041185874700186533 0.0023046667878138028 -0.0090989002666796107 -0.0033681638583339616 0.011120473404730281 0.010087824292530391 0.024578464363750687 0.00013201818075950778 0.00029926577946873815 -0.00065870204323028594 -0.0012980446986481375 -0.0094576076376351459
leaf_weight=20 28 30 53 25 21 22 41 20 24 28 25 274
leaf_count=20 28 30 53 25 21 22 41 20 24 28 25 274
internal_value=-0.00194354 -0.00730769 0.000186567 -0.00314327 0.00105932 0.0287088 0.0335317 -0.00322165 -0.000694444 -0.00520833 -0.0120298 -0.0123299
internal_weight=611 520 201 171 118 91 63 97 72 48 319 294
internal_count=611 520 201 171 118 91 63 97 72 48 319 294
is_linear=0
shrinkage=0.05


Tree=10
num_leaves=13
num_cat=0
split_feature=19 15 0 14 19 21 5 16 9 9 14 0
split_gain=31.2865 9.90503 4.79144 3.1082 2.22138 2.09742 1.08119 1.20062 1.99341 0.262256 0.154206 0.102439
threshold=0.59952119921732594 0.76851440218148293 -0.17854125260209719 0.96239924549432043 0.50071483713603515 -1.1739521278515843 0.74671856263601433 0.15348421430792469 1.1175068789462486 -1.3263102425116753 0.48190100110958295 -0.1291536004234301
decision_type=2 2 2 2 2 2 2 2 2 2 2 2
left_child=1 4 -3 5 6 -2 9 -8 -9 -1 -11 -5
right_child=3 2 -4 11 -6 -7 7 8 -10 10 -12 -13
leaf_value=-0.0074111654606599416 0.0078528271625925693 0.00012454499814079645 0.010413866447501252 0.03756246734874668 0.00076860597057284432 0.0012595605632810926 -0.004157338720908588 0.00019406424986656567 -0.00045793927005557402 -0.0077080369734891189 -0.0081762792695854302 0.022849553543329251
leaf_weight=28 21 34 22 20 22 26 32 21 22 297 24 21
leaf_count=28 21 34 22 20 22 26 32 21 22 297 24 21
internal_value=-0.0025 -0.00732072 0.0125 0.025 -0.00980942 0.0162234 -0.0106132 -0.00516667 0.000290698 -0.0117837 -0.0121885 0.035061
internal_weight=590 502 56 88 446 47 424 75 43 349 321 41
internal_count=590 502 56 88 446 47 424 75 43 349 321 41
is_linear=0
shrinkage=0.05


Tree=11
num_leaves=15
num_cat=0
split_feature=18 3 14 21 23 21 5 16 3 14 19 10 3 18
split_gain=30.8663 3.83023 3.21035 2.21882 1.92726 1.52381 1.33199 1.07478 1.759 0.473469 0.362499 0.343137 0.0649179 0.121569
threshold=0.71286311288786597 0.38407030154161093 0.83833875513548273 -1.4598273862172104 -0.23920408873065685 -0.2448575381633 0.74671856263601433 -0.05936382194585603 -0.70628552624465935 1.1794263850370337 0.32199447644107798 1.144810898187389 0.23969055739618317 -0.21628796457288935
decision_type=2 2 2 2 2 2 2 2 2 2 2 2 2 2
left_child=2 5 3 -1 9 -2 10 -8 -9 -3 12 -12 -5 -14
right_child=1 4 -4 6 -6 -7 7 8 -10 -11 11 -13 13 -15
leaf_value=0.0003541212013678852 0.0050251178763615293 0.0087243971086345302 0.0048962722103020996 -0.0098226446615578226 0.010227529697157067 -5.7384117991565735e-05 -0.0037940032905906754 -0.00043943290001791091 0.00036081304427355577 0.035581428551069293 -0.0010403944985811987 -0.0013843639999888691 -0.022935048271884795 -0.0055306335290535415
leaf_weight=21 21 20 22 245 20 21 37 23 29 29 30 21 31 20
leaf_count=21 21 20 22 245 20 21 37 23 29 29 30 21 31 20
internal_value=-0.00292373 0.0208333 -0.00842902 -0.00932713 0.0280797 0.00892857 -0.0100917 -0.00463483 0 0.0334184 -0.0114914 -0.00759804 -0.0121622 -0.0105392
internal_weight=590 111 479 457 69 42 436 89 52 49 347 51 296 51
internal_count=590 111 479 457 69 42 436 89 52 49 347 51 296 51
is_linear=0
shrinkage=0.05


Tree=12
num_leaves=12
num_cat=0
split_feature=18 15 21 0 0 19 13 15 0 19 4
split_gain=27.6628 6.60618 4.44831 3.37931 2.65516 1.26973 1.41691 1.83764 0.868602 0.341576 0.158333
threshold=0.71286311288786597 0.76851440218148293 -1.1739521278515843 0.33773027748294221 -0.74227238929224171 0.13970413460997574 -0.27888269841869201 -0.18074969244832328 0.29486832038163402 0.40562405085386388 1.1130760391990113
decision_type=2 2 2 2 2 2 2 2 2 2 2
left_child=1 5 8 -4 -3 -1 9 -8 -2 10 -7
right_child=2 4 3 -5 -6 6 7 -9 -10 -11 -12
leaf_value=-0.013331508613782673 0.031240332547194674 -0.0054142169201326865 -0.0010166539391548214 0.0047738619825434371 0.0071556452311817842 -0.0018882565294963127 -0.0051826644059945089 0.00044018017581501926 0.018071842652034011 -0.00027149994970738779 -0.00055779143085628042
leaf_weight=249 24 22 29 29 26 76 26 33 29 27 20
leaf_count=249 24 22 29 29 26 76 26 33 29 27 20
internal_value=-0.00300847 -0.00822025 0.019482 0.00991379 0.009375 -0.0101798 -0.00700549 -0.000635593 0.0299528 -0.010061 -0.0114583
internal_weight=590 479 111 58 48 431 182 59 53 123 96
internal_count=590 479 111 58 48 431 182 59 53 123 96
is_linear=0
shrinkage=0.05


Tree=13
num_leaves=12
num_cat=0
split_feature=18 15 0 7 6 0 17 18 10 0 3
split_gain=23.7879 6.73446 3.35001 4.03864 3.34188 3.98611 1.55382 0.517349 1.32997 0.330297 0.297979
threshold=0.90941430235071874 0.2662584409116609 -0.17854125260209719 -0.41890753003535103 1.4969281998915722 0.33773027748294221 0.93288510224214216 0.069604674645804249 -0.58718335714780678 -0.71201689045187921 -0.14378204305407291
decision_type=2 2 2 2 2 2 2 2 2 2 2
left_child=1 7 6 -4 5 -2 9 -1 -9 -3 -10
right_child=4 2 3 -5 -6 -7 -8 8 10 -11 -12
leaf_value=-0.013664932229419204 0.0026926885839010152 -0.0062892875586889945 -3.765797006265448e-05 0.0061203738164294919 0.035044687146231594 0.008133446655108156 0.0050736593594555845 0.00041004156367437929 -0.00201606527448035 -0.00057655678263794923 -0.0012207329735145934
leaf_weight=225 25 34 34 33 26 22 21 24 82 27 37
leaf_count=225 25 34 34 33 26 22 21 24 82 27 37
internal_value=-0.00360169 -0.00737427 0.00159396 0.00988806 0.0231164 0.0151596 -0.00518293 -0.0110054 -0.00865385 -0.00922131 -0.0108193
internal_weight=590 517 149 67 73 47 82 368 143 61 119
internal_count=590 517 149 67 73 47 82 368 143 61 119
is_linear=0
shrinkage=0.05


Tree=14
num_leaves=12
num_cat=0
split_feature=18 18 15 0 24 0 18 3 14 15 10
split_gain=22.6574 5.23243 4.7961 2.65934 2.03658 1.51573 0.990195 1.46823 1.52381 0.272961 0.145121
threshold=0.71286311288786597 1.3561215511299285 0.76851440218148293 0.29486832038163402 -0.74174068660028525 -0.74227238929224171 0.069604674645804249 -0.14378204305407291 0.1142064893924943 0.40398340068953459 -0.44499215451856916
decision_type=2 2 2 2 2 2 2 2 2 2 2
left_child=2 3 6 -2 -5 -4 -1 9 -9 10 -8
right_child=1 -3 5 4 -6 -7 7 8 -10 -11 -12
leaf_value=-0.012460653552799928 0.00078267121625397174 0.033292452788920013 -0.005154466091174959 0.0019992128994102301 0.0049695188944609897 0.0065310960709377697 -0.002012067440559795 0.00041142005281830096 -0.0011726558292884605 -0.00031238434310885136 -0.0015903229096351447
leaf_weight=245 39 30 22 22 20 26 22 32 24 21 87
leaf_count=245 39 30 22 22 20 26 22 32 24 21 87
internal_value=-0.00402542 0.0163288 -0.00874217 0.00972222 0.0184524 0.00625 -0.0104118 -0.00766129 -0.000892857 -0.0105769 -0.0115826
internal_weight=590 111 479 81 42 48 431 186 56 130 109
internal_count=590 111 479 81 42 48 431 186 56 130 109
is_linear=0
shrinkage=0.05


Tree=15
num_leaves=16
num_cat=0
split_feature=19 7 15 15 0 15 16 13 6 10 4 15 15 0 0
split_gain=24.4481 6.84774 4.93637 3.98009 2.08399 1.33366 1.57494 2.61594 1.18627 0.443646 0.41806 0.139394 0.0698973 0.114894 0.0267442
threshold=0.4416266991142993 -0.41890753003535103 0.24343662707065833 0.91020731724943871 -0.13330631586662722 0.03584869928909093 -0.18818613387265584 -0.27888269841869201 -0.27423217076523998 -0.66225889946074101 0.41267939237594847 0.47059963905868812 -0.30598312100698882 1.0000000180025095e-35 0.40832644164241411
decision_type=2 2 2 2 2 2 2 2 2 2 2 2 2 2 2
left_child=3 8 -3 5 -4 9 11 10 -2 -1 -8 -7 -11 -14 -6
right_child=1 2 4 -5 14 6 7 -9 -10 12 -12 -13 13 -15 -16
leaf_value=-0.0068734898402294858 0.0013750498971848548 0.00080805802837717882 0.01183656994098844 0.0055159497997656409 0.011555205306548234 -0.0078086657748375754 -0.00041501180245365757 0.00063898143258536157 -0.00023717366923998729 -0.0078586453109136933 -0.00032066606849613378 -0.0061064201678592946 -0.0090394448011669407 -0.0013327981448897242 0.011142590507048133
leaf_weight=29 24 23 30 26 23 46 20 23 27 216 26 20 27 20 20
leaf_count=29 24 23 30 26 23 46 20 23 27 216 26 20 27 20 20
internal_value=-0.00266667 0.015051 0.0229167 -0.00841611 0.0292808 -0.0095726 -0.00546296 -0.000181159 0.000245098 -0.0114726 -0.00706522 -0.0109848 -0.0121198 -0.0103723 0.0363372
internal_weight=600 147 96 453 73 427 135 69 51 292 46 66 263 47 43
internal_count=600 147 96 453 73 427 135 69 51 292 46 66 263 47 43
is_linear=0
shrinkage=0.05


Tree=16
num_leaves=14
num_cat=0
split_feature=18 18 15 7 4 8 19 14 13 15 4 19 14
split_gain=24.7127 5.32691 4.05456 3.02679 2.49812 2.48276 1.94607 1.88248 1.47937 0.521605 0.150617 0.042346 0.102029
threshold=0.71286311288786597 1.3561215511299285 0.63061095726663174 -0.35570283128006558 -0.75497880604315604 -0.42695286259657023 0.13970413460997574 -0.30426150981282413 -0.44453091612854406 0.2814818874927682 -0.60610940788614276 -0.035615134757887544 -0.37487208078482787
decision_type=2 2 2 2 2 2 2 2 2 2 2 2 2
left_child=2 3 6 -2 -5 -4 11 9 -9 10 -8 -1 -13
right_child=1 -3 5 4 -6 -7 7 8 -10 -11 -12 12 -14
leaf_value=-0.018938264606175384 -0.00014757875221663719 0.029071333334176996 -0.0025146576950588976 0.001752464151433808 0.0066522741380509627 0.0044858711989921307 -0.0039867172200699023 -0.0007678145093797051 0.00045144382499686666 -8.8533206976793019e-05 -0.0018347430545030631 -0.0049222975790351071 -0.0044399862684261658
leaf_weight=187 28 31 29 32 23 29 20 35 29 27 61 44 25
leaf_count=187 28 31 29 32 23 29 20 35 29 27 61 44 25
internal_value=-0.00275 0.0182018 -0.00766461 0.0115964 0.0184091 0.00474138 -0.00934579 -0.00523256 0.0015625 -0.00925926 -0.0112654 -0.0121094 -0.0110507
internal_weight=600 114 486 83 55 58 428 172 64 108 81 256 69
internal_count=600 114 486 83 55 58 428 172 64 108 81 256 69
is_linear=0
shrinkage=0.05


Tree=17
num_leaves=16
num_cat=0
split_feature=19 14 15 19 0 9 22 14 16 0 19 8 19 15 0
split_gain=21.4793 6.77765 3.1276 2.74435 2.40646 2.69773 1.62963 0.837121 1.38653 0.63122 0.625 0.6098 0.37885 0.0566684 0.128571
threshold=0.4416266991142993 1.1794263850370337 0.26926233362514501 0.76872549274024338 -0.63445009645022921 0.64805615502982161 -0.20185544372201533 -0.042522213846367445 0.033886572901010284 0.30109739354642978 0.90555535700406031 -0.42695286259657023 0.33760804809850703 -0.30598312100698882 -0.17320204734181915
decision_type=2 2 2 2 2 2 2 2 2 2 2 2 2 2 2
left_child=2 3 7 6 11 -6 -2 12 -9 -8 -3 -4 13 -1 -15
right_child=1 10 4 -5 5 -7 9 8 -10 -11 -12 -13 -14 14 -16
leaf_value=-0.0073487915200495914 0.00098762326342534119 0.009774623511229109 -0.013310333662915974 0.0059935868686189055 0.0025033321808473064 -0.00016815962940576191 -0.001694416802424148 -0.0077536096661632416 0.00015205136372814509 0.0013301152823935959 0.031081381293835919 -0.00020200570765291915 -0.0011258388552518039 -0.0086029350097873054 -0.0013333022010445506
leaf_weight=215 29 20 28 29 23 20 26 38 24 23 20 29 20 36 20
leaf_count=215 29 20 28 29 23 20 26 38 24 23 20 29 20 36 20
internal_value=-0.00291667 0.0136905 -0.00830574 0.00712617 -0.0005 0.00843023 0.00224359 -0.010517 -0.00524194 -0.00331633 0.03125 -0.00723684 -0.0116409 -0.012131 -0.0107143
internal_weight=600 147 453 107 100 43 78 353 62 49 40 57 291 271 56
internal_count=600 147 453 107 100 43 78 353 62 49 40 57 291 271 56
is_linear=0
shrinkage=0.05


Tree=18
num_leaves=16
num_cat=0
split_feature=18 18 15 0 13 22 10 1 24 0 9 11 18 0 0
split_gain=20.3417 5.03642 3.34404 2.24733 2.2941 2.30958 1.83341 1.2864 1.10887 1.02724 0.677352 0.572973 0.348661 0.142343 0.248571
threshold=0.71286311288786597 1.4722654358125229 -0.22324493944881516 -0.6989654981303336 -0.26614052782562642 -0.096197587526681574 -0.75956370267382323 -0.0049736540917857423 -0.61067410017465218 0.29486832038163402 0.77964985329014547 0.15778734248922069 0.30189244401099385 0.4204879655177351 1.3139150545487619
decision_type=2 2 2 2 2 2 2 2 2 2 2 2 2 2 2
left_child=2 6 12 11 8 -6 -2 9 -5 -8 -10 -4 13 -1 -15
right_child=1 -3 3 4 5 -7 7 -9 10 -11 -12 -13 -14 14 -16
leaf_value=-0.012852176710225783 0.005990147885212827 0.031537625691782992 -0.0074169314967325933 -0.0005070058475880046 0.003467473283702427 -0.00038478793656695489 0.0018827286749094618 -0.00021212548811271327 -0.00023245549012416156 0.0027683394591543234 0.00024957261878604252 -0.0024783965348045278 -0.0013405525587376289 -0.0058762751096185012 -0.003406355949479245
leaf_weight=189 26 22 53 36 34 26 21 25 21 20 20 37 20 21 29
leaf_count=189 26 22 53 36 34 26 21 25 21 20 20 37 20 21 29
internal_value=-0.003 0.0160088 -0.00745885 -0.00302863 0.00100365 0.00833333 0.0108696 0.00643939 -0.00470779 0.0118902 0.000914634 -0.00916667 -0.0113417 -0.0118724 -0.0095
internal_weight=600 114 486 227 137 60 92 66 77 41 41 90 259 239 50
internal_count=600 114 486 227 137 60 92 66 77 41 41 90 259 239 50
is_linear=0
shrinkage=0.05


Tree=19
num_leaves=14
num_cat=0
split_feature=18 15 0 7 15 19 10 15 18 22 15 7 5
split_gain=19.5819 6.01499 2.70532 2.00153 1.88174 1.5686 1.93573 1.64437 1.39434 1.14491 0.981818 0.315644 0.0448187
threshold=0.51631192342501397 1.1929034905295481 -0.13745903130982434 -0.46792939670749245 0.2662584409116609 -0.070237545613320337 -0.56344633702986702 -0.3307719139085587 1.3561215511299285 -0.2093016222927159 0.16338786441319925 -0.34736292204418595 0.7383988250733543
decision_type=2 2 2 2 2 2 2 2 2 2 2 2 2
left_child=5 2 -2 -4 -5 12 7 -7 -3 10 -8 -11 -1
right_child=1 8 3 4 -6 6 9 -9 -10 11 -12 -13 -14
leaf_value=-0.020008749496196822 -0.0021674807687660949 0.0057526259339652167 -5.252408595800562e-05 0.00056948875722908634 0.0043052143952764027 -0.0029090280097350042 -0.0019086879278312097 0.0015820369643235301 0.029960744407193842 -0.0017697256373004012 0.00021690096719007013 -0.0015678281609472046 -0.0074077374627702702
leaf_weight=173 27 29 30 25 27 23 33 32 22 100 22 37 20
leaf_count=173 27 29 30 25 27 23 33 32 22 100 22 37 20
internal_value=-0.00341667 0.0115625 0.00493119 0.00945122 0.0153846 -0.00886364 -0.0062247 0.00204545 0.0257353 -0.00859375 -0.0025 -0.0110401 -0.0122409
internal_weight=600 160 109 82 52 440 247 55 51 192 55 137 193
internal_count=600 160 109 82 52 440 247 55 51 192 55 137 193
is_linear=0
shrinkage=0.05


Tree=20
num_leaves=14
num_cat=0
split_feature=15 18 18 5 11 16 9 24 14 23 1 19 6
split_gain=17.7082 5.16957 5.0528 2.33137 2.25527 1.87933 0.918446 1.56076 0.867349 0.452174 0.34632 0.15428 0.308337
threshold=0.91020731724943871 0.28402415405982512 1.4097264209834333 0.75411388491393516 -0.95006789265695024 -0.5859187082105739 0.86238564606677637 -0.61067410017465218 -0.37487208078482787 -0.63163076160163634 0.4362768749614287 0.092199507974523628 -0.04910900658721442
decision_type=2 2 2 2 2 2 2 2 2 2 2 2 2
left_child=1 3 5 11 -3 -2 7 10 -9 -8 -6 -1 -13
right_child=2 4 -4 -5 6 -7 9 8 -10 -11 -12 12 -14
leaf_value=-0.012536514904670094 -0.00041368004183448551 0.0013145686730188677 0.029117268001020147 0.00029770330587921558 0.00064543972738392299 0.0052076429712785144 -0.00049019377803227737 -0.00096057869342834894 1.1657516985286165e-05 -0.00055807523930715417 0.00079109675421068504 -0.0028626531006668123 -0.0017971075591422638
leaf_weight=222 23 27 27 29 22 36 26 30 29 20 20 46 31
leaf_count=222 23 27 27 29 22 36 26 30 29 20 20 46 31
internal_value=-0.00323129 -0.00682271 0.0177326 -0.0105183 0.000143678 0.0095339 -0.00229592 0.000371287 -0.00487288 -0.00815217 0.0077381 -0.0118311 -0.0099026
internal_weight=588 502 86 328 174 59 147 101 59 46 42 299 77
internal_count=588 502 86 328 174 59 147 101 59 46 42 299 77
is_linear=0
shrinkage=0.05


Tree=21
num_leaves=15
num_cat=0
split_feature=15 15 18 10 18 16 18 10 15 8 23 15 23 24
split_gain=15.5499 4.5514 4.00795 1.96717 1.79348 1.54853 0.985668 0.760931 0.656005 1.08167 0.168691 0.262161 0.118367 0.0429679
threshold=0.91020731724943871 0.03584869928909093 1.4097264209834333 -0.7953084628685918 0.80220456264370765 -0.49162719442228076 0.56991679327851874 -0.66225889946074101 0.15138443540531635 1.0887726605528669 -0.66398950032393922 -0.44702644731111613 0.23523639008266534 -0.74174068660028525
decision_type=2 2 2 2 2 2 2 2 2 2 2 2 2 2
left_child=1 7 3 -2 5 12 8 -1 -7 -10 11 -9 -3 -12
right_child=2 4 -4 -5 -6 6 -8 10 9 -11 13 -13 -14 -15
leaf_value=-0.0031009648987990746 0.009761903155327302 -0.005503012234722094 0.027661404600969153 0.00076380584227006001 0.0021966401784174971 0.00019794593435600307 -0.0005901753770889862 -0.0048583986644090919 -0.00018364882930601569 0.00016832095503276358 -0.0071085562960343743 -0.00056804033855131222 -0.0058824331930361412 -0.0076726407409585702
leaf_weight=34 23 20 27 36 31 22 25 32 32 31 21 31 29 194
leaf_count=34 23 20 27 36 31 22 25 32 32 31 21 31 29 194
internal_value=-0.00365646 -0.00702191 0.0159884 0.00868644 -0.000921053 -0.00306604 0.000227273 -0.0107372 0.00279412 0.000198413 -0.0116007 -0.0093254 -0.0104592 -0.0122674
internal_weight=588 502 86 59 190 159 110 312 85 63 278 63 49 215
internal_count=588 502 86 59 190 159 110 312 85 63 278 63 49 215
is_linear=0
shrinkage=0.05


Tree=22
num_leaves=15
num_cat=0
split_feature=15 15 0 16 4 14 1 1 19 19 3 0 16 0
split_gain=14.4556 6.46779 3.00598 1.42151 2.89114 0.784134 1.02665 1.76433 0.693416 0.585809 0.296224 0.47138 0.12492 0.0272727
threshold=1.674433320587094 0.03584869928909093 -0.77356606721008647 -0.91561791202599696 -0.75497880604315604 -0.55301223921252451 0.61306107726915249 0.085193388852314519 0.31424884037081285 0.41897216955540389 -0.11952624603764116 -0.17023582171570298 1.4932783646990611 -1.2594337870109451
decision_type=2 2 2 2 2 2 2 2 2 2 2 2 2 2
left_child=1 8 13 -4 -5 -6 7 -7 10 -8 12 -12 -1 -3
right_child=-2 2 3 4 5 6 9 -9 -10 -11 11 -13 -14 -15
leaf_value=-0.0083922124513454051 0.025310161413854271 -0.011058423018011909 -0.00089655807929286404 0.0042967578891479844 -0.00010007485427090402 0.0013008283236604968 9.5865401049410889e-05 -0.0015785165773150147 -0.0010212641759443587 0.00081059712072700796 -0.022778333178695133 -0.0019533197529636895 -0.0015730112279604192 -0.0054701032127594477
leaf_weight=195 33 20 24 22 28 37 38 26 34 24 28 27 28 24
leaf_count=195 33 20 24 22 28 37 38 26 34 24 28 27 28 24
internal_value=-0.0037415 -0.00565315 0.000462963 0.00307789 0.00464286 0.00220588 0.0039 -0.000595238 -0.0104167 0.00846774 -0.011241 -0.00795455 -0.0120516 -0.0113636
internal_weight=588 555 243 199 175 153 125 63 312 62 278 55 223 44
internal_count=588 555 243 199 175 153 125 63 312 62 278 55 223 44
is_linear=0
shrinkage=0.05


Tree=23
num_leaves=17
num_cat=0
split_feature=14 18 0 10 5 17 23 18 22 1 6 18 16 18 23 2
split_gain=12.6042 4.38861 2.048 2.04618 1.23608 1.22667 1.47201 0.907392 1.16667 0.667063 0.580513 0.458009 0.303571 0.281239 0.427907 0.0454338
threshold=1.1794263850370337 0.13661076196268507 -0.69318135918865009 -0.45216419836536303 0.75411388491393516 0.491947788830357 -0.23055338015573704 0.49844363347384513 -0.13430806547831545 -0.99113131274812438 0.032523813669806487 0.80220456264370765 0.16542438969322776 1.0000000180025095e-35 -0.41484400471414618 -1.4689928257112925
decision_type=2 2 2 2 2 2 2 2 2 2 2 2 2 2 2 2
left_child=1 4 -2 5 13 6 9 10 -9 -3 12 -7 -5 15 -15 -1
right_child=2 3 -4 7 -6 11 -8 8 -10 -11 -12 -13 -14 14 -16 -17
leaf_value=-0.0078809428421176327 0.0024545546487782844 0.0013126364828420112 0.021283398834753275 -0.0014711692268929877 2.2145862956124418e-05 -0.0014738844889716773 -0.00094722389319810149 0.00070305726599562135 -0.00028665285329338986 0.0030688682813125204 -3.0751547387120051e-05 0.00062835851278891797 -0.00052168920065522875 -0.0024458711610550578 -0.0031905331034610242 -0.011861749471547278
leaf_weight=20 20 21 39 21 23 22 21 21 21 24 22 20 51 23 20 199
leaf_count=20 20 21 39 21 23 22 21 21 21 24 22 20 51 23 20 199
internal_value=-0.00391156 -0.00635633 0.0180085 -0.00143443 -0.0105702 0.0037037 0.00795455 -0.00551471 0.000595238 0.0130556 -0.00824468 -0.00297619 -0.0104167 -0.0115458 -0.00784884 -0.0122717
internal_weight=588 529 59 244 285 108 66 136 42 45 94 42 72 262 43 219
internal_count=588 529 59 244 285 108 66 136 42 45 94 42 72 262 43 219
is_linear=0
shrinkage=0.05


Tree=24
num_leaves=14
num_cat=0
split_feature=15 19 15 7 0 10 13 22 1 24 10 8 3
split_gain=13.3447 5.74506 2.37331 2.03737 1.85384 1.67931 1.26276 1.0969 0.83113 0.384127 0.277149 0.112296 0.0346154
threshold=1.674433320587094 0.12805073778546416 0.079350505327366413 -0.34051478160596899 0.35938372260344525 -0.55189364140165087 0.19178122786266652 -0.19680749746589712 0.87681742729854795 -0.56152413026503989 1.4080507158558369 -1.2326192752860017 -0.17843318164897562
decision_type=2 2 2 2 2 2 2 2 2 2 2 2 2
left_child=1 8 5 7 6 -3 -5 -4 11 -9 12 -1 -7
right_child=-2 2 3 4 -6 10 -8 9 -10 -11 -12 -13 -14
leaf_value=-0.016106138951357818 0.022980483401423914 0.00057820411814408785 0.00018286087171581755 -0.00034549616566539323 0.0028412662163164182 -0.0014694936113548885 0.0027055592451749044 -0.00035399939543869776 -0.0010546702363500415 -0.0006751038608816762 -0.0032038315347617478 -0.0092144670448484952 -0.0021744867745736697
leaf_weight=31 33 27 38 23 31 45 24 35 25 28 20 208 20
leaf_count=31 33 27 38 23 31 45 24 35 25 28 20 208 20
internal_value=-0.0039966 -0.00583333 -0.000987973 0.0025838 0.00865385 -0.00669643 0.00239362 -0.00210396 -0.0111742 -0.00615079 -0.0101471 -0.0120816 -0.0117308
internal_weight=588 555 291 179 78 112 47 101 264 63 85 239 65
internal_count=588 555 291 179 78 112 47 101 264 63 85 239 65
is_linear=0
shrinkage=0.05


Tree=25
num_leaves=16
num_cat=0
split_feature=15 18 7 22 19 0 19 5 24 10 4 24 4 6 3
split_gain=13.1673 6.71463 2.27873 2.60009 1.86194 1.85507 2.17324 1.0061 0.953253 1.41537 0.669243 0.813926 0.794487 0.454212 0.103113
threshold=1.674433320587094 0.4091021837180035 -0.34051478160596899 -0.20343070714084643 0.058089590332762238 0.4492603522492587 0.70756991050426354 0.81309158008035465 -0.97110721284514312 -0.55189364140165087 -0.29845700015211518 0.14295877177273753 0.53759089626795975 -0.3259740209566841 0.35634939066568877
decision_type=2 2 2 2 2 2 2 2 2 2 2 2 2 2 2
left_child=1 4 3 -3 7 6 -4 14 -6 -10 -11 12 -12 -5 -1
right_child=-2 2 5 13 8 -7 -8 -9 9 10 11 -13 -14 -15 -16
leaf_value=-0.010447745983536883 0.013269440377077425 0.00031889593210652215 0.0033269356507957593 -0.00024303044976718981 -0.0012085529127830342 0.0027131822845521958 -0.00072154142039455589 -1.3779853248552243e-05 0.0018831147042917664 -0.0045156281467356955 0.00024306732791758991 -0.0012578586430288753 -0.0027206071180071014 -0.0013993107338261758 -0.011091438778690545
leaf_weight=188 32 38 26 21 28 23 20 21 27 23 29 31 23 31 33
leaf_count=188 32 38 26 21 28 23 20 21 27 23 29 31 23 31 33
internal_value=-0.00307239 -0.00484875 0.0038522 -0.00138889 -0.00828164 0.0106884 0.0048913 -0.0110537 -0.00411491 -0.00234962 -0.00495283 -0.00286145 0.000961538 -0.00865385 -0.0120475
internal_weight=594 562 159 90 403 69 46 242 161 133 106 83 52 52 221
internal_count=594 562 159 90 403 69 46 242 161 133 106 83 52 52 221
is_linear=0
shrinkage=0.05


Tree=26
num_leaves=17
num_cat=0
split_feature=14 18 22 15 18 0 2 0 0 11 10 22 14 23 3 1
split_gain=11.4144 4.99627 2.14113 2.06803 1.5293 2.78147 1.01952 0.914499 1.28265 0.822358 0.7391 0.79364 0.508242 0.484463 0.20814 0.132203
threshold=1.1794263850370337 -0.037605065061206165 -0.24213329452692584 1.7281269922021623 0.65925824303436109 0.43887856364126582 1.1140035018428167 0.43294611238903363 0.36457461663658841 0.041171001947518542 -0.59616878708086374 -0.206424358911239 -0.60331341518923598 -0.56838899326686965 0.23969055739618317 0.87433250879221425
decision_type=2 2 2 2 2 2 2 2 2 2 2 2 2 2 2 2
left_child=1 6 -3 -2 7 9 14 8 10 -6 -4 -12 -13 15 -1 -9
right_child=3 2 4 -5 5 -7 -8 13 -10 -11 11 12 -14 -15 -16 -17
leaf_value=-0.0097305310234403041 0.0013812877734156626 0.00063598970571376867 0.0004023022209501681 0.016817061047982862 0.0019793558829031446 0.0021865124687619475 3.0685106851069403e-05 -0.0011762409352815252 0.00054217269725902466 -0.0010967158241917741 5.1671540300723962e-05 -0.0014459824742897754 -0.0018571041114773925 -0.00060061270369633497 -0.011117180382637494 -0.00026999010671460157
leaf_weight=179 30 23 20 27 21 20 20 39 20 20 29 28 37 25 36 20
leaf_count=179 30 23 20 27 21 20 20 39 20 20 29 28 37 25 36 20
internal_value=-0.00307239 -0.00533054 -0.00107616 0.0182018 -0.00228495 0.00471311 -0.0107979 -0.00424312 -0.0016791 -0.0027439 -0.00372807 -0.00558511 -0.00865385 -0.00833333 -0.0118023 -0.0108051
internal_weight=594 537 302 57 279 61 235 218 134 41 114 94 65 84 215 59
internal_count=594 537 302 57 279 61 235 218 134 41 114 94 65 84 215 59
is_linear=0
shrinkage=0.05


Tree=27
num_leaves=16
num_cat=0
split_feature=15 14 18 0 12 18 16 15 22 4 2 23 5 3 3
split_gain=9.76932 4.47369 2.80728 2.29891 1.97384 1.08358 0.881269 0.688172 0.884304 1.15273 0.881563 0.596774 0.549214 0.287648 0.104762
threshold=0.39396030677287791 2.2724339412759069 -0.037605065061206165 -0.19070277701912525 -0.27477043827109421 0.65925824303436109 -0.70371349315555387 -0.44702644731111613 -0.19359095794929945 0.53759089626795975 0.69087474389429926 -0.41484400471414618 0.71491867684095511 0.23969055739618317 -0.16861535904708666
decision_type=2 2 2 2 2 2 2 2 2 2 2 2 2 2 2
left_child=2 3 12 6 -5 7 -2 11 9 -9 14 -4 13 -1 -10
right_child=1 -3 5 4 -6 -7 -8 8 10 -11 -12 -13 -14 -15 -16
leaf_value=-0.0094777800911742382 -0.0033771910580927878 0.019651669647330217 -0.0031194364095930905 7.7156482340967614e-05 0.0026456954865184514 0.0010648475708932125 0.00079302932882838748 0.00023315380198991599 -0.00065038939956479913 -0.0017800850725080643 8.625937104889126e-06 -0.0009958005770517532 -0.0013818456279098613 -0.010367883515878473 -0.001261105020833553
leaf_weight=170 34 22 37 37 35 26 35 23 20 20 39 25 22 27 22
leaf_count=170 34 22 37 37 35 26 35 23 20 20 39 25 22 27 22
internal_value=-0.00298822 0.00743865 -0.00693155 0.00416667 0.0104167 -0.00283019 -0.00235507 -0.00416667 -0.00201613 0.00377907 -0.00509259 -0.00846774 -0.0109018 -0.0117386 -0.010119
internal_weight=594 163 431 141 72 212 69 186 124 43 81 62 219 197 42
internal_count=594 163 431 141 72 212 69 186 124 43 81 62 219 197 42
is_linear=0
shrinkage=0.05


Tree=28
num_leaves=16
num_cat=0
split_feature=18 6 8 19 22 15 10 4 22 10 1 11 7 15 2
split_gain=8.92687 4.22575 3.27421 2.52217 2.30815 2.04149 1.86749 1.69697 0.922467 0.858766 0.682312 0.378398 0.360902 0.268254 0.0445355
threshold=0.4091021837180035 0.48421555669902044 -0.65256277700381327 -0.035615134757887544 -0.20343070714084643 -0.44702644731111613 -0.55189364140165087 0.53759089626795975 -0.19359095794929945 -0.63073179005087654 0.87433250879221425 -0.063783704540013614 -0.1579903784598761 0.37404767924614674 -1.4648980312795328
decision_type=2 2 2 2 2 2 2 2 2 2 2 2 2 2 2
left_child=3 4 -3 10 7 12 -7 -2 -8 -6 14 -10 -5 -11 -1
right_child=1 2 -4 5 9 6 8 -9 11 13 -12 -13 -14 -15 -16
leaf_value=-0.016053633242496836 0.00068793520256442702 0.0020222292565935996 0.018669086164963711 -0.0045174668635418634 0.0012387018220045287 0.001375100753734282 6.640962370544346e-05 0.00017141916875065279 -0.0012679276606791135 -0.0010968914379234974 -0.00084787005279908241 -0.00013771794694592555 -0.0013878452803311016 -0.00019473547934507619 -0.013361993617119185
leaf_weight=20 21 24 22 48 32 29 38 33 37 36 20 23 28 20 163
leaf_count=20 21 24 22 48 32 29 38 33 37 36 20 23 28 20 163
internal_value=-0.00315657 0.00585106 0.0190217 -0.00732759 0.00158451 -0.0033867 0.000492126 0.00972222 -0.00280612 -0.00340909 -0.0112685 -0.00666667 -0.00986842 -0.00714286 -0.0122268
internal_weight=594 188 46 406 142 203 127 54 98 88 203 60 76 56 183
internal_count=594 188 46 406 142 203 127 54 98 88 203 60 76 56 183
is_linear=0
shrinkage=0.05


Tree=29
num_leaves=16
num_cat=0
split_feature=18 2 8 0 15 0 24 0 11 6 8 4 6 6 3
split_gain=8.5702 3.63374 3.02679 4.37576 2.33232 2.41292 1.79272 1.84477 1.31834 1.63875 0.709686 0.629787 0.345695 0.25098 0.167877
threshold=0.4091021837180035 0.19049086433324627 -0.65256277700381327 0.35938372260344525 -0.44702644731111613 -0.65773496561092559 -0.64344074678106045 -0.13745903130982434 0.060607058704469009 -0.16441060827394149 1.116755285595626 1.0443416666870056 0.86230477627750368 -0.27423217076523998 -0.12241384092054976
decision_type=2 2 2 2 2 2 2 2 2 2 2 2 2 2 2
left_child=4 2 3 -2 12 10 13 -8 9 -7 11 -6 14 -3 -1
right_child=1 6 -4 -5 5 8 7 -9 -10 -11 -12 -13 -14 -15 -16
leaf_value=-0.00519543113011205 -0.00089116597630298786 -0.00011214204868059685 0.01323563614824993 0.002519734829685827 -0.0061525568335481177 -0.0010913849290141388 -0.00049377010678428588 0.00054668474386961876 0.00070326360615120549 0.00024297811625983989 -0.0008268467161092419 -0.00037349367211051424 -0.0033589685666504891 -0.00059335981692656416 -0.0057275866412332295
leaf_weight=156 33 20 28 22 74 34 29 22 39 22 20 20 20 34 21
leaf_count=156 33 20 28 22 74 34 29 22 39 22 20 20 20 34 21
internal_value=-0.00324074 0.00558511 0.0134036 0.00659091 -0.00732759 -0.00364833 -0.000595238 0.00612745 0.00223684 -0.00267857 -0.00855263 -0.0103723 -0.011231 -0.00694444 -0.011935
internal_weight=594 188 83 55 406 209 105 51 95 56 114 94 197 54 177
internal_count=594 188 83 55 406 209 105 51 95 56 114 94 197 54 177
is_linear=0
shrinkage=0.05


Tree=30
num_leaves=18
num_cat=0
split_feature=14 19 15 13 16 7 22 10 7 22 23 19 5 0 7 0 0
split_gain=9.17927 5.7693 2.79152 2.39224 1.87836 3.57869 1.16164 1.75812 1.53198 1.08462 0.857143 0.670255 0.574713 0.504565 0.48891 0.0447644 0.0321429
threshold=2.9383931725168764 -0.035615134757887544 -0.4522231574217504 -0.68344661474852297 -0.83937503938923508 0.66823284881674505 -0.19680749746589712 0.55960336214668138 -0.34736292204418595 -0.21593427563983178 -0.70390488741903978 0.32566928573456461 1.0901388409169661 0.28137199492039006 0.7203650014947367 -0.16029896624740853 1.3076859813839661
decision_type=2 2 2 2 2 2 2 2 2 2 2 2 2 2 2 2 2
left_child=1 9 14 13 -5 6 7 10 11 -1 -6 -8 -13 -4 16 -11 -3
right_child=-2 2 3 4 5 -7 8 -9 -10 15 -12 12 -14 -15 -16 -17 -18
leaf_value=-0.00019174849439165256 0.021972909102835149 -0.0043783621858094592 -0.0015691762853606629 -0.0013780205370438781 0.00090112433359155206 0.0047334498601380838 4.2622641492606755e-05 0.0005839962603799931 0.00028757227385791675 -0.015000718761476663 -0.00029836426459497469 -0.00079805200224694064 -0.00021974537656297422 -9.2690007938500696e-05 -0.0012087051589313891 -0.0066777760080218296 -0.0016967995953089954
leaf_weight=20 22 36 36 35 21 31 22 24 21 171 21 25 29 23 20 20 20
leaf_count=20 22 36 36 35 21 31 22 24 21 171 21 25 29 23 20 20 20
internal_value=-0.00328727 -0.0045 -0.000686813 0.0015625 0.00387555 0.00579897 0.00283742 0.00795455 -0.00064433 -0.0110782 0.00178571 -0.00394737 -0.00694444 -0.00741525 -0.00921053 -0.0122382 -0.0116071
internal_weight=597 575 364 288 229 194 163 66 97 211 42 76 54 59 76 191 56
internal_count=597 575 364 288 229 194 163 66 97 211 42 76 54 59 76 191 56
is_linear=0
shrinkage=0.05


Tree=31
num_leaves=16
num_cat=0
split_feature=18 19 7 11 6 22 16 0 22 22 4 3 5 22 0
split_gain=9.42341 5.08071 2.09719 2.3088 1.52672 1.0854 1.02857 2.17243 1.60839 0.762756 1.32234 0.276787 0.275247 0.0845977 0.0447917
threshold=1.5705410305439484 -0.035615134757887544 -0.35570283128006558 0.2471932035711924 -0.89834835077815256 -0.21593427563983178 -0.81148168164701384 1.3750192980047586 -0.15452774248842485 -0.20343070714084643 0.44208977292195112 -0.89282415568055196 1.0901388409169661 -0.14927782395944203 -0.16029896624740853
decision_type=2 2 2 2 2 2 2 2 2 2 2 2 2 2 2
left_child=1 5 4 6 -3 -1 -4 8 -8 10 -6 -11 13 -13 -7
right_child=-2 2 3 -5 9 14 7 -9 -10 11 -12 12 -14 -15 -16
leaf_value=-0.00018216106967205992 0.020874263647693372 0.00061390097942409794 -0.0014742838378282832 0.0061348102827103353 0.00030066630638327931 -0.014283286093395076 2.4208566753780584e-06 -0.00052884343218728702 0.0018883529806241973 -0.00049213107031190748 -0.00082028640229141474 -0.0018010271670998446 -0.00044092405387716752 -0.0017714320149845753 -0.0063438872076207247
leaf_weight=20 22 30 36 28 26 172 28 31 31 22 28 29 28 46 20
leaf_count=20 22 30 36 28 26 172 28 31 31 22 28 29 28 46 20
internal_value=-0.00370603 -0.00493478 -0.00134298 0.00308442 -0.00460526 -0.0110849 0.000198413 0.00305556 0.00868644 -0.00635475 -0.00138889 -0.0085 -0.00958738 -0.0111667 -0.0122396
internal_weight=597 575 363 154 209 212 126 90 59 179 54 125 103 75 192
internal_count=597 575 363 154 209 212 126 90 59 179 54 125 103 75 192
is_linear=0
shrinkage=0.05


Tree=32
num_leaves=19
num_cat=0
split_feature=15 18 15 0 24 15 0 0 13 4 6 23 21 0 1 18 2 6
split_gain=9.32537 4.6832 2.43916 2.61097 3.75 1.37363 1.225 0.98763 1.05455 1.11684 1.17375 0.846547 0.692308 0.522056 0.320661 0.0632879 0.113043 0.0348485
threshold=1.80345257674505 -0.2448772284947596 -0.4522231574217504 0.33773027748294221 -0.67620739338746871 0.45795390639460837 0.4492603522492587 -0.76288765582279916 -0.68344661474852297 1.020218545565003 -0.62523116005675206 0.18096082675319794 0.1601324111880035 -0.15065873377509137 0.87433250879221425 -0.5736537635962573 0.37421064117153807 -0.019709618274289027
decision_type=2 2 2 2 2 2 2 2 2 2 2 2 2 2 2 2 2 2
left_child=1 14 11 7 5 12 -6 -4 -9 10 -10 17 -5 -12 15 -1 -17 -3
right_child=-2 2 3 4 6 -7 -8 8 9 -11 13 -13 -14 -15 -16 16 -18 -19
leaf_value=-0.020575262432850017 0.019830550465308718 -0.0035927826300738877 -0.0036842375710461452 2.343480573878676e-05 0.0013864885030645203 0.00048679985049241429 0.0013959848575100021 -0.0011132668581929962 0.0011450304020426793 0.00061457740315737927 -0.0012699452815611246 -0.00010502569600625567 -0.00038111953025850022 -6.9397385712166579e-05 -0.0051556272012980749 -0.0065635213098998897 -0.005301404009481492 -0.0018742653808815125
leaf_weight=123 22 46 25 26 20 28 20 34 27 34 39 20 26 20 21 20 26 20
leaf_count=123 22 46 25 26 20 28 20 34 27 34 39 20 26 20 21 20 26 20
internal_value=-0.00353853 -0.00476087 -0.00159091 0.000543478 0.00625 0 0.01875 -0.00328212 -0.00178571 0.000416667 -0.00261628 -0.00901163 -0.00480769 -0.0065678 -0.0111842 -0.0119083 -0.0103261 -0.0117424
internal_weight=597 575 385 299 120 80 40 179 154 120 86 86 52 59 190 169 46 66
internal_count=597 575 385 299 120 80 40 179 154 120 86 86 52 59 190 169 46 66
is_linear=0
shrinkage=0.05


Tree=33
num_leaves=17
num_cat=0
split_feature=14 0 17 0 7 0 16 5 6 10 1 1 23 1 4 0
split_gain=7.95519 3.8559 2.31658 2.22567 3.05937 2.48786 1.72985 1.8365 1.46916 0.769639 0.750406 0.646998 0.360577 0.26887 0.25 0.0261905
threshold=2.9383931725168764 -0.13745903130982434 0.98051355394446904 1.3512894946209499 -0.35237366436353718 0.4492603522492587 -0.18818613387265584 0.74671856263601433 -0.76823659867879357 -0.56344633702986702 0.89137194997850089 0.80120490703440095 -0.63038404183642738 -1.5864467891940137 0.26149681822093507 1.4558489400867951
decision_type=2 2 2 2 2 2 2 2 2 2 2 2 2 2 2 2
left_child=1 2 6 4 8 9 13 14 -3 -6 12 15 -10 -1 -8 -5
right_child=-2 3 -4 11 5 -7 7 -9 10 -11 -12 -13 -14 -15 -16 -17
leaf_value=-0.0028948954571567324 0.018839022942043284 0.0011336175711532225 0.00060633182886302714 -0.0018855599373395538 0.0027065199771611152 0.0018589492161233514 -0.00067713571811369724 0.00031982199526612302 -0.00075108557267336009 -0.00067412300906429803 9.8789378849262202e-05 -4.0179486127622792e-05 -0.0028675789657409468 -0.0088452477645154289 -0.0028152063767068916 -0.00069634525143268404
leaf_weight=29 22 20 37 22 31 21 20 28 39 20 23 27 25 188 25 20
leaf_count=29 22 20 37 22 31 21 20 28 39 20 23 27 25 188 25 20
internal_value=-0.00337102 -0.0045 -0.00806575 0.000201613 0.00314246 0.0111111 -0.00956897 -0.00291096 -0.00221963 0.00514706 -0.00502874 -0.00742754 -0.0078125 -0.0118088 -0.00916667 -0.0113095
internal_weight=597 575 327 248 179 72 290 73 107 51 87 69 64 217 45 42
internal_count=597 575 327 248 179 72 290 73 107 51 87 69 64 217 45 42
is_linear=0
shrinkage=0.05


Tree=34
num_leaves=18
num_cat=0
split_feature=18 18 17 17 0 7 8 0 0 4 4 10 4 5 18 0 0
split_gain=7.9101 4.80747 2.45036 2.34016 1.40105 1.18947 1.5872 1.22061 3.52801 1.14889 1.70002 1.08651 0.647005 0.603571 0.355981 0.454545 0.0267442
threshold=1.5705410305439484 -0.2448772284947596 0.93288510224214216 1.7612180028357904 -0.71201689045187921 -0.42762564849147694 0.51163101904596586 1.3750192980047586 0.4204879655177351 -0.072096206062094867 0.21985965025693113 -0.4854979021533023 0.5121459602899574 -1.2366144307738931 -0.62725863344976285 -0.72551321537141633 -0.76867179530618956
decision_type=2 2 2 2 2 2 2 2 2 2 2 2 2 2 2 2 2
left_child=1 14 4 -4 16 9 7 8 13 -6 -11 -12 -13 -7 -1 -16 -3
right_child=-2 2 3 -5 5 6 -8 -9 -10 10 11 12 -14 -15 15 -17 -18
leaf_value=-0.02042571861609134 0.0178970717949411 -0.0034134769941659873 0.0012555714772477967 -0.00020038676694830173 -0.0023494953056099502 0.00077138513200097902 0.00041695507618961792 -0.0013422089021846385 0.0016582884373317897 0.0003600857485761555 0.00010668846007718669 -4.8977978922226661e-05 -0.0021035936143063206 -0.0014691778310928607 -0.0078152883017149951 -0.0037565183845883255 -0.0046932712983953299
leaf_weight=124 22 23 27 34 36 20 31 26 20 22 20 31 39 36 30 36 20
leaf_count=124 22 23 27 34 36 20 31 26 20 22 20 31 39 36 30 36 20
internal_value=-0.00328727 -0.00441304 -0.0012013 0.0079918 -0.0029321 -0.00164591 0.00178571 -0.00122549 0.00197368 -0.00472973 -0.00223214 -0.00527778 -0.00821429 -0.00446429 -0.0109211 -0.00795455 -0.0113372
internal_weight=597 575 385 61 324 281 133 102 76 148 112 90 70 56 190 66 43
internal_count=597 575 385 61 324 281 133 102 76 148 112 90 70 56 190 66 43
is_linear=0
shrinkage=0.05


Tree=35
num_leaves=18
num_cat=0
split_feature=15 0 21 24 0 0 15 3 3 24 22 8 5 22 0 15 3
split_gain=6.59068 3.25674 2.42434 1.41268 1.39317 1.53769 0.977857 1.61731 2.05884 0.783768 0.615751 0.896903 0.470544 0.363933 0.646168 0.222021 0.102439
threshold=0.24343662707065833 -0.77356606721008647 -1.4121815098229393 -0.3649242506265904 -0.17320204734181915 1.1834011378337881 -0.920963981031793 0.091845699391265245 -0.44986710064237972 0.66722511747526958 0.037679023024311822 -0.37565138335151238 1.0901388409169661 -0.16949470356449423 -0.72551321537141633 -0.44702644731111613 0.44875242691876244
decision_type=2 2 2 2 2 2 2 2 2 2 2 2 2 2 2 2 2
left_child=4 16 -3 10 13 6 -6 8 -8 -5 11 -4 -13 14 -1 -7 -2
right_child=1 2 3 9 5 15 7 -9 -10 -11 -12 12 -14 -15 -16 -17 -18
leaf_value=-0.010487655024953392 -0.0035985168343556141 0.013396200704364382 -0.00043020368893652576 0.001690757527192277 -0.00530775295086442 -0.0020485538973328832 -0.00070581404321563574 -0.0023101919226031775 0.00046528426663527966 0.00063637359406261147 0.00025709461606484576 -0.00021389889018634813 0.00063696413333720343 -0.0090328506490424242 -0.00022358626104851398 -0.00020803180606334684 -0.008317927649661605
leaf_weight=29 21 33 26 27 28 46 21 20 31 23 21 23 21 147 22 39 20
leaf_count=29 21 33 26 27 28 46 21 20 31 23 21 23 21 147 22 39 20
internal_value=-0.00438963 0.00261628 0.00560345 0.00274823 -0.00832245 -0.0052027 -0.001 0.00208333 0.00673077 0.0095 -0.000961538 -0.00321429 0.00113636 -0.0112374 -0.00759804 -0.0101471 -0.010061
internal_weight=598 215 174 141 383 185 100 72 52 50 91 70 44 198 51 85 41
internal_count=598 215 174 141 383 185 100 72 52 50 91 70 44 198 51 85 41
is_linear=0
shrinkage=0.05


Tree=36
num_leaves=18
num_cat=0
split_feature=10 15 18 16 16 18 16 14 10 1 18 10 11 1 3 1 1
split_gain=7.28517 2.62501 2.40741 1.02935 0.99875 0.991899 0.913077 1.88511 0.828666 0.819398 0.667467 0.750978 0.981818 0.417894 0.269457 0.0703723 0.0277778
threshold=-0.75026585416410663 1.0000000180025095e-35 1.1953069415694133 -0.66489138901521627 -0.5859187082105739 0.56991679327851874 1.042628573395562 0.1142064893924943 0.08654051171038539 0.085193388852314519 -0.609390343498594 -0.50928925593674801 -0.7984666499527372 0.89137194997850089 -0.8443125616476882 0.53105876656014817 -0.26092026024413267
decision_type=2 2 2 2 2 2 2 2 2 2 2 2 2 2 2 2 2
left_child=2 10 3 -1 5 16 7 8 -6 -9 -2 12 -12 14 -13 -16 -3
right_child=1 4 -4 -5 6 -7 -8 9 -10 -11 11 13 -14 -15 15 -17 -18
leaf_value=-0.0025048252907081459 -0.016413402973958612 -0.0086547508627037428 0.01342758250341305 0.005727342342139086 0.0017575076018882198 -0.00016071551236742645 -0.00025037028941597982 0.00011062077043443308 8.9043965930901692e-05 -0.00080442132226142831 -0.0021544874331274055 -0.0009632592922362627 0.00013258933063805544 -0.00077337792691558607 -0.0030050849281274329 -0.0035145237077647273 -0.0040188934738879306
leaf_weight=21 99 20 21 22 25 37 34 26 37 20 33 21 22 29 37 69 25
leaf_count=21 99 20 21 22 25 37 34 26 37 20 33 21 22 29 37 69 25
internal_value=-0.00422241 -0.00613296 0.0117188 0.00494186 -0.00200893 -0.00640244 0.000528169 0.00277778 0.00846774 -0.0048913 -0.0091129 -0.0075237 -0.0025 -0.00929487 -0.0105315 -0.0115566 -0.0113889
internal_weight=598 534 64 43 224 82 142 108 62 46 310 211 55 156 127 106 45
internal_count=598 534 64 43 224 82 142 108 62 46 310 211 55 156 127 106 45
is_linear=0
shrinkage=0.05


Tree=37
num_leaves=19
num_cat=0
split_feature=10 18 15 0 19 24 0 15 16 16 0 14 19 23 4 9 1 1
split_gain=6.5886 2.68612 2.55638 2.0056 1.03744 0.852023 1.67143 0.890512 0.74922 0.612478 1.3211 1.05411 0.486564 0.488723 0.563607 0.149021 0.0425373 0.0314815
threshold=-0.75026585416410663 1.1953069415694133 -0.3307719139085587 -0.77356606721008647 1.0000000180025095e-35 -0.44684086714261101 0.22723838130657131 0.37404767924614674 -0.66489138901521627 1.1603314672881029 0.38088885649681353 0.051152902604785548 0.023199285297455411 0.057362555826005517 -0.072096206062094867 1.1412444462331373 -1.2800918361989018 0.84273854492597422
decision_type=2 2 2 2 2 2 2 2 2 2 2 2 2 2 2 2 2 2
left_child=1 8 12 17 -5 9 7 -7 -1 10 11 -6 15 14 -14 16 -2 -4
right_child=2 -3 3 4 5 6 -8 -9 -10 -11 -12 -13 13 -15 -16 -17 -18 -19
leaf_value=-0.0023795840261727542 -0.018161692027709508 0.012756203378242415 -0.016202630582459309 0.00074879086223289537 2.7429624011987564e-05 -0.00096651620971237588 0.00044640108379810921 0.00025528015557365615 0.0054409752250321412 -0.00031401876093594132 0.00025786994309555665 -0.0012553203548647752 -0.0017441686588466788 -0.0001575187097058395 -0.00078145987089430771 -0.0033705651356361389 -0.009466106136082432 -0.0022056614359560636
leaf_weight=21 20 21 34 20 26 34 26 31 22 38 29 33 42 20 27 20 114 20
leaf_count=21 20 21 34 20 26 34 26 31 22 38 29 33 42 20 27 20 114 20
internal_value=-0.00422241 0.0109375 -0.00603933 -0.00287801 -0.000896624 -0.00190092 0.00178571 -0.0025 0.00377907 -0.00456349 -0.00227273 -0.0065678 -0.0098251 -0.00688202 -0.00887681 -0.011526 -0.0121269 -0.0115741
internal_weight=598 64 534 291 237 217 91 65 43 126 88 59 243 89 69 154 134 54
internal_count=598 64 534 291 237 217 91 65 43 126 88 59 243 89 69 154 134 54
is_linear=0
shrinkage=0.05


Tree=38
num_leaves=19
num_cat=0
split_feature=14 15 0 24 4 3 17 13 15 1 8 0 15 10 0 6 0 0
split_gain=5.7766 2.90619 2.92536 1.75803 2.17631 1.6 1.13046 0.686252 1.01812 0.591734 0.706522 0.625 0.437194 0.401368 0.706125 0.0392157 0.0391304 0.0287234
threshold=2.0894132305625197 -0.44702644731111613 -0.63445009645022921 -0.46322419044581514 0.12981101319192326 -0.22867733261158454 0.99737766865468458 -0.68344661474852297 0.079350505327366413 -0.024498013784405737 0.80894641012527846 0.35938372260344525 0.63061095726663174 -0.50928925593674801 0.2109241419880532 0.27787016134503834 -0.71201689045187921 -0.6642606612299915
decision_type=2 2 2 2 2 2 2 2 2 2 2 2 2 2 2 2 2 2
left_child=1 13 6 7 5 -5 12 -4 -9 11 -11 -10 16 14 17 -15 -3 -1
right_child=-2 2 3 4 -6 -7 -8 8 9 10 -12 -13 -14 15 -16 -17 -18 -19
leaf_value=-0.022579777470257658 0.0082622841668190672 -0.0041082783544030945 -0.000782153380031958 0.0015715494169365352 -0.00017931347491135786 0.00030679243474501794 0.00037310616186979621 0.00039304310691560266 -0.00063300928534271161 -0.00033203354238294793 -0.00012916838423729927 0.00041487986665518229 -0.003132575105327229 -0.0042750404764278277 -0.00024631491884887782 -0.0029649136077904981 -0.0016013299274421078 -0.013465350602733695
leaf_weight=27 36 72 36 20 34 20 20 30 20 26 20 20 25 98 33 21 20 20
leaf_count=27 36 72 36 20 34 20 20 30 20 26 20 20 25 98 33 21 20 20
internal_value=-0.0041388 -0.00538256 -0.00272039 0.000774336 0.00709459 0.015 -0.0084854 -0.00230263 -0.000431034 -0.00319767 -0.00706522 0.00125 -0.0103632 -0.0102387 -0.0075 -0.0120798 -0.0119565 -0.0114362
internal_weight=598 562 363 226 74 40 137 152 116 86 46 40 117 199 80 119 92 47
internal_count=598 562 363 226 74 40 137 152 116 86 46 40 117 199 80 119 92 47
is_linear=0
shrinkage=0.05


Tree=39
num_leaves=17
num_cat=0
split_feature=15 18 10 15 6 24 0 15 16 24 24 0 19 11 24 3
split_gain=5.82107 2.96694 2.50418 1.36438 0.898896 0.885315 1.54422 1.89892 0.62595 0.539681 0.746053 0.492816 0.484848 0.3663 0.239937 0.0928023
threshold=1.7761407082336906 -0.2448772284947596 -0.83277831694317661 -0.52488239257142388 -1.1281482518553771 -0.46322419044581514 0.2109241419880532 0.63061095726663174 0.17531519913653745 -0.82365730311630581 -0.97110721284514312 1.3201441277135577 0.32566928573456461 -0.59633165968045343 0.73275841068808611 0.35634939066568877
decision_type=2 2 2 2 2 2 2 2 2 2 2 2 2 2 2 2
left_child=1 8 -3 13 -5 9 7 14 15 10 11 -6 -11 -4 -7 -1
right_child=-2 2 3 4 5 6 -8 -9 -10 12 -12 -13 -14 -15 -16 -17
leaf_value=-0.011606346117514944 0.011354683083855966 0.0050836984994168336 -0.0012356822491576326 0.00016466604035029198 -0.00040875601612526684 -0.00066823087288733209 0.00035049992054259071 0.00092160781331274144 -0.0060164720897969651 -0.00024119240739186589 5.8911204425793343e-05 -9.5506385847388142e-05 -0.00068432028414909811 -0.0025701031805203003 -0.001423664876760511 -0.015459467304940945
leaf_weight=127 23 21 28 34 29 26 36 21 20 22 20 27 44 50 36 34
leaf_count=127 23 21 28 34 29 26 36 21 20 22 20 27 44 50 36 34
internal_value=-0.00455686 -0.00554348 -0.00310914 -0.00405496 -0.0025 -0.00349617 -0.000315126 -0.00406627 -0.0108425 -0.00616197 -0.00328947 -0.00625 -0.0094697 -0.0099359 -0.00846774 -0.0118789
internal_weight=598 575 394 373 295 261 119 83 181 142 76 56 66 78 62 161
internal_count=598 575 394 373 295 261 119 83 181 142 76 56 66 78 62 161
is_linear=0
shrinkage=0.05


Tree=40
num_leaves=18
num_cat=0
split_feature=14 19 15 23 19 6 8 24 8 4 6 22 2 2 15 10 0
split_gain=7.42463 4.66484 2.50032 1.0936 1.51114 1.33043 1.13957 1.56603 1.37497 1.225 0.962669 1.9739 0.864358 0.787953 0.376996 0.372308 0.169697
threshold=2.9383931725168764 -0.30977570892615575 -0.35927975425612613 0.74050901198742236 -0.0078473206353135271 -1.0099489203181655 -0.7277660818062277 -0.46322419044581514 1.0887726605528669 0.21985965025693113 -0.019709618274289027 -0.082354210292963012 0.82054323423336106 1.0323805995030702 -0.54252206651705548 -0.4632210992958366 -0.20553390406629232
decision_type=2 2 2 2 2 2 2 2 2 2 2 2 2 2 2 2 2
left_child=1 16 10 4 -4 -6 7 -7 12 -10 14 -12 15 -14 -3 -8 -1
right_child=-2 2 3 -5 5 6 8 -9 9 -11 11 -13 13 -15 -16 -17 -18
leaf_value=-0.018713416092221945 0.012007383347105627 -0.0029883544519266007 0.0011120745878698158 -0.0028968528215956415 0.0010759259146664647 -0.00018172070538202689 -0.0012052249805638794 0.0032814867860581965 0.00010625540036030001 -1.7610603480933129e-05 0.00072351075634606858 -0.0024437309074056613 0.00033383640491434501 -0.00036125741328238984 -0.0010296320957105755 -0.00012422228455737374 -0.0061626630765958205
leaf_weight=112 20 51 24 35 32 23 39 20 20 20 26 27 26 28 38 36 20
leaf_count=112 20 51 24 35 32 23 39 20 20 20 26 27 26 28 38 36 20
internal_value=-0.00244975 -0.00348787 -0.00103933 0.0015264 0.00261194 0.00143443 0 0.00726744 -0.00184911 0.00625 -0.00651408 -0.00117925 -0.00436047 0.000462963 -0.00969101 -0.00783333 -0.0117424
internal_weight=597 577 445 303 268 244 212 43 169 40 142 53 129 54 89 75 132
internal_count=597 577 445 303 268 244 212 43 169 40 142 53 129 54 89 75 132
is_linear=0
shrinkage=0.05


Tree=41
num_leaves=20
num_cat=0
split_feature=14 19 15 16 7 17 14 1 15 21 0 19 6 17 7 1 16 6 0
split_gain=6.08554 4.72663 2.13169 1.96858 3.16108 1.85892 1.66063 1.54885 1.08816 1.78453 1.16962 1.74574 0.903743 1.07612 0.51511 0.362319 0.36039 0.1 0.0261905
threshold=2.9383931725168764 -0.30977570892615575 -1.0445946859114781 -0.8722153111249048 0.66823284881674505 -0.48180741915328279 -0.66266722847005044 0.61306107726915249 0.58755475697849679 0.44600766955362953 -0.6989654981303336 0.31442355396638283 -0.27423217076523998 0.64483425153979701 -0.40009645224098694 0.37557386573528262 -0.22598991997384751 0.57454999030451714 1.221813755954215
decision_type=2 2 2 2 2 2 2 2 2 2 2 2 2 2 2 2 2 2 2
left_child=1 16 18 17 6 -6 14 12 9 -9 -11 -12 13 -8 -5 -14 -1 -4 -3
right_child=-2 2 3 4 5 -7 7 8 -10 10 11 -13 15 -15 -16 -17 -18 -19 -20
leaf_value=-0.01725227919594019 0.011407014179750341 -0.0039604071532054917 -0.0023900604077416567 -0.0023005952290475308 0.00016220285485712971 0.0056367664524983102 -0.0012396498368183796 0.00062843564588638268 0.0017884678090183794 -0.0026430915860359951 0.00034070402769075252 -0.00026201213650844934 -0.0014760750840492776 0.00075352448982659583 -0.00013028463318438545 -0.00076135672930588427 -0.0028001984823632143 -0.0010922711635721007 -0.00326301635598939
leaf_weight=111 20 20 20 30 33 20 28 24 34 29 31 37 25 23 26 23 21 20 22
leaf_count=111 20 20 20 30 33 20 28 24 34 29 31 37 25 23 26 23 21 20 22
internal_value=-0.00211474 -0.00305459 -0.000589888 0.000527295 0.00168733 0.0129717 -0.000241935 0.00147638 0.00459677 0.00237603 -0.00064433 0.00294118 -0.00340909 0.00122549 -0.00803571 -0.00833333 -0.0113636 -0.01 -0.0113095
internal_weight=597 577 445 403 363 53 310 254 155 121 97 68 99 51 56 48 132 40 42
internal_count=597 577 445 403 363 53 310 254 155 121 97 68 99 51 56 48 132 40 42
is_linear=0
shrinkage=0.05


Tree=42
num_leaves=21
num_cat=0
split_feature=14 15 16 2 2 14 4 10 21 0 8 8 10 6 16 0 0 5 22 3
split_gain=6.39001 3.37755 2.78154 1.5448 1.16062 1.29941 0.921775 0.834376 0.805493 0.799742 1.06522 0.9294 0.655185 0.622254 0.927536 0.774045 0.237863 0.236014 0.162963 0.133333
threshold=2.9383931725168764 -0.44702644731111613 -0.8722153111249048 0.012230813403967863 0.63163671778150687 -0.6379495927005866 0.38905195182494651 1.4290914278230407 0.064840658399461501 -0.22674241550539023 0.55710278474044894 0.5046353627852761 -0.67887820939739296 -0.019709618274289027 -0.16106796450931457 0.2109241419880532 -0.32240318463459366 0.94907306846562534 -0.19821663965540806 1.0944186427371154
decision_type=2 2 2 2 2 2 2 2 2 2 2 2 2 2 2 2 2 2 2 2
left_child=1 13 19 6 7 16 12 17 -7 10 -10 -11 -4 18 15 -15 -6 -5 -1 -3
right_child=-2 2 3 4 5 8 -8 -9 9 11 -12 -13 -14 14 -16 -17 -18 -19 -20 -21
leaf_value=-0.0014009795045116348 0.010836663470762798 -0.0035551831374110335 0.0010580041015326059 -0.0013233042117004046 -0.00065422336937691621 -0.00030276053185720466 0.002340446331794155 2.2241826761781882e-05 -0.0026499650866907533 0.0004025738878180363 0.00063129925090823493 0.00014368293755748774 -6.7176646592637121e-05 -0.014627589501507622 0.00029093694444874972 -0.00030285460907132357 -0.00045582355229920605 -0.0007661176562278716 -0.0039843578737314145 -0.0015925011574876137
leaf_weight=20 20 40 23 30 20 39 23 25 23 25 23 22 21 47 23 22 21 22 88 20
leaf_count=20 20 40 23 30 20 39 23 25 23 25 23 22 21 47 23 22 21 22 88 20
internal_value=-0.00278476 -0.00374783 -0.000961538 0.00090694 -0.0009 0.00137283 0.00764925 -0.00600649 0.00378788 0.0063172 0.00163043 0.0109043 0.00340909 -0.009 -0.00597826 -0.00887681 -0.00640244 -0.00961538 -0.0115741 -0.0108333
internal_weight=597 577 377 317 250 173 67 77 132 93 46 47 44 200 92 69 41 52 108 60
internal_count=597 577 377 317 250 173 67 77 132 93 46 47 44 200 92 69 41 52 108 60
is_linear=0
shrinkage=0.05


Tree=43
num_leaves=21
num_cat=0
split_feature=18 14 15 16 7 14 0 7 0 7 8 0 18 22 15 15 19 6 2 0
split_gain=5.68684 4.26912 1.92818 1.33858 2.15385 1.68459 1.62308 1.28831 1.78661 1.75819 1.65544 1.12401 1.12792 1.10345 0.781931 0.337209 0.456269 0.225 0.042 0.0261905
threshold=-0.609390343498594 2.9383931725168764 -1.0445946859114781 -0.8722153111249048 -0.35570283128006558 -0.67644298088933763 1.3512894946209499 -0.85138020928545866 -0.22674241550539023 -1.0093568479240529 1.116755285595626 -0.11684376423755995 0.76646798274137151 -0.17507404551401493 0.2662584409116609 0.37404767924614674 0.57036732390323053 0.57454999030451714 0.94366005348160698 1.221813755954215
decision_type=2 2 2 2 2 2 2 2 2 2 2 2 2 2 2 2 2 2 2 2
left_child=18 2 19 17 5 -5 11 8 -7 -10 15 14 -13 -12 -6 -9 -17 -4 -1 -2
right_child=1 -3 3 4 6 7 -8 10 9 -11 13 12 -14 -15 -16 16 -18 -19 -20 -21
leaf_value=-0.015755224598945804 -0.0037546664595106585 0.010294830297224689 -0.002117331755233032 -0.0022304902256371053 -0.0023602884416561777 -0.00080087749238836334 -0.00033023201869768486 -0.0016194360665996667 2.4054988722888027e-05 0.0005974714387907865 0.00055062823914551193 0.0026250342179265918 0.00028905315878944296 -0.00030825214519873971 0.0013281760338490934 -1.2874042065758041e-05 -0.00057897885628490633 -0.00085989844852291109 -0.011029422589086103 -0.0031069899909933808
leaf_weight=105 20 20 20 33 26 30 27 29 21 20 29 27 31 29 25 20 23 20 20 22
leaf_count=105 20 20 20 33 26 30 27 29 21 20 29 27 31 29 25 20 23 20 20 22
internal_value=-0.00261725 -0.000105932 -0.00110619 -6.09756e-05 0.000878378 -0.00202991 0.00588235 -0.000310945 0.00510563 0.0118902 -0.00326923 0.00860092 0.0133621 0.00301724 0.00318627 -0.00833333 -0.00552326 -0.00875 -0.0121 -0.0113095
internal_weight=597 472 452 410 370 234 136 201 71 41 130 109 58 58 51 72 43 40 125 42
internal_count=597 472 452 410 370 234 136 201 71 41 130 109 58 58 51 72 43 40 125 42
is_linear=0
shrinkage=0.05


Tree=44
num_leaves=18
num_cat=0
split_feature=18 15 6 2 7 16 23 3 3 22 10 22 3 4 7 1 19
split_gain=4.83943 3.67504 1.99634 2.98948 2.17628 1.40058 2.4914 2.07612 0.862891 0.753907 0.630054 0.517927 0.306314 0.237863 0.142602 0.107375 0.0822857
threshold=-0.609390343498594 1.80345257674505 -1.1281482518553771 1.163687007614836 -0.37016103767967751 -0.82498840698149545 -0.51282091230326721 -0.16861535904708666 -0.87261099150019206 -0.21863753000317596 -0.62745818670413944 -0.037830804675846257 -0.096425486974372601 0.94239669591799602 -0.46082179322068645 0.50691955821290868 -0.46863695759133589
decision_type=2 2 2 2 2 2 2 2 2 2 2 2 2 2 2 2 2
left_child=16 2 -2 4 8 11 10 -8 -4 -10 -7 -6 14 -14 -11 -12 -1
right_child=1 -3 3 -5 5 6 7 -9 9 12 15 -13 13 -15 -16 -17 -18
leaf_value=-0.019452337948028288 0.00033200942753444098 0.0087349523234877546 1.3451783905882309e-06 0.00078618598218354045 -0.00080246360190457946 7.6796314825045009e-05 1.7963599403980623e-05 0.0030541012977969629 -9.0900499489010581e-06 -0.0021819059714046408 -0.00082014338318638915 -0.0024081126839954337 -0.00053802643600240339 -0.00065267583582069306 -0.00098060535876004495 -8.0286102330295872e-05 -0.0078167800172723508
leaf_weight=90 33 22 36 24 30 23 31 36 32 80 21 21 20 21 22 20 35
leaf_count=90 33 22 36 24 30 23 31 36 32 80 21 21 20 21 22 20 35
internal_value=-0.00295226 -0.000635593 -0.00161111 -0.00254796 -0.00359415 0.000412088 0.00314885 0.00988806 -0.00704976 -0.0085 -0.00390625 -0.00661765 -0.0100524 -0.00640244 -0.0115196 -0.00762195 -0.0117
internal_weight=597 472 450 417 393 182 131 67 211 175 64 51 143 41 102 41 125
internal_count=597 472 450 417 393 182 131 67 211 175 64 51 143 41 102 41 125
is_linear=0
shrinkage=0.05


Tree=45
num_leaves=23
num_cat=0
split_feature=15 15 16 7 17 9 0 18 10 18 2 0 17 16 18 15 4 8 2 0 0 0
split_gain=5.14182 3.14325 2.18696 2.7509 1.46473 1.42907 0.757487 0.72803 0.724758 0.709778 1.44128 0.707881 0.680145 0.613933 0.456269 0.404378 0.321071 0.856601 0.165217 0.131034 0.106977 0.0272727
threshold=1.7761407082336906 -0.4522231574217504 -0.61685504631030008 0.68299761420511362 -0.45282612821773754 0.86238564606677637 -1.2087113327588188 0.39123389376683554 -0.65135141611040892 0.90941430235071874 0.78778487877928238 0.38088885649681353 -0.72004809554887039 -0.05936382194585603 0.49844363347384513 0.2814818874927682 -0.29845700015211518 0.041173135514582779 -1.4613492094386742 -1.2767862055694574 -0.16489661645542483 -0.13745903130982434
decision_type=2 2 2 2 2 2 2 2 2 2 2 2 2 2 2 2 2 2 2 2 2 2
left_child=1 8 6 4 7 9 19 -4 -1 10 11 13 -8 -6 -13 -14 18 21 -10 -3 -7 -18
right_child=-2 2 3 -5 5 20 12 -9 16 -11 -12 14 15 -15 -16 -17 17 -19 -20 -21 -22 -23
leaf_value=-0.00014720722279306655 0.01080379999776966 -0.0030995755121963845 0.00074687668307438226 0.0057784677682101611 -0.00013960427746462223 -0.0016136941262289485 -0.0015937541628412656 3.6799927975539331e-05 -0.0042811226750895546 -0.00079533866183607589 0.00088477925018368717 -0.00041197836533848344 -0.0011474509169548952 0.00064999901957143449 -6.6214385416873969e-07 0.00010767858934292996 -0.0117773808513026 -0.00015468612983629006 -0.0028595125828491776 -0.007663983392054808 -0.00068705100885033685 -0.0033301398067123291
leaf_weight=20 23 20 20 23 28 20 23 24 20 22 21 23 21 23 20 31 24 23 95 38 23 20
leaf_count=20 23 20 20 23 28 20 23 24 20 22 21 23 21 23 20 31 24 23 95 38 23 20
internal_value=-0.00307851 -0.00399485 -0.00131579 0.00146761 -0.000223214 -0.00222222 -0.00648496 0.00795455 -0.00903465 0.000273723 0.00184783 -0.000797872 -0.00316667 0.00318627 -0.00552326 0 -0.0100275 -0.00727612 -0.0116304 -0.0107759 -0.0101744 -0.0113636
internal_weight=605 582 380 247 224 180 133 44 202 137 115 94 75 51 43 52 182 67 115 58 43 44
internal_count=605 582 380 247 224 180 133 44 202 137 115 94 75 51 43 52 182 67 115 58 43 44
is_linear=0
shrinkage=0.05


Tree=46
num_leaves=20
num_cat=0
split_feature=15 19 15 24 0 1 1 6 6 11 6 1 4 15 5 0 17 2 19
split_gain=4.92425 3.58821 1.76003 2.3154 2.56319 3.12233 1.7308 1.17916 0.948841 1.14104 0.730301 1.2363 0.602007 0.425809 0.400465 0.25974 0.148695 0.118367 0.0401003
threshold=1.7761407082336906 -0.035615134757887544 -0.98665622491632121 -0.47960751374901928 -0.13745903130982434 0.71813763125125363 0.86474782312492804 -0.34578113521990456 -0.62523116005675206 0.12280244032671007 -0.16441060827394149 0.59176177578629419 0.29454218962093803 0.49284835776599412 -1.5276203624100797 1.2560736597148587 0.8620924874298489 0.60788691007729978 -0.12832981614030817
decision_type=2 2 2 2 2 2 2 2 2 2 2 2 2 2 2 2 2 2 2
left_child=1 6 -3 8 7 -6 14 12 9 -4 17 15 -5 -9 -1 -12 18 -10 -16
right_child=-2 2 3 4 5 -7 -8 13 10 -11 11 -13 -14 -15 16 -17 -18 -19 -20
leaf_value=-0.0084565736711030848 0.01026360999788114 -0.0021227975397071332 -0.00045774606767787777 0.00039267764978999646 0.0028230141866147254 -1.640908254352258e-05 0.00024072390712608362 -0.0021116459381102628 -0.00069564339508884079 0.00031516052841431554 -0.0012881733336318703 0.0001138018243543204 -9.4199753956636378e-06 -0.00022279647810146132 -0.0098338500069688924 -0.00048571104366939015 -0.0017508338460993089 -0.00089944437105335959 -0.0023308117159659861
leaf_weight=26 23 36 25 20 38 23 25 35 20 21 35 27 26 23 112 20 20 29 21
leaf_count=26 23 36 25 20 38 23 25 35 20 21 35 27 26 23 112 20 20 29 21
internal_value=-0.00258264 -0.00347938 -0.000595238 0.000511696 0.00477273 0.0129098 -0.00882353 0 -0.00346045 0.00271739 -0.00562977 -0.0027439 0.00597826 -0.00474138 -0.0105447 -0.00704545 -0.0115196 -0.0104592 -0.0121241
internal_weight=605 582 378 342 165 61 204 104 177 46 131 82 46 58 179 55 153 49 133
internal_count=605 582 378 342 165 61 204 104 177 46 131 82 46 58 179 55 153 49 133
is_linear=0
shrinkage=0.05


Tree=47
num_leaves=20
num_cat=0
split_feature=15 15 16 18 22 9 6 6 0 9 2 6 21 9 5 3 23 0 0
split_gain=5.921 3.49529 2.12855 1.96017 2.67202 1.31189 1.01192 1.05306 0.928281 0.865013 1.78484 0.590543 0.690642 0.541311 0.416843 0.388356 0.317303 0.1 0.0287234
threshold=-0.3307719139085587 1.7761407082336906 -0.70849771902117742 0.14554490693826985 -0.10855711630323099 -0.63262016937056365 -0.019709618274289027 0.21370053445533874 -0.7458318597727277 1.1430881407796916 0.82054323423336106 -0.62523116005675206 0.041017720202325983 -1.3076428352278116 1.1385782018373478 -0.8443125616476882 0.023400891691290945 0.36857902139435744 -1.2561709390930711
decision_type=2 2 2 2 2 2 2 2 2 2 2 2 2 2 2 2 2 2 2
left_child=6 2 8 4 -4 -5 15 -8 18 10 11 -7 14 -9 -13 -1 -10 -14 -2
right_child=1 -3 3 5 -6 9 7 13 16 -11 -12 12 17 -15 -16 -17 -18 -19 -20
leaf_value=-0.00065953967178176151 -0.0064325870864404 0.0097504294979870575 0.0016960059595145351 0.0022489724841943115 -0.001182361779439889 1.0008915055870205e-06 0.00043817340464303857 -0.0037920649425466357 -0.00014811754649650679 -0.00064084457965227779 0.00027608552739775142 3.5973197439531646e-05 -0.0011859513090706432 -0.0007301357885241889 -0.00056452101021842171 -0.0028403668608606436 0.0010434711942459262 -0.00083191249716881856 -0.011082048601955653
leaf_weight=20 20 23 28 23 20 29 34 38 22 23 39 21 20 27 22 126 23 20 27
leaf_count=20 20 23 28 23 20 29 34 38 22 23 39 21 20 27 22 126 23 20 27
internal_value=-0.00283058 0.00125 -3.7092e-05 0.00239796 0.0114583 0.000190355 -0.00882653 -0.00492424 -0.00652174 -0.0012931 8.27815e-05 -0.003125 -0.00527108 -0.00865385 -0.000872093 -0.0114726 -0.00138889 -0.01 -0.0114362
internal_weight=605 360 337 245 48 197 245 99 92 174 151 112 83 65 43 146 45 40 47
internal_count=605 360 337 245 48 197 245 99 92 174 151 112 83 65 43 146 45 40 47
is_linear=0
shrinkage=0.05


Tree=48
num_leaves=20
num_cat=0
split_feature=15 15 14 22 22 12 8 7 15 23 6 3 22 15 6 19 14 14 22
split_gain=5.41452 2.41092 2.07877 2.06793 1.69 1.67538 1.27182 1.01275 1.18862 0.991472 0.809043 0.730976 0.882544 0.794948 0.710894 0.677929 0.929339 1.16667 0.381935
threshold=0.03584869928909093 1.7761407082336906 0.086418828798160693 -0.18998154814474855 -0.21660079125064916 1.6073831217507417 0.80894641012527846 -0.85718380660177829 -0.65644779384666974 -0.59380681052082529 -0.24329048785499083 1.1400426418870706 -0.20508257399989757 1.2693874071858802 -0.019709618274289027 -0.29786606549480826 -0.48964377808380338 -0.6555038372120211 -0.082354210292963012
decision_type=2 2 2 2 2 2 2 2 2 2 2 2 2 2 2 2 2 2 2
left_child=5 2 3 4 -2 7 10 8 -1 -10 -5 12 -4 -13 -9 -16 17 -17 -14
right_child=1 -3 11 6 -6 -7 -8 14 9 -11 -12 13 18 -15 15 16 -18 -19 -20
leaf_value=-0.0071926069257256869 0.00015647908635196828 0.0092629080230876692 2.7588254130073153e-06 0.00017937536510110875 0.0010986791793590189 0.00011539381426255435 -0.00073768165163319306 -0.002386176602026491 0.00011832072814950135 -0.00084458593074315802 0.00055211473628826726 0.0014013654647857976 -0.00083179452653654457 -0.0010293979635626171 -0.013911842983154444 -0.0011380776688737272 -0.0023422974544189735 0.0008514262536539086 -0.00056979383512425488
leaf_weight=22 25 23 29 21 20 30 38 120 20 26 33 21 37 20 33 21 20 21 25
leaf_count=22 25 23 29 21 20 30 38 120 20 26 33 21 37 20 33 21 20 21 25
internal_value=-0.0025 0.00239726 0.00106877 0.00538321 0.0141667 -0.00706869 0.00108696 -0.00825972 -0.00294118 0.00163043 0.00601852 -0.00340909 -0.00590659 0.00213415 -0.00994186 -0.00671053 -0.00362903 0.000595238 -0.00927419
internal_weight=605 292 269 137 45 313 92 283 68 46 54 132 91 41 215 95 62 42 62
internal_count=605 292 269 137 45 313 92 283 68 46 54 132 91 41 215 95 62 42 62
is_linear=0
shrinkage=0.05


Tree=49
num_leaves=20
num_cat=0
split_feature=15 0 15 12 24 4 2 2 18 0 0 15 7 24 10 10 2 19 0
split_gain=5.59881 2.41253 2.94479 1.72336 1.60057 1.67632 2.14295 2.58172 1.30769 1.25662 0.989161 1.11316 1.69208 1.02533 0.732462 0.289286 0.15898 0.125259 0.0314815
threshold=0.03584869928909093 -1.2268053076696896 1.7281269922021623 1.6073831217507417 -0.98749053614834714 -0.99637524412017775 -0.12153247136685361 0.69087474389429926 0.39123389376683554 -0.13745903130982434 -0.22392450110640907 -1.0445946859114781 -0.82005241206554158 -0.037257784562507897 -0.44226188782689196 0.36822660881812475 0.96904777895851801 0.45393818381545736 0.33031471395935874
decision_type=2 2 2 2 2 2 2 2 2 2 2 2 2 2 2 2 2 2 2
left_child=3 -2 4 10 14 -6 -7 17 -9 -10 16 18 -13 15 -3 -14 -1 -8 -12
right_child=1 2 -4 -5 5 6 7 8 9 -11 11 12 13 -15 -16 -17 -18 -19 -20
leaf_value=-0.0074988248774794488 -0.0047205985787249112 -0.0003840341844205453 0.0093742909566064455 0.00010962412354944551 -0.00021785016211613997 0.0041237754944956628 -3.3919646674496211e-05 0.00056444452763386725 -0.00061386546016232177 0.00033736318263697388 -0.0054786240915153722 0.00029095371903800073 -0.0022251825816980266 9.2845345475822683e-05 6.7887328802795913e-05 -0.00023956834398143335 -0.0054075705093281634 -0.0011830897627227001 -0.0020751958848035934
leaf_weight=106 36 34 22 30 38 26 25 27 22 21 20 23 36 23 20 20 21 21 34
leaf_count=106 36 34 22 30 38 26 25 27 22 21 20 23 36 23 20 20 21 21 34
internal_value=-0.00258264 0.00239726 0.00410156 -0.00722843 0.00245726 0.00472222 0.00721831 0.00431034 0.0103571 0.00494186 -0.0084364 -0.00576923 -0.00269608 -0.00617089 -0.00509259 -0.00982143 -0.0117126 -0.0048913 -0.0115741
internal_weight=605 292 256 313 234 180 142 116 70 43 283 156 102 79 54 56 127 46 54
internal_count=605 292 256 313 234 180 142 116 70 43 283 156 102 79 54 56 127 46 54
is_linear=0
shrinkage=0.05


Tree=50
num_leaves=18
num_cat=0
split_feature=18 7 4 13 1 8 1 15 15 13 17 18 5 18 7 2 3
split_gain=5.46378 2.44829 2.36279 1.99562 1.52033 1.35637 0.824923 0.787925 1.45409 0.725838 0.597518 1.27107 0.951621 1.08333 0.509928 0.104762 0.0425926
threshold=-0.2448772284947596 1.0096816123159065 -1.0414821760811817 1.7829597806717266 0.97763412098407676 1.116755285595626 0.87433250879221425 -0.98665622491632121 -0.69011349039750325 -1.365949127139596 0.80059666146586939 0.58778508322968748 0.57061745089302318 0.28402415405982512 0.96042351362518907 0.5107037888968663 0.44875242691876244
decision_type=2 2 2 2 2 2 2 2 2 2 2 2 2 2 2 2 2
left_child=6 3 -3 4 7 -6 14 -2 -9 -10 11 12 15 -14 16 -11 -1
right_child=1 2 -4 -5 5 -7 -8 8 9 10 -12 -13 13 -15 -16 -17 -18
leaf_value=-0.0081432612588577379 -0.0017435280685823451 -1.5221367174333978e-05 0.0071819914047567051 0.0010427197301257852 -0.00010286575335451965 0.00056219764149689766 -0.00081053922834268828 0.00021200746594861599 -0.0024625148658016017 -0.00080280343561782712 -0.00056349733899211383 0.00019899906734650586 0.00024663334627224033 -0.00010774609933090763 -0.0084501798691115192 -0.00088931722373668536 -0.0047891188009542285
leaf_weight=115 34 31 29 32 31 33 20 20 23 20 38 37 25 27 35 22 20
leaf_count=115 34 31 29 32 31 33 20 20 23 20 38 37 25 27 35 22 20
internal_value=-0.00261824 0.00068408 0.01 -0.000950292 -0.00217742 0.0046875 -0.00960526 -0.00396341 -0.00283019 -0.00416667 -0.00303254 -0.0014313 -0.00452128 0 -0.0107353 -0.010119 -0.0121296
internal_weight=592 402 60 342 310 64 190 246 212 192 169 131 94 52 170 42 135
internal_count=592 402 60 342 310 64 190 246 212 192 169 131 94 52 170 42 135
is_linear=0
shrinkage=0.05


Tree=51
num_leaves=19
num_cat=0
split_feature=18 18 13 14 16 1 9 0 24 10 4 18 4 1 1 18 5 3
split_gain=5.59667 2.34555 1.69131 1.28615 1.27763 1.51686 1.3176 0.949675 1.07746 1.55188 1.46525 1.70422 1.09714 0.824923 0.624026 0.474402 0.455822 0.172414
threshold=-0.2448772284947596 1.5705410305439484 1.7829597806717266 -0.753665913022599 1.6276710476647376 1.0085181081342216 0.856854562427113 -0.70252496866499026 -0.97110721284514312 -0.68168997658732911 -0.29845700015211518 0.3554973138644979 -1.0626312137771838 0.87433250879221425 0.84131859149378385 0.49844363347384513 -1.5276203624100797 0.83857773611141739
decision_type=2 2 2 2 2 2 2 2 2 2 2 2 2 2 2 2 2 2
left_child=13 2 3 -2 5 6 7 -5 -9 -10 12 -12 -11 16 -8 -6 -1 -18
right_child=1 -3 -4 4 15 -7 14 8 9 10 11 -13 -14 -15 -16 -17 17 -19
leaf_value=-0.0080048700801080407 -0.0025797065399520537 0.0073974201691920267 0.00099058374361947758 -0.0014583481868860938 -0.00033489948154903361 0.00045324102033306168 -0.002309781050827331 -0.00097222242096686176 0.0022874254562518571 6.1296521423770403e-05 0.00065206545185904081 -2.9707693333325125e-05 -0.00051298257928555913 -0.00077001226692556828 -5.1676652198850984e-06 -4.3288646586869815e-06 -0.0081880854911188464 -0.0031082492893327652
leaf_weight=25 23 20 32 22 33 34 35 33 24 35 22 21 25 20 20 23 125 20
leaf_count=25 23 20 32 22 33 34 35 33 24 35 22 21 25 20 20 23 125 20
internal_value=-0.00253378 0.000808458 -6.5445e-05 -0.00107143 -0.000267584 0.00115314 -0.000263713 0.00178571 0.003125 0.00521654 0.00254854 0.00959302 -0.0025 -0.00960526 -0.00704545 -0.00714286 -0.0107353 -0.0118103
internal_weight=592 402 382 350 327 271 237 182 160 127 103 43 60 190 55 56 170 145
internal_count=592 402 382 350 327 271 237 182 160 127 103 43 60 190 55 56 170 145
is_linear=0
shrinkage=0.05


Tree=52
num_leaves=19
num_cat=0
split_feature=19 18 15 24 13 6 8 24 1 19 6 0 6 14 24 0 15 1
split_gain=5.1802 2.29104 1.4958 1.61815 1.64114 3.32104 1.59981 1.39181 1.09394 0.821789 1.31057 0.710227 0.651215 0.563147 0.536508 0.350189 0.884211 0.0395833
threshold=-0.078862573447954179 1.5705410305439484 -1.0790192478406182 -0.69259071669067296 0.25947400913832724 -0.050376103371025924 1.0887726605528669 -0.21747434089775328 0.97763412098407676 0.36753648701962915 -0.19823039846915705 -0.14368810447462008 -0.16441060827394149 -0.61716788619377616 0.95065661062070106 -0.77356606721008647 -0.70822183960077478 0.78700537271249515
decision_type=2 2 2 2 2 2 2 2 2 2 2 2 2 2 2 2 2 2
left_child=11 2 -2 9 6 -6 7 13 -8 12 -11 15 -4 -5 -9 17 -17 -1
right_child=1 -3 3 4 5 -7 8 14 -10 10 -12 -13 -14 -15 -16 16 -18 -19
leaf_value=-0.014413713511428429 -0.0018115571373632734 0.0070275491607323833 -0.0010061308751855736 -0.00021982530545647805 -0.00010044368085249111 0.0031681840059257227 0.00011888993127731063 -0.00043746205665062821 0.0013471735804239549 8.3403510600477129e-05 -0.00090657663164348543 -0.00028606797063686075 -7.1740798486974458e-05 0.00030521836153089014 -0.00041510988688324706 -0.0096903711322833264 -0.00042533692492658927 -0.0057059402626735926
leaf_weight=76 29 20 32 23 25 22 33 35 22 32 38 20 29 28 28 42 38 20
leaf_count=76 29 20 32 23 25 22 33 35 22 32 38 20 29 28 28 42 38 20
internal_value=-0.00228041 0.0010101 0.000132979 0.00104467 0.0037037 0.0119681 0.00140533 -0.00197368 0.00840909 -0.00333969 0.000357143 -0.00892857 -0.00758197 0.00416667 -0.00694444 -0.00994318 -0.0075 -0.0119792
internal_weight=592 396 376 347 216 47 169 114 55 131 70 196 61 51 63 176 80 96
internal_count=592 396 376 347 216 47 169 114 55 131 70 196 61 51 63 176 80 96
is_linear=0
shrinkage=0.05


Tree=53
num_leaves=20
num_cat=0
split_feature=18 18 16 18 0 0 15 18 19 15 1 3 1 18 4 22 2 7 17
split_gain=4.55029 2.48746 1.58937 1.17277 1.18315 1.59229 1.12708 1.43146 0.984127 1.16713 0.757895 0.9 0.736997 0.672549 0.504368 0.457284 0.452174 0.404482 0.342424
threshold=-0.2448772284947596 1.5705410305439484 1.2324330912834831 -0.12694651481704775 1.3512894946209499 0.33773027748294221 0.051242131714938639 0.89154601239954989 0.4761093390932763 0.63061095726663174 -0.0049736540917857423 -0.050223968847835691 0.87433250879221425 0.28402415405982512 0.082721358946918858 -0.16080444794391011 0.61771441671352334 0.96042351362518907 0.53947096704399244
decision_type=2 2 2 2 2 2 2 2 2 2 2 2 2 2 2 2 2 2 2
left_child=12 2 3 -2 5 6 16 8 9 13 -7 -12 17 -8 -4 -16 -5 18 -1
right_child=1 -3 14 4 -6 10 7 -9 -10 -11 11 -13 -14 -15 15 -17 -18 -19 -20
leaf_value=-0.0070300313493186556 0.00014123238642507196 0.0066761717026957886 -0.0004186572042845782 -0.00045285016264524637 -0.00091094531558804097 0.0013103707074615945 0.00019575390980182129 -0.00049060154122293476 0.00088977792569711056 0.0028135853713885163 0.00037886071969609473 -0.000136842399773629 -0.00071198566926157232 -0.00018573883586725515 5.2348284270786754e-05 -0.00035028655275710642 -0.00122852324729682 -0.0076061605254041931 -0.0036923778251615638
leaf_weight=113 25 20 36 20 24 36 21 33 21 21 20 20 20 30 20 29 26 35 22
leaf_count=113 25 20 36 20 24 36 21 33 21 21 20 20 20 30 20 29 26 35 22
internal_value=-0.0027027 0.000310945 -0.000589005 0.00113636 0.000183824 0.00120968 -0.00145349 0.000992063 0.00416667 0.00138889 0.00723684 0.0025 -0.00907895 -0.00269608 -0.00661765 -0.00331633 -0.00815217 -0.0101471 -0.0113889
internal_weight=592 402 382 297 272 248 172 126 93 72 76 40 190 51 85 49 46 170 135
internal_count=592 402 382 297 272 248 172 126 93 72 76 40 190 51 85 49 46 170 135
is_linear=0
shrinkage=0.05


Tree=54
num_leaves=22
num_cat=0
split_feature=18 18 22 22 19 7 6 17 19 6 6 17 17 17 19 3 22 0 16 6 18
split_gain=4.57892 2.58273 1.7271 1.68265 1.58966 1.43255 1.42404 1.55556 1.12882 0.857143 0.855858 0.642218 1.24989 0.615142 0.939942 0.44311 0.235714 0.230488 0.106667 0.0488506 0.116667
threshold=-0.48431231384041573 1.5705410305439484 -0.18382584479039973 -0.2122661674833258 0.033932523851965754 -0.66152410331764344 0.41662539007662597 -0.58609336429118442 0.38342377664345056 1.0986542859330399 -1.0099489203181655 -0.61010842150810951 -0.70814348512931236 0.23349102759741014 0.2320635650147376 0.23969055739618317 -0.22820941527215835 0.34158637047186918 0.87759176031458086 0.0127295879411997 -1.0024927224242988
decision_type=2 2 2 2 2 2 2 2 2 2 2 2 2 2 2 2 2 2 2 2 2
left_child=15 2 3 4 -2 -5 10 -8 16 -9 -4 12 -12 18 -15 19 -6 -16 -13 -1 -21
right_child=1 -3 6 5 8 -7 7 9 -10 -11 11 13 -14 14 17 -17 -18 -19 -20 20 -22
leaf_value=-0.0079369397975414657 0.0006846565840832431 0.0063423631175610236 0.00011313563288037898 1.6829464259604523e-05 -0.00033463032838709772 0.0011272956177796444 -0.00037595732455537602 0.0019576178956735471 3.7852385847969572e-06 6.6256311330770148e-05 -0.00087761574592104541 -0.0014306198066047382 0.00014164728107159962 0.00012069166406956101 -0.0010665001617087277 -0.0075769723138710554 -0.00050472779835376575 -0.00021192559827932779 -0.00021392944149694061 -0.023013608163038136 -0.0047427280884644873
leaf_weight=68 20 20 25 21 22 25 21 21 39 21 27 50 23 21 21 34 20 20 25 28 20
leaf_count=68 20 20 25 21 22 25 21 21 39 21 27 50 23 21 21 34 20 20 25 28 20
internal_value=-0.00261824 -5.65611e-05 -0.000888626 0.00348639 -0.000123762 0.011413 -0.00322727 0.00337302 -0.00324074 0.00892857 -0.00518868 -0.00635027 -0.0015 -0.00812044 -0.00443548 -0.0101667 -0.00892857 -0.00884146 -0.0111667 -0.0116379 -0.0104167
internal_weight=592 442 422 147 101 46 275 63 81 42 212 187 50 137 62 150 42 41 75 116 48
internal_count=592 442 422 147 101 46 275 63 81 42 212 187 50 137 62 150 42 41 75 116 48
is_linear=0
shrinkage=0.05


Tree=55
num_leaves=21
num_cat=0
split_feature=18 15 14 16 24 7 2 23 23 7 23 4 6 24 17 19 19 18 15 0
split_gain=4.80364 2.54817 1.32457 1.50574 3.00211 3.04409 1.53891 1.39158 1.6 1.38273 0.904107 0.75987 0.752477 0.704066 0.625 0.442642 0.229839 0.185725 0.448179 0.0272727
threshold=-0.609390343498594 -1.0790192478406182 1.5689259448692228 -0.61685504631030008 -0.47960751374901928 -0.29466490825526886 0.63163671778150687 -0.42078246171822348 0.14962490710357665 -0.86923383170690749 -0.85470200383620065 -1.4738808608502205 0.74315883901205659 0.99489158353935225 0.491947788830357 0.17450125906097852 0.41472080539653666 -1.0382293023266349 -0.65644779384666974 1.221813755954215
decision_type=2 2 2 2 2 2 2 2 2 2 2 2 2 2 2 2 2 2 2 2
left_child=17 19 3 11 9 6 -6 -8 -9 -5 14 -3 -4 -13 -11 -12 -17 -1 -19 -2
right_child=1 2 12 4 5 -7 7 8 -10 10 15 13 -14 -15 -16 16 -18 18 -20 -21
leaf_value=-0.020520556688637771 -0.004975004325312349 7.0547073543314465e-05 6.8873262125934703e-05 5.1775219440952651e-05 -0.00042617728335870854 0.0023280956671998701 0.00079160676180733969 -0.00042724307564666613 0.000360862080241664 0.00015452890584242152 -0.00025663590036432152 -0.0024510691277382594 0.0043794635974399474 -0.00032928802441758445 -0.00030573141922743966 -0.00038215098592209173 -0.00052571643517452811 -0.0074134275173210699 -0.0011727837075765192 -0.0017204836311656259
leaf_weight=74 20 28 20 38 38 33 23 20 20 20 24 38 23 29 20 38 24 30 21 24
leaf_count=74 20 28 20 38 38 33 23 20 20 20 24 38 23 29 20 38 24 30 21 24
internal_value=-0.00216942 0.000104167 0.00126147 0.000349873 0.00209732 0.00764925 0.00334158 0.00813492 0.0025 -0.00243902 -0.00496032 -0.00513158 0.00959302 -0.00802239 0.00125 -0.00784884 -0.0100806 -0.0109 -0.00857843 -0.0113636
internal_weight=605 480 436 393 298 134 101 63 40 164 126 95 43 67 40 86 62 125 51 44
internal_count=605 480 436 393 298 134 101 63 40 164 126 95 43 67 40 86 62 125 51 44
is_linear=0
shrinkage=0.05


Tree=56
num_leaves=20
num_cat=0
split_feature=19 15 22 22 16 11 9 22 8 7 22 22 22 19 22 19 5 15 17
split_gain=4.00271 1.90471 1.14558 1.55378 1.55741 1.34127 1.16667 1.15235 0.980765 1.21236 1.25488 1.15756 0.971684 0.946941 0.851293 1.00762 0.498576 0.329521 0.092335
threshold=-0.15860185846605043 -1.0790192478406182 -0.17361394443229847 -0.21273618092081722 0.66938727484314964 0.15778734248922069 0.64644292230158629 -0.15142023972399812 0.041173135514582779 1.1502404403829467 0.0085893196227891048 -0.0055117195465719049 -0.11877362673357607 0.55871975086523762 -0.13430806547831545 -0.41957155616879238 0.71491867684095511 0.47059963905868812 -0.30585251944664543
decision_type=2 2 2 2 2 2 2 2 2 2 2 2 2 2 2 2 2 2 2
left_child=14 -2 3 4 17 6 -5 -4 9 11 -11 13 -10 -9 15 -1 -14 -3 -16
right_child=1 2 7 5 -6 -7 -8 8 12 10 -12 -13 16 -15 18 -17 -18 -19 -20
leaf_value=-0.0079496064055952775 -0.001627927537050078 -0.00039765742377251279 -0.00062253226983791663 0.00095452605353067992 0.00019516805826398366 0.00081601749504143237 -0.00011848381288204202 0.0010585364419927856 4.6406988990899127e-05 -0.00064746149460503943 0.0019268381032350958 -0.00029494730338642806 -0.0016197070529841763 1.1791129070548579e-05 -0.01089883978278855 0.00087396649090250029 -4.8099392699096915e-05 -1.5741744046138263e-05 -0.0041880529830878865
leaf_weight=35 35 34 34 21 36 21 21 33 32 21 20 34 28 20 78 25 26 20 31
leaf_count=35 35 34 34 21 36 21 21 33 32 21 20 34 28 20 78 25 26 20 31
internal_value=-0.00241736 0.000114679 0.00109102 0.00449346 0.000277778 0.0105159 0.00535714 -0.00100806 0.000350467 0.003125 -0.00396341 0.00646552 -0.00377907 0.0110849 -0.0089497 -0.00416667 -0.00787037 -0.00509259 -0.0115826
internal_weight=605 436 401 153 90 63 42 248 214 128 41 87 86 53 169 60 54 54 109
internal_count=605 436 401 153 90 63 42 248 214 128 41 87 86 53 169 60 54 54 109
is_linear=0
shrinkage=0.05


Tree=57
num_leaves=22
num_cat=0
split_feature=18 15 22 22 17 7 8 2 5 9 16 5 2 3 0 19 18 15 22 0 0
split_gain=4.18812 2.23442 1.33592 1.4981 1.72857 1.34507 1.49381 1.49246 1.16201 1.08 0.991754 0.862091 0.697972 0.533333 0.4 0.294983 0.185725 0.448179 0.165338 0.0277778 0.0272727
threshold=-0.609390343498594 -1.0790192478406182 -0.18382584479039973 -0.21273618092081722 0.047536029702507206 -0.30752579219982151 -0.65256277700381327 -1.4190363336438225 0.71491867684095511 1.1089797916684343 0.69645649709210145 0.89351570985274476 0.77877633102941057 0.11841157231402379 -0.19070277701912525 0.41472080539653666 -1.0382293023266349 -0.65644779384666974 -0.13088721053638111 -0.26634152452631182 1.221813755954215
decision_type=2 2 2 2 2 2 2 2 2 2 2 2 2 2 2 2 2 2 2 2 2
left_child=16 20 3 9 -5 8 7 13 18 10 15 -10 -13 -7 -15 -3 -1 -18 -4 -20 -2
right_child=1 2 5 4 -6 6 -8 -9 11 -11 -12 12 -14 14 -16 -17 17 -19 19 -21 -22
leaf_value=-0.019033471700062723 -0.0046448577321942302 -0.00071795929517000096 -0.00029010396047816082 0.0001070014344805359 0.0019735077640697708 -0.0016066695438808787 0.002500272525644576 0.00043632015939794045 0.00022533496532386457 0.00027995515402934323 0.00025438362715370923 4.4086639541340849e-05 -0.00010268961582395875 -0.0022474620518768474 5.135025983704633e-06 -7.7099419285575621e-05 -0.0068966287357255076 -0.00090474187304327995 -0.0027674283114535458 -0.0010197488767004438 -0.0015530630727548346
leaf_weight=74 20 26 24 36 20 20 31 39 26 25 29 24 31 20 20 20 30 21 20 25 24
leaf_count=74 20 26 24 36 20 20 31 39 26 25 29 24 31 20 20 20 30 21 20 25 24
internal_value=-0.00274793 -0.000625 0.000458716 0.00416667 0.0107143 -0.00160714 0.00211538 -0.000883838 -0.00483333 0.0005 -0.0025 -0.000771605 -0.00431818 -0.00583333 -0.0025 -0.00706522 -0.0109 -0.00857843 -0.00960145 -0.0113889 -0.0113636
internal_weight=605 480 436 156 56 280 130 99 150 100 75 81 55 60 40 46 125 51 69 45 44
internal_count=605 480 436 156 56 280 130 99 150 100 75 81 55 60 40 46 125 51 69 45 44
is_linear=0
shrinkage=0.05


Tree=58
num_leaves=20
num_cat=0
split_feature=15 0 6 14 2 23 0 5 8 7 21 23 10 5 6 23 15 2 5
split_gain=3.40026 3.10392 1.18924 1.31059 1.51398 1.21692 1.71831 1.13935 1.17607 0.792659 0.919743 0.778302 0.673865 0.592208 0.549121 0.362656 0.338889 0.225 0.0307971
threshold=-0.920963981031793 -1.201592391797847 -1.1281482518553771 1.5689259448692228 1.163687007614836 -0.35968810457087808 0.35686243065873463 0.72517968650157072 -0.97377999364048262 -0.85138020928545866 -1.3168897570343974 0.034667167447098267 0.4856280765602437 0.81309158008035465 0.22697727969211182 -0.87049209131148075 0.39396030677287791 1.0000000180025095e-35 -0.37847972194964824
decision_type=2 2 2 2 2 2 2 2 2 2 2 2 2 2 2 2 2 2 2
left_child=14 13 -3 4 5 9 7 8 -7 -4 -11 -10 15 -2 18 -12 -17 -5 -1
right_child=1 2 3 17 -6 6 -8 -9 11 10 12 -13 -14 -15 -16 16 -18 -19 -20
leaf_value=-0.0021267637431893415 -0.0096167319669919326 0.00035496301707518276 3.5166516436835328e-05 0.0041858668701526547 0.00094704182092476559 0.00073702653022791333 0.0012543529829941225 0.00039357864737590289 -1.3260216153399008e-05 1.1318002601123922e-05 -0.00014255366692208504 -0.0025753829362349379 -0.00011159445549793202 -0.00065566815512657639 -0.001846328456947488 -0.00088623148769220175 -4.3288119780693363e-05 0.00045379307320886353 -0.0034411632591116684
leaf_weight=24 57 36 24 20 20 29 22 23 20 21 22 33 35 20 30 61 20 20 68
leaf_count=24 57 36 24 20 20 29 22 23 20 21 22 33 35 20 30 61 20 20 68
internal_value=-0.00258264 -0.000698758 0.0010468 0.000202703 -0.000833333 -0.00169355 0.00206693 -0.000595238 -0.00335366 -0.00430328 -0.00558176 -0.00778302 -0.00706522 -0.0099026 -0.010041 -0.00910194 -0.0106481 0.00875 -0.0119565
internal_weight=605 483 406 370 330 310 127 105 82 183 159 53 138 77 122 103 81 40 92
internal_count=605 483 406 370 330 310 127 105 82 183 159 53 138 77 122 103 81 40 92
is_linear=0
shrinkage=0.05


Tree=59
num_leaves=21
num_cat=0
split_feature=18 15 22 22 17 14 18 8 17 8 8 15 18 6 22 0 16 18 15 17
split_gain=4.62347 1.56485 1.09952 1.4981 1.72857 1.46866 1.13455 1.06175 1.25 1.2213 1.10417 0.867511 0.754209 0.422936 0.404461 0.277778 0.225 0.185725 0.448179 0.170455
threshold=-0.609390343498594 -1.0790192478406182 -0.18382584479039973 -0.21273618092081722 0.047536029702507206 -0.37132974444843964 0.3554973138644979 1.0000000180025095e-35 -0.572482297117061 -0.46601194338542112 -1.1562500277734724 0.10002806915542954 0.53418021337618271 -0.59295481725485699 -0.012003837683206313 -0.22674241550539023 0.99686615789416011 -1.0382293023266349 -0.65644779384666974 -0.62302194141497469
decision_type=2 2 2 2 2 2 2 2 2 2 2 2 2 2 2 2 2 2 2 2
left_child=17 19 3 5 -5 6 -3 9 -9 10 -4 -12 -7 -10 -13 -15 -17 -1 -19 -2
right_child=1 2 7 4 -6 12 -8 8 13 -11 11 14 -14 15 -16 16 -18 18 -20 -21
leaf_value=-0.017909739952104022 -0.00060574903106362936 0.00056747884796654047 0.0001765488658991732 9.9603251479796217e-05 0.0017754708031270995 -0.00050161665095052046 -3.8537881469724591e-05 2.8777329037632528e-05 -0.00012543814346713811 0.00098372635554726533 -0.0010462520684287879 -0.0001302778676830263 -3.7593654624057399e-05 -0.0027270876872806053 4.4416670243963008e-05 -0.00069496724715407694 -0.0001503165538390361 -0.0065757693298436615 -0.00082672137163477546 -0.0027178897345462418
leaf_weight=74 24 24 33 36 20 21 22 25 28 33 35 32 33 32 22 20 20 30 21 20
leaf_count=74 24 24 33 36 20 21 22 25 28 33 35 32 33 32 22 20 20 30 21 20
internal_value=-0.00233471 -0.000104167 0.000802752 0.00416667 0.0107143 0.0005 0.00706522 -0.00107143 -0.0045 0.00169355 -0.000614754 -0.00351124 -0.00509259 -0.007 0.000462963 -0.00902778 -0.00625 -0.0109 -0.00857843 -0.00909091
internal_weight=605 480 436 156 56 100 46 280 125 155 122 89 54 100 54 72 40 125 51 44
internal_count=605 480 436 156 56 100 46 280 125 155 122 89 54 100 54 72 40 125 51 44
is_linear=0
shrinkage=0.05


Tree=60
num_leaves=20
num_cat=0
split_feature=18 15 5 18 8 7 0 23 23 18 17 2 10 8 19 21 18 18 9
split_gain=4.23054 2.45836 1.81359 2.79345 2.44457 1.60238 1.25905 1.17588 1.69709 2.34637 0.7095 0.594645 0.754209 0.449228 0.439547 0.351865 0.333333 0.196456 0.142857
threshold=-0.62725863344976285 1.80345257674505 0.71491867684095511 -0.019736775110038161 1.0887726605528669 -0.29466490825526886 0.33773027748294221 0.88182088088478883 -0.51874919200313874 0.17681441435281467 -0.72004809554887039 0.71598948307575949 1.4290914278230407 0.43584474288849395 0.51152378491529216 0.75570586611639112 0.39123389376683554 -0.85954640281495165 1.1304127407721298
decision_type=2 2 2 2 2 2 2 2 2 2 2 2 2 2 2 2 2 2 2
left_child=17 2 5 -4 13 6 18 8 16 -10 -11 12 -8 14 -5 -15 -7 -1 -2
right_child=1 -3 3 4 -6 7 11 -9 9 10 -12 -13 -14 15 -16 -17 -18 -19 -20
leaf_value=-0.012922018010425786 -0.0016182209584123088 0.0070500215931014413 0.0011940358179338252 0.00018321766002267205 0.00045098394186720019 -0.00064696238927643981 -0.00021302866495243045 -0.0039234222320475133 0.0022933905614821448 -0.00055190557189040981 0.00065663317334458966 2.7724467063816596e-05 -0.00010513615764002894 -0.00031064622190237758 -0.00044060740253892838 -0.00015081355519246388 -0.00015439292410692753 -0.0029922086159728692 -0.0021614774462198837
leaf_weight=85 63 21 24 20 33 28 21 23 30 20 29 20 33 20 21 29 21 33 21
leaf_count=85 63 21 24 20 33 28 21 23 30 20 29 20 33 20 21 29 21 33 21
internal_value=-0.0027521 -0.000655136 -0.00142544 0.00314626 0.000101626 -0.00360032 -0.00712025 8.27815e-05 0.00195312 0.00648734 -0.000255102 -0.00236486 -0.00509259 -0.00416667 -0.000304878 -0.00739796 -0.00535714 -0.0112288 -0.0113095
internal_weight=595 477 456 147 123 309 158 151 128 79 49 74 54 90 41 49 49 118 84
internal_count=595 477 456 147 123 309 158 151 128 79 49 74 54 90 41 49 49 118 84
is_linear=0
shrinkage=0.05


Tree=61
num_leaves=21
num_cat=0
split_feature=18 15 16 24 10 4 18 0 18 15 4 11 18 21 21 17 7 22 13 1
split_gain=3.73889 1.86154 1.06101 1.37517 2.82355 2.21438 2.42155 1.62037 1.34283 0.832244 0.9147 1.45559 0.977217 0.586675 0.562919 0.526281 0.409756 0.2625 0.235159 0.0392473
