{"learner":{"attributes":{},"feature_names":["tenor","ust_10y","ust_2y","vix","move","dxy","ndf_1m","ndf_12m","idr_regn","ust_3m","xau_gold","inflation","slope_10y_2y","slope_2y_3m","cds_5y","indo_10y","tenor_x_ust10y","vix_x_move","prev_owners_estimate_code","prev_way_awarded_code","days_since_prev_auction_code","auctions_since_prev_code","prev_bid_to_cover_ratio_code","prev_total_penawaran_code","prev_total_penawaran_diterima_code"],"feature_types":["float","float","float","float","float","float","float","float","float","float","float","float","float","float","float","float","float","float","float","float","float","float","float","float","float"],"gradient_booster":{"model":{"cats":{"enc":[],"feature_segments":[],"sorted_idx":[]},"gbtree_model_param":{"num_parallel_tree":"1","num_trees":"200"},"iteration_indptr":[0,1,2,3,4,5,6,7,8,9,10,11,12,13,14,15,16,17,18,19,20,21,22,23,24,25,26,27,28,29,30,31,32,33,34,35,36,37,38,39,40,41,42,43,44,45,46,47,48,49,50,51,52,53,54,55,56,57,58,59,60,61,62,63,64,65,66,67,68,69,70,71,72,73,74,75,76,77,78,79,80,81,82,83,84,85,86,87,88,89,90,91,92,93,94,95,96,97,98,99,100,101,102,103,104,105,106,107,108,109,110,111,112,113,114,115,116,117,118,119,120,121,122,123,124,125,126,127,128,129,130,131,132,133,134,135,136,137,138,139,140,141,142,143,144,145,146,147,148,149,150,151,152,153,154,155,156,157,158,159,160,161,162,163,164,165,166,167,168,169,170,171,172,173,174,175,176,177,178,179,180,181,182,183,184,185,186,187,188,189,190,191,192,193,194,195,196,197,198,199,200],"tree_info":[0,0,0,0,0,0,0,0,0,0,0,0,0,0,0,0,0,0,0,0,0,0,0,0,0,0,0,0,0,0,0,0,0,0,0,0,0,0,0,0,0,0,0,0,0,0,0,0,0,0,0,0,0,0,0,0,0,0,0,0,0,0,0,0,0,0,0,0,0,0,0,0,0,0,0,0,0,0,0,0,0,0,0,0,0,0,0,0,0,0,0,0,0,0,0,0,0,0,0,0,0,0,0,0,0,0,0,0,0,0,0,0,0,0,0,0,0,0,0,0,0,0,0,0,0,0,0,0,0,0,0,0,0,0,0,0,0,0,0,0,0,0,0,0,0,0,0,0,0,0,0,0,0,0,0,0,0,0,0,0,0,0,0,0,0,0,0,0,0,0,0,0,0,0,0,0,0,0,0,0,0,0,0,0,0,0,0,0,0,0,0,0,0,0,0,0,0,0,0,0],"trees":[{"base_weights":[-2.9987558E-3,-8.017428E-1,2.2031249E-1,-1.3966745E0,-5.408289E-1,8.8300616E-2,6.405278E-1,-2.874588E-2,-7.1277775E-2,-6.7797697E-1,-3.9509186E-1,-1.10242255E-1,1.9143708E-1,5.3424454E-1,5.7998892E-2,-6.9754976E-1,-8.245882E-3,-4.168679E-1,-5.6782365E-2,-2.1533248E-1,-2.6400028E-2,8.939413E-2,2.696112E-1,4.7857583E-1,7.288012E-1,-4.5192257E-2,-6.0139537E-1,-1.5594125E-3,-4.251119E-1,-3.7458818E-3,-5.941391E-5,-2.323691E-1,5.5717587E-2,-5.0976854E-2,1.9285882E-2,5.015843E-2,1.6102284E-1,2.4936063E-2,2.961309E-1,5.0122887E-1,1.8367733E-1,1.3754114E-2,3.829993E-2,-3.0536985E-2,-7.559407E-3,-2.1473138E-2,-6.059408E-3,-1.2230685E-2,2.2541205E-3,8.6905835E-3,-2.0792165E-3,-4.125632E-3,5.71016E-3,3.129156E-3,-8.214116E-3,9.02114E-3,-1.964122E-3,-1.0839122E-2,5.5283397E-3,1.2635059E-2,2.2465928E-2,1.9801801E-2,2.829871E-2,-4.05941E-3,1.2067649E-2],"categories":[],"categories_nodes":[],"categories_segments":[],"categories_sizes":[],"default_left":[0,0,0,0,0,0,0,0,0,0,0,0,0,0,0,0,0,0,0,0,0,0,0,0,0,0,0,0,0,0,0,0,0,0,0,0,0,0,0,0,0,0,0,0,0,0,0,0,0,0,0,0,0,0,0,0,0,0,0,0,0,0,0,0,0],"id":0,"left_children":[1,3,5,7,9,11,13,-1,-1,15,17,19,21,23,-1,25,-1,27,29,31,33,35,37,39,41,-1,43,-1,45,-1,-1,47,49,51,-1,53,55,57,59,61,63,-1,-1,-1,-1,-1,-1,-1,-1,-1,-1,-1,-1,-1,-1,-1,-1,-1,-1,-1,-1,-1,-1,-1,-1],"loss_changes":[1.0612753E2,1.9424019E1,2.5738575E1,1.0601807E-1,1.5709915E0,7.2904425E0,5.5084686E0,0E0,0E0,3.468933E-1,3.225813E-1,1.0692569E0,1.8425436E0,6.693001E-1,0E0,3.2922363E-1,0E0,1.266408E-1,3.9438326E-3,2.6230717E-1,7.1853226E-1,2.8139484E-1,8.4912395E-1,4.156437E-1,1.09954834E-1,0E0,4.649067E-2,0E0,4.814625E-3,0E0,0E0,1.8428898E-1,5.3190973E-2,3.532226E-1,0E0,1.9145769E-1,1.4698023E-1,3.137484E-1,6.781521E-1,2.5260544E-1,1.26529E-1,0E0,0E0,0E0,0E0,0E0,0E0,0E0,0E0,0E0,0E0,0E0,0E0,0E0,0E0,0E0,0E0,0E0,0E0,0E0,0E0,0E0,0E0,0E0,0E0],"parents":[2147483647,0,0,1,1,2,2,3,3,4,4,5,5,6,6,9,9,10,10,11,11,12,12,13,13,15,15,17,17,18,18,19,19,20,20,21,21,22,22,23,23,24,24,26,26,28,28,31,31,32,32,33,33,35,35,36,36,37,37,38,38,39,39,40,40],"right_children":[2,4,6,8,10,12,14,-1,-1,16,18,20,22,24,-1,26,-1,28,30,32,34,36,38,40,42,-1,44,-1,46,-1,-1,48,50,52,-1,54,56,58,60,62,64,-1,-1,-1,-1,-1,-1,-1,-1,-1,-1,-1,-1,-1,-1,-1,-1,-1,-1,-1,-1,-1,-1,-1,-1],"split_conditions":[-5.825879E-1,-1.8154999E0,7.217973E-1,-7.328519E-1,-8.8634884E-1,2.493395E-2,3.5584595E0,-2.874588E-2,-7.1277775E-2,8.897905E-1,1.1554974E0,-7.0726745E-2,3.456288E-2,1.3471874E0,5.7998892E-2,-1.3866609E0,-8.245882E-3,-1.6510546E0,-6.8784213E-1,1.123285E0,2.0066433E0,3.2869488E-1,-1.1965498E0,3.6171994E-1,-6.991138E-1,-4.5192257E-2,2.0621767E0,-1.5594125E-3,6.431954E-1,-3.7458818E-3,-5.941391E-5,1.2982829E0,1.1855259E0,8.501933E-1,1.9285882E-2,8.1901675E-1,7.2456676E-1,5.3496367E-1,7.969664E-1,3.8349277E-1,-1.271002E0,1.3754114E-2,3.829993E-2,-3.0536985E-2,-7.559407E-3,-2.1473138E-2,-6.059408E-3,-1.2230685E-2,2.2541205E-3,8.6905835E-3,-2.0792165E-3,-4.125632E-3,5.71016E-3,3.129156E-3,-8.214116E-3,9.02114E-3,-1.964122E-3,-1.0839122E-2,5.5283397E-3,1.2635059E-2,2.2465928E-2,1.9801801E-2,2.829871E-2,-4.05941E-3,1.2067649E-2],"split_indices":[18,18,18,10,18,18,14,0,0,20,2,19,15,18,0,18,0,1,0,2,17,18,0,23,0,0,14,0,14,0,0,3,2,1,0,23,24,1,15,3,0,0,0,0,0,0,0,0,0,0,0,0,0,0,0,0,0,0,0,0,0,0,0,0,0],"split_type":[0,0,0,0,0,0,0,0,0,0,0,0,0,0,0,0,0,0,0,0,0,0,0,0,0,0,0,0,0,0,0,0,0,0,0,0,0,0,0,0,0,0,0,0,0,0,0,0,0,0,0,0,0,0,0,0,0,0,0,0,0,0,0,0,0],"sum_hessian":[5.93E2,1.29E2,4.64E2,3.8E1,9.1E1,3.54E2,1.1E2,2E0,3.6E1,4.5E1,4.6E1,1.21E2,2.33E2,9.3E1,1.7E1,4.3E1,2E0,4.3E1,3E0,5.3E1,6.8E1,1.02E2,1.31E2,7.5E1,1.8E1,1.1E1,3.2E1,1E0,4.2E1,2E0,1E0,5E1,3E0,6.5E1,3E0,6.7E1,3.5E1,1.3E1,1.18E2,6.9E1,6E0,2E0,1.6E1,3.1E1,1E0,4.1E1,1E0,4.8E1,2E0,1E0,2E0,5.5E1,1E1,6.4E1,3E0,3.2E1,3E0,3E0,1E1,9.4E1,2.4E1,2.9E1,4E1,1E0,5E0],"tree_param":{"num_deleted":"0","num_feature":"25","num_nodes":"65","size_leaf_vector":"1"}},{"base_weights":[4.5615244E-3,-6.7186E-1,2.3315638E-1,-1.2068179E0,-4.2926234E-1,1.0440296E-1,6.0009116E-1,-6.853908E-2,-4.5514993E-2,-5.7751507E-1,-3.2831994E-1,-5.333853E-2,2.0396277E-1,4.8644567E-1,9.965227E-1,-5.991737E-1,-1.1066707E-1,-3.4794194E-1,-3.1116199E-2,-7.318159E-2,1.8217483E-1,1.11168124E-1,2.7785966E-1,3.145634E-2,4.1757524E-1,7.5066143E-1,6.328312E-2,-9.727979E-3,-6.1624783E-1,-7.3704245E-3,-9.29606E-4,-3.654061E-1,-8.6247824E-2,-4.3491204E-3,3.5122078E-2,-1.147737E-1,1.8725162E-2,-1.375364E-2,2.6354375E-1,6.423151E-2,1.696963E-1,4.0347524E-2,2.9627302E-1,9.461894E-3,4.382908E-1,9.846735E-3,3.880733E-2,-3.1258274E-2,-7.603264E-3,-1.520431E-3,-1.8552331E-2,-1.1157632E-3,-4.8326077E-3,2.6920796E-3,-5.7923793E-5,-6.7609693E-3,2.0934034E-3,1.0158046E-2,1.19068965E-4,-2.0626784E-4,1.4875904E-2,-6.327804E-3,3.7300766E-3,9.401935E-3,-1.8904686E-3,-1.0288442E-2,4.8416588E-3,1.2150108E-2,2.1007616E-2,4.6388987E-3,2.2140196E-2],"categories":[],"categories_nodes":[],"categories_segments":[],"categories_sizes":[],"default_left":[0,0,0,0,0,0,0,0,0,0,0,0,0,0,0,0,0,0,0,0,0,0,0,0,0,0,0,0,0,0,0,0,0,0,0,0,0,0,0,0,0,0,0,0,0,0,0,0,0,0,0,0,0,0,0,0,0,0,0,0,0,0,0,0,0,0,0,0,0,0,0],"id":1,"left_children":[1,3,5,7,9,11,13,-1,-1,15,17,19,21,23,25,27,29,31,33,35,37,39,41,-1,43,45,-1,-1,47,-1,-1,49,51,-1,53,55,57,-1,59,61,63,65,67,-1,69,-1,-1,-1,-1,-1,-1,-1,-1,-1,-1,-1,-1,-1,-1,-1,-1,-1,-1,-1,-1,-1,-1,-1,-1,-1,-1],"loss_changes":[8.937613E1,1.8429764E1,2.0346806E1,9.399948E-1,1.3368187E0,5.0520916E0,4.561142E0,0E0,0E0,3.381424E-1,3.5657215E-1,5.9749496E-1,1.3199873E0,6.1185265E-1,6.3801956E-1,1.4262486E-1,7.40825E-3,2.3813057E-1,2.1557411E-2,4.4557035E-1,4.4455132E-1,2.3359323E-1,4.6474648E-1,0E0,2.1505833E-1,5.8826447E-2,0E0,0E0,5.3952217E-2,0E0,0E0,9.2642784E-2,1.1690557E-3,0E0,2.099837E-3,2.6187325E-1,1.11048184E-1,0E0,8.3072186E-2,1.1034334E-1,1.5554965E-1,1.4504361E-1,5.644169E-1,0E0,4.7800064E-2,0E0,0E0,0E0,0E0,0E0,0E0,0E0,0E0,0E0,0E0,0E0,0E0,0E0,0E0,0E0,0E0,0E0,0E0,0E0,0E0,0E0,0E0,0E0,0E0,0E0,0E0],"parents":[2147483647,0,0,1,1,2,2,3,3,4,4,5,5,6,6,9,9,10,10,11,11,12,12,13,13,14,14,15,15,16,16,17,17,18,18,19,19,20,20,21,21,22,22,24,24,25,25,28,28,31,31,32,32,34,34,35,35,36,36,38,38,39,39,40,40,41,41,42,42,44,44],"right_children":[2,4,6,8,10,12,14,-1,-1,16,18,20,22,24,26,28,30,32,34,36,38,40,42,-1,44,46,-1,-1,48,-1,-1,50,52,-1,54,56,58,-1,60,62,64,66,68,-1,70,-1,-1,-1,-1,-1,-1,-1,-1,-1,-1,-1,-1,-1,-1,-1,-1,-1,-1,-1,-1,-1,-1,-1,-1,-1,-1],"split_conditions":[-4.7537816E-1,-1.4760025E0,7.217973E-1,-2.2086022E0,-8.8634884E-1,1.3214369E-1,1.4543972E0,-6.853908E-2,-4.5514993E-2,1.2367336E0,1.1562245E0,5.050011E-1,7.936872E-2,-7.440175E-1,1.8126707E0,-9.3451905E-1,-1.2968082E0,9.73129E-1,-6.8012995E-1,7.06566E-3,-1.2858332E0,3.6443147E-1,-1.2208729E0,3.145634E-2,-5.591523E-1,-1.084811E0,6.328312E-2,-9.727979E-3,-1.4917561E-1,-7.3704245E-3,-9.29606E-4,-1.0044888E0,-1.3265953E0,-4.3491204E-3,-2.1917854E-1,7.53929E-1,-9.3451905E-1,-1.375364E-2,-1.6581545E0,-6.8352795E-1,7.2456676E-1,-8.693703E-1,7.969664E-1,9.461894E-3,-7.9108995E-1,9.846735E-3,3.880733E-2,-3.1258274E-2,-7.603264E-3,-1.520431E-3,-1.8552331E-2,-1.1157632E-3,-4.8326077E-3,2.6920796E-3,-5.7923793E-5,-6.7609693E-3,2.0934034E-3,1.0158046E-2,1.19068965E-4,-2.0626784E-4,1.4875904E-2,-6.327804E-3,3.7300766E-3,9.401935E-3,-1.8904686E-3,-1.0288442E-2,4.8416588E-3,1.2150108E-2,2.1007616E-2,4.6388987E-3,2.2140196E-2],"split_indices":[18,18,18,18,18,18,18,0,0,14,9,15,15,10,15,11,0,17,0,18,0,18,0,0,14,16,0,0,0,0,0,11,1,0,0,5,11,0,1,16,24,1,15,0,15,0,0,0,0,0,0,0,0,0,0,0,0,0,0,0,0,0,0,0,0,0,0,0,0,0,0],"split_type":[0,0,0,0,0,0,0,0,0,0,0,0,0,0,0,0,0,0,0,0,0,0,0,0,0,0,0,0,0,0,0,0,0,0,0,0,0,0,0,0,0,0,0,0,0,0,0,0,0,0,0,0,0,0,0,0,0,0,0,0,0,0,0,0,0,0,0,0,0,0,0],"sum_hessian":[5.76E2,1.45E2,4.31E2,4.4E1,1.01E2,3.2E2,1.11E2,2.6E1,1.8E1,3.9E1,6.2E1,1.24E2,1.96E2,8.8E1,2.3E1,3.7E1,2E0,5.8E1,4E0,1.15E2,9E0,8.8E1,1.08E2,2.6E1,6.2E1,1.4E1,9E0,2E0,3.5E1,1E0,1E0,5.4E1,4E0,2E0,2E0,7.9E1,3.6E1,1E0,8E0,5E1,3.8E1,8E0,1E2,6E0,5.6E1,1E0,1.3E1,3.4E1,1E0,1E0,5.3E1,1E0,3E0,1E0,1E0,7E1,9E0,2E0,3.4E1,1E0,7E0,2E0,4.8E1,3.5E1,3E0,1E0,7E0,7.2E1,2.8E1,1E0,5.5E1],"tree_param":{"num_deleted":"0","num_feature":"25","num_nodes":"71","size_leaf_vector":"1"}},{"base_weights":[-5.4628444E-3,-6.5184474E-1,1.3981774E-1,-3.6656222E-1,-1.220152E0,-1.06575646E-1,3.6064065E-1,-5.900123E-1,-1.3934599E-1,-6.267735E-2,-1.283133E-3,-2.9499936E-1,5.687526E-2,2.9486072E-1,1.0142E0,-6.842188E-1,-8.852462E-2,4.87642E-3,-7.7874184E-1,-4.748805E-1,-1.9710356E-1,-7.219932E-2,1.2876877E-1,2.4808264E-1,4.9121872E-1,6.698792E-1,6.137665E-2,-7.5447696E-1,-1.6777571E-2,-2.0130675E-1,1.4704204E-2,-1.0852925E-1,3.067497E-1,-4.182368E-2,-1.0808778E-2,-2.7724037E-2,-2.8527376E-1,-2.737077E-1,-3.568268E-2,-1.7704754E-1,-3.3070564E-2,3.0991724E-1,8.899493E-2,8.229519E-2,2.9714626E-1,3.2607758E-1,2.7147835E-2,9.600568E-3,3.4923244E-2,-3.911035E-2,-1.4519374E-2,-1.3037133E-2,-2.7478298E-3,-8.619281E-3,8.526008E-4,7.393873E-3,1.807698E-2,-1.2872458E-3,-1.5237789E-2,-4.7625215E-3,-1.5092641E-2,6.6957617E-4,-6.775251E-3,-1.1823341E-2,-2.3283577E-3,-3.3514542E-3,4.1931205E-5,1.9800067E-3,1.6383236E-2,-4.643917E-3,4.8009967E-3,-6.063934E-3,7.1962127E-3,2.3320468E-2,1.3099466E-2,4.8537613E-3,1.6853577E-2],"categories":[],"categories_nodes":[],"categories_segments":[],"categories_sizes":[],"default_left":[0,0,0,0,0,0,0,0,0,0,0,0,0,0,0,0,0,0,0,0,0,0,0,0,0,0,0,0,0,0,0,0,0,0,0,0,0,0,0,0,0,0,0,0,0,0,0,0,0,0,0,0,0,0,0,0,0,0,0,0,0,0,0,0,0,0,0,0,0,0,0,0,0,0,0,0,0],"id":2,"left_children":[1,3,5,7,9,11,13,15,17,-1,-1,19,21,23,25,27,29,31,33,35,37,39,41,43,45,47,-1,49,-1,51,-1,53,55,-1,-1,-1,57,59,61,63,65,67,69,71,73,75,-1,-1,-1,-1,-1,-1,-1,-1,-1,-1,-1,-1,-1,-1,-1,-1,-1,-1,-1,-1,-1,-1,-1,-1,-1,-1,-1,-1,-1,-1,-1],"loss_changes":[5.577784E1,1.72247E1,2.6426949E1,3.6748743E0,1.4038734E0,7.1003237E0,1.0706669E1,1.6874361E0,3.5079753E0,0E0,0E0,1.7906265E0,1.1599705E0,2.0274868E0,8.671646E-1,5.0623226E-1,3.6126107E-1,1.128784E0,4.652071E-2,4.002533E-1,8.681841E-1,1.7876102E-1,5.4881656E-1,1.5291662E0,1.9889355E-1,1.6148567E-2,0E0,9.4587326E-2,0E0,3.78612E-2,0E0,1.953995E-1,2.4877727E-2,0E0,0E0,0E0,5.788386E-2,2.1233797E-1,1.1938346E-1,8.202505E-2,3.9207406E-2,5.418873E-2,9.4521284E-2,5.82028E-1,7.5257015E-1,7.987022E-6,0E0,0E0,0E0,0E0,0E0,0E0,0E0,0E0,0E0,0E0,0E0,0E0,0E0,0E0,0E0,0E0,0E0,0E0,0E0,0E0,0E0,0E0,0E0,0E0,0E0,0E0,0E0,0E0,0E0,0E0,0E0],"parents":[2147483647,0,0,1,1,2,2,3,3,4,4,5,5,6,6,7,7,8,8,11,11,12,12,13,13,14,14,15,15,16,16,17,17,18,18,19,19,20,20,21,21,22,22,23,23,24,24,25,25,27,27,29,29,31,31,32,32,36,36,37,37,38,38,39,39,40,40,41,41,42,42,43,43,44,44,45,45],"right_children":[2,4,6,8,10,12,14,16,18,-1,-1,20,22,24,26,28,30,32,34,36,38,40,42,44,46,48,-1,50,-1,52,-1,54,56,-1,-1,-1,58,60,62,64,66,68,70,72,74,76,-1,-1,-1,-1,-1,-1,-1,-1,-1,-1,-1,-1,-1,-1,-1,-1,-1,-1,-1,-1,-1,-1,-1,-1,-1,-1,-1,-1,-1,-1,-1],"split_conditions":[-1.1882443E0,5.353527E-1,-1.2881537E-1,1.1812536E-1,8.7575245E-1,-1.3553098E-1,1.698207E0,1.2367336E0,1.3870137E0,-6.267735E-2,-1.283133E-3,-9.7975725E-1,-1.0238297E0,8.914227E-1,3.0219743E0,1.6077172E0,2.676976E0,5.2762383E-1,9.907687E-1,-1.904055E-1,-1.1255402E-1,3.4766713E-1,-7.455078E-1,-3.120214E-1,-6.5729004E-1,-1.084811E0,6.137665E-2,8.2037425E-1,-1.6777571E-2,1.2901976E0,1.4704204E-2,1.8837579E-1,1.8499783E-1,-4.182368E-2,-1.0808778E-2,-2.7724037E-2,-1.9594888E-1,-7.8887075E-1,-1.1378705E-1,-1.1558261E0,1.2992322E0,-6.8454766E-1,-1.0284238E0,-6.522711E-1,-1.0497044E0,-1.7199224E0,2.7147835E-2,9.600568E-3,3.4923244E-2,-3.911035E-2,-1.4519374E-2,-1.3037133E-2,-2.7478298E-3,-8.619281E-3,8.526008E-4,7.393873E-3,1.807698E-2,-1.2872458E-3,-1.5237789E-2,-4.7625215E-3,-1.5092641E-2,6.6957617E-4,-6.775251E-3,-1.1823341E-2,-2.3283577E-3,-3.3514542E-3,4.1931205E-5,1.9800067E-3,1.6383236E-2,-4.643917E-3,4.8009967E-3,-6.063934E-3,7.1962127E-3,2.3320468E-2,1.3099466E-2,4.8537613E-3,1.6853577E-2],"split_indices":[0,12,15,8,1,0,15,14,21,0,0,15,15,15,15,11,7,15,1,16,16,0,17,0,0,16,0,1,0,3,0,15,11,0,0,0,11,3,22,15,0,23,7,16,1,1,0,0,0,0,0,0,0,0,0,0,0,0,0,0,0,0,0,0,0,0,0,0,0,0,0,0,0,0,0,0,0],"split_type":[0,0,0,0,0,0,0,0,0,0,0,0,0,0,0,0,0,0,0,0,0,0,0,0,0,0,0,0,0,0,0,0,0,0,0,0,0,0,0,0,0,0,0,0,0,0,0,0,0,0,0,0,0,0,0,0,0,0,0,0,0,0,0,0,0,0,0,0,0,0,0,0,0,0,0,0,0],"sum_hessian":[5.92E2,1.08E2,4.84E2,7.3E1,3.5E1,2.29E2,2.55E2,3.6E1,3.7E1,3.4E1,1E0,1.06E2,1.23E2,2.33E2,2.2E1,3E1,6E0,3.1E1,6E0,3.6E1,7E1,4.4E1,7.9E1,1.9E2,4.3E1,1E1,1.2E1,2.4E1,6E0,5E0,1E0,2.3E1,8E0,5E0,1E0,2.4E1,1.2E1,4.7E1,2.3E1,1.1E1,3.3E1,1.3E1,6.6E1,4.4E1,1.46E2,1.2E1,3.1E1,1E0,9E0,2.2E1,2E0,3E0,2E0,1.5E1,8E0,3E0,5E0,1E0,1.1E1,7E0,4E1,1.6E1,7E0,7E0,4E0,1.6E1,1.7E1,1E0,1.2E1,2E0,6.4E1,1E1,3.4E1,2.3E1,1.23E2,1E0,1.1E1],"tree_param":{"num_deleted":"0","num_feature":"25","num_nodes":"77","size_leaf_vector":"1"}},{"base_weights":[9.973376E-3,-5.599149E-1,2.355585E-1,-1.0701023E0,-3.3786848E-1,1.07181236E-1,5.624144E-1,-6.268446E-2,-7.84115E-1,-4.6469608E-1,-2.3701517E-1,-2.9128825E-2,1.7944786E-1,4.3996844E-1,9.44137E-1,-8.1403536E-1,-3.1466843E-3,-5.4312855E-1,-3.9151403E-1,-2.6090872E-1,6.1334055E-2,-5.0504576E-2,2.497251E-1,1.06828555E-1,2.430923E-1,2.8887847E-2,3.7676185E-1,6.85964E-1,5.858767E-2,-4.281277E-2,-2.049908E-2,-2.8241633E-2,-1.0507855E-2,-1.9885603E-2,-5.1393392E-3,-2.7273485E-1,-3.2224082E-3,-1.5196085E-2,7.1464777E-3,-8.162576E-2,7.2149844E-3,-6.875181E-3,1.6234344E-2,6.353931E-2,1.6072085E-1,1.6022725E-2,2.658668E-1,-4.1854978E-3,3.8488397E-1,9.360552E-3,3.5336673E-2,-1.45650925E-2,-5.665788E-3,-1.7379642E-3,1.4557043E-4,-2.0827618E-3,-6.20209E-3,-2.1794445E-3,2.3999182E-3,3.956487E-3,-5.565453E-3,-8.5727376E-4,8.490773E-3,-4.5048143E-3,4.476653E-3,2.4818098E-2,1.2282945E-2,8.310505E-3,1.9991908E-2],"categories":[],"categories_nodes":[],"categories_segments":[],"categories_sizes":[],"default_left":[0,0,0,0,0,0,0,0,0,0,0,0,0,0,0,0,0,0,0,0,0,0,0,0,0,0,0,0,0,0,0,0,0,0,0,0,0,0,0,0,0,0,0,0,0,0,0,0,0,0,0,0,0,0,0,0,0,0,0,0,0,0,0,0,0,0,0,0,0],"id":3,"left_children":[1,3,5,7,9,11,13,-1,15,17,19,21,23,25,27,29,-1,31,33,35,37,39,41,43,45,-1,47,49,-1,-1,-1,-1,-1,-1,-1,51,-1,53,-1,55,57,-1,-1,59,61,63,65,-1,67,-1,-1,-1,-1,-1,-1,-1,-1,-1,-1,-1,-1,-1,-1,-1,-1,-1,-1,-1,-1],"loss_changes":[7.8423904E1,1.9236801E1,1.8276623E1,1.7471466E0,1.4503593E0,3.1081877E0,5.333679E0,0E0,4.450636E-1,9.15699E-2,5.150058E-1,6.682907E-1,9.261246E-1,6.096916E-1,9.003887E-1,2.4251938E-2,0E0,4.751396E-2,1.4595509E-2,1.3344145E-1,3.9639063E-2,1.8560791E-1,2.768644E-1,2.1841776E-1,5.5942154E-1,0E0,2.8653908E-1,3.343296E-2,0E0,0E0,0E0,0E0,0E0,0E0,0E0,1.4754677E-1,0E0,1.5181605E-3,0E0,1.0842425E-1,7.875448E-2,0E0,0E0,1.6146173E-1,7.2469234E-2,9.387587E-2,3.3918858E-1,0E0,1.5263844E-1,0E0,0E0,0E0,0E0,0E0,0E0,0E0,0E0,0E0,0E0,0E0,0E0,0E0,0E0,0E0,0E0,0E0,0E0,0E0,0E0],"parents":[2147483647,0,0,1,1,2,2,3,3,4,4,5,5,6,6,8,8,9,9,10,10,11,11,12,12,13,13,14,14,15,15,17,17,18,18,19,19,20,20,21,21,22,22,23,23,24,24,26,26,27,27,35,35,37,37,39,39,40,40,43,43,44,44,45,45,46,46,48,48],"right_children":[2,4,6,8,10,12,14,-1,16,18,20,22,24,26,28,30,-1,32,34,36,38,40,42,44,46,-1,48,50,-1,-1,-1,-1,-1,-1,-1,52,-1,54,-1,56,58,-1,-1,60,62,64,66,-1,68,-1,-1,-1,-1,-1,-1,-1,-1,-1,-1,-1,-1,-1,-1,-1,-1,-1,-1,-1,-1],"split_conditions":[-2.7882698E-1,-1.3866609E0,7.217973E-1,-2.2086022E0,-7.255342E-1,1.3214369E-1,1.4901338E0,-6.268446E-2,1.4784688E0,-1.0292952E0,1.1554974E0,6.28287E-1,7.936872E-2,-7.440175E-1,1.8126707E0,-1.2007025E0,-3.1466843E-3,9.0849125E-1,7.3728955E-1,1.0649651E0,-4.396416E-1,7.06566E-3,-1.2775278E0,3.6443147E-1,-7.270263E-1,2.8887847E-2,-1.271002E0,-1.084811E0,5.858767E-2,-4.281277E-2,-2.049908E-2,-2.8241633E-2,-1.0507855E-2,-1.9885603E-2,-5.1393392E-3,7.3396164E-1,-3.2224082E-3,-6.8784213E-1,7.1464777E-3,-8.574861E-2,-3.9958778E-1,-6.875181E-3,1.6234344E-2,2.0253036E0,-6.899185E-1,-6.793197E-1,-8.199895E-1,-4.1854978E-3,5.719205E-2,9.360552E-3,3.5336673E-2,-1.45650925E-2,-5.665788E-3,-1.7379642E-3,1.4557043E-4,-2.0827618E-3,-6.20209E-3,-2.1794445E-3,2.3999182E-3,3.956487E-3,-5.565453E-3,-8.5727376E-4,8.490773E-3,-4.5048143E-3,4.476653E-3,2.4818098E-2,1.2282945E-2,8.310505E-3,1.9991908E-2],"split_indices":[18,18,18,18,18,18,18,0,3,18,2,15,15,10,15,0,0,5,5,3,18,18,0,18,16,0,0,16,0,0,0,0,0,0,0,5,0,0,0,22,7,0,0,20,0,10,10,0,13,0,0,0,0,0,0,0,0,0,0,0,0,0,0,0,0,0,0,0,0],"split_type":[0,0,0,0,0,0,0,0,0,0,0,0,0,0,0,0,0,0,0,0,0,0,0,0,0,0,0,0,0,0,0,0,0,0,0,0,0,0,0,0,0,0,0,0,0,0,0,0,0,0,0,0,0,0,0,0,0,0,0,0,0,0,0,0,0,0,0,0,0],"sum_hessian":[6.08E2,1.72E2,4.36E2,5.1E1,1.21E2,3.14E2,1.22E2,2.9E1,2.2E1,5.2E1,6.9E1,1.09E2,2.05E2,9.4E1,2.8E1,2.1E1,1E0,2.2E1,3E1,6.4E1,5E0,1.02E2,7E0,9.7E1,1.08E2,2.7E1,6.7E1,1.5E1,1.3E1,1.8E1,3E0,2E1,2E0,2.9E1,1E0,6E1,4E0,3E0,2E0,6.6E1,3.6E1,1E0,6E0,5.5E1,4.2E1,1E1,9.8E1,1E0,6.6E1,1E0,1.4E1,5.3E1,7E0,1E0,2E0,3.5E1,3.1E1,1.6E1,2E1,5.1E1,4E0,2E0,4E1,4E0,6E0,6E0,9.2E1,5E0,6.1E1],"tree_param":{"num_deleted":"0","num_feature":"25","num_nodes":"69","size_leaf_vector":"1"}},{"base_weights":[2.507136E-3,-5.5040175E-1,2.1288891E-1,-1.1068541E0,-3.6793378E-1,1.16560504E-1,6.1536753E-1,-5.660441E-2,-3.068018E-3,-5.2304363E-1,-2.5396556E-1,-3.3697795E-2,1.9848736E-1,4.8975378E-1,1.012711E0,-5.327041E-1,-7.589936E-4,-2.7965593E-1,3.187861E-2,-5.407464E-2,2.3268133E-1,1.661874E-1,3.5898745E-1,2.479299E-2,5.041209E-1,1.9429667E-2,5.3163912E-2,-5.396155E-1,-4.678321E-3,-3.2359436E-1,-2.2011286E-1,1.03631854E-1,-4.784429E-2,-9.377708E-2,2.671677E-2,-6.7033055E-3,2.9528302E-1,1.0318312E-1,2.0549028E-1,9.452311E-2,3.7139904E-1,-4.0808558E-3,5.94033E-3,2.265888E-2,6.3692766E-1,-2.8659586E-2,-1.7399589E-2,-1.642447E-2,-3.6843182E-3,6.7293644E-5,-1.1365006E-2,6.716832E-3,2.8793814E-4,-3.1383832E-3,-7.685423E-5,-5.595218E-3,2.033942E-3,-5.8638337E-3,2.0986954E-3,6.5045278E-3,1.643327E-2,-6.8073194E-3,5.5802558E-3,2.5227692E-3,1.0902952E-2,1.6030097E-2,-8.940863E-3,4.6205046E-3,1.8844334E-2,9.126532E-3,3.2817334E-2],"categories":[],"categories_nodes":[],"categories_segments":[],"categories_sizes":[],"default_left":[0,0,0,0,0,0,0,0,0,0,0,0,0,0,0,0,0,0,0,0,0,0,0,0,0,0,0,0,0,0,0,0,0,0,0,0,0,0,0,0,0,0,0,0,0,0,0,0,0,0,0,0,0,0,0,0,0,0,0,0,0,0,0,0,0,0,0,0,0,0,0],"id":4,"left_children":[1,3,5,7,9,11,13,-1,-1,15,17,19,21,23,25,27,-1,29,31,33,35,37,39,41,43,-1,-1,45,-1,47,49,51,53,55,57,-1,59,61,63,65,67,-1,-1,-1,69,-1,-1,-1,-1,-1,-1,-1,-1,-1,-1,-1,-1,-1,-1,-1,-1,-1,-1,-1,-1,-1,-1,-1,-1,-1,-1],"loss_changes":[6.921242E1,1.6244442E1,1.6638197E1,9.858208E-1,2.0768642E0,4.3029447E0,3.6467E0,0E0,0E0,2.4703503E-1,5.5232954E-1,6.8565E-1,1.1119576E0,4.2171192E-1,1.8645287E-1,1.04299545E-1,0E0,1.0667658E-1,4.500083E-2,3.745889E-1,2.4621853E-1,4.4928408E-1,8.6343765E-2,3.9708644E-2,1.3759232E-1,0E0,0E0,1.2223244E-1,0E0,2.1057367E-2,5.123961E-2,1.1247072E-2,2.6677605E-3,1.9466305E-1,9.060274E-2,0E0,1.35988E-3,1.6636693E-1,2.1503544E-1,2.4271858E-1,1.875639E-2,0E0,0E0,0E0,1.2556076E-2,0E0,0E0,0E0,0E0,0E0,0E0,0E0,0E0,0E0,0E0,0E0,0E0,0E0,0E0,0E0,0E0,0E0,0E0,0E0,0E0,0E0,0E0,0E0,0E0,0E0,0E0],"parents":[2147483647,0,0,1,1,2,2,3,3,4,4,5,5,6,6,9,9,10,10,11,11,12,12,13,13,14,14,15,15,17,17,18,18,19,19,20,20,21,21,22,22,23,23,24,24,27,27,29,29,30,30,31,31,32,32,33,33,34,34,36,36,37,37,38,38,39,39,40,40,44,44],"right_children":[2,4,6,8,10,12,14,-1,-1,16,18,20,22,24,26,28,-1,30,32,34,36,38,40,42,44,-1,-1,46,-1,48,50,52,54,56,58,-1,60,62,64,66,68,-1,-1,-1,70,-1,-1,-1,-1,-1,-1,-1,-1,-1,-1,-1,-1,-1,-1,-1,-1,-1,-1,-1,-1,-1,-1,-1,-1,-1,-1],"split_conditions":[-3.6816844E-1,-1.6546853E0,9.0048015E-1,3.347991E-1,-8.3274394E-1,1.3214369E-1,3.5584595E0,-5.660441E-2,-3.068018E-3,1.241686E0,1.1554974E0,6.28287E-1,7.969664E-1,-1.1923971E0,-1.258544E0,1.7619247E0,-7.589936E-4,-5.825879E-1,-2.1548133E-1,5.748974E-2,-1.2775278E0,3.6443147E-1,-1.2279918E0,-1.271002E0,1.4543972E0,1.9429667E-2,5.3163912E-2,-6.635191E-1,-4.678321E-3,2.2809825E0,-3.622655E-1,-2.1917854E-1,-6.8784213E-1,7.53929E-1,-7.376747E-1,-6.7033055E-3,-7.008613E-2,-1.335825E0,-7.04453E-1,-1.2555777E0,-1.7199224E0,-4.0808558E-3,5.94033E-3,2.265888E-2,-1.084811E0,-2.8659586E-2,-1.7399589E-2,-1.642447E-2,-3.6843182E-3,6.7293644E-5,-1.1365006E-2,6.716832E-3,2.8793814E-4,-3.1383832E-3,-7.685423E-5,-5.595218E-3,2.033942E-3,-5.8638337E-3,2.0986954E-3,6.5045278E-3,1.643327E-2,-6.8073194E-3,5.5802558E-3,2.5227692E-3,1.0902952E-2,1.6030097E-2,-8.940863E-3,4.6205046E-3,1.8844334E-2,9.126532E-3,3.2817334E-2],"split_indices":[18,18,18,5,18,18,14,0,0,3,2,15,15,0,0,12,0,18,22,19,0,18,0,0,18,0,0,0,0,24,19,0,0,5,0,0,19,1,0,0,1,0,0,0,16,0,0,0,0,0,0,0,0,0,0,0,0,0,0,0,0,0,0,0,0,0,0,0,0,0,0],"split_type":[0,0,0,0,0,0,0,0,0,0,0,0,0,0,0,0,0,0,0,0,0,0,0,0,0,0,0,0,0,0,0,0,0,0,0,0,0,0,0,0,0,0,0,0,0,0,0,0,0,0,0,0,0,0,0,0,0,0,0,0,0,0,0,0,0,0,0,0,0,0,0],"sum_hessian":[5.93E2,1.63E2,4.3E2,3.9E1,1.24E2,3.48E2,8.2E1,3.8E1,1E0,5.1E1,7.3E1,1.23E2,2.25E2,6.4E1,1.8E1,5E1,1E0,6.7E1,6E0,1.15E2,8E0,1.89E2,3.6E1,2E0,6.2E1,2E0,1.6E1,4.9E1,1E0,3.6E1,3.1E1,3E0,3E0,7.7E1,3.8E1,1E0,7E0,7.4E1,1.15E2,2E0,3.4E1,1E0,1E0,4.8E1,1.4E1,4E1,9E0,3.5E1,1E0,1E0,3E1,2E0,1E0,2E0,1E0,6.8E1,9E0,3E0,3.5E1,2E0,5E0,2E0,7.2E1,9E0,1.06E2,1E0,1E0,1E0,3.3E1,1E0,1.3E1],"tree_param":{"num_deleted":"0","num_feature":"25","num_nodes":"71","size_leaf_vector":"1"}},{"base_weights":[2.0298106E-3,-6.1037743E-1,1.70921E-1,-1.0250038E0,-4.1010314E-1,5.027094E-2,5.314349E-1,-5.2951146E-2,-2.2974698E-1,-4.9663347E-1,-3.0835253E-1,-8.383617E-2,1.5242036E-1,4.2368606E-1,9.62748E-1,-2.9913187E-3,-1.4239705E-2,-5.0678635E-1,-7.4001553E-4,-3.2020333E-1,-1.9828558E-3,-1.7199716E-1,-2.3212751E-2,8.094039E-2,2.1332106E-1,3.560454E-1,5.237507E-1,3.0843738E-2,5.3775646E-2,-8.081826E-3,-5.188014E-1,-8.396387E-4,-3.27194E-1,-2.0446499E-1,7.4906784E-5,-4.6326604E-2,2.2816277E-1,3.823827E-2,1.2195625E-1,9.4482705E-2,2.4940918E-1,3.7467846E-1,9.288332E-3,5.5143446E-1,2.6190758E-2,-4.835415E-3,-2.6318425E-2,-1.6589083E-2,-3.592205E-3,-1.6040599E-2,-9.139321E-3,-7.159038E-3,5.119484E-3,1.8636283E-3,-3.2983725E-3,-6.535721E-3,1.4905222E-2,-6.5804087E-3,2.424197E-3,-1.1077821E-3,6.602803E-3,-8.717346E-3,5.5763978E-3,1.0142456E-2,1.746573E-2,7.5923204E-3,1.9240443E-2,3.004728E-2,1.9438934E-2,-3.978837E-3,5.9431433E-3],"categories":[],"categories_nodes":[],"categories_segments":[],"categories_sizes":[],"default_left":[0,0,0,0,0,0,0,0,0,0,0,0,0,0,0,0,0,0,0,0,0,0,0,0,0,0,0,0,0,0,0,0,0,0,0,0,0,0,0,0,0,0,0,0,0,0,0,0,0,0,0,0,0,0,0,0,0,0,0,0,0,0,0,0,0,0,0,0,0,0,0],"id":5,"left_children":[1,3,5,7,9,11,13,-1,15,17,19,21,23,25,27,-1,-1,29,-1,31,-1,33,35,37,39,41,43,-1,-1,-1,45,-1,47,49,51,53,55,57,59,61,63,65,-1,67,69,-1,-1,-1,-1,-1,-1,-1,-1,-1,-1,-1,-1,-1,-1,-1,-1,-1,-1,-1,-1,-1,-1,-1,-1,-1,-1],"loss_changes":[6.267959E1,1.0457748E1,2.0633896E1,8.929634E-1,6.3926697E-1,4.903308E0,5.1224403E0,0E0,1.1022717E-2,2.2242355E-1,1.2740898E-1,8.244237E-1,8.664293E-1,4.7005844E-1,2.335968E-1,0E0,0E0,1.0690498E-1,0E0,8.3589554E-2,0E0,3.5198414E-1,5.509239E-1,1.6172576E-1,4.438982E-1,1.2393904E-1,4.9520683E-1,0E0,0E0,0E0,8.9632034E-2,0E0,2.419281E-2,7.503843E-2,1.758891E-1,1.436672E-1,2.3977026E-1,8.991007E-2,7.278991E-2,1.4316581E-1,3.1522465E-1,6.346607E-2,0E0,4.8231125E-2,3.8863804E-2,0E0,0E0,0E0,0E0,0E0,0E0,0E0,0E0,0E0,0E0,0E0,0E0,0E0,0E0,0E0,0E0,0E0,0E0,0E0,0E0,0E0,0E0,0E0,0E0,0E0,0E0],"parents":[2147483647,0,0,1,1,2,2,3,3,4,4,5,5,6,6,8,8,9,9,10,10,11,11,12,12,13,13,14,14,17,17,19,19,21,21,22,22,23,23,24,24,25,25,26,26,30,30,32,32,33,33,34,34,35,35,36,36,37,37,38,38,39,39,40,40,41,41,43,43,44,44],"right_children":[2,4,6,8,10,12,14,-1,16,18,20,22,24,26,28,-1,-1,30,-1,32,-1,34,36,38,40,42,44,-1,-1,-1,46,-1,48,50,52,54,56,58,60,62,64,66,-1,68,70,-1,-1,-1,-1,-1,-1,-1,-1,-1,-1,-1,-1,-1,-1,-1,-1,-1,-1,-1,-1,-1,-1,-1,-1,-1,-1],"split_conditions":[-6.004562E-1,-1.6546853E0,7.0392895E-1,6.28287E-1,-8.8634884E-1,9.640711E-2,1.5973434E0,-5.2951146E-2,-1.2801974E0,2.6308215E0,8.7575245E-1,-7.0726745E-2,7.936872E-2,9.6358E-1,-1.0986507E0,-2.9913187E-3,-1.4239705E-2,-9.3451905E-1,-7.4001553E-4,-1.6510546E0,-1.9828558E-3,7.53929E-1,6.28287E-1,2.929583E-1,-6.9614756E-1,5.292919E-2,7.22424E-1,3.0843738E-2,5.3775646E-2,-8.081826E-3,-8.9847076E-1,-8.396387E-4,3.575265E0,-9.1250175E-1,-7.055827E-1,-1.114276E0,-1.2775278E0,-1.335825E0,-3.4939584E-1,-1.4698886E0,6.329349E-1,-5.400379E-1,9.288332E-3,1.6531489E0,-1.271002E0,-4.835415E-3,-2.6318425E-2,-1.6589083E-2,-3.592205E-3,-1.6040599E-2,-9.139321E-3,-7.159038E-3,5.119484E-3,1.8636283E-3,-3.2983725E-3,-6.535721E-3,1.4905222E-2,-6.5804087E-3,2.424197E-3,-1.1077821E-3,6.602803E-3,-8.717346E-3,5.5763978E-3,1.0142456E-2,1.746573E-2,7.5923204E-3,1.9240443E-2,3.004728E-2,1.9438934E-2,-3.978837E-3,5.9431433E-3],"split_indices":[18,18,18,15,18,18,18,0,0,6,1,19,15,14,4,0,0,11,0,1,0,5,15,18,0,21,23,0,0,0,13,0,24,16,16,8,0,1,0,8,15,15,0,13,0,0,0,0,0,0,0,0,0,0,0,0,0,0,0,0,0,0,0,0,0,0,0,0,0,0,0],"split_type":[0,0,0,0,0,0,0,0,0,0,0,0,0,0,0,0,0,0,0,0,0,0,0,0,0,0,0,0,0,0,0,0,0,0,0,0,0,0,0,0,0,0,0,0,0,0,0,0,0,0,0,0,0,0,0,0,0,0,0,0,0,0,0,0,0,0,0,0,0,0,0],"sum_hessian":[6.04E2,1.3E2,4.74E2,4.1E1,8.9E1,3.56E2,1.18E2,3.9E1,2E0,4.6E1,4.3E1,1.54E2,2.02E2,9.6E1,2.2E1,1E0,1E0,4.5E1,1E0,4.1E1,2E0,6.2E1,9.2E1,9.4E1,1.08E2,6E1,3.6E1,7E0,1.5E1,2E0,4.3E1,1E0,4E1,5.2E1,1E1,8.5E1,7E0,4.7E1,4.7E1,2.6E1,8.2E1,5.3E1,7E0,3.4E1,2E0,1E0,4.2E1,3.9E1,1E0,6E0,4.6E1,4E0,6E0,1.6E1,6.9E1,1E0,6E0,2E0,4.5E1,3E0,4.4E1,1E0,2.5E1,5.8E1,2.4E1,3E0,5E1,2.4E1,1E1,1E0,1E0],"tree_param":{"num_deleted":"0","num_feature":"25","num_nodes":"71","size_leaf_vector":"1"}},{"base_weights":[-1.0361913E-2,-6.012199E-1,1.493175E-1,-1.0433773E0,-3.9340723E-1,4.9561113E-2,4.9561772E-1,-6.102562E-2,-4.4413786E-2,-4.8833355E-1,-2.9184797E-1,-9.565376E-2,1.3787386E-1,3.84006E-1,8.1997615E-1,-5.05926E-1,-7.926115E-2,-3.072084E-1,-2.8800906E-3,-1.6864815E-1,-3.2926194E-2,5.9841737E-2,1.9729508E-1,2.4447247E-2,3.2741654E-1,6.130375E-1,5.05159E-2,-5.2864856E-1,-1.5839608E-2,-5.2230717E-3,-7.215142E-4,-3.2299754E-1,-1.2576914E-1,-1.9338305E-1,6.0390744E-2,-5.1429663E-2,1.5649682E-2,2.8683405E-2,1.05862156E-1,5.494448E-3,2.1691999E-1,-3.8793683E-3,3.3635342E-1,3.168026E-2,8.127272E-3,-2.6772533E-2,-7.264388E-3,-4.18551E-3,-1.6360117E-2,-8.18646E-4,-7.4512484E-3,-6.4531225E-3,-1.2262045E-2,-1.6480148E-3,6.932205E-3,-3.2225177E-3,4.027203E-3,2.007001E-3,-7.230419E-3,-4.5204163E-4,6.126759E-3,-1.0635193E-2,3.2251792E-3,9.129771E-3,1.6501656E-2,5.2786707E-3,1.7392932E-2],"categories":[],"categories_nodes":[],"categories_segments":[],"categories_sizes":[],"default_left":[0,0,0,0,0,0,0,0,0,0,0,0,0,0,0,0,0,0,0,0,0,0,0,0,0,0,0,0,0,0,0,0,0,0,0,0,0,0,0,0,0,0,0,0,0,0,0,0,0,0,0,0,0,0,0,0,0,0,0,0,0,0,0,0,0,0,0],"id":6,"left_children":[1,3,5,7,9,11,13,-1,-1,15,17,19,21,23,25,27,29,31,-1,33,35,37,39,-1,41,43,-1,45,-1,-1,-1,47,49,51,53,55,-1,57,59,61,63,-1,65,-1,-1,-1,-1,-1,-1,-1,-1,-1,-1,-1,-1,-1,-1,-1,-1,-1,-1,-1,-1,-1,-1,-1,-1],"loss_changes":[5.63211E1,1.1259037E1,1.6211895E1,1.480484E-2,7.058573E-1,4.7068906E0,3.486353E0,0E0,0E0,2.765503E-1,1.4421916E-1,6.308949E-1,1.0453758E0,3.1498623E-1,4.0475464E-1,1.3027191E-2,3.3938624E-3,7.969713E-2,0E0,3.7425494E-1,5.025517E-1,1.4035544E-1,4.8437262E-1,0E0,2.2516775E-1,3.5993576E-2,0E0,1.608181E-2,0E0,0E0,0E0,1.0843754E-2,1.028052E-2,1.618092E-1,5.5704974E-2,1.3063352E-1,0E0,1.2691018E-1,7.773906E-2,1.8110417E-1,3.939972E-1,0E0,1.06654644E-1,0E0,0E0,0E0,0E0,0E0,0E0,0E0,0E0,0E0,0E0,0E0,0E0,0E0,0E0,0E0,0E0,0E0,0E0,0E0,0E0,0E0,0E0,0E0,0E0],"parents":[2147483647,0,0,1,1,2,2,3,3,4,4,5,5,6,6,9,9,10,10,11,11,12,12,13,13,14,14,15,15,16,16,17,17,19,19,20,20,21,21,22,22,24,24,25,25,27,27,31,31,32,32,33,33,34,34,35,35,37,37,38,38,39,39,40,40,42,42],"right_children":[2,4,6,8,10,12,14,-1,-1,16,18,20,22,24,26,28,30,32,-1,34,36,38,40,-1,42,44,-1,46,-1,-1,-1,48,50,52,54,56,-1,58,60,62,64,-1,66,-1,-1,-1,-1,-1,-1,-1,-1,-1,-1,-1,-1,-1,-1,-1,-1,-1,-1,-1,-1,-1,-1,-1,-1],"split_conditions":[-6.004562E-1,-1.6904219E0,7.0392895E-1,-2.7267828E0,-8.8634884E-1,2.493395E-2,1.4901338E0,-6.102562E-2,-4.4413786E-2,2.0621767E0,1.1554974E0,-7.008613E-2,3.456288E-2,-7.328519E-1,1.8126707E0,-6.635191E-1,-1.2968082E0,3.8464782E-1,-2.8800906E-3,7.53929E-1,6.28287E-1,2.929583E-1,-1.1965498E0,2.4447247E-2,-1.271002E0,5.740287E-1,5.05159E-2,1.2040889E0,-1.5839608E-2,-5.2230717E-3,-7.215142E-4,-1.2215436E0,-1.465171E0,-1.3072658E-1,7.891498E-1,7.53929E-1,1.5649682E-2,8.897905E-1,-2.3489954E-1,6.344589E-1,7.969664E-1,-3.8793683E-3,-6.5298486E-1,3.168026E-2,8.127272E-3,-2.6772533E-2,-7.264388E-3,-4.18551E-3,-1.6360117E-2,-8.18646E-4,-7.4512484E-3,-6.4531225E-3,-1.2262045E-2,-1.6480148E-3,6.932205E-3,-3.2225177E-3,4.027203E-3,2.007001E-3,-7.230419E-3,-4.5204163E-4,6.126759E-3,-1.0635193E-2,3.2251792E-3,9.129771E-3,1.6501656E-2,5.2786707E-3,1.7392932E-2],"split_indices":[18,18,18,18,18,18,18,0,0,14,2,19,15,10,15,0,0,3,0,5,15,18,0,0,0,23,0,2,0,0,0,7,2,22,2,5,0,20,0,9,15,0,14,0,0,0,0,0,0,0,0,0,0,0,0,0,0,0,0,0,0,0,0,0,0,0,0],"split_type":[0,0,0,0,0,0,0,0,0,0,0,0,0,0,0,0,0,0,0,0,0,0,0,0,0,0,0,0,0,0,0,0,0,0,0,0,0,0,0,0,0,0,0,0,0,0,0,0,0,0,0,0,0,0,0,0,0,0,0,0,0,0,0,0,0,0,0],"sum_hessian":[5.95E2,1.26E2,4.69E2,3.9E1,8.7E1,3.65E2,1.04E2,1.5E1,2.4E1,4.3E1,4.4E1,1.38E2,2.27E2,7.9E1,2.5E1,4.1E1,2E0,4.1E1,3E0,6.3E1,7.5E1,9.9E1,1.28E2,2.5E1,5.4E1,1.4E1,1.1E1,3.5E1,6E0,1E0,1E0,3.7E1,4E0,5.7E1,6E0,7.2E1,3E0,6E1,3.9E1,1.2E1,1.16E2,1E0,5.3E1,1.3E1,1E0,3.4E1,1E0,1E0,3.6E1,1E0,3E0,2.7E1,3E1,3E0,3E0,6.6E1,6E0,5.7E1,3E0,5E0,3.4E1,2E0,1E1,9.1E1,2.5E1,3E0,5E1],"tree_param":{"num_deleted":"0","num_feature":"25","num_nodes":"67","size_leaf_vector":"1"}},{"base_weights":[3.4582098E-3,-4.123259E-1,2.1029688E-1,-9.314481E-1,-2.750073E-1,1.1997612E-1,5.51635E-1,-4.913662E-2,-3.6565465E-1,-3.9168236E-1,-1.8250078E-1,3.2231897E-2,2.0532529E-1,4.193756E-1,4.4964593E-2,-1.8061996E-3,-2.1950318E-2,-4.7073972E-1,-3.2965168E-1,-7.402897E-4,-1.9782107E-1,1.4974564E-2,2.3951013E-1,1.819235E-1,3.3035532E-1,-3.7823797E-3,4.2873085E-1,-7.034779E-4,-4.8713234E-1,-3.4208456E-1,-2.6997963E-3,-9.666786E-2,5.9677125E-3,-2.1265516E-1,-6.8266675E-2,-3.1610806E-2,6.329301E-2,-9.532873E-3,1.7230472E-2,1.5821642E-1,2.5184226E-1,1.0145865E-2,3.6156145E-1,3.7837583E-1,2.7896393E-2,-2.4901679E-2,-5.09249E-3,-1.728914E-2,-4.946351E-3,-7.974446E-3,-2.0545186E-3,-7.799116E-3,-1.2005166E-2,-7.0781754E-3,2.095898E-4,-5.8359145E-3,-9.1183913E-4,3.7431032E-3,-5.3352355E-3,2.9788113E-3,8.342168E-3,5.945456E-3,1.3566679E-2,9.778915E-3,1.9750766E-2,1.2328176E-2,2.0590141E-2],"categories":[],"categories_nodes":[],"categories_segments":[],"categories_sizes":[],"default_left":[0,0,0,0,0,0,0,0,0,0,0,0,0,0,0,0,0,0,0,0,0,0,0,0,0,0,0,0,0,0,0,0,0,0,0,0,0,0,0,0,0,0,0,0,0,0,0,0,0,0,0,0,0,0,0,0,0,0,0,0,0,0,0,0,0,0,0],"id":7,"left_children":[1,3,5,7,9,11,13,-1,15,17,19,21,23,25,-1,-1,-1,27,29,31,33,35,37,39,41,-1,43,-1,45,47,-1,49,-1,51,53,55,57,-1,-1,59,61,-1,63,65,-1,-1,-1,-1,-1,-1,-1,-1,-1,-1,-1,-1,-1,-1,-1,-1,-1,-1,-1,-1,-1,-1,-1],"loss_changes":[5.1256847E1,1.3858299E1,1.2204126E1,8.303299E-1,1.6338434E0,2.3598733E0,3.439272E0,0E0,1.0499948E-1,1.8319511E-1,2.5046945E-1,5.580134E-1,4.0804815E-1,3.195591E-1,0E0,0E0,0E0,2.027545E-1,1.2547112E-1,1.0370074E-1,1.4499378E-1,3.3063692E-1,6.08226E-1,1.8724203E-1,2.2077322E-2,0E0,1.8574238E-1,0E0,6.267738E-2,1.762867E-3,0E0,1.0903727E-2,0E0,7.7659845E-2,5.3703178E-2,8.323866E-2,1.4959145E-1,0E0,0E0,7.941103E-2,5.32403E-2,0E0,2.2693634E-2,1.05550766E-1,0E0,0E0,0E0,0E0,0E0,0E0,0E0,0E0,0E0,0E0,0E0,0E0,0E0,0E0,0E0,0E0,0E0,0E0,0E0,0E0,0E0,0E0,0E0],"parents":[2147483647,0,0,1,1,2,2,3,3,4,4,5,5,6,6,8,8,9,9,10,10,11,11,12,12,13,13,17,17,18,18,19,19,20,20,21,21,22,22,23,23,24,24,26,26,28,28,29,29,31,31,33,33,34,34,35,35,36,36,39,39,40,40,42,42,43,43],"right_children":[2,4,6,8,10,12,14,-1,16,18,20,22,24,26,-1,-1,-1,28,30,32,34,36,38,40,42,-1,44,-1,46,48,-1,50,-1,52,54,56,58,-1,-1,60,62,-1,64,66,-1,-1,-1,-1,-1,-1,-1,-1,-1,-1,-1,-1,-1,-1,-1,-1,-1,-1,-1,-1,-1,-1,-1],"split_conditions":[-1.8948554E-1,-1.6904219E0,9.0048015E-1,2.3164436E-1,-7.076659E-1,3.2869488E-1,1.5973434E0,-4.913662E-2,-1.2801974E0,-1.0650318E0,-2.1367739E-1,6.329349E-1,8.9132553E-1,-1.271002E0,4.4964593E-2,-1.8061996E-3,-2.1950318E-2,-1.6503447E0,8.4238356E-1,7.557664E-1,1.0649651E0,1.3969831E-1,-1.2279918E0,6.503241E-1,-3.545956E-1,-3.7823797E-3,1.698207E0,-7.034779E-4,9.0849125E-1,1.6979778E0,-2.6997963E-3,-1.3039272E0,5.9677125E-3,-1.3072658E-1,-1.518289E0,-7.4598014E-1,3.1608167E0,-9.532873E-3,1.7230472E-2,-7.509531E-1,-2.3489954E-1,1.0145865E-2,3.1007352E-1,-4.3346888E-1,2.7896393E-2,-2.4901679E-2,-5.09249E-3,-1.728914E-2,-4.946351E-3,-7.974446E-3,-2.0545186E-3,-7.799116E-3,-1.2005166E-2,-7.0781754E-3,2.095898E-4,-5.8359145E-3,-9.1183913E-4,3.7431032E-3,-5.3352355E-3,2.9788113E-3,8.342168E-3,5.945456E-3,1.3566679E-2,9.778915E-3,1.9750766E-2,1.2328176E-2,2.0590141E-2],"split_indices":[18,18,18,11,18,18,18,0,0,18,22,15,15,0,0,0,0,1,1,1,3,19,0,18,7,0,15,0,5,8,0,0,0,22,1,0,20,0,0,17,0,0,4,7,0,0,0,0,0,0,0,0,0,0,0,0,0,0,0,0,0,0,0,0,0,0,0],"split_type":[0,0,0,0,0,0,0,0,0,0,0,0,0,0,0,0,0,0,0,0,0,0,0,0,0,0,0,0,0,0,0,0,0,0,0,0,0,0,0,0,0,0,0,0,0,0,0,0,0,0,0,0,0,0,0,0,0,0,0,0,0,0,0,0,0,0,0],"sum_hessian":[5.94E2,1.97E2,3.97E2,4E1,1.57E2,3.15E2,8.2E1,3.6E1,4E0,6.8E1,8.9E1,1.56E2,1.59E2,6.1E1,2.1E1,1E0,3E0,2.7E1,4.1E1,7E0,8.2E1,1.45E2,1.1E1,1.36E2,2.3E1,1E0,6E1,1E0,2.6E1,3.9E1,2E0,4E0,3E0,7.3E1,9E0,7.4E1,7.1E1,2E0,9E0,1.04E2,3.2E1,6E0,1.7E1,4.6E1,1.4E1,2.5E1,1E0,3.8E1,1E0,1E0,3E0,2.6E1,4.7E1,4E0,5E0,9E0,6.5E1,6.7E1,4E0,9E0,9.5E1,5E0,2.7E1,4E0,1.3E1,1.1E1,3.5E1],"tree_param":{"num_deleted":"0","num_feature":"25","num_nodes":"67","size_leaf_vector":"1"}},{"base_weights":[-1.7334796E-2,-4.0222758E-1,1.7954034E-1,-8.4116435E-1,-2.8174937E-1,1.1196199E-1,5.624956E-1,-9.8121536E-1,-3.97598E-1,2.3821841E-1,-3.1068334E-1,-2.3798566E-2,1.7266111E-1,4.3194866E-1,8.1459713E-1,-2.2189105E-2,-5.1075455E-2,-2.6526654E-2,-1.0538225E-1,-3.783548E-3,1.4345673E-2,-6.010873E-1,-2.3434559E-1,-3.3360265E-2,8.705373E-3,1.3064049E-1,2.8644958E-1,2.4264732E-2,1.8835248E-1,1.6035637E-2,4.2691786E-2,-9.812868E-3,-1.6799569E-3,-2.511599E-1,-6.5872097E-1,-3.271026E-1,-1.6975856E-1,-7.414669E-2,4.977379E-3,-1.2188578E-1,1.3584442E-1,1.8389974E-2,2.3251215E-1,-3.687823E-3,2.3033565E-1,-1.7610431E-3,-1.4365177E-2,-3.371757E-2,-6.6990615E-3,-4.2627812E-3,-1.6779002E-2,-9.125455E-3,2.5827886E-4,-4.8847133E-3,-1.4082538E-3,-3.4830713E-4,7.651353E-3,-1.1445761E-3,-7.3626675E-3,1.2347889E-2,6.170904E-3,7.610917E-3,1.3276721E-2,4.538139E-3,1.3086641E-2],"categories":[],"categories_nodes":[],"categories_segments":[],"categories_sizes":[],"default_left":[0,0,0,0,0,0,0,0,0,0,0,0,0,0,0,0,0,0,0,0,0,0,0,0,0,0,0,0,0,0,0,0,0,0,0,0,0,0,0,0,0,0,0,0,0,0,0,0,0,0,0,0,0,0,0,0,0,0,0,0,0,0,0,0,0],"id":8,"left_children":[1,3,5,7,9,11,13,15,17,19,21,23,25,27,29,-1,-1,-1,31,-1,-1,33,35,37,-1,39,41,-1,43,-1,-1,-1,-1,45,47,49,51,53,55,57,59,-1,61,-1,63,-1,-1,-1,-1,-1,-1,-1,-1,-1,-1,-1,-1,-1,-1,-1,-1,-1,-1,-1,-1],"loss_changes":[4.52346E1,1.0445229E1,1.0159417E1,2.2811127E0,2.481165E0,2.7811732E0,1.5898895E0,2.3963737E-1,4.1024017E-1,1.592747E-1,3.2287912E0,2.0450164E-1,1.0766592E0,4.4138288E-1,9.4371796E-2,0E0,0E0,0E0,2.6022412E-2,0E0,0E0,4.5975304E-1,6.7536116E-1,1.5829825E-1,0E0,2.425878E-1,1.8652582E-1,0E0,1.1602622E-1,0E0,0E0,0E0,0E0,3.6709845E-2,1.228981E-1,7.185173E-2,1.6599059E-1,5.030343E-2,9.478244E-2,6.674126E-3,2.0286489E-1,0E0,6.563997E-2,0E0,1.13019645E-2,0E0,0E0,0E0,0E0,0E0,0E0,0E0,0E0,0E0,0E0,0E0,0E0,0E0,0E0,0E0,0E0,0E0,0E0,0E0,0E0],"parents":[2147483647,0,0,1,1,2,2,3,3,4,4,5,5,6,6,7,7,8,8,9,9,10,10,11,11,12,12,13,13,14,14,18,18,21,21,22,22,23,23,25,25,26,26,28,28,33,33,34,34,35,35,36,36,37,37,38,38,39,39,40,40,42,42,44,44],"right_children":[2,4,6,8,10,12,14,16,18,20,22,24,26,28,30,-1,-1,-1,32,-1,-1,34,36,38,-1,40,42,-1,44,-1,-1,-1,-1,46,48,50,52,54,56,58,60,-1,62,-1,64,-1,-1,-1,-1,-1,-1,-1,-1,-1,-1,-1,-1,-1,-1,-1,-1,-1,-1,-1,-1],"split_conditions":[-7.0726745E-2,-9.938921E-1,9.6358E-1,-1.060619E0,-2.4140187E-1,1.73849E-1,3.5584595E0,-7.328519E-1,7.519499E-1,-8.2929707E-1,-6.302063E-1,1.1554974E0,5.053855E-1,5.443502E-1,-1.258544E0,-2.2189105E-2,-5.1075455E-2,-2.6526654E-2,-1.2831635E0,-3.783548E-3,1.4345673E-2,-5.118226E-1,-3.8575864E-1,5.748974E-2,8.705373E-3,-9.2134243E-1,-1.1382177E0,2.4264732E-2,-1.271002E0,1.6035637E-2,4.2691786E-2,-9.812868E-3,-1.6799569E-3,-1.2801974E0,-2.1860977E-1,-1.0615308E0,1.1554974E0,3.5567594E-1,1.6578125E0,-1.7234722E0,-1.3049783E0,1.8389974E-2,-1.3137826E-1,-3.687823E-3,1.2367336E0,-1.7610431E-3,-1.4365177E-2,-3.371757E-2,-6.6990615E-3,-4.2627812E-3,-1.6779002E-2,-9.125455E-3,2.5827886E-4,-4.8847133E-3,-1.4082538E-3,-3.4830713E-4,7.651353E-3,-1.1445761E-3,-7.3626675E-3,1.2347889E-2,6.170904E-3,7.610917E-3,1.3276721E-2,4.538139E-3,1.3086641E-2],"split_indices":[19,16,14,19,22,19,14,10,3,3,19,2,19,24,0,0,0,0,0,0,0,10,19,19,0,16,21,0,0,0,0,0,0,0,16,7,2,0,12,1,21,0,0,0,14,0,0,0,0,0,0,0,0,0,0,0,0,0,0,0,0,0,0,0,0],"split_type":[0,0,0,0,0,0,0,0,0,0,0,0,0,0,0,0,0,0,0,0,0,0,0,0,0,0,0,0,0,0,0,0,0,0,0,0,0,0,0,0,0,0,0,0,0,0,0,0,0,0,0,0,0,0,0,0,0,0,0,0,0,0,0,0,0],"sum_hessian":[5.95E2,2.01E2,3.94E2,4.2E1,1.59E2,3.36E2,5.8E1,3.1E1,1.1E1,8E0,1.51E2,1.04E2,2.32E2,4E1,1.8E1,3E0,2.8E1,7E0,4E0,1E0,7E0,3E1,1.21E2,1E2,4E0,1.71E2,6.1E1,3.2E1,8E0,2E0,1.6E1,1E0,3E0,5E0,2.5E1,4.8E1,7.3E1,4.8E1,5.2E1,3E0,1.68E2,2.2E1,3.9E1,1E0,7E0,1E0,4E0,2.4E1,1E0,2E0,4.6E1,6.8E1,5E0,3.1E1,1.7E1,4.9E1,3E0,1E0,2E0,1.5E1,1.53E2,1.3E1,2.6E1,2E0,5E0],"tree_param":{"num_deleted":"0","num_feature":"25","num_nodes":"65","size_leaf_vector":"1"}},{"base_weights":[1.5117598E-3,-3.826832E-1,1.826421E-1,-7.703987E-1,-2.5704458E-1,1.1614864E-1,5.1436824E-1,-4.7677886E-2,-5.0694466E-1,-3.767817E-1,-1.3707004E-1,4.557557E-2,2.1634932E-1,3.839494E-1,7.6368177E-1,-6.0418653E-1,-1.6314237E-1,-3.0949855E-2,-2.9652375E-1,1.356103E-2,-1.7058706E-1,-2.535318E-2,8.6870424E-2,1.5078135E-1,2.806823E-1,-5.7357788E-2,4.160722E-1,1.7172785E-2,8.379845E-1,-3.1115187E-2,-8.3107E-3,-1.4158289E-2,-1.6169607E-3,-3.3013773E-1,-1.4576101E-1,-2.6736557E-1,-1.1303039E-1,-3.607817E-2,8.567685E-3,4.7701985E-2,1.3054134E-1,-9.143057E-2,1.666064E-1,1.4091067E-1,2.9929954E-1,-6.2205954E-3,3.5951138E-3,4.3968496E-1,1.9717915E-1,1.2384844E-2,4.2906847E-2,-1.7987406E-2,-1.0936513E-2,2.801323E-3,-8.459932E-3,-1.4067287E-2,-3.5531283E-3,-8.183669E-3,-1.7557534E-3,-3.341057E-3,5.3751556E-4,-1.99677E-3,3.0873634E-3,1.9541443E-3,9.394375E-3,-6.7584513E-4,-6.943369E-3,6.8270937E-3,1.043821E-2,7.574034E-3,1.1445165E-3,1.5312959E-2,3.2490015E-3,2.4564983E-2,1.580549E-2,1.0636673E-2,2.9851913E-3],"categories":[],"categories_nodes":[],"categories_segments":[],"categories_sizes":[],"default_left":[0,0,0,0,0,0,0,0,0,0,0,0,0,0,0,0,0,0,0,0,0,0,0,0,0,0,0,0,0,0,0,0,0,0,0,0,0,0,0,0,0,0,0,0,0,0,0,0,0,0,0,0,0,0,0,0,0,0,0,0,0,0,0,0,0,0,0,0,0,0,0,0,0,0,0,0,0],"id":9,"left_children":[1,3,5,7,9,11,13,-1,15,17,19,21,23,25,27,29,31,-1,33,-1,35,37,39,41,43,45,47,-1,49,-1,-1,-1,-1,51,53,55,57,59,-1,61,63,65,67,69,71,-1,-1,73,75,-1,-1,-1,-1,-1,-1,-1,-1,-1,-1,-1,-1,-1,-1,-1,-1,-1,-1,-1,-1,-1,-1,-1,-1,-1,-1,-1,-1],"loss_changes":[4.1266792E1,9.057259E0,8.829475E0,1.7362804E0,2.0313377E0,2.3732247E0,1.8853016E0,0E0,6.035032E-1,1.2161121E0,1.0589333E0,5.85072E-1,5.440059E-1,6.75961E-1,3.9911747E-1,2.3521423E-2,8.503927E-2,0E0,2.3567247E-1,0E0,3.541267E-1,1.6229841E-1,2.0929873E-1,2.8737712E-1,1.373744E-1,4.3615177E-2,1.355567E-1,0E0,1.5649796E-3,0E0,0E0,0E0,0E0,6.975889E-2,6.623262E-2,4.8615456E-2,1.7181653E-1,1.0293326E-1,0E0,8.6166546E-2,3.0209947E-1,1.6602822E-2,5.6414366E-2,9.007305E-3,7.794666E-2,0E0,0E0,8.707094E-2,1.2898445E-4,0E0,0E0,0E0,0E0,0E0,0E0,0E0,0E0,0E0,0E0,0E0,0E0,0E0,0E0,0E0,0E0,0E0,0E0,0E0,0E0,0E0,0E0,0E0,0E0,0E0,0E0,0E0,0E0],"parents":[2147483647,0,0,1,1,2,2,3,3,4,4,5,5,6,6,8,8,9,9,10,10,11,11,12,12,13,13,14,14,15,15,16,16,18,18,20,20,21,21,22,22,23,23,24,24,25,25,26,26,28,28,33,33,34,34,35,35,36,36,37,37,39,39,40,40,41,41,42,42,43,43,44,44,47,47,48,48],"right_children":[2,4,6,8,10,12,14,-1,16,18,20,22,24,26,28,30,32,-1,34,-1,36,38,40,42,44,46,48,-1,50,-1,-1,-1,-1,52,54,56,58,60,-1,62,64,66,68,70,72,-1,-1,74,76,-1,-1,-1,-1,-1,-1,-1,-1,-1,-1,-1,-1,-1,-1,-1,-1,-1,-1,-1,-1,-1,-1,-1,-1,-1,-1,-1,-1],"split_conditions":[-7.0726745E-2,-9.853756E-1,9.6358E-1,-1.2585346E0,-6.4198565E-1,3.5940647E-1,3.5584595E0,-4.7677886E-2,1.0199187E0,-1.211381E0,-1.9570861E0,1.3969831E-1,5.053855E-1,-1.098346E0,-1.2523148E0,-1.0113614E0,1.7505713E-1,-3.0949855E-2,-1.4353979E-1,1.356103E-2,-1.2125674E0,1.0227176E0,3.456288E-2,-7.631426E-1,-2.3163669E-1,-1.271002E0,5.9350014E-1,1.7172785E-2,5.1665954E-2,-3.1115187E-2,-8.3107E-3,-1.4158289E-2,-1.6169607E-3,-1.5477493E-1,-1.335825E0,1.0078081E0,4.660959E-1,5.748974E-2,8.567685E-3,-1.8239735E-1,-3.4939584E-1,-4.849141E-2,3.6015862E-1,1.06106445E-1,8.4278363E-1,-6.2205954E-3,3.5951138E-3,1.6531489E0,-4.2247433E-2,1.2384844E-2,4.2906847E-2,-1.7987406E-2,-1.0936513E-2,2.801323E-3,-8.459932E-3,-1.4067287E-2,-3.5531283E-3,-8.183669E-3,-1.7557534E-3,-3.341057E-3,5.3751556E-4,-1.99677E-3,3.0873634E-3,1.9541443E-3,9.394375E-3,-6.7584513E-4,-6.943369E-3,6.8270937E-3,1.043821E-2,7.574034E-3,1.1445165E-3,1.5312959E-2,3.2490015E-3,2.4564983E-2,1.580549E-2,1.0636673E-2,2.9851913E-3],"split_indices":[19,16,14,19,15,19,14,0,3,0,19,19,19,16,0,16,13,0,0,0,0,1,15,16,0,0,24,0,19,0,0,0,0,16,1,1,1,19,0,0,0,3,15,6,10,0,0,13,1,0,0,0,0,0,0,0,0,0,0,0,0,0,0,0,0,0,0,0,0,0,0,0,0,0,0,0,0],"split_type":[0,0,0,0,0,0,0,0,0,0,0,0,0,0,0,0,0,0,0,0,0,0,0,0,0,0,0,0,0,0,0,0,0,0,0,0,0,0,0,0,0,0,0,0,0,0,0,0,0,0,0,0,0,0,0,0,0,0,0,0,0,0,0,0,0,0,0,0,0,0,0,0,0,0,0,0,0],"sum_hessian":[5.91E2,1.89E2,4.02E2,4.5E1,1.44E2,3.36E2,6.6E1,2.5E1,2E1,7.1E1,7.3E1,1.98E2,1.38E2,4.5E1,2.1E1,1.5E1,5E0,1.6E1,5.5E1,5E0,6.8E1,7.3E1,1.25E2,7E1,6.8E1,3E0,4.2E1,4E0,1.7E1,1.4E1,1E0,2E0,3E0,4.4E1,1.1E1,2.4E1,4.4E1,7E1,3E0,6.7E1,5.8E1,4E0,6.6E1,9E0,5.9E1,2E0,1E0,3.7E1,5E0,1E0,1.6E1,3.3E1,1.1E1,1E0,1E1,2.2E1,2E0,2.6E1,1.8E1,4.2E1,2.8E1,9E0,5.8E1,2.3E1,3.5E1,2E0,2E0,4.1E1,2.5E1,8E0,1E0,5.7E1,2E0,2.4E1,1.3E1,4E0,1E0],"tree_param":{"num_deleted":"0","num_feature":"25","num_nodes":"77","size_leaf_vector":"1"}},{"base_weights":[5.802035E-3,-4.7859392E-1,1.3862443E-1,-8.07471E-1,-3.1793123E-1,4.4605974E-2,4.149665E-1,-8.253961E-1,-1.3653397E-3,-3.9888495E-1,-2.404018E-1,-4.902537E-2,1.2116065E-1,3.3526984E-1,7.860993E-1,-4.786151E-2,-3.3743553E-2,-4.1366228E-1,-6.3966595E-2,-2.5441387E-1,-1.9162536E-2,-1.20766915E-1,9.852645E-3,6.772356E-2,1.7286906E-1,2.9222724E-1,4.647756E-1,4.024635E-2,1.0238672E-2,-1.839219E-1,-4.335282E-1,-6.034732E-4,-4.194021E-3,-2.6761216E-1,-9.266548E-2,-2.6264589E-3,2.0234347E-3,-1.5135795E-1,9.01515E-2,-3.3166271E-3,1.1851373E-2,-4.9058325E-4,9.42581E-2,-7.3767425E-3,1.7754844E-1,3.0562317E-1,7.6073326E-2,2.3709433E-2,6.206882E-3,-2.6337148E-3,-1.0178262E-2,-2.1958487E-2,-5.760837E-3,-3.1903863E-3,-1.3551337E-2,-5.388022E-4,-5.5221915E-3,-5.7162205E-3,-1.0301933E-2,-1.0307789E-3,8.371607E-3,7.4773113E-4,-3.7093614E-3,9.671013E-4,-3.9869626E-3,5.3174314E-3,4.330969E-4,7.27482E-3,1.164583E-2,1.2184137E-2,1.8472496E-2,-3.440106E-3,5.9404424E-3],"categories":[],"categories_nodes":[],"categories_segments":[],"categories_sizes":[],"default_left":[0,0,0,0,0,0,0,0,0,0,0,0,0,0,0,0,0,0,0,0,0,0,0,0,0,0,0,0,0,0,0,0,0,0,0,0,0,0,0,0,0,0,0,0,0,0,0,0,0,0,0,0,0,0,0,0,0,0,0,0,0,0,0,0,0,0,0,0,0,0,0,0,0],"id":10,"left_children":[1,3,5,7,9,11,13,15,-1,17,19,21,23,25,27,-1,-1,29,31,33,35,37,39,41,43,45,47,-1,-1,49,51,-1,-1,53,55,-1,-1,57,59,61,-1,63,65,-1,67,69,71,-1,-1,-1,-1,-1,-1,-1,-1,-1,-1,-1,-1,-1,-1,-1,-1,-1,-1,-1,-1,-1,-1,-1,-1,-1,-1],"loss_changes":[3.976328E1,6.770771E0,1.25824E1,5.787983E-1,4.7525024E-1,2.607894E0,3.3745422E0,1.8745422E-1,0E0,1.8635511E-1,1.4702582E-1,6.9392586E-1,5.409224E-1,4.3832874E-1,6.501675E-2,0E0,0E0,1.073885E-1,2.0880206E-3,7.3402405E-2,1.0084562E-2,4.91109E-1,2.730333E-1,1.8104929E-1,1.7762303E-1,2.0839739E-1,1.8090248E-2,0E0,0E0,2.1680444E-3,1.5843868E-2,0E0,0E0,1.193428E-2,6.089151E-3,0E0,0E0,1.0807085E-1,8.905323E-2,1.1376525E-1,0E0,4.7121845E-2,7.359183E-2,0E0,1.4357805E-1,2.0648098E-1,4.5322258E-2,0E0,0E0,0E0,0E0,0E0,0E0,0E0,0E0,0E0,0E0,0E0,0E0,0E0,0E0,0E0,0E0,0E0,0E0,0E0,0E0,0E0,0E0,0E0,0E0,0E0,0E0],"parents":[2147483647,0,0,1,1,2,2,3,3,4,4,5,5,6,6,7,7,9,9,10,10,11,11,12,12,13,13,14,14,17,17,18,18,19,19,20,20,21,21,22,22,23,23,24,24,25,25,26,26,29,29,30,30,33,33,34,34,37,37,38,38,39,39,41,41,42,42,44,44,45,45,46,46],"right_children":[2,4,6,8,10,12,14,16,-1,18,20,22,24,26,28,-1,-1,30,32,34,36,38,40,42,44,46,48,-1,-1,50,52,-1,-1,54,56,-1,-1,58,60,62,-1,64,66,-1,68,70,72,-1,-1,-1,-1,-1,-1,-1,-1,-1,-1,-1,-1,-1,-1,-1,-1,-1,-1,-1,-1,-1,-1,-1,-1,-1,-1],"split_conditions":[-5.825879E-1,-1.6546853E0,7.217973E-1,4.8455438E-1,-8.8634884E-1,1.3214369E-1,3.5584595E0,-2.5838363E0,-1.3653397E-3,2.0621767E0,1.1562245E0,-3.911523E-2,7.936872E-2,1.3471874E0,2.3574525E-1,-4.786151E-2,-3.3743553E-2,-8.41226E-1,-1.6503447E0,9.6784914E-1,-7.076659E-1,7.53929E-1,6.28287E-1,-5.400379E-1,-1.5908139E0,3.6171994E-1,5.740287E-1,4.024635E-2,1.0238672E-2,-1.0114269E0,9.0849125E-1,-6.034732E-4,-4.194021E-3,-1.2215436E0,-1.6510546E0,-2.6264589E-3,2.0234347E-3,8.742897E-1,-2.4259542E-1,5.3933424E-1,1.1851373E-2,3.1608167E0,5.2796686E-1,-7.3767425E-3,6.329349E-1,4.9437642E-1,-1.6936532E0,2.3709433E-2,6.206882E-3,-2.6337148E-3,-1.0178262E-2,-2.1958487E-2,-5.760837E-3,-3.1903863E-3,-1.3551337E-2,-5.388022E-4,-5.5221915E-3,-5.7162205E-3,-1.0301933E-2,-1.0307789E-3,8.371607E-3,7.4773113E-4,-3.7093614E-3,9.671013E-4,-3.9869626E-3,5.3174314E-3,4.330969E-4,7.27482E-3,1.164583E-2,1.2184137E-2,1.8472496E-2,-3.440106E-3,5.9404424E-3],"split_indices":[18,18,18,5,18,18,14,18,0,14,9,19,15,18,23,0,0,11,1,7,18,5,15,15,12,23,23,0,0,18,5,0,0,7,1,0,0,23,11,23,0,20,24,0,15,3,1,0,0,0,0,0,0,0,0,0,0,0,0,0,0,0,0,0,0,0,0,0,0,0,0,0,0],"split_type":[0,0,0,0,0,0,0,0,0,0,0,0,0,0,0,0,0,0,0,0,0,0,0,0,0,0,0,0,0,0,0,0,0,0,0,0,0,0,0,0,0,0,0,0,0,0,0,0,0,0,0,0,0,0,0,0,0,0,0,0,0,0,0,0,0,0,0,0,0,0,0,0,0],"sum_hessian":[6.16E2,1.32E2,4.84E2,4.2E1,9E1,3.62E2,1.22E2,4.1E1,1E0,4.2E1,4.8E1,1.63E2,1.99E2,1.02E2,2E1,1.9E1,2.2E1,4E1,2E0,4.5E1,3E0,7.3E1,9E1,9.9E1,1E2,7.9E1,2.3E1,1.9E1,1E0,4E0,3.6E1,1E0,1E0,4.1E1,4E0,2E0,1E0,6.4E1,9E0,8.6E1,4E0,2.8E1,7.1E1,1E0,9.9E1,7.4E1,5E0,2.2E1,1E0,1E0,3E0,3.5E1,1E0,1E0,4E1,1E0,3E0,4E1,2.4E1,4E0,5E0,6.9E1,1.7E1,2.3E1,5E0,6.2E1,9E0,6.5E1,3.4E1,4E1,3.4E1,1E0,4E0],"tree_param":{"num_deleted":"0","num_feature":"25","num_nodes":"73","size_leaf_vector":"1"}},{"base_weights":[-7.550382E-3,-4.812721E-1,1.1767904E-1,-7.9685575E-1,-3.194867E-1,2.9302679E-2,3.6341572E-1,-8.263707E-1,-1.5738074E-1,-3.9522934E-1,-2.3595172E-1,-6.480047E-2,1.06880814E-1,2.9779392E-1,6.272209E-1,-8.363111E-1,-1.1464417E-2,-1.3312101E-3,-1.0472345E-2,-1.0512539E-2,-2.0754024E-2,-2.4484706E-1,-4.166158E-2,-1.2922071E-1,-1.2501924E-2,4.7579765E-2,1.4911073E-1,2.2857109E-1,3.4562942E-1,6.564145E-1,1.0689608E-2,-8.464177E-1,-1.1811805E-2,-2.5966159E-1,-9.217606E-2,-2.4844767E-3,-6.4014195E-4,-1.4765292E-1,5.249616E-2,-2.1371089E-2,1.185228E-2,8.743763E-4,7.520389E-2,5.365816E-2,1.7606498E-1,2.5393504E-1,1.194766E-1,3.0521032E-1,4.1400248E-1,2.3530869E-2,3.7827216E-2,-2.7553452E-2,-4.4935323E-2,-1.3253226E-2,-1.8990517E-3,-5.2533153E-4,-5.498338E-3,-7.8098895E-3,3.6230963E-3,5.282277E-3,-6.888628E-4,-1.9066682E-3,5.240343E-3,-2.6342436E-3,1.5144122E-3,-1.4540093E-3,4.521572E-3,-6.4047254E-3,3.7516037E-3,7.2549703E-3,1.5915843E-2,9.2889005E-3,1.5209903E-2,8.113027E-4,6.4573E-3,5.858167E-3,1.5610422E-2,5.859232E-3,2.1228457E-2],"categories":[],"categories_nodes":[],"categories_segments":[],"categories_sizes":[],"default_left":[0,0,0,0,0,0,0,0,0,0,0,0,0,0,0,0,0,0,0,0,0,0,0,0,0,0,0,0,0,0,0,0,0,0,0,0,0,0,0,0,0,0,0,0,0,0,0,0,0,0,0,0,0,0,0,0,0,0,0,0,0,0,0,0,0,0,0,0,0,0,0,0,0,0,0,0,0,0,0],"id":11,"left_children":[1,3,5,7,9,11,13,15,17,19,21,23,25,27,29,31,-1,-1,-1,-1,-1,33,35,37,39,41,43,45,47,49,-1,51,-1,53,55,-1,-1,57,59,61,-1,63,65,67,69,71,73,75,77,-1,-1,-1,-1,-1,-1,-1,-1,-1,-1,-1,-1,-1,-1,-1,-1,-1,-1,-1,-1,-1,-1,-1,-1,-1,-1,-1,-1,-1,-1],"loss_changes":[3.404923E1,5.8722324E0,9.84901E0,6.2490845E-1,4.1924477E-1,2.4525423E0,1.8905821E0,3.378296E-2,1.4847614E-2,6.328201E-2,6.065893E-2,5.104855E-1,4.5369244E-1,2.455082E-1,1.3726139E-1,2.4440765E-2,0E0,0E0,0E0,0E0,0E0,6.427336E-2,5.8862846E-5,2.3551333E-1,1.9319455E-1,1.0056949E-1,2.6584792E-1,8.8644505E-2,2.8402805E-2,3.463745E-2,0E0,6.0712814E-2,0E0,3.185296E-2,6.1094016E-3,0E0,0E0,1.2793124E-1,2.6112244E-2,1.7954406E-1,0E0,4.8857268E-2,8.0441326E-2,1.0673031E-1,3.1941986E-1,5.9963226E-2,7.888153E-3,1.47435665E-2,6.701708E-3,0E0,0E0,0E0,0E0,0E0,0E0,0E0,0E0,0E0,0E0,0E0,0E0,0E0,0E0,0E0,0E0,0E0,0E0,0E0,0E0,0E0,0E0,0E0,0E0,0E0,0E0,0E0,0E0,0E0,0E0],"parents":[2147483647,0,0,1,1,2,2,3,3,4,4,5,5,6,6,7,7,8,8,9,9,10,10,11,11,12,12,13,13,14,14,15,15,21,21,22,22,23,23,24,24,25,25,26,26,27,27,28,28,29,29,31,31,33,33,34,34,37,37,38,38,39,39,41,41,42,42,43,43,44,44,45,45,46,46,47,47,48,48],"right_children":[2,4,6,8,10,12,14,16,18,20,22,24,26,28,30,32,-1,-1,-1,-1,-1,34,36,38,40,42,44,46,48,50,-1,52,-1,54,56,-1,-1,58,60,62,-1,64,66,68,70,72,74,76,78,-1,-1,-1,-1,-1,-1,-1,-1,-1,-1,-1,-1,-1,-1,-1,-1,-1,-1,-1,-1,-1,-1,-1,-1,-1,-1,-1,-1,-1,-1],"split_conditions":[-6.004562E-1,-1.7261585E0,6.324558E-1,1.242841E0,-8.8634884E-1,9.640711E-2,1.758047E0,2.0289273E0,-1.2801974E0,-4.6765912E-1,1.1554974E0,-7.0726745E-2,3.456288E-2,8.647436E-1,2.3574525E-1,2.0124447E0,-1.1464417E-2,-1.3312101E-3,-1.0472345E-2,-1.0512539E-2,-2.0754024E-2,3.8464782E-1,-1.2885028E0,1.123285E0,2.0271118E0,-5.400379E-1,-6.9614756E-1,-6.733486E-2,1.2935826E0,1.508002E0,1.0689608E-2,-1.8253155E-1,-1.1811805E-2,3.575265E0,-1.6510546E0,-2.4844767E-3,-6.4014195E-4,1.2166913E0,-7.2303355E-1,7.53929E-1,1.185228E-2,4.3517077E-1,-1.8506695E-1,-6.526613E-1,8.211408E-1,-4.2437613E-1,-7.5221807E-1,-1.4899552E0,-7.071226E-1,2.3530869E-2,3.7827216E-2,-2.7553452E-2,-4.4935323E-2,-1.3253226E-2,-1.8990517E-3,-5.2533153E-4,-5.498338E-3,-7.8098895E-3,3.6230963E-3,5.282277E-3,-6.888628E-4,-1.9066682E-3,5.240343E-3,-2.6342436E-3,1.5144122E-3,-1.4540093E-3,4.521572E-3,-6.4047254E-3,3.7516037E-3,7.2549703E-3,1.5915843E-2,9.2889005E-3,1.5209903E-2,8.113027E-4,6.4573E-3,5.858167E-3,1.5610422E-2,5.859232E-3,2.1228457E-2],"split_indices":[18,18,18,3,18,18,15,6,0,23,2,19,15,18,23,12,0,0,0,0,0,3,0,2,3,15,0,23,18,18,0,22,0,24,1,0,0,5,3,5,0,0,0,5,15,7,7,12,0,0,0,0,0,0,0,0,0,0,0,0,0,0,0,0,0,0,0,0,0,0,0,0,0,0,0,0,0,0,0],"split_type":[0,0,0,0,0,0,0,0,0,0,0,0,0,0,0,0,0,0,0,0,0,0,0,0,0,0,0,0,0,0,0,0,0,0,0,0,0,0,0,0,0,0,0,0,0,0,0,0,0,0,0,0,0,0,0,0,0,0,0,0,0,0,0,0,0,0,0,0,0,0,0,0,0,0,0,0,0,0,0],"sum_hessian":[5.72E2,1.19E2,4.53E2,3.9E1,8E1,3.34E2,1.19E2,3.7E1,2E0,4E1,4E1,1.51E2,1.83E2,9.7E1,2.2E1,3.6E1,1E0,1E0,1E0,5E0,3.5E1,3.8E1,2E0,6.7E1,8.4E1,7.7E1,1.06E2,4.2E1,5.5E1,2E1,2E0,3.5E1,1E0,3.4E1,4E0,1E0,1E0,6.1E1,6E0,8.2E1,2E0,2.9E1,4.8E1,2.4E1,8.2E1,3.3E1,9E0,3.8E1,1.7E1,9E0,1.1E1,7E0,2.8E1,3.3E1,1E0,1E0,3E0,5.9E1,2E0,3E0,3E0,7.3E1,9E0,1E1,1.9E1,6E0,4.2E1,2E0,2.2E1,6.9E1,1.3E1,1.6E1,1.7E1,1E0,8E0,2E0,3.6E1,1E0,1.6E1],"tree_param":{"num_deleted":"0","num_feature":"25","num_nodes":"79","size_leaf_vector":"1"}},{"base_weights":[-5.1793177E-3,-3.6160374E-1,1.5108536E-1,-6.9123876E-1,-2.2401363E-1,8.322477E-2,4.1524738E-1,-4.2484026E-2,-5.80951E-1,-3.0303523E-1,-1.5395346E-1,3.496142E-2,1.8117574E-1,3.367305E-1,3.8222264E-2,-3.0350858E-2,-1.5157513E-2,-3.1077057E-1,-4.9895126E-2,-1.8789043E-1,-6.8283536E-2,-4.696907E-2,7.4103594E-2,2.8451093E-2,2.0292516E-1,1.543363E-3,3.4628522E-1,-2.3763467E-1,-3.541313E-1,-6.953478E-5,-3.6725998E-3,-1.9946028E-1,-2.079606E-3,-1.587185E-1,6.534393E-3,-2.7499318E-3,-9.616326E-2,4.7656212E-2,1.2980399E-1,-1.0275823E-2,1.0406935E-1,1.6786647E-1,3.0842414E-1,-3.6213517E-3,3.737104E-3,2.8723794E-1,4.1130477E-1,-1.3172555E-2,-5.598708E-3,-1.8539384E-2,-6.6173854E-3,-1.130127E-2,-5.940017E-3,4.8814618E-4,-9.4017986E-4,-1.9675493E-3,-8.380461E-3,2.94055E-3,-1.1617105E-3,-1.0941158E-3,5.4656984E-3,-9.722169E-3,-2.7332315E-3,2.7160791E-3,-6.794554E-3,7.1422034E-3,4.5361775E-3,2.3267164E-3,1.0375291E-2,-7.164717E-4,8.6527215E-3,1.7144594E-2,7.6808454E-3,1.5138394E-2,5.8987476E-3,2.1856546E-2,1.1542034E-2],"categories":[],"categories_nodes":[],"categories_segments":[],"categories_sizes":[],"default_left":[0,0,0,0,0,0,0,0,0,0,0,0,0,0,0,0,0,0,0,0,0,0,0,0,0,0,0,0,0,0,0,0,0,0,0,0,0,0,0,0,0,0,0,0,0,0,0,0,0,0,0,0,0,0,0,0,0,0,0,0,0,0,0,0,0,0,0,0,0,0,0,0,0,0,0,0,0],"id":12,"left_children":[1,3,5,7,9,11,13,-1,15,17,19,21,23,25,-1,-1,-1,27,29,31,33,35,37,39,41,43,45,47,49,-1,-1,51,53,55,57,59,61,63,65,-1,67,69,71,-1,-1,73,75,-1,-1,-1,-1,-1,-1,-1,-1,-1,-1,-1,-1,-1,-1,-1,-1,-1,-1,-1,-1,-1,-1,-1,-1,-1,-1,-1,-1,-1,-1],"loss_changes":[3.3806744E1,8.235741E0,7.5302944E0,4.499836E-1,6.84134E-1,1.5868139E0,2.1005306E0,0E0,6.942463E-2,1.0393953E-1,1.9650137E-1,7.3145545E-1,3.629322E-1,2.300539E-1,0E0,0E0,0E0,1.02948666E-1,3.3256882E-3,1.09225154E-1,1.4989257E-1,1.607096E-1,2.2067595E-1,2.8677124E-1,3.0699563E-1,2.1656962E-2,1.506033E-1,5.160284E-2,8.02207E-2,0E0,0E0,7.599974E-2,9.757955E-4,4.017025E-3,2.1597045E-2,8.8154025E-2,1.3211793E-1,1.370633E-1,1.2011588E-2,0E0,6.1758503E-2,7.337165E-2,7.005072E-2,0E0,0E0,6.94263E-2,4.3573856E-2,0E0,0E0,0E0,0E0,0E0,0E0,0E0,0E0,0E0,0E0,0E0,0E0,0E0,0E0,0E0,0E0,0E0,0E0,0E0,0E0,0E0,0E0,0E0,0E0,0E0,0E0,0E0,0E0,0E0,0E0],"parents":[2147483647,0,0,1,1,2,2,3,3,4,4,5,5,6,6,8,8,9,9,10,10,11,11,12,12,13,13,17,17,18,18,19,19,20,20,21,21,22,22,23,23,24,24,25,25,26,26,27,27,28,28,31,31,32,32,33,33,34,34,35,35,36,36,37,37,38,38,40,40,41,41,42,42,45,45,46,46],"right_children":[2,4,6,8,10,12,14,-1,16,18,20,22,24,26,-1,-1,-1,28,30,32,34,36,38,40,42,44,46,48,50,-1,-1,52,54,56,58,60,62,64,66,-1,68,70,72,-1,-1,74,76,-1,-1,-1,-1,-1,-1,-1,-1,-1,-1,-1,-1,-1,-1,-1,-1,-1,-1,-1,-1,-1,-1,-1,-1,-1,-1,-1,-1,-1,-1],"split_conditions":[-2.4666406E-1,-1.4045292E0,9.0048015E-1,-2.5838363E0,-7.255342E-1,2.6736093E-1,3.0219743E0,-4.2484026E-2,-1.1923971E0,1.0993602E0,5.477844E-1,1.248593E-1,-1.1965498E0,-1.1923971E0,3.8222264E-2,-3.0350858E-2,-1.5157513E-2,-9.458136E-2,-1.2457892E0,1.0086161E0,-7.2360504E-1,-1.0777691E-1,3.6846828E-1,2.1723048E-1,8.914227E-1,-1.271002E0,9.6358E-1,4.8029542E-1,1.1571463E0,-6.953478E-5,-3.6725998E-3,-1.7705815E-1,-6.7330766E-1,6.209981E-1,-2.1548133E-1,7.1639776E-1,-4.145192E-1,3.1608167E0,1.2319609E-1,-1.0275823E-2,9.8604105E-2,-6.989358E-1,8.561714E-2,-3.6213517E-3,3.737104E-3,9.612185E-1,1.6531489E0,-1.3172555E-2,-5.598708E-3,-1.8539384E-2,-6.6173854E-3,-1.130127E-2,-5.940017E-3,4.8814618E-4,-9.4017986E-4,-1.9675493E-3,-8.380461E-3,2.94055E-3,-1.1617105E-3,-1.0941158E-3,5.4656984E-3,-9.722169E-3,-2.7332315E-3,2.7160791E-3,-6.794554E-3,7.1422034E-3,4.5361775E-3,2.3267164E-3,1.0375291E-2,-7.164717E-4,8.6527215E-3,1.7144594E-2,7.6808454E-3,1.5138394E-2,5.8987476E-3,2.1856546E-2,1.1542034E-2],"split_indices":[18,18,18,18,18,15,15,0,0,6,5,19,0,0,0,0,0,22,0,17,16,22,19,8,15,0,14,1,9,0,0,0,0,5,22,5,6,20,6,0,13,17,24,0,0,14,13,0,0,0,0,0,0,0,0,0,0,0,0,0,0,0,0,0,0,0,0,0,0,0,0,0,0,0,0,0,0],"split_type":[0,0,0,0,0,0,0,0,0,0,0,0,0,0,0,0,0,0,0,0,0,0,0,0,0,0,0,0,0,0,0,0,0,0,0,0,0,0,0,0,0,0,0,0,0,0,0,0,0,0,0,0,0,0,0,0,0,0,0,0,0,0,0,0,0,0,0,0,0,0,0,0,0,0,0,0,0],"sum_hessian":[6.05E2,1.84E2,4.21E2,5.3E1,1.31E2,3.36E2,8.5E1,1.9E1,3.4E1,6E1,7.1E1,2.26E2,1.1E2,7.1E1,1.4E1,3E1,4E0,5.8E1,2E0,5E1,2.1E1,7.3E1,1.53E2,1.4E1,9.6E1,2E0,6.9E1,2.4E1,3.4E1,1E0,1E0,4.7E1,3E0,9E0,1.2E1,3.9E1,3.4E1,1.05E2,4.8E1,3E0,1.1E1,7.4E1,2.2E1,1E0,1E0,3.9E1,3E1,1.9E1,5E0,3.1E1,3E0,3.4E1,1.3E1,2E0,1E0,1E0,8E0,4E0,8E0,3.4E1,5E0,9E0,2.5E1,1.02E2,3E0,3.4E1,1.4E1,8E0,3E0,2E0,7.2E1,1.7E1,5E0,3.5E1,4E0,2.5E1,5E0],"tree_param":{"num_deleted":"0","num_feature":"25","num_nodes":"77","size_leaf_vector":"1"}},{"base_weights":[1.0574424E-2,-3.3258432E-1,1.432807E-1,-6.756461E-1,-2.1273734E-1,7.890683E-2,3.9909053E-1,-4.444253E-2,-5.494217E-1,-3.21766E-1,-1.674706E-1,-1.8715689E-2,1.2694384E-1,3.1264138E-1,6.644182E-1,-5.682737E-1,-5.391598E-4,-3.4369162E-1,-6.59194E-2,-1.8177474E-1,2.60599E-2,-3.7539866E-2,9.7752124E-2,9.535642E-2,2.1580683E-1,3.1962407E-1,-3.5308122E-3,6.8836015E-1,5.2380445E-3,-8.180452E-3,-2.8860083E-2,-3.8928867E-3,-3.4975538E-1,-6.7794324E-5,-4.3494306E-3,-1.8855175E-1,6.179619E-2,-4.0199637E-2,8.580446E-2,5.843809E-3,-7.299775E-2,3.2025695E-2,1.1797257E-2,2.5881981E-2,1.15842074E-1,3.088206E-1,1.8548799E-1,1.9409716E-2,2.6395684E-1,1.4501603E-2,3.590808E-2,-1.7745752E-2,-4.874134E-3,-1.8630164E-3,-1.0007913E-2,4.311085E-4,4.203606E-3,-4.5870544E-4,-2.3741722E-3,5.2900235E-3,6.45411E-4,7.233986E-4,-5.985856E-3,1.420943E-3,-4.562661E-3,4.018006E-3,-2.5857259E-3,-4.423897E-3,2.2373528E-3,6.201443E-3,1.216038E-3,1.9586326E-3,1.771432E-2,3.2021557E-3,1.0084919E-2,8.306501E-3,1.4598081E-2],"categories":[],"categories_nodes":[],"categories_segments":[],"categories_sizes":[],"default_left":[0,0,0,0,0,0,0,0,0,0,0,0,0,0,0,0,0,0,0,0,0,0,0,0,0,0,0,0,0,0,0,0,0,0,0,0,0,0,0,0,0,0,0,0,0,0,0,0,0,0,0,0,0,0,0,0,0,0,0,0,0,0,0,0,0,0,0,0,0,0,0,0,0,0,0,0,0],"id":13,"left_children":[1,3,5,7,9,11,13,-1,15,17,19,21,23,25,27,29,-1,31,33,35,37,39,41,43,45,47,-1,49,-1,-1,-1,-1,51,-1,-1,53,55,57,59,61,63,65,-1,67,69,71,73,-1,75,-1,-1,-1,-1,-1,-1,-1,-1,-1,-1,-1,-1,-1,-1,-1,-1,-1,-1,-1,-1,-1,-1,-1,-1,-1,-1,-1,-1],"loss_changes":[2.6779234E1,6.5991116E0,6.950717E0,6.4193535E-1,5.531635E-1,1.5968034E0,1.741951E0,0E0,2.883501E-1,1.7368007E-1,2.511146E-1,2.5141203E-1,6.194067E-1,1.9919729E-1,1.958723E-1,6.723404E-3,0E0,2.435112E-2,5.323263E-3,1.4865828E-1,3.1159837E-2,1.511793E-1,1.3777062E-1,2.3895085E-1,1.0910177E-1,1.4564562E-1,0E0,1.7253876E-2,0E0,0E0,0E0,0E0,5.7530403E-3,0E0,0E0,1.3477516E-1,2.8286176E-3,4.6831788E-4,4.4648387E-3,5.046067E-2,1.0256937E-1,5.27262E-2,0E0,9.025545E-2,9.513724E-2,1.454984E-1,7.960987E-2,0E0,5.8341265E-2,0E0,0E0,0E0,0E0,0E0,0E0,0E0,0E0,0E0,0E0,0E0,0E0,0E0,0E0,0E0,0E0,0E0,0E0,0E0,0E0,0E0,0E0,0E0,0E0,0E0,0E0,0E0,0E0],"parents":[2147483647,0,0,1,1,2,2,3,3,4,4,5,5,6,6,8,8,9,9,10,10,11,11,12,12,13,13,14,14,15,15,17,17,18,18,19,19,20,20,21,21,22,22,23,23,24,24,25,25,27,27,32,32,35,35,36,36,37,37,38,38,39,39,40,40,41,41,43,43,44,44,45,45,46,46,48,48],"right_children":[2,4,6,8,10,12,14,-1,16,18,20,22,24,26,28,30,-1,32,34,36,38,40,42,44,46,48,-1,50,-1,-1,-1,-1,52,-1,-1,54,56,58,60,62,64,66,-1,68,70,72,74,-1,76,-1,-1,-1,-1,-1,-1,-1,-1,-1,-1,-1,-1,-1,-1,-1,-1,-1,-1,-1,-1,-1,-1,-1,-1,-1,-1,-1,-1],"split_conditions":[-3.1456357E-1,-1.4760025E0,9.0048015E-1,-2.6017046E0,-8.8634884E-1,1.3214369E-1,1.5973434E0,-4.444253E-2,1.4784688E0,1.1500022E0,1.1554974E0,2.6736093E-1,5.425607E-1,-8.3506435E-2,2.3574525E-1,-1.6547589E0,-5.391598E-4,-2.0643601E-1,-1.6503447E0,1.2982829E0,-7.076659E-1,-4.594155E-1,2.1734945E-2,2.7509E-1,-7.440175E-1,-7.343325E-1,-3.5308122E-3,-1.3378992E0,5.2380445E-3,-8.180452E-3,-2.8860083E-2,-3.8928867E-3,3.2581325E0,-6.7794324E-5,-4.3494306E-3,-1.4618952E0,-1.3265953E0,1.2040889E0,-7.2303355E-1,1.0993602E0,-1.3124825E0,7.414555E-1,1.1797257E-2,-4.4400612E-1,4.3705234E-1,-1.0113614E0,-6.3800836E-1,1.9409716E-2,-6.7843676E-1,1.4501603E-2,3.590808E-2,-1.7745752E-2,-4.874134E-3,-1.8630164E-3,-1.0007913E-2,4.311085E-4,4.203606E-3,-4.5870544E-4,-2.3741722E-3,5.2900235E-3,6.45411E-4,7.233986E-4,-5.985856E-3,1.420943E-3,-4.562661E-3,4.018006E-3,-2.5857259E-3,-4.423897E-3,2.2373528E-3,6.201443E-3,1.216038E-3,1.9586326E-3,1.771432E-2,3.2021557E-3,1.0084919E-2,8.306501E-3,1.4598081E-2],"split_indices":[18,18,18,18,18,18,18,0,3,7,2,15,15,20,23,15,0,22,1,3,18,23,11,18,10,10,0,4,0,0,0,0,10,0,0,2,1,2,3,6,9,23,0,16,23,16,16,0,10,0,0,0,0,0,0,0,0,0,0,0,0,0,0,0,0,0,0,0,0,0,0,0,0,0,0,0,0],"split_type":[0,0,0,0,0,0,0,0,0,0,0,0,0,0,0,0,0,0,0,0,0,0,0,0,0,0,0,0,0,0,0,0,0,0,0,0,0,0,0,0,0,0,0,0,0,0,0,0,0,0,0,0,0,0,0,0,0,0,0,0,0,0,0,0,0,0,0,0,0,0,0,0,0,0,0,0,0],"sum_hessian":[5.86E2,1.63E2,4.23E2,4.1E1,1.22E2,3.39E2,8.4E1,1.3E1,2.8E1,3.4E1,8.8E1,1.12E2,2.27E2,6.5E1,1.9E1,2.7E1,1E0,3.1E1,3E0,8.2E1,6E0,9.7E1,1.5E1,1.69E2,5.8E1,6.4E1,1E0,1.8E1,1E0,1E0,2.6E1,1E0,3E1,1E0,2E0,8E1,2E0,3E0,3E0,4.4E1,5.3E1,1.1E1,4E0,3.9E1,1.3E2,1.2E1,4.6E1,2.6E1,3.8E1,2E0,1.6E1,2.9E1,1E0,6E0,7.4E1,1E0,1E0,1E0,2E0,2E0,1E0,4.2E1,2E0,8E0,4.5E1,7E0,4E0,5E0,3.4E1,1.19E2,1.1E1,2E0,1E1,6E0,4E1,1E1,2.8E1],"tree_param":{"num_deleted":"0","num_feature":"25","num_nodes":"77","size_leaf_vector":"1"}},{"base_weights":[5.7748305E-3,-3.9891058E-1,1.09973274E-1,-6.605736E-1,-2.6476946E-1,4.366708E-2,3.2674065E-1,-6.8559754E-1,-1.2341261E-1,-3.5747567E-1,-2.1946377E-1,-5.1422164E-2,9.811017E-2,2.699246E-1,6.4011353E-1,-3.468217E-2,-9.697533E-3,-5.256772E-4,-8.730269E-3,-3.7226033E-1,-6.610155E-5,-2.3006846E-1,-2.1434546E-2,-1.0141156E-1,-2.157496E-3,7.1851045E-2,1.8345916E-1,1.7762205E-1,3.026047E-1,5.107093E-3,3.345844E-2,-9.876013E-3,-3.9733234E-1,-1.8309355E-4,-2.3427118E-1,-3.560384E-2,5.268335E-4,-1.2608235E-1,6.610473E-2,-1.8452674E-2,1.0179663E-2,-6.164178E-2,8.0264114E-2,-4.011612E-2,2.025289E-1,4.883776E-2,1.9789594E-1,-3.4425377E-3,3.0917645E-1,-7.1246387E-3,-2.088658E-2,-1.1876859E-2,-1.6109825E-3,-2.2230507E-3,-4.472375E-4,-9.710092E-3,-5.0771227E-3,-3.273797E-3,7.1403864E-3,-1.6004315E-3,3.321979E-3,-6.5672467E-3,2.4135495E-3,5.161373E-4,4.749694E-3,-7.783079E-3,1.3842821E-3,8.326531E-3,1.36511475E-2,6.0900613E-3,-2.020248E-3,3.1077862E-3,1.1160074E-2,1.1101149E-2,1.6833045E-2],"categories":[],"categories_nodes":[],"categories_segments":[],"categories_sizes":[],"default_left":[0,0,0,0,0,0,0,0,0,0,0,0,0,0,0,0,0,0,0,0,0,0,0,0,0,0,0,0,0,0,0,0,0,0,0,0,0,0,0,0,0,0,0,0,0,0,0,0,0,0,0,0,0,0,0,0,0,0,0,0,0,0,0,0,0,0,0,0,0,0,0,0,0,0,0],"id":14,"left_children":[1,3,5,7,9,11,13,15,17,19,21,23,25,27,29,-1,-1,-1,-1,31,-1,33,35,37,39,41,43,45,47,-1,-1,-1,49,-1,51,53,-1,55,57,59,-1,61,63,65,67,69,71,-1,73,-1,-1,-1,-1,-1,-1,-1,-1,-1,-1,-1,-1,-1,-1,-1,-1,-1,-1,-1,-1,-1,-1,-1,-1,-1,-1],"loss_changes":[2.471191E1,4.037075E0,6.6835594E0,4.5306396E-1,2.617569E-1,1.858394E0,1.7679186E0,1.5785217E-2,1.5503123E-2,1.3114786E-1,1.1477065E-1,3.223963E-1,4.978094E-1,2.2979784E-1,1.8174505E-1,0E0,0E0,0E0,0E0,2.6664972E-2,0E0,5.0524235E-2,2.1871845E-3,2.76964E-1,2.2839078E-1,2.0261055E-1,2.3409152E-1,6.083107E-2,1.8728209E-1,0E0,0E0,0E0,4.4446945E-2,0E0,2.7321577E-2,3.1067966E-4,0E0,7.556403E-2,1.0018416E-1,7.462676E-2,0E0,9.061408E-2,1.7003584E-1,4.3480523E-2,7.887864E-2,3.7478656E-2,6.513131E-2,0E0,8.574247E-2,0E0,0E0,0E0,0E0,0E0,0E0,0E0,0E0,0E0,0E0,0E0,0E0,0E0,0E0,0E0,0E0,0E0,0E0,0E0,0E0,0E0,0E0,0E0,0E0,0E0,0E0],"parents":[2147483647,0,0,1,1,2,2,3,3,4,4,5,5,6,6,7,7,8,8,9,9,10,10,11,11,12,12,13,13,14,14,19,19,21,21,22,22,23,23,24,24,25,25,26,26,27,27,28,28,32,32,34,34,35,35,37,37,38,38,39,39,41,41,42,42,43,43,44,44,45,45,46,46,48,48],"right_children":[2,4,6,8,10,12,14,16,18,20,22,24,26,28,30,-1,-1,-1,-1,32,-1,34,36,38,40,42,44,46,48,-1,-1,-1,50,-1,52,54,-1,56,58,60,-1,62,64,66,68,70,72,-1,74,-1,-1,-1,-1,-1,-1,-1,-1,-1,-1,-1,-1,-1,-1,-1,-1,-1,-1,-1,-1,-1,-1,-1,-1,-1,-1],"split_conditions":[-5.825879E-1,-1.6546853E0,7.217973E-1,6.28287E-1,-1.1007683E0,4.280224E-2,1.7045532E0,2.0289273E0,-1.2801974E0,7.519499E-1,1.1554974E0,-3.911523E-2,5.050011E-1,-3.83512E-1,-6.991138E-1,-3.468217E-2,-9.697533E-3,-5.256772E-4,-8.730269E-3,-8.4823227E-1,-6.610155E-5,-1.6510546E0,-6.8012995E-1,9.682085E-1,6.28287E-1,-6.684457E-1,-1.2208729E0,-3.1275663E-1,-1.271002E0,5.107093E-3,3.345844E-2,-9.876013E-3,-1.6432E-1,-1.8309355E-4,1.312773E0,-1.2885028E0,5.268335E-4,-7.816332E-1,-7.055827E-1,7.53929E-1,1.0179663E-2,8.7213767E-1,-5.4021513E-1,-8.693703E-1,9.149633E-1,-1.1882443E0,-6.317856E-1,-3.4425377E-3,2.6736093E-1,-7.1246387E-3,-2.088658E-2,-1.1876859E-2,-1.6109825E-3,-2.2230507E-3,-4.472375E-4,-9.710092E-3,-5.0771227E-3,-3.273797E-3,7.1403864E-3,-1.6004315E-3,3.321979E-3,-6.5672467E-3,2.4135495E-3,5.161373E-4,4.749694E-3,-7.783079E-3,1.3842821E-3,8.326531E-3,1.36511475E-2,6.0900613E-3,-2.020248E-3,3.1077862E-3,1.1160074E-2,1.1101149E-2,1.6833045E-2],"split_indices":[18,18,18,15,18,18,18,6,0,3,2,19,15,7,0,0,0,0,0,24,0,1,0,5,15,16,0,16,0,0,0,0,22,0,7,0,0,16,16,5,0,2,15,1,15,0,3,0,15,0,0,0,0,0,0,0,0,0,0,0,0,0,0,0,0,0,0,0,0,0,0,0,0,0,0],"split_type":[0,0,0,0,0,0,0,0,0,0,0,0,0,0,0,0,0,0,0,0,0,0,0,0,0,0,0,0,0,0,0,0,0,0,0,0,0,0,0,0,0,0,0,0,0,0,0,0,0,0,0,0,0,0,0,0,0,0,0,0,0,0,0,0,0,0,0,0,0,0,0,0,0,0,0],"sum_hessian":[5.84E2,1.19E2,4.65E2,3.9E1,8E1,3.57E2,1.08E2,3.7E1,2E0,2.4E1,5.6E1,1.3E2,2.27E2,9.3E1,1.5E1,3.6E1,1E0,1E0,1E0,2.3E1,1E0,5.3E1,3E0,6.4E1,6.6E1,1.75E2,5.2E1,2.6E1,6.7E1,1E0,1.4E1,4E0,1.9E1,1E0,5.2E1,2E0,1E0,5.6E1,8E0,6.2E1,4E0,1E1,1.65E2,4E0,4.8E1,4E0,2.2E1,1E0,6.6E1,2E0,1.7E1,5.1E1,1E0,1E0,1E0,1.3E1,4.3E1,3E0,5E0,5.4E1,8E0,6E0,4E0,2.9E1,1.36E2,1E0,3E0,3.4E1,1.4E1,2E0,2E0,4E0,1.8E1,1.8E1,4.8E1],"tree_param":{"num_deleted":"0","num_feature":"25","num_nodes":"75","size_leaf_vector":"1"}},{"base_weights":[2.563663E-3,-2.8771946E-1,1.2379751E-1,-6.22436E-1,-1.8393356E-1,5.6182735E-2,2.9784435E-1,-6.7469513E-1,-1.8082976E-2,-2.3846237E-1,-1.1387462E-1,-2.0943394E-2,9.962444E-2,2.4949987E-1,5.675472E-1,-2.4003202E-2,-7.38445E-1,-2.708819E-1,-1.5828414E-1,-1.2800527E-1,6.998968E-2,-2.7034553E-2,1.0265971E-2,2.401153E-1,9.068409E-2,2.1548066E-1,3.5550067E-1,1.8462721E-2,3.347134E-2,-3.7674215E-2,-1.0189498E-2,-2.8705096E-1,-1.2593052E-1,-9.495417E-2,-2.0456688E-1,-6.210804E-3,-1.4493228E-1,1.4458537E-3,5.857003E-3,5.462529E-3,-7.442718E-2,8.113193E-3,1.8576445E-2,6.426732E-2,1.24981485E-1,2.1996449E-1,-3.3564686E-3,4.97942E-3,1.8130315E-2,-1.4894679E-2,-6.928148E-3,-1.6972304E-3,-7.796798E-3,-6.4444546E-5,-5.167601E-3,-4.7038365E-3,-1.2161032E-2,2.5677562E-3,-2.5510693E-3,-9.409511E-3,-4.7073364E-3,-8.005023E-4,5.0816955E-3,-2.8982335E-3,-8.45145E-3,7.1480195E-3,-6.4719203E-3,1.5927283E-3,4.8039528E-3,-1.8082332E-3,6.702907E-3,7.888257E-3,1.2316356E-2],"categories":[],"categories_nodes":[],"categories_segments":[],"categories_sizes":[],"default_left":[0,0,0,0,0,0,0,0,0,0,0,0,0,0,0,0,0,0,0,0,0,0,0,0,0,0,0,0,0,0,0,0,0,0,0,0,0,0,0,0,0,0,0,0,0,0,0,0,0,0,0,0,0,0,0,0,0,0,0,0,0,0,0,0,0,0,0,0,0,0,0,0,0],"id":15,"left_children":[1,3,5,7,9,11,13,15,-1,17,19,21,23,25,27,-1,29,31,33,35,37,39,-1,41,43,45,47,-1,-1,-1,-1,49,51,53,55,57,59,-1,-1,61,63,65,-1,67,69,71,-1,-1,-1,-1,-1,-1,-1,-1,-1,-1,-1,-1,-1,-1,-1,-1,-1,-1,-1,-1,-1,-1,-1,-1,-1,-1,-1],"loss_changes":[2.0904558E1,5.964813E0,4.914116E0,3.1473732E-1,4.885764E-1,1.0172853E0,1.3839188E0,5.495262E-2,0E0,1.5207434E-1,1.6744453E-1,1.5715297E-1,2.2189641E-1,2.8760862E-1,9.624481E-2,0E0,3.1386375E-2,8.572531E-2,5.092156E-2,1.1661202E-1,6.2955953E-3,1.6673976E-1,0E0,3.3235627E-1,1.5867662E-1,1.1487317E-1,5.7122707E-3,0E0,0E0,0E0,0E0,3.2782793E-2,1.4027357E-2,9.305827E-3,3.26398E-2,2.3256712E-2,9.212649E-2,0E0,0E0,1.3585523E-1,5.872719E-2,1.11246794E-1,0E0,1.0623664E-1,1.20399E-1,8.903766E-2,0E0,0E0,0E0,0E0,0E0,0E0,0E0,0E0,0E0,0E0,0E0,0E0,0E0,0E0,0E0,0E0,0E0,0E0,0E0,0E0,0E0,0E0,0E0,0E0,0E0,0E0,0E0],"parents":[2147483647,0,0,1,1,2,2,3,3,4,4,5,5,6,6,7,7,9,9,10,10,11,11,12,12,13,13,14,14,16,16,17,17,18,18,19,19,20,20,21,21,23,23,24,24,25,25,26,26,31,31,32,32,33,33,34,34,35,35,36,36,39,39,40,40,41,41,43,43,44,44,45,45],"right_children":[2,4,6,8,10,12,14,16,-1,18,20,22,24,26,28,-1,30,32,34,36,38,40,-1,42,44,46,48,-1,-1,-1,-1,50,52,54,56,58,60,-1,-1,62,64,66,-1,68,70,72,-1,-1,-1,-1,-1,-1,-1,-1,-1,-1,-1,-1,-1,-1,-1,-1,-1,-1,-1,-1,-1,-1,-1,-1,-1,-1,-1],"split_conditions":[-2.7882698E-1,-1.4760025E0,7.0392895E-1,3.728379E-2,-6.183245E-1,1.3214369E-1,3.5584595E0,-9.189702E-1,-1.8082976E-2,-1.0826259E-1,1.1554974E0,2.3274217E0,-8.199895E-1,1.3471874E0,1.8296312E0,-2.4003202E-2,4.115228E-1,1.6578125E0,6.4368874E-1,-7.328519E-1,9.219009E-1,-1.0777691E-1,1.0265971E-2,-6.642117E-1,4.3590462E-1,2.318327E0,-1.084811E0,1.8462721E-2,3.347134E-2,-3.7674215E-2,-1.0189498E-2,1.4074117E-1,-9.040831E-1,-1.6503447E0,-6.158987E-1,-3.706558E-2,2.8718704E-1,1.4458537E-3,5.857003E-3,7.53929E-1,7.3728955E-1,-1.0248553E0,1.8576445E-2,5.6645757E-1,-1.5322508E0,-4.2437613E-1,-3.3564686E-3,4.97942E-3,1.8130315E-2,-1.4894679E-2,-6.928148E-3,-1.6972304E-3,-7.796798E-3,-6.4444546E-5,-5.167601E-3,-4.7038365E-3,-1.2161032E-2,2.5677562E-3,-2.5510693E-3,-9.409511E-3,-4.7073364E-3,-8.005023E-4,5.0816955E-3,-2.8982335E-3,-8.45145E-3,7.1480195E-3,-6.4719203E-3,1.5927283E-3,4.8039528E-3,-1.8082332E-3,6.702907E-3,7.888257E-3,1.2316356E-2],"split_indices":[18,18,18,11,18,18,14,11,0,17,2,3,10,18,18,0,4,12,11,10,1,22,0,16,18,14,16,0,0,0,0,16,16,1,10,22,8,0,0,5,5,1,0,5,12,7,0,0,0,0,0,0,0,0,0,0,0,0,0,0,0,0,0,0,0,0,0,0,0,0,0,0,0],"split_type":[0,0,0,0,0,0,0,0,0,0,0,0,0,0,0,0,0,0,0,0,0,0,0,0,0,0,0,0,0,0,0,0,0,0,0,0,0,0,0,0,0,0,0,0,0,0,0,0,0,0,0,0,0,0,0,0,0,0,0,0,0,0,0,0,0,0,0,0,0,0,0,0,0],"sum_hessian":[5.92E2,1.74E2,4.18E2,4E1,1.34E2,3.02E2,1.16E2,3.2E1,8E0,7.4E1,6E1,1.09E2,1.93E2,1E2,1.6E1,1E1,2.2E1,5.1E1,2.3E1,5.6E1,4E0,1.07E2,2E0,1E1,1.83E2,7.8E1,2.2E1,7E0,9E0,2.1E1,1E0,4.5E1,6E0,1.1E1,1.2E1,7E0,4.9E1,3E0,1E0,6.4E1,4.3E1,4E0,6E0,1.05E2,7.8E1,7.7E1,1E0,1E0,2.1E1,4.1E1,4E0,2E0,4E0,1E0,1E1,4E0,8E0,3E0,4E0,2.5E1,2.4E1,5.3E1,1.1E1,3.8E1,5E0,2E0,2E0,5.3E1,5.2E1,4E0,7.4E1,2.5E1,5.2E1],"tree_param":{"num_deleted":"0","num_feature":"25","num_nodes":"73","size_leaf_vector":"1"}},{"base_weights":[4.65552E-4,-3.689583E-1,1.0092189E-1,-6.958025E-1,-2.5724417E-1,3.6804132E-2,3.0470225E-1,-3.5823744E-2,-1.3201785E-2,-3.455202E-1,-1.9388041E-1,-4.95193E-2,8.97866E-2,2.4391365E-1,5.478205E-1,-3.6457875E-1,-8.2198785E-5,-2.04089E-1,-7.594466E-3,-5.685474E-2,1.0063112E-2,7.191353E-2,2.1223459E-1,3.216635E-1,1.989279E-1,1.7847816E-2,3.0887788E-2,-3.7158364E-1,-2.9851913E-3,-2.955143E-1,-1.7659429E-1,-3.1268757E-2,1.5857101E-3,-6.6454194E-2,9.7843766E-2,3.7919287E-2,1.0212916E-1,-9.958935E-2,2.4116407E-1,1.0572127E-2,1.725006E-2,4.4289827E-2,2.1242605E-1,-1.8878466E-2,-4.2018057E-3,-1.5468843E-2,-3.9222124E-3,-9.675235E-3,-4.466555E-3,-2.0382882E-3,-3.0686855E-4,-5.4657343E-3,-1.566347E-3,-2.25482E-3,6.2353066E-3,2.9338028E-3,2.2888316E-4,-2.4399902E-3,5.44631E-3,-7.426703E-3,-4.249811E-5,1.7189782E-2,8.63218E-3,4.8215273E-3,-1.99972E-3,2.7754963E-3,1.10284E-2],"categories":[],"categories_nodes":[],"categories_segments":[],"categories_sizes":[],"default_left":[0,0,0,0,0,0,0,0,0,0,0,0,0,0,0,0,0,0,0,0,0,0,0,0,0,0,0,0,0,0,0,0,0,0,0,0,0,0,0,0,0,0,0,0,0,0,0,0,0,0,0,0,0,0,0,0,0,0,0,0,0,0,0,0,0,0,0],"id":16,"left_children":[1,3,5,7,9,11,13,-1,-1,15,17,19,21,23,25,27,-1,29,31,33,-1,35,37,39,41,-1,-1,43,-1,45,47,49,-1,51,53,55,57,59,61,-1,-1,63,65,-1,-1,-1,-1,-1,-1,-1,-1,-1,-1,-1,-1,-1,-1,-1,-1,-1,-1,-1,-1,-1,-1,-1,-1],"loss_changes":[2.1524487E1,4.3486347E0,5.9468536E0,8.75206E-2,4.5879936E-1,1.5960689E0,1.4772711E0,0E0,0E0,2.4844456E-1,1.0684776E-1,2.561085E-1,4.574579E-1,2.4730158E-1,5.979824E-2,5.4697514E-2,0E0,8.355427E-2,4.714083E-3,1.9955489E-1,0E0,1.9128728E-1,2.6758194E-1,6.793499E-3,1.1374402E-1,0E0,0E0,2.851057E-2,0E0,8.831859E-3,4.7642827E-2,4.6582427E-4,0E0,1.8176079E-1,3.634148E-2,6.270927E-2,1.0790253E-1,1.4372064E-2,1.1645484E-1,0E0,0E0,3.0224517E-2,5.674696E-2,0E0,0E0,0E0,0E0,0E0,0E0,0E0,0E0,0E0,0E0,0E0,0E0,0E0,0E0,0E0,0E0,0E0,0E0,0E0,0E0,0E0,0E0,0E0,0E0],"parents":[2147483647,0,0,1,1,2,2,3,3,4,4,5,5,6,6,9,9,10,10,11,11,12,12,13,13,14,14,15,15,17,17,18,18,19,19,21,21,22,22,23,23,24,24,27,27,29,29,30,30,31,31,33,33,34,34,35,35,36,36,37,37,38,38,41,41,42,42],"right_children":[2,4,6,8,10,12,14,-1,-1,16,18,20,22,24,26,28,-1,30,32,34,-1,36,38,40,42,-1,-1,44,-1,46,48,50,-1,52,54,56,58,60,62,-1,-1,64,66,-1,-1,-1,-1,-1,-1,-1,-1,-1,-1,-1,-1,-1,-1,-1,-1,-1,-1,-1,-1,-1,-1,-1,-1],"split_conditions":[-5.825879E-1,-2.1549973E0,7.217973E-1,1.672889E0,-1.0471635E0,6.067053E-2,1.508002E0,-3.5823744E-2,-1.3201785E-2,1.4784688E0,1.1554974E0,1.0158491E0,7.969664E-1,-7.328519E-1,1.6692134E0,9.0849125E-1,-8.2198785E-5,-1.2321445E0,-6.8012995E-1,1.123285E0,1.0063112E-2,3.6443147E-1,-1.2208729E0,-3.545956E-1,-7.124618E-1,1.7847816E-2,3.0887788E-2,1.6979778E0,-2.9851913E-3,-7.07428E-1,-3.7510058E-1,-1.2885028E0,1.5857101E-3,-2.0735382E-1,-1.291469E0,-1.3072658E-1,-7.829411E-1,-1.2279918E0,-8.199895E-1,1.0572127E-2,1.725006E-2,-1.337323E-1,-6.117363E-1,-1.8878466E-2,-4.2018057E-3,-1.5468843E-2,-3.9222124E-3,-9.675235E-3,-4.466555E-3,-2.0382882E-3,-3.0686855E-4,-5.4657343E-3,-1.566347E-3,-2.25482E-3,6.2353066E-3,2.9338028E-3,2.2888316E-4,-2.4399902E-3,5.44631E-3,-7.426703E-3,-4.249811E-5,1.7189782E-2,8.63218E-3,4.8215273E-3,-1.99972E-3,2.7754963E-3,1.10284E-2],"split_indices":[18,18,18,21,18,18,18,0,0,3,2,14,15,10,14,5,0,0,0,2,0,18,0,7,0,0,0,8,0,16,15,0,0,18,0,22,16,0,10,0,0,22,14,0,0,0,0,0,0,0,0,0,0,0,0,0,0,0,0,0,0,0,0,0,0,0,0],"split_type":[0,0,0,0,0,0,0,0,0,0,0,0,0,0,0,0,0,0,0,0,0,0,0,0,0,0,0,0,0,0,0,0,0,0,0,0,0,0,0,0,0,0,0,0,0,0,0,0,0,0,0,0,0,0,0,0,0,0,0,0,0,0,0,0,0,0,0],"sum_hessian":[5.78E2,1.23E2,4.55E2,3E1,9.3E1,3.47E2,1.08E2,2.8E1,2E0,3.7E1,5.6E1,1.32E2,2.15E2,8.8E1,2E1,3.5E1,2E0,5.3E1,3E0,1.29E2,3E0,1.89E2,2.6E1,3E1,5.8E1,7E0,1.3E1,3.4E1,1E0,1E1,4.3E1,2E0,1E0,1.22E2,7E0,9E1,9.9E1,2E0,2.4E1,7E0,2.3E1,5E0,5.3E1,3.3E1,1E0,9E0,1E0,3.5E1,8E0,1E0,1E0,5.4E1,6.8E1,1E0,6E0,5.5E1,3.5E1,4E0,9.5E1,1E0,1E0,8E0,1.6E1,3E0,2E0,3E0,5E1],"tree_param":{"num_deleted":"0","num_feature":"25","num_nodes":"67","size_leaf_vector":"1"}},{"base_weights":[6.165281E-3,-2.4481072E-1,1.1955403E-1,-4.8569435E-1,-1.5799288E-1,7.767353E-2,3.6877573E-1,-5.4613245E-1,1.4329997E-1,-2.4620219E-1,-1.1998912E-1,3.292527E-2,1.4976339E-1,5.3488135E-1,2.672759E-1,-5.682075E-1,-9.166521E-3,-5.8412552E-5,8.985454E-3,-8.256451E-2,-2.6722002E-1,-1.2976894E-1,2.4289813E-2,6.9805533E-3,1.1892212E-1,5.1977657E-2,1.6763411E-1,1.0328305E-2,2.8906232E-2,2.9607645E-1,6.432676E-2,-1.9532682E-2,-6.282072E-1,-5.4536345E-3,-1.9698778E-2,-9.604216E-4,-2.739495E-1,-1.3604569E-2,-1.16521575E-1,-1.7361641E-3,5.9569836E-2,-4.805913E-2,3.299075E-2,-5.0621033E-2,1.3888516E-1,-6.60789E-3,7.699909E-2,2.0109782E-1,1.2050534E-1,3.3037883E-1,1.9743724E-1,-3.222561E-3,1.02972604E-1,-8.041275E-3,-3.1957783E-2,-6.0784816E-5,-1.4166236E-3,-1.4000197E-2,-1.8538475E-3,-7.606937E-3,-4.2243856E-3,7.960479E-4,-9.407282E-4,3.6042333E-3,8.635044E-4,-2.5769102E-4,-4.7033313E-3,-2.1600367E-3,3.3646654E-3,-7.2410344E-3,-1.4084816E-4,1.466357E-2,5.380682E-3,-9.374142E-4,4.433963E-3,1.0490824E-2,4.092403E-3,4.8463945E-3,7.95924E-3,7.308364E-3,1.7535111E-2,2.8575659E-3,1.0287535E-2,1.3568163E-3,5.75738E-3],"categories":[],"categories_nodes":[],"categories_segments":[],"categories_sizes":[],"default_left":[0,0,0,0,0,0,0,0,0,0,0,0,0,0,0,0,0,0,0,0,0,0,0,0,0,0,0,0,0,0,0,0,0,0,0,0,0,0,0,0,0,0,0,0,0,0,0,0,0,0,0,0,0,0,0,0,0,0,0,0,0,0,0,0,0,0,0,0,0,0,0,0,0,0,0,0,0,0,0,0,0,0,0,0,0],"id":17,"left_children":[1,3,5,7,9,11,13,15,17,19,21,23,25,27,29,31,-1,-1,-1,33,35,37,39,41,43,45,47,-1,-1,49,51,-1,53,-1,55,-1,57,-1,59,61,63,65,67,69,71,-1,73,75,77,79,81,-1,83,-1,-1,-1,-1,-1,-1,-1,-1,-1,-1,-1,-1,-1,-1,-1,-1,-1,-1,-1,-1,-1,-1,-1,-1,-1,-1,-1,-1,-1,-1,-1,-1],"loss_changes":[1.6734028E1,3.7503414E0,4.198555E0,1.9029913E0,4.2636943E-1,1.1176805E0,8.3490086E-1,2.482214E-1,2.6509754E-2,1.1550927E-1,1.4002109E-1,4.8110124E-1,2.2370481E-1,1.7872524E-1,2.0306611E-1,1.913681E-1,0E0,0E0,0E0,7.850137E-3,5.31528E-2,1.3986683E-1,6.5308027E-3,2.4066152E-1,1.7626035E-1,1.1153737E-1,1.5240192E-1,0E0,0E0,4.6428442E-2,3.649711E-2,0E0,4.5603752E-2,0E0,4.4428813E-4,0E0,3.8378477E-2,0E0,8.412731E-2,1.8073227E-3,3.432138E-4,1.0610934E-1,3.008533E-1,2.661081E-2,1.8569511E-1,0E0,2.4029486E-2,4.9367666E-2,2.9256761E-2,3.4846067E-2,1.0699332E-3,0E0,1.4918484E-3,0E0,0E0,0E0,0E0,0E0,0E0,0E0,0E0,0E0,0E0,0E0,0E0,0E0,0E0,0E0,0E0,0E0,0E0,0E0,0E0,0E0,0E0,0E0,0E0,0E0,0E0,0E0,0E0,0E0,0E0,0E0,0E0],"parents":[2147483647,0,0,1,1,2,2,3,3,4,4,5,5,6,6,7,7,8,8,9,9,10,10,11,11,12,12,13,13,14,14,15,15,19,19,20,20,21,21,22,22,23,23,24,24,25,25,26,26,29,29,30,30,32,32,34,34,36,36,38,38,39,39,40,40,41,41,42,42,43,43,44,44,46,46,47,47,48,48,49,49,50,50,52,52],"right_children":[2,4,6,8,10,12,14,16,18,20,22,24,26,28,30,32,-1,-1,-1,34,36,38,40,42,44,46,48,-1,-1,50,52,-1,54,-1,56,-1,58,-1,60,62,64,66,68,70,72,-1,74,76,78,80,82,-1,84,-1,-1,-1,-1,-1,-1,-1,-1,-1,-1,-1,-1,-1,-1,-1,-1,-1,-1,-1,-1,-1,-1,-1,-1,-1,-1,-1,-1,-1,-1,-1,-1],"split_conditions":[-7.0726745E-2,-8.6599976E-1,1.0984266E0,6.28287E-1,-4.777279E-1,3.5940647E-1,-1.40027E0,-1.1882443E0,-1.2801974E0,-7.03797E-1,1.0649651E0,2.6736093E-1,-2.3489954E-1,-1.2523148E0,5.443502E-1,-1.2615101E0,-9.166521E-3,-5.8412552E-5,8.985454E-3,-1.972685E-1,-8.9847076E-1,-9.1250175E-1,-1.0953875E0,-1.8506695E-1,-1.0113614E0,-7.631426E-1,6.45982E-1,1.0328305E-2,2.8906232E-2,1.6531489E0,-1.271002E0,-1.9532682E-2,-7.168948E-1,-5.4536345E-3,-1.2457892E0,-9.604216E-4,-1.4917561E-1,-1.3604569E-2,-3.0288616E-1,-2.73709E-1,-1.1757863E0,-1.0898854E-1,-9.9355525E-1,-1.2279918E0,-1.1858636E0,-6.60789E-3,7.933229E-2,3.220857E-1,3.6015862E-1,1.5595031E-1,-7.427173E-1,-3.222561E-3,-7.5013286E-1,-8.041275E-3,-3.1957783E-2,-6.0784816E-5,-1.4166236E-3,-1.4000197E-2,-1.8538475E-3,-7.606937E-3,-4.2243856E-3,7.960479E-4,-9.407282E-4,3.6042333E-3,8.635044E-4,-2.5769102E-4,-4.7033313E-3,-2.1600367E-3,3.3646654E-3,-7.2410344E-3,-1.4084816E-4,1.466357E-2,5.380682E-3,-9.374142E-4,4.433963E-3,1.0490824E-2,4.092403E-3,4.8463945E-3,7.95924E-3,7.308364E-3,1.7535111E-2,2.8575659E-3,1.0287535E-2,1.3568163E-3,5.75738E-3],"split_indices":[19,19,15,15,19,19,21,0,0,10,3,15,0,0,24,0,0,0,0,23,13,16,9,0,16,16,9,0,0,13,0,0,13,0,0,0,0,0,19,19,0,22,15,0,21,0,15,22,15,3,0,0,0,0,0,0,0,0,0,0,0,0,0,0,0,0,0,0,0,0,0,0,0,0,0,0,0,0,0,0,0,0,0,0,0],"split_type":[0,0,0,0,0,0,0,0,0,0,0,0,0,0,0,0,0,0,0,0,0,0,0,0,0,0,0,0,0,0,0,0,0,0,0,0,0,0,0,0,0,0,0,0,0,0,0,0,0,0,0,0,0,0,0,0,0,0,0,0,0,0,0,0,0,0,0,0,0,0,0,0,0,0,0,0,0,0,0,0,0,0,0,0,0],"sum_hessian":[5.86E2,1.82E2,4.04E2,4.7E1,1.35E2,3.47E2,5.7E1,4.3E1,4E0,3.9E1,9.6E1,2.15E2,1.32E2,2E1,3.7E1,4E1,3E0,1E0,3E0,5E0,3.4E1,9E1,6E0,1.66E2,4.9E1,2.1E1,1.11E2,3E0,1.7E1,3.2E1,5E0,1.2E1,2.8E1,3E0,2E0,1E0,3.3E1,6E0,8.4E1,4E0,2E0,5.3E1,1.13E2,5E0,4.4E1,2E0,1.9E1,6.3E1,4.8E1,2.2E1,1E1,1E0,4E0,1E0,2.7E1,1E0,1E0,3.2E1,1E0,3.8E1,4.6E1,2E0,2E0,1E0,1E0,2.8E1,2.5E1,3.5E1,7.8E1,1E0,4E0,6E0,3.8E1,2E0,1.7E1,5.8E1,5E0,3.2E1,1.6E1,3E0,1.9E1,1E0,9E0,1E0,3E0],"tree_param":{"num_deleted":"0","num_feature":"25","num_nodes":"85","size_leaf_vector":"1"}},{"base_weights":[3.7173803E-3,-2.3901893E-1,1.1335017E-1,-5.392822E-1,-1.5100472E-1,6.838354E-2,3.1568757E-1,-5.8583623E-1,-2.228211E-1,1.6528755E-1,-1.7053823E-1,2.6486171E-2,1.439954E-1,2.405063E-1,4.8587397E-1,-3.3927213E-2,-2.211535E-2,-1.2591267E-2,-1.2198925E-3,1.0939837E-4,1.854015E-1,-3.5289487E-1,-1.3479136E-1,-1.5781779E-2,5.270889E-2,1.19414195E-1,1.1680535E-2,-6.8013347E-3,2.5760424E-1,1.0971709E-2,5.32892E-1,1.00123165E-2,2.0371915E-3,-3.626498E-1,-3.7010312E-3,-2.0652518E-1,-1.1305364E-1,-2.255009E-2,6.3457014E-3,-1.5925143E-2,6.9076255E-2,5.8423467E-2,1.4210457E-1,1.286595E-1,2.8524205E-1,2.7862841E-2,1.1265779E-2,-4.3329955E-3,-1.8605815E-2,-6.500512E-3,-1.1665451E-2,1.4779151E-3,-5.9096455E-3,-4.976358E-3,-6.4416416E-4,2.0364721E-4,-6.596619E-3,4.8118876E-4,4.277787E-3,-4.489136E-3,3.6638563E-3,5.4094456E-3,8.314455E-3,7.383633E-3,2.9234171E-3,1.0842793E-2,1.7481204E-2],"categories":[],"categories_nodes":[],"categories_segments":[],"categories_sizes":[],"default_left":[0,0,0,0,0,0,0,0,0,0,0,0,0,0,0,0,0,0,0,0,0,0,0,0,0,0,0,0,0,0,0,0,0,0,0,0,0,0,0,0,0,0,0,0,0,0,0,0,0,0,0,0,0,0,0,0,0,0,0,0,0,0,0,0,0,0,0],"id":18,"left_children":[1,3,5,7,9,11,13,15,17,19,21,23,25,27,29,-1,-1,-1,-1,-1,31,33,35,37,39,41,-1,-1,43,-1,45,-1,-1,47,-1,49,51,53,-1,55,57,59,61,63,65,-1,-1,-1,-1,-1,-1,-1,-1,-1,-1,-1,-1,-1,-1,-1,-1,-1,-1,-1,-1,-1,-1],"loss_changes":[1.5994207E1,4.8604965E0,3.745163E0,4.8822975E-1,9.3021965E-1,1.0732853E0,8.427563E-1,1.7890263E-1,3.414181E-2,2.9119536E-2,8.520107E-1,2.4467553E-1,2.3864865E-1,3.826897E-1,1.5867043E-1,0E0,0E0,0E0,0E0,0E0,9.020567E-3,3.3005238E-2,1.5909314E-1,8.495574E-2,1.5387678E-1,1.2593627E-1,0E0,0E0,1.4861631E-1,0E0,9.334087E-3,0E0,0E0,2.2618294E-2,0E0,2.2951007E-2,7.092214E-2,5.9735786E-2,0E0,6.3175276E-2,1.0694867E-1,6.821833E-2,3.942573E-2,6.0459077E-3,1.09101295E-1,0E0,0E0,0E0,0E0,0E0,0E0,0E0,0E0,0E0,0E0,0E0,0E0,0E0,0E0,0E0,0E0,0E0,0E0,0E0,0E0,0E0,0E0],"parents":[2147483647,0,0,1,1,2,2,3,3,4,4,5,5,6,6,7,7,8,8,9,9,10,10,11,11,12,12,13,13,14,14,20,20,21,21,22,22,23,23,24,24,25,25,28,28,30,30,33,33,35,35,36,36,37,37,39,39,40,40,41,41,42,42,43,43,44,44],"right_children":[2,4,6,8,10,12,14,16,18,20,22,24,26,28,30,-1,-1,-1,-1,-1,32,34,36,38,40,42,-1,-1,44,-1,46,-1,-1,48,-1,50,52,54,-1,56,58,60,62,64,66,-1,-1,-1,-1,-1,-1,-1,-1,-1,-1,-1,-1,-1,-1,-1,-1,-1,-1,-1,-1,-1,-1],"split_conditions":[-7.008613E-2,-9.853756E-1,8.914227E-1,-7.5712985E-1,-2.3927312E-1,3.718694E-1,1.8126707E0,-4.4717458E-1,1.2982829E0,-8.88204E-1,-6.302063E-1,1.3969831E-1,6.754401E-1,-1.2279918E0,-1.2523148E0,-3.3927213E-2,-2.211535E-2,-1.2591267E-2,-1.2198925E-3,1.0939837E-4,1.4172517E0,8.89952E-1,-4.6694222E-1,1.0227176E0,-5.44829E-1,-1.3553098E-1,1.1680535E-2,-6.8013347E-3,-7.04453E-1,1.0971709E-2,-2.0174742E-1,1.00123165E-2,2.0371915E-3,-1.2939364E0,-3.7010312E-3,-6.37768E-1,-7.597172E-1,-7.5013286E-1,6.3457014E-3,3.1608167E0,-3.120214E-1,-1.5908139E0,2.217173E-1,-3.1987124E-3,-7.084032E-1,2.7862841E-2,1.1265779E-2,-4.3329955E-3,-1.8605815E-2,-6.500512E-3,-1.1665451E-2,1.4779151E-3,-5.9096455E-3,-4.976358E-3,-6.4416416E-4,2.0364721E-4,-6.596619E-3,4.8118876E-4,4.277787E-3,-4.489136E-3,3.6638563E-3,5.4094456E-3,8.314455E-3,7.383633E-3,2.9234171E-3,1.0842793E-2,1.7481204E-2],"split_indices":[19,16,15,19,22,19,15,15,3,3,19,19,19,0,0,0,0,0,0,0,3,1,19,1,15,0,0,0,0,0,16,0,0,1,0,10,23,0,0,20,0,12,15,1,23,0,0,0,0,0,0,0,0,0,0,0,0,0,0,0,0,0,0,0,0,0,0],"split_type":[0,0,0,0,0,0,0,0,0,0,0,0,0,0,0,0,0,0,0,0,0,0,0,0,0,0,0,0,0,0,0,0,0,0,0,0,0,0,0,0,0,0,0,0,0,0,0,0,0,0,0,0,0,0,0,0,0,0,0,0,0,0,0,0,0,0,0],"sum_hessian":[5.99E2,1.86E2,4.13E2,4.1E1,1.45E2,3.39E2,7.4E1,3.5E1,6E0,8E0,1.37E2,2.19E2,1.2E2,5.3E1,2.1E1,1.9E1,1.6E1,5E0,1E0,1E0,7E0,2.1E1,1.16E2,8.4E1,1.35E2,9.6E1,2.4E1,2E0,5.1E1,4E0,1.7E1,6E0,1E0,2E1,1E0,2.5E1,9.1E1,8.1E1,3E0,2.6E1,1.09E2,2.7E1,6.9E1,1E1,4.1E1,1.5E1,2E0,1E0,1.9E1,8E0,1.7E1,3E0,8.8E1,8E0,7.3E1,2.3E1,3E0,2.4E1,8.5E1,2E0,2.5E1,3.1E1,3.8E1,7E0,3E0,2.2E1,1.9E1],"tree_param":{"num_deleted":"0","num_feature":"25","num_nodes":"67","size_leaf_vector":"1"}},{"base_weights":[7.21902E-3,-3.0250847E-1,9.173587E-2,-5.550268E-1,-1.9412997E-1,3.1528357E-2,2.6298645E-1,-6.12986E-1,-2.004362E-2,-2.2926848E-1,-1.453536E-1,-4.57757E-2,7.960123E-2,2.1435623E-1,5.4215866E-1,-3.1311765E-2,-7.3750974E-3,-2.3775119E-1,-1.7122269E-2,-1.5794024E-1,7.4111223E-3,-6.0713295E-2,5.1372156E-2,6.338246E-2,1.429672E-1,1.7963232E-1,2.967678E-1,3.5017729E-3,2.8364455E-2,-2.848281E-1,-2.0001076E-1,4.936099E-4,-1.7777801E-3,-1.6967309E-1,-4.8915386E-2,-1.6494155E-3,1.5936851E-3,-9.626007E-2,-2.2178063E-2,-4.373918E-2,1.0257276E-1,6.499755E-3,7.983318E-2,-4.136648E-2,1.6345933E-1,1.9037473E-1,2.4365505E-2,3.0833334E-1,4.687778E-3,-1.5185076E-2,-4.1468064E-3,-1.0920668E-2,-3.2157563E-3,-8.726711E-3,-3.529191E-4,4.6327114E-4,-3.2888472E-3,-5.0726486E-3,1.724585E-3,-1.6470132E-3,8.946713E-3,-6.0890377E-3,2.2618591E-3,-5.8760645E-4,6.3306475E-3,-4.307413E-3,1.8582884E-3,1.8578457E-3,5.5114203E-3,-6.889975E-3,8.5958245E-4,1.3670516E-2,6.4905994E-3,7.939203E-3,1.1886442E-2,-2.9719712E-3,2.650719E-3,8.009004E-3,1.6356738E-2],"categories":[],"categories_nodes":[],"categories_segments":[],"categories_sizes":[],"default_left":[0,0,0,0,0,0,0,0,0,0,0,0,0,0,0,0,0,0,0,0,0,0,0,0,0,0,0,0,0,0,0,0,0,0,0,0,0,0,0,0,0,0,0,0,0,0,0,0,0,0,0,0,0,0,0,0,0,0,0,0,0,0,0,0,0,0,0,0,0,0,0,0,0,0,0,0,0,0,0],"id":19,"left_children":[1,3,5,7,9,11,13,15,-1,17,19,21,23,25,27,-1,-1,29,31,33,35,37,39,41,43,45,47,-1,-1,49,51,-1,-1,53,55,-1,-1,57,59,61,63,65,67,69,71,73,75,77,-1,-1,-1,-1,-1,-1,-1,-1,-1,-1,-1,-1,-1,-1,-1,-1,-1,-1,-1,-1,-1,-1,-1,-1,-1,-1,-1,-1,-1,-1,-1],"loss_changes":[1.5262877E1,3.3131971E0,4.71395E0,8.4854126E-2,1.19214535E-1,1.2671614E0,1.4993544E0,6.1811447E-2,0E0,8.5908175E-2,7.8082204E-2,1.9322029E-1,2.067591E-1,2.4144125E-1,1.6196918E-1,0E0,0E0,2.8312922E-2,1.8438059E-3,3.9029777E-2,5.004557E-3,1.5402272E-1,9.214209E-2,1.5762472E-1,1.6541213E-1,1.20456696E-1,3.9182186E-2,0E0,0E0,4.720974E-2,6.086731E-2,0E0,0E0,2.4854302E-2,5.5145463E-3,0E0,0E0,4.3559074E-2,1.2710118E-1,5.4116003E-2,3.446868E-2,1.1400644E-1,1.6583163E-1,3.0603684E-2,1.05091214E-1,6.696892E-2,1.7556641E-2,2.2808075E-2,0E0,0E0,0E0,0E0,0E0,0E0,0E0,0E0,0E0,0E0,0E0,0E0,0E0,0E0,0E0,0E0,0E0,0E0,0E0,0E0,0E0,0E0,0E0,0E0,0E0,0E0,0E0,0E0,0E0,0E0,0E0],"parents":[2147483647,0,0,1,1,2,2,3,3,4,4,5,5,6,6,7,7,9,9,10,10,11,11,12,12,13,13,14,14,17,17,18,18,19,19,20,20,21,21,22,22,23,23,24,24,25,25,26,26,29,29,30,30,33,33,34,34,37,37,38,38,39,39,40,40,41,41,42,42,43,43,44,44,45,45,46,46,47,47],"right_children":[2,4,6,8,10,12,14,16,-1,18,20,22,24,26,28,-1,-1,30,32,34,36,38,40,42,44,46,48,-1,-1,50,52,-1,-1,54,56,-1,-1,58,60,62,64,66,68,70,72,74,76,78,-1,-1,-1,-1,-1,-1,-1,-1,-1,-1,-1,-1,-1,-1,-1,-1,-1,-1,-1,-1,-1,-1,-1,-1,-1,-1,-1,-1,-1,-1,-1],"split_conditions":[-5.825879E-1,-1.7440268E0,7.0392895E-1,-4.4717458E-1,-8.1487566E-1,4.280224E-2,1.7045532E0,1.7922537E0,-2.004362E-2,1.2016027E0,1.1554974E0,7.53929E-1,5.425607E-1,1.0199187E0,-6.991138E-1,-3.1311765E-2,-7.3750974E-3,-1.211381E0,-1.2457892E0,3.8464782E-1,-1.2885028E0,-3.911523E-2,7.759625E-1,-1.7053245E-1,-1.2208729E0,3.311513E-2,6.638662E-1,3.5017729E-3,2.8364455E-2,9.0849125E-1,-8.9814216E-1,4.936099E-4,-1.7777801E-3,3.1656818E0,-1.6510546E0,-1.6494155E-3,1.5936851E-3,1.950628E0,8.0161655E-1,-4.7376552E-1,-1.1227642E0,5.3496367E-1,-3.2645547E-1,-8.693703E-1,-8.199895E-1,1.0612948E0,-1.271002E0,-3.545956E-1,4.687778E-3,-1.5185076E-2,-4.1468064E-3,-1.0920668E-2,-3.2157563E-3,-8.726711E-3,-3.529191E-4,4.6327114E-4,-3.2888472E-3,-5.0726486E-3,1.724585E-3,-1.6470132E-3,8.946713E-3,-6.0890377E-3,2.2618591E-3,-5.8760645E-4,6.3306475E-3,-4.307413E-3,1.8582884E-3,1.8578457E-3,5.5114203E-3,-6.889975E-3,8.5958245E-4,1.3670516E-2,6.4905994E-3,7.939203E-3,1.1886442E-2,-2.9719712E-3,2.650719E-3,8.009004E-3,1.6356738E-2],"split_indices":[18,18,18,15,18,18,18,6,0,6,2,5,15,3,0,0,0,0,0,3,0,19,9,0,0,23,12,0,0,5,15,0,0,24,1,0,0,12,3,23,6,1,15,1,10,18,0,7,0,0,0,0,0,0,0,0,0,0,0,0,0,0,0,0,0,0,0,0,0,0,0,0,0,0,0,0,0,0,0],"split_type":[0,0,0,0,0,0,0,0,0,0,0,0,0,0,0,0,0,0,0,0,0,0,0,0,0,0,0,0,0,0,0,0,0,0,0,0,0,0,0,0,0,0,0,0,0,0,0,0,0,0,0,0,0,0,0,0,0,0,0,0,0,0,0,0,0,0,0,0,0,0,0,0,0,0,0,0,0,0,0],"sum_hessian":[5.81E2,1.24E2,4.57E2,3.6E1,8.8E1,3.39E2,1.18E2,2.4E1,1.2E1,4.9E1,3.9E1,1.3E2,2.09E2,1.02E2,1.6E1,2.3E1,1E0,4.7E1,2E0,3.6E1,3E0,1.13E2,1.7E1,1.68E2,4.1E1,7.4E1,2.8E1,1E0,1.5E1,1.8E1,2.9E1,1E0,1E0,3.2E1,4E0,1E0,2E0,5.8E1,5.5E1,6E0,1.1E1,3.8E1,1.3E2,4E0,3.7E1,6.9E1,5E0,2.6E1,2E0,1.6E1,2E0,2.5E1,4E0,3.1E1,1E0,1E0,3E0,5.6E1,2E0,5.3E1,2E0,3E0,3E0,2E0,9E0,9E0,2.9E1,5.5E1,7.5E1,1E0,3E0,7E0,3E1,4.4E1,2.5E1,1E0,4E0,4E0,2.2E1],"tree_param":{"num_deleted":"0","num_feature":"25","num_nodes":"79","size_leaf_vector":"1"}},{"base_weights":[-3.5284697E-3,-2.188171E-1,1.0984764E-1,-4.5845068E-1,-1.3805428E-1,7.221363E-2,3.229462E-1,-5.458015E-1,-3.2458216E-1,-1.9136837E-1,-8.434735E-2,3.369134E-2,1.3253348E-1,2.4414507E-1,5.032698E-1,-1.0406987E-2,-5.6248665E-1,-3.4098914E-1,9.092808E-4,-2.0824872E-1,-1.18547834E-1,-1.0251712E-1,2.7157784E-2,5.008273E-4,7.769111E-2,1.1359679E-1,2.5283855E-1,2.5271773E-1,-2.897668E-3,1.3382307E-2,2.7759064E-2,-7.092309E-3,-5.728124E-1,-9.485627E-3,-1.820333E-2,-9.8220296E-2,-2.2273032E-1,-3.637619E-2,-1.4103325E-1,2.0436192E-2,-1.1039788E-1,-8.273721E-2,7.298247E-2,-3.2131013E-2,1.620627E-2,1.23086706E-1,6.444875E-2,1.4478204E-1,5.3779952E-2,9.642903E-2,1.3363227E-2,6.371832E-3,2.6255164E-1,-2.9130144E-2,-7.956517E-3,-5.4388675E-3,-3.440976E-4,-1.1540745E-2,-3.1984688E-3,-2.9759407E-3,-5.540848E-5,-7.99885E-3,-2.9207766E-3,2.3615202E-3,-6.5850414E-4,-6.1835046E-3,-2.6607786E-3,-5.161572E-3,-5.313635E-4,4.5878678E-3,-1.9304156E-3,-2.011843E-3,3.9275726E-3,1.113373E-3,-4.018865E-3,1.8822253E-3,6.837717E-3,5.8291336E-3,2.537676E-3,7.4354247E-3,4.8883754E-5,4.998039E-3,2.5190852E-4,1.3564706E-3,5.8757067E-3,1.3595936E-2,5.7475865E-3],"categories":[],"categories_nodes":[],"categories_segments":[],"categories_sizes":[],"default_left":[0,0,0,0,0,0,0,0,0,0,0,0,0,0,0,0,0,0,0,0,0,0,0,0,0,0,0,0,0,0,0,0,0,0,0,0,0,0,0,0,0,0,0,0,0,0,0,0,0,0,0,0,0,0,0,0,0,0,0,0,0,0,0,0,0,0,0,0,0,0,0,0,0,0,0,0,0,0,0,0,0,0,0,0,0,0,0],"id":20,"left_children":[1,3,5,7,9,11,13,15,17,19,21,23,25,27,29,-1,31,33,-1,35,37,39,41,43,45,47,49,51,-1,-1,-1,-1,53,-1,-1,55,57,59,61,63,65,67,69,71,73,75,77,79,81,83,-1,-1,85,-1,-1,-1,-1,-1,-1,-1,-1,-1,-1,-1,-1,-1,-1,-1,-1,-1,-1,-1,-1,-1,-1,-1,-1,-1,-1,-1,-1,-1,-1,-1,-1,-1,-1],"loss_changes":[1.4718007E1,3.9622326E0,3.1444817E0,4.309063E-1,4.334023E-1,7.786077E-1,7.155013E-1,5.194187E-2,1.3554788E-1,7.119298E-2,1.6486597E-1,3.0225873E-1,2.6972008E-1,1.260066E-1,5.934477E-2,0E0,4.0364265E-2,7.735729E-3,0E0,7.6913595E-2,2.628003E-2,6.9114745E-2,6.646921E-2,6.1507925E-2,4.556912E-2,2.067349E-1,1.2586117E-2,1.8285275E-2,0E0,0E0,0E0,0E0,1.6643524E-2,0E0,0E0,7.929765E-3,5.4544687E-2,4.015015E-3,1.1001021E-2,5.124296E-3,4.2749584E-2,4.814282E-3,2.2398528E-2,3.8150497E-2,4.9208112E-2,1.7039984E-2,4.4776022E-2,4.220271E-2,9.178475E-2,1.1954792E-3,0E0,0E0,2.1280289E-2,0E0,0E0,0E0,0E0,0E0,0E0,0E0,0E0,0E0,0E0,0E0,0E0,0E0,0E0,0E0,0E0,0E0,0E0,0E0,0E0,0E0,0E0,0E0,0E0,0E0,0E0,0E0,0E0,0E0,0E0,0E0,0E0,0E0,0E0],"parents":[2147483647,0,0,1,1,2,2,3,3,4,4,5,5,6,6,7,7,8,8,9,9,10,10,11,11,12,12,13,13,14,14,16,16,17,17,19,19,20,20,21,21,22,22,23,23,24,24,25,25,26,26,27,27,32,32,35,35,36,36,37,37,38,38,39,39,40,40,41,41,42,42,43,43,44,44,45,45,46,46,47,47,48,48,49,49,52,52],"right_children":[2,4,6,8,10,12,14,16,18,20,22,24,26,28,30,-1,32,34,-1,36,38,40,42,44,46,48,50,52,-1,-1,-1,-1,54,-1,-1,56,58,60,62,64,66,68,70,72,74,76,78,80,82,84,-1,-1,86,-1,-1,-1,-1,-1,-1,-1,-1,-1,-1,-1,-1,-1,-1,-1,-1,-1,-1,-1,-1,-1,-1,-1,-1,-1,-1,-1,-1,-1,-1,-1,-1,-1,-1],"split_conditions":[-1.8948554E-1,-1.4045292E0,1.0612948E0,-2.2086022E0,-6.183245E-1,2.6736093E-1,3.5584595E0,-2.1188788E-1,4.8455438E-1,2.0794675E-1,7.53929E-1,3.2869488E-1,1.6692134E0,1.1832998E0,1.4007922E0,-1.0406987E-2,-8.4770375E-1,-2.0722003E-1,9.092808E-4,-1.3253884E0,2.9383975E-1,-7.328519E-1,6.144386E-1,5.748974E-2,-5.687235E-1,5.2850492E-2,-3.545956E-1,-5.7223207E-1,-2.897668E-3,1.3382307E-2,2.7759064E-2,-7.092309E-3,8.004949E-1,-9.485627E-3,-1.820333E-2,3.575265E0,9.2843795E-1,-7.120088E-1,5.562629E-1,5.522023E-1,2.2950633E-1,2.6517248E-1,1.2384852E0,1.123285E0,1.297983E0,-1.303166E0,-1.1143948E0,1.0434265E0,-1.871288E-1,4.0016803E-1,1.3363227E-2,6.371832E-3,2.0030041E-1,-2.9130144E-2,-7.956517E-3,-5.4388675E-3,-3.440976E-4,-1.1540745E-2,-3.1984688E-3,-2.9759407E-3,-5.540848E-5,-7.99885E-3,-2.9207766E-3,2.3615202E-3,-6.5850414E-4,-6.1835046E-3,-2.6607786E-3,-5.161572E-3,-5.313635E-4,4.5878678E-3,-1.9304156E-3,-2.011843E-3,3.9275726E-3,1.113373E-3,-4.018865E-3,1.8822253E-3,6.837717E-3,5.8291336E-3,2.537676E-3,7.4354247E-3,4.8883754E-5,4.998039E-3,2.5190852E-4,1.3564706E-3,5.8757067E-3,1.3595936E-2,5.7475865E-3],"split_indices":[18,18,18,18,18,15,14,22,5,17,5,18,14,24,18,0,7,22,0,9,11,10,2,19,10,24,7,7,0,0,0,0,1,0,0,24,13,5,1,6,17,1,2,2,24,1,21,18,22,18,0,0,24,0,0,0,0,0,0,0,0,0,0,0,0,0,0,0,0,0,0,0,0,0,0,0,0,0,0,0,0,0,0,0,0,0,0],"split_type":[0,0,0,0,0,0,0,0,0,0,0,0,0,0,0,0,0,0,0,0,0,0,0,0,0,0,0,0,0,0,0,0,0,0,0,0,0,0,0,0,0,0,0,0,0,0,0,0,0,0,0,0,0,0,0,0,0,0,0,0,0,0,0,0,0,0,0,0,0,0,0,0,0,0,0,0,0,0,0,0,0,0,0,0,0,0,0],"sum_hessian":[6.01E2,2.07E2,3.94E2,5.1E1,1.56E2,3.36E2,5.8E1,2.9E1,2.2E1,7.7E1,7.9E1,2.06E2,1.3E2,4.2E1,1.6E1,2E0,2.7E1,2.1E1,1E0,6.1E1,1.6E1,6.8E1,1.1E1,1.18E2,8.8E1,1.14E2,1.6E1,4.1E1,1E0,4E0,1.2E1,1E0,2.6E1,4E0,1.7E1,8E0,5.3E1,4E0,1.2E1,4E0,6.4E1,3E0,8E0,3.8E1,8E1,1.8E1,7E1,7.4E1,4E1,2E0,1.4E1,4E0,3.7E1,2.5E1,1E0,7E0,1E0,5E1,3E0,2E0,2E0,9E0,3E0,2E0,2E0,5.1E1,1.3E1,2E0,1E0,7E0,1E0,3.6E1,2E0,7.6E1,4E0,3E0,1.5E1,1.3E1,5.7E1,7.2E1,2E0,2E1,2E1,1E0,1E0,3.4E1,3E0],"tree_param":{"num_deleted":"0","num_feature":"25","num_nodes":"87","size_leaf_vector":"1"}},{"base_weights":[2.5945962E-3,-2.3329963E-1,9.381549E-2,-5.054614E-1,-1.6354376E-1,4.4956338E-2,2.646109E-1,-5.5371684E-1,-1.6713832E-2,-2.4566722E-1,-1.17414884E-1,1.2916774E-2,1.1122826E-1,1.9525191E-1,4.4650462E-1,-6.914997E-3,-5.6526333E-1,-2.57539E-1,9.128015E-4,-1.5824546E-1,-6.34413E-2,-4.959547E-2,3.822225E-2,7.0558384E-2,1.4462169E-1,-2.8252245E-3,1.9959362E-1,3.008003E-1,2.593849E-2,-2.8817428E-2,-7.757604E-3,-3.1043816E-1,-1.9611321E-1,-1.1585078E-2,-1.2895139E-1,-1.0957322E-1,5.417964E-3,-7.793714E-2,-9.770623E-3,-2.616158E-2,6.332996E-2,-8.129444E-2,8.490642E-2,1.2202766E-1,2.3417439E-1,1.3943334E-1,2.2375877E-1,3.2705308E-3,1.5889911E-2,-6.933427E-3,-1.6463509E-2,-2.7999927E-3,-1.1066794E-2,-8.558399E-3,-3.6267375E-3,-5.7506096E-3,3.8807394E-4,-2.5430124E-3,1.6552786E-3,-8.626461E-3,-2.775521E-3,-3.3711535E-3,2.0642967E-3,1.2914737E-4,-3.6307853E-3,1.0267679E-3,3.975618E-3,-5.173612E-3,1.8541813E-4,-4.4084312E-3,4.717407E-3,3.7664871E-3,6.8199546E-3,1.6381145E-3,1.2551968E-2,8.349295E-3,2.6300463E-3,9.49943E-3,1.3354035E-2],"categories":[],"categories_nodes":[],"categories_segments":[],"categories_sizes":[],"default_left":[0,0,0,0,0,0,0,0,0,0,0,0,0,0,0,0,0,0,0,0,0,0,0,0,0,0,0,0,0,0,0,0,0,0,0,0,0,0,0,0,0,0,0,0,0,0,0,0,0,0,0,0,0,0,0,0,0,0,0,0,0,0,0,0,0,0,0,0,0,0,0,0,0,0,0,0,0,0,0],"id":21,"left_children":[1,3,5,7,9,11,13,15,-1,17,19,21,23,25,27,-1,29,31,-1,33,35,37,39,41,43,-1,45,47,-1,-1,-1,49,51,-1,53,55,57,59,61,63,65,67,69,71,73,75,77,-1,-1,-1,-1,-1,-1,-1,-1,-1,-1,-1,-1,-1,-1,-1,-1,-1,-1,-1,-1,-1,-1,-1,-1,-1,-1,-1,-1,-1,-1,-1,-1],"loss_changes":[1.3040569E1,3.1257782E0,3.6348336E0,9.576702E-2,4.8635888E-1,7.226166E-1,1.1365676E0,4.1738987E-2,0E0,1.5509725E-1,1.8609643E-1,3.6731502E-1,1.405456E-1,8.997798E-2,1.1771679E-1,0E0,1.9686699E-2,8.8590145E-2,0E0,7.771313E-2,1.2765807E-1,7.486157E-2,2.6838437E-1,1.2019947E-1,9.282541E-2,0E0,7.201886E-2,2.322501E-2,0E0,0E0,0E0,2.8740168E-2,7.242203E-2,0E0,7.8089595E-2,1.6208977E-2,2.817331E-2,7.315703E-2,8.814615E-2,6.2946744E-2,8.077705E-2,9.809587E-3,8.675656E-2,2.3280919E-2,2.9140353E-2,4.6242863E-2,2.0944118E-2,0E0,0E0,0E0,0E0,0E0,0E0,0E0,0E0,0E0,0E0,0E0,0E0,0E0,0E0,0E0,0E0,0E0,0E0,0E0,0E0,0E0,0E0,0E0,0E0,0E0,0E0,0E0,0E0,0E0,0E0,0E0,0E0],"parents":[2147483647,0,0,1,1,2,2,3,3,4,4,5,5,6,6,7,7,9,9,10,10,11,11,12,12,13,13,14,14,16,16,17,17,19,19,20,20,21,21,22,22,23,23,24,24,26,26,27,27,31,31,32,32,34,34,35,35,36,36,37,37,38,38,39,39,40,40,41,41,42,42,43,43,44,44,45,45,46,46],"right_children":[2,4,6,8,10,12,14,16,-1,18,20,22,24,26,28,-1,30,32,-1,34,36,38,40,42,44,-1,46,48,-1,-1,-1,50,52,-1,54,56,58,60,62,64,66,68,70,72,74,76,78,-1,-1,-1,-1,-1,-1,-1,-1,-1,-1,-1,-1,-1,-1,-1,-1,-1,-1,-1,-1,-1,-1,-1,-1,-1,-1,-1,-1,-1,-1,-1,-1],"split_conditions":[-3.1456357E-1,-1.940578E0,8.111387E-1,-3.2645547E-1,-8.8634884E-1,2.6736093E-1,1.4543972E0,-8.4770375E-1,-1.6713832E-2,2.0037029E0,5.8963186E-1,-1.8239735E-1,-2.8740174E-1,-1.271002E0,-3.984471E-1,-6.914997E-3,8.019149E-1,-1.2007025E0,9.128015E-4,-1.1882443E0,5.477844E-1,-1.8968387E-1,-9.0276337E-1,-7.509531E-1,8.914227E-1,-2.8252245E-3,-4.2437613E-1,-6.991138E-1,2.593849E-2,-2.8817428E-2,-7.757604E-3,-6.608956E-1,-7.376747E-1,-1.1585078E-2,-4.899503E-1,-3.5030013E-1,-7.161714E-1,-6.9506735E-1,-1.7703089E-1,-5.5896544E-1,-9.6536714E-1,-6.608495E-1,-1.5908139E0,3.6015862E-1,-1.004634E0,-4.3683052E-1,5.268598E-1,3.2705308E-3,1.5889911E-2,-6.933427E-3,-1.6463509E-2,-2.7999927E-3,-1.1066794E-2,-8.558399E-3,-3.6267375E-3,-5.7506096E-3,3.8807394E-4,-2.5430124E-3,1.6552786E-3,-8.626461E-3,-2.775521E-3,-3.3711535E-3,2.0642967E-3,1.2914737E-4,-3.6307853E-3,1.0267679E-3,3.975618E-3,-5.173612E-3,1.8541813E-4,-4.4084312E-3,4.717407E-3,3.7664871E-3,6.8199546E-3,1.6381145E-3,1.2551968E-2,8.349295E-3,2.6300463E-3,9.49943E-3,1.3354035E-2],"split_indices":[18,18,18,15,18,15,18,7,0,17,1,0,0,0,5,0,1,0,0,0,5,6,15,17,15,0,7,0,0,0,0,23,0,0,15,18,16,15,16,17,13,0,12,15,23,7,17,0,0,0,0,0,0,0,0,0,0,0,0,0,0,0,0,0,0,0,0,0,0,0,0,0,0,0,0,0,0,0,0],"split_type":[0,0,0,0,0,0,0,0,0,0,0,0,0,0,0,0,0,0,0,0,0,0,0,0,0,0,0,0,0,0,0,0,0,0,0,0,0,0,0,0,0,0,0,0,0,0,0,0,0,0,0,0,0,0,0,0,0,0,0,0,0,0,0,0,0,0,0,0,0,0,0,0,0,0,0,0,0,0,0],"sum_hessian":[6.04E2,1.68E2,4.36E2,3.3E1,1.35E2,3.4E2,9.6E1,2.4E1,9E0,4.7E1,8.8E1,2.3E2,1.1E2,7.1E1,2.5E1,1E0,2.3E1,4.5E1,2E0,4.9E1,3.9E1,6.6E1,1.64E2,5.1E1,5.9E1,1E0,7E1,1E1,1.5E1,2.2E1,1E0,2.2E1,2.3E1,1.2E1,3.7E1,2.3E1,1.6E1,3.8E1,2.8E1,4.6E1,1.18E2,4E0,4.7E1,4.9E1,1E1,2.2E1,4.8E1,1E0,9E0,3E0,1.9E1,4E0,1.9E1,2E1,1.7E1,2.2E1,1E0,5E0,1.1E1,6E0,3.2E1,1.3E1,1.5E1,2.9E1,1.7E1,3.3E1,8.5E1,3E0,1E0,2E0,4.5E1,1.3E1,3.6E1,1E0,9E0,1.6E1,6E0,3E1,1.8E1],"tree_param":{"num_deleted":"0","num_feature":"25","num_nodes":"79","size_leaf_vector":"1"}},{"base_weights":[1.8842212E-3,-2.64557E-1,7.734277E-2,-4.7040826E-1,-1.837654E-1,2.3525076E-2,2.1483359E-1,-3.0010795E-2,-3.8928425E-1,-2.062338E-1,-7.6193124E-2,-4.006928E-2,5.711874E-2,1.6549541E-1,3.9509276E-1,-9.552467E-3,-4.0763223E-1,-2.1235763E-1,8.8237925E-4,-1.03812896E-1,1.6380882E-2,-5.8075543E-2,6.714776E-2,4.0021583E-2,1.215785E-1,1.7663787E-1,6.627866E-2,2.7382845E-1,2.4406811E-2,-2.0811029E-2,-5.681932E-3,-2.6995862E-1,-1.7107278E-1,-7.220633E-3,-5.53115E-2,-1.7641386E-3,1.4532804E-3,-6.3948825E-2,7.5592916E-3,2.7819276E-2,6.730672E-3,-8.783409E-2,4.6752974E-2,-3.5748243E-2,1.4213805E-1,1.6455525E-1,1.2962989E-2,9.149313E-2,-3.9862473E-2,3.1887651E-3,1.4254029E-2,-9.768929E-3,-1.615025E-2,-1.2952647E-2,-7.4599967E-3,-3.5694838E-3,-1.0692955E-3,-2.8306246E-4,1.5075206E-4,-6.6571715E-3,-2.2693384E-3,-2.0256853E-3,3.352499E-3,3.7632784E-4,-5.8077606E-3,1.8440593E-4,3.095067E-3,-6.7742704E-3,5.648136E-4,5.5461223E-3,1.0286546E-2,6.131794E-3,9.025477E-3,4.999799E-3,3.7418606E-4,-2.754593E-3,-2.3509264E-4],"categories":[],"categories_nodes":[],"categories_segments":[],"categories_sizes":[],"default_left":[0,0,0,0,0,0,0,0,0,0,0,0,0,0,0,0,0,0,0,0,0,0,0,0,0,0,0,0,0,0,0,0,0,0,0,0,0,0,0,0,0,0,0,0,0,0,0,0,0,0,0,0,0,0,0,0,0,0,0,0,0,0,0,0,0,0,0,0,0,0,0,0,0,0,0,0,0],"id":22,"left_children":[1,3,5,7,9,11,13,-1,15,17,19,21,23,25,27,-1,29,31,-1,33,35,37,39,41,43,45,47,49,-1,-1,-1,51,53,-1,55,57,-1,59,-1,61,-1,63,65,67,69,71,-1,73,75,-1,-1,-1,-1,-1,-1,-1,-1,-1,-1,-1,-1,-1,-1,-1,-1,-1,-1,-1,-1,-1,-1,-1,-1,-1,-1,-1,-1],"loss_changes":[1.184236E1,2.075593E0,3.3912885E0,1.4544344E-1,2.1389914E-1,7.0942634E-1,1.0818958E0,0E0,1.3052702E-2,1.1068654E-1,4.7724277E-2,2.2591618E-1,2.3428524E-1,1.0216117E-1,1.709714E-1,0E0,8.249283E-3,1.345489E-1,0E0,1.9580364E-2,1.2020988E-3,1.3134429E-1,4.1361645E-2,1.5299836E-1,1.5063667E-1,4.918027E-2,3.5762656E-2,1.4908552E-2,0E0,0E0,0E0,5.5577755E-2,5.1795006E-2,0E0,2.8369594E-3,